<?xml version="1.0"?>
<MethodSetup Method="BDT::BDTG_v2">
  <GeneralInfo>
    <Info name="TMVA Release" value="4.2.1 [262657]"/>
    <Info name="ROOT Release" value="6.10/09 [395785]"/>
    <Info name="Creator" value="arapyan"/>
    <Info name="Date" value="Wed Dec  4 20:35:06 2019"/>
    <Info name="Host" value="Linux cmsbuild76.cern.ch 2.6.32-696.30.1.el6.x86_64 #1 SMP Tue May 22 06:09:36 CEST 2018 x86_64 x86_64 x86_64 GNU/Linux"/>
    <Info name="Dir" value="/afs/cern.ch/work/a/arapyan/Run2/test/CMSSW_9_4_12/src/MitAnalysisRunII/panda/macros/9x"/>
    <Info name="Training events" value="49635"/>
    <Info name="TrainingTime" value="6.89003661e+01"/>
    <Info name="AnalysisType" value="Classification"/>
  </GeneralInfo>
  <Options>
    <Option name="V" modified="Yes">False</Option>
    <Option name="VerbosityLevel" modified="No">Default</Option>
    <Option name="VarTransform" modified="No">None</Option>
    <Option name="H" modified="Yes">False</Option>
    <Option name="CreateMVAPdfs" modified="No">False</Option>
    <Option name="IgnoreNegWeightsInTraining" modified="No">False</Option>
    <Option name="NTrees" modified="Yes">800</Option>
    <Option name="MaxDepth" modified="Yes">2</Option>
    <Option name="MinNodeSize" modified="Yes">5%</Option>
    <Option name="nCuts" modified="Yes">10000</Option>
    <Option name="BoostType" modified="Yes">Grad</Option>
    <Option name="AdaBoostR2Loss" modified="No">quadratic</Option>
    <Option name="UseBaggedBoost" modified="Yes">True</Option>
    <Option name="Shrinkage" modified="Yes">1.000000e-01</Option>
    <Option name="AdaBoostBeta" modified="No">5.000000e-01</Option>
    <Option name="UseRandomisedTrees" modified="No">False</Option>
    <Option name="UseNvars" modified="No">5</Option>
    <Option name="UsePoissonNvars" modified="No">True</Option>
    <Option name="BaggedSampleFraction" modified="No">5.000000e-01</Option>
    <Option name="UseYesNoLeaf" modified="No">True</Option>
    <Option name="NegWeightTreatment" modified="Yes">ignorenegweightsintraining</Option>
    <Option name="Css" modified="No">1.000000e+00</Option>
    <Option name="Cts_sb" modified="No">1.000000e+00</Option>
    <Option name="Ctb_ss" modified="No">1.000000e+00</Option>
    <Option name="Cbb" modified="No">1.000000e+00</Option>
    <Option name="NodePurityLimit" modified="No">5.000000e-01</Option>
    <Option name="SeparationType" modified="No">giniindex</Option>
    <Option name="RegressionLossFunctionBDTG" modified="No">huber</Option>
    <Option name="HuberQuantile" modified="No">7.000000e-01</Option>
    <Option name="DoBoostMonitor" modified="No">False</Option>
    <Option name="UseFisherCuts" modified="No">False</Option>
    <Option name="MinLinCorrForFisher" modified="No">8.000000e-01</Option>
    <Option name="UseExclusiveVars" modified="No">False</Option>
    <Option name="DoPreselection" modified="No">False</Option>
    <Option name="SigToBkgFraction" modified="No">1.000000e+00</Option>
    <Option name="PruneMethod" modified="No">nopruning</Option>
    <Option name="PruneStrength" modified="No">0.000000e+00</Option>
    <Option name="PruningValFraction" modified="No">5.000000e-01</Option>
    <Option name="SkipNormalization" modified="No">False</Option>
    <Option name="nEventsMin" modified="No">0</Option>
    <Option name="UseBaggedGrad" modified="No">False</Option>
    <Option name="GradBaggingFraction" modified="Yes">5.000000e-01</Option>
    <Option name="UseNTrainEvents" modified="No">0</Option>
    <Option name="NNodesMax" modified="No">0</Option>
  </Options>
  <Variables NVar="25">
    <Variable VarIndex="0" Expression="mvadetajj" Label="mvadetajj" Title="mvadetajj" Unit="" Internal="mvadetajj" Type="F" Min="2.50037360e+00" Max="8.94531250e+00"/>
    <Variable VarIndex="1" Expression="mvadphijj" Label="mvadphijj" Title="mvadphijj" Unit="" Internal="mvadphijj" Type="F" Min="-3.14153981e+00" Max="3.14152789e+00"/>
    <Variable VarIndex="2" Expression="mvajetpt1" Label="mvajetpt1" Title="mvajetpt1" Unit="" Internal="mvajetpt1" Type="F" Min="5.09521751e+01" Max="2.27259277e+03"/>
    <Variable VarIndex="3" Expression="mvajetpt2" Label="mvajetpt2" Title="mvajetpt2" Unit="" Internal="mvajetpt2" Type="F" Min="5.00019836e+01" Max="9.28915466e+02"/>
    <Variable VarIndex="4" Expression="mvajeteta1" Label="mvajeteta1" Title="mvajeteta1" Unit="" Internal="mvajeteta1" Type="F" Min="-4.64083529e+00" Max="4.67147160e+00"/>
    <Variable VarIndex="5" Expression="mvajeteta2" Label="mvajeteta2" Title="mvajeteta2" Unit="" Internal="mvajeteta2" Type="F" Min="-4.69250441e+00" Max="4.69961834e+00"/>
    <Variable VarIndex="6" Expression="mvaWpt" Label="mvaWpt" Title="mvaMet" Unit="" Internal="mvaWpt" Type="F" Min="3.00004311e+01" Max="2.33687012e+03"/>
    <Variable VarIndex="7" Expression="mvaZpt" Label="mvaZpt" Title="mvaZpt" Unit="" Internal="mvaZpt" Type="F" Min="2.68581688e-01" Max="1.15134448e+03"/>
    <Variable VarIndex="8" Expression="mvaVVmt" Label="mvaVVmt" Title="mvaVVmt" Unit="" Internal="mvaVVmt" Type="F" Min="1.03205601e-02" Max="1.67123352e+03"/>
    <Variable VarIndex="9" Expression="mvazstar" Label="mvazstar" Title="mvazstar" Unit="" Internal="mvazstar" Type="F" Min="4.53969960e-06" Max="2.11514378e+00"/>
    <Variable VarIndex="10" Expression="mvazep1" Label="mvazep1" Title="mvazep1" Unit="" Internal="mvazep1" Type="F" Min="4.33343339e-05" Max="1.46975887e+00"/>
    <Variable VarIndex="11" Expression="mvazep2" Label="mvazep2" Title="mvazep2" Unit="" Internal="mvazep2" Type="F" Min="6.10486438e-07" Max="1.40619147e+00"/>
    <Variable VarIndex="12" Expression="mvamaxzep" Label="mvamaxzep" Title="mvamaxzep" Unit="" Internal="mvamaxzep" Type="F" Min="4.11187561e-04" Max="1.46975887e+00"/>
    <Variable VarIndex="13" Expression="mvaj1Zdr" Label="mvaj1Zdr" Title="mvaj1Zdr" Unit="" Internal="mvaj1Zdr" Type="F" Min="6.61024638e-03" Max="8.86484623e+00"/>
    <Variable VarIndex="14" Expression="mvaj2Zdr" Label="mvaj2Zdr" Title="mvaj2Zdr" Unit="" Internal="mvaj2Zdr" Type="F" Min="7.96650164e-03" Max="9.67917728e+00"/>
    <Variable VarIndex="15" Expression="mvapttot" Label="mvapttot" Title="mvapttot" Unit="" Internal="mvapttot" Type="F" Min="9.02700424e-02" Max="6.30063049e+02"/>
    <Variable VarIndex="16" Expression="mvasumpttot" Label="mvasumpttot" Title="mvasumpttot" Unit="" Internal="mvasumpttot" Type="F" Min="1.91462555e+02" Max="4.97982910e+03"/>
    <Variable VarIndex="17" Expression="mvaleppt1" Label="mvaleppt1" Title="mvaleppt1" Unit="" Internal="mvaleppt1" Type="F" Min="2.00019054e+01" Max="1.06341870e+03"/>
    <Variable VarIndex="18" Expression="mvaleppt2" Label="mvaleppt2" Title="mvaleppt2" Unit="" Internal="mvaleppt2" Type="F" Min="2.00005798e+01" Max="1.29047327e+03"/>
    <Variable VarIndex="19" Expression="mvalepeta1" Label="mvalepeta1" Title="mvalepeta1" Unit="" Internal="mvalepeta1" Type="F" Min="-2.49742913e+00" Max="2.49885178e+00"/>
    <Variable VarIndex="20" Expression="mvalepeta2" Label="mvalepeta2" Title="mvalepeta2" Unit="" Internal="mvalepeta2" Type="F" Min="-2.49945045e+00" Max="2.49920559e+00"/>
    <Variable VarIndex="21" Expression="mvadphill" Label="mvadphill" Title="mvadphill" Unit="" Internal="mvadphill" Type="F" Min="8.05854797e-05" Max="3.14154840e+00"/>
    <Variable VarIndex="22" Expression="mvadrll" Label="mvadrll" Title="mvadrll" Unit="" Internal="mvadrll" Type="F" Min="1.61331534e-01" Max="5.49536085e+00"/>
    <Variable VarIndex="23" Expression="mvamll" Label="mvamll" Title="mvamll" Unit="" Internal="mvamll" Type="F" Min="2.00200138e+01" Max="2.20288867e+03"/>
    <Variable VarIndex="24" Expression="(mvaleppt1*mvaleppt2)/(mvajetpt1*mvajetpt2)" Label="(mvaleppt1*mvaleppt2)/(mvajetpt1*mvajetpt2)" Title="mvaptrel" Unit="" Internal="_mvaleppt1_T_mvaleppt2__D__mvajetpt1_T_mvajetpt2_" Type="F" Min="1.56296720e-03" Max="1.15134636e+02"/>
  </Variables>
  <Spectators NSpec="0"/>
  <Classes NClass="2">
    <Class Name="Background" Index="0"/>
    <Class Name="Signal" Index="1"/>
  </Classes>
  <Transformations NTransformations="0"/>
  <MVAPdfs/>
  <Weights NTrees="800" AnalysisType="1">
    <BinaryTree type="DecisionTree" boostWeight="1.0000000000000000e+00" itree="0">
      <Node pos="s" depth="0" NCoef="0" IVar="16" Cut="5.7355157470703125e+02" cType="1" res="2.4254193995147943e-03" rms="4.9999412894248962e-01" purity="5.0242543220520020e-01" nType="0">
        <Node pos="l" depth="1" NCoef="0" IVar="17" Cut="6.8421897888183594e+01" cType="1" res="9.8580397665500641e-02" rms="4.9018558859825134e-01" purity="5.9858042001724243e-01" nType="0">
          <Node pos="l" depth="2" NCoef="0" IVar="-1" Cut="0.0000000000000000e+00" cType="1" res="2.2735208272933960e-02" rms="4.7138059139251709e-01" purity="6.6673433780670166e-01" nType="-99"/>
          <Node pos="r" depth="2" NCoef="0" IVar="-1" Cut="0.0000000000000000e+00" cType="1" res="-7.3638940230011940e-03" rms="4.9781495332717896e-01" purity="4.5330670475959778e-01" nType="-99"/>
        </Node>
        <Node pos="r" depth="1" NCoef="0" IVar="24" Cut="9.9409006536006927e-02" cType="1" res="-1.9162856042385101e-01" rms="4.6182084083557129e-01" purity="3.0837145447731018e-01" nType="0">
          <Node pos="l" depth="2" NCoef="0" IVar="-1" Cut="0.0000000000000000e+00" cType="1" res="-1.1629861779510975e-02" rms="4.9548384547233582e-01" purity="4.3294960260391235e-01" nType="-99"/>
          <Node pos="r" depth="2" NCoef="0" IVar="-1" Cut="0.0000000000000000e+00" cType="1" res="-5.6588578969240189e-02" rms="4.1388708353042603e-01" purity="2.1946926414966583e-01" nType="-99"/>
        </Node>
      </Node>
    </BinaryTree>
    <BinaryTree type="DecisionTree" boostWeight="1.0000000000000000e+00" itree="1">
      <Node pos="s" depth="0" NCoef="0" IVar="16" Cut="5.2410809326171875e+02" cType="1" res="2.6759910397231579e-03" rms="4.9534305930137634e-01" purity="5.0052559375762939e-01" nType="0">
        <Node pos="l" depth="1" NCoef="0" IVar="17" Cut="6.0166297912597656e+01" cType="1" res="1.1188829690217972e-01" rms="4.8449817299842834e-01" purity="6.1874812841415405e-01" nType="0">
          <Node pos="l" depth="2" NCoef="0" IVar="-1" Cut="0.0000000000000000e+00" cType="1" res="2.4375399574637413e-02" rms="4.6120294928550720e-01" purity="6.9311094284057617e-01" nType="-99"/>
          <Node pos="r" depth="2" NCoef="0" IVar="-1" Cut="0.0000000000000000e+00" cType="1" res="8.1892893649637699e-04" rms="4.9954062700271606e-01" purity="5.0543719530105591e-01" nType="-99"/>
        </Node>
        <Node pos="r" depth="1" NCoef="0" IVar="24" Cut="1.0517237335443497e-01" cType="1" res="-1.4407841861248016e-01" rms="4.7125324606895447e-01" purity="3.4166356921195984e-01" nType="0">
          <Node pos="l" depth="2" NCoef="0" IVar="-1" Cut="0.0000000000000000e+00" cType="1" res="-6.5312660299241543e-03" rms="4.9733328819274902e-01" purity="4.5758944749832153e-01" nType="-99"/>
          <Node pos="r" depth="2" NCoef="0" IVar="-1" Cut="0.0000000000000000e+00" cType="1" res="-4.2731232941150665e-02" rms="4.3620532751083374e-01" purity="2.5857007503509521e-01" nType="-99"/>
        </Node>
      </Node>
    </BinaryTree>
    <BinaryTree type="DecisionTree" boostWeight="1.0000000000000000e+00" itree="2">
      <Node pos="s" depth="0" NCoef="0" IVar="17" Cut="9.1492355346679688e+01" cType="1" res="4.3077752925455570e-03" rms="4.9134713411331177e-01" purity="5.0060456991195679e-01" nType="0">
        <Node pos="l" depth="1" NCoef="0" IVar="6" Cut="1.1734382629394531e+02" cType="1" res="7.8743070363998413e-02" rms="4.8760330677032471e-01" purity="5.8495175838470459e-01" nType="0">
          <Node pos="l" depth="2" NCoef="0" IVar="-1" Cut="0.0000000000000000e+00" cType="1" res="1.9763937219977379e-02" rms="4.7308698296546936e-01" purity="6.5269386768341064e-01" nType="-99"/>
          <Node pos="r" depth="2" NCoef="0" IVar="-1" Cut="0.0000000000000000e+00" cType="1" res="-2.2289380431175232e-02" rms="4.7733911871910095e-01" purity="3.6647066473960876e-01" nType="-99"/>
        </Node>
        <Node pos="r" depth="1" NCoef="0" IVar="16" Cut="7.2348608398437500e+02" cType="1" res="-1.9117024540901184e-01" rms="4.4529181718826294e-01" purity="2.7909627556800842e-01" nType="0">
          <Node pos="l" depth="2" NCoef="0" IVar="-1" Cut="0.0000000000000000e+00" cType="1" res="-2.2055694833397865e-02" rms="4.7484949231147766e-01" purity="3.4975835680961609e-01" nType="-99"/>
          <Node pos="r" depth="2" NCoef="0" IVar="-1" Cut="0.0000000000000000e+00" cType="1" res="-6.9642446935176849e-02" rms="3.5065743327140808e-01" purity="1.4411383867263794e-01" nType="-99"/>
        </Node>
      </Node>
    </BinaryTree>
    <BinaryTree type="DecisionTree" boostWeight="1.0000000000000000e+00" itree="3">
      <Node pos="s" depth="0" NCoef="0" IVar="16" Cut="5.9869372558593750e+02" cType="1" res="4.7517954371869564e-03" rms="4.8727703094482422e-01" purity="4.9937945604324341e-01" nType="0">
        <Node pos="l" depth="1" NCoef="0" IVar="17" Cut="8.1479827880859375e+01" cType="1" res="7.9339377582073212e-02" rms="4.8614981770515442e-01" purity="5.9169727563858032e-01" nType="0">
          <Node pos="l" depth="2" NCoef="0" IVar="-1" Cut="0.0000000000000000e+00" cType="1" res="1.6900695860385895e-02" rms="4.7668626904487610e-01" purity="6.4234858751296997e-01" nType="-99"/>
          <Node pos="r" depth="2" NCoef="0" IVar="-1" Cut="0.0000000000000000e+00" cType="1" res="-1.0112431831657887e-02" rms="4.9141749739646912e-01" purity="4.1950151324272156e-01" nType="-99"/>
        </Node>
        <Node pos="r" depth="1" NCoef="0" IVar="24" Cut="5.9479065239429474e-02" cType="1" res="-1.6712266206741333e-01" rms="4.4452989101409912e-01" purity="2.8664880990982056e-01" nType="0">
          <Node pos="l" depth="2" NCoef="0" IVar="-1" Cut="0.0000000000000000e+00" cType="1" res="-5.7487171143293381e-03" rms="4.9349951744079590e-01" purity="4.5251694321632385e-01" nType="-99"/>
          <Node pos="r" depth="2" NCoef="0" IVar="-1" Cut="0.0000000000000000e+00" cType="1" res="-4.5285850763320923e-02" rms="4.1160479187965393e-01" purity="2.2070398926734924e-01" nType="-99"/>
        </Node>
      </Node>
    </BinaryTree>
    <BinaryTree type="DecisionTree" boostWeight="1.0000000000000000e+00" itree="4">
      <Node pos="s" depth="0" NCoef="0" IVar="6" Cut="1.2791329956054688e+02" cType="1" res="1.5751225873827934e-03" rms="4.8381894826889038e-01" purity="4.9493691325187683e-01" nType="0">
        <Node pos="l" depth="1" NCoef="0" IVar="17" Cut="8.5304092407226562e+01" cType="1" res="5.7079609483480453e-02" rms="4.8397305607795715e-01" purity="5.6119138002395630e-01" nType="0">
          <Node pos="l" depth="2" NCoef="0" IVar="-1" Cut="0.0000000000000000e+00" cType="1" res="1.7503321170806885e-02" rms="4.7331044077873230e-01" purity="6.5047693252563477e-01" nType="-99"/>
          <Node pos="r" depth="2" NCoef="0" IVar="-1" Cut="0.0000000000000000e+00" cType="1" res="-1.9007895141839981e-02" rms="4.6998596191406250e-01" purity="3.4520712494850159e-01" nType="-99"/>
        </Node>
        <Node pos="r" depth="1" NCoef="0" IVar="6" Cut="1.7335845947265625e+02" cType="1" res="-1.9979624450206757e-01" rms="4.2639452219009399e-01" purity="2.5456434488296509e-01" nType="0">
          <Node pos="l" depth="2" NCoef="0" IVar="-1" Cut="0.0000000000000000e+00" cType="1" res="-2.2624706849455833e-02" rms="4.6562206745147705e-01" purity="3.4305197000503540e-01" nType="-99"/>
          <Node pos="r" depth="2" NCoef="0" IVar="-1" Cut="0.0000000000000000e+00" cType="1" res="-5.9466548264026642e-02" rms="3.7000712752342224e-01" purity="1.6855755448341370e-01" nType="-99"/>
        </Node>
      </Node>
    </BinaryTree>
    <BinaryTree type="DecisionTree" boostWeight="1.0000000000000000e+00" itree="5">
      <Node pos="s" depth="0" NCoef="0" IVar="17" Cut="1.0127594757080078e+02" cType="1" res="3.0034976080060005e-03" rms="4.8075616359710693e-01" purity="4.9422225356101990e-01" nType="0">
        <Node pos="l" depth="1" NCoef="0" IVar="6" Cut="1.2924462890625000e+02" cType="1" res="5.4541639983654022e-02" rms="4.8382824659347534e-01" purity="5.6675010919570923e-01" nType="0">
          <Node pos="l" depth="2" NCoef="0" IVar="-1" Cut="0.0000000000000000e+00" cType="1" res="1.3921500183641911e-02" rms="4.7874730825424194e-01" purity="6.2457418441772461e-01" nType="-99"/>
          <Node pos="r" depth="2" NCoef="0" IVar="-1" Cut="0.0000000000000000e+00" cType="1" res="-2.2476412355899811e-02" rms="4.6470332145690918e-01" purity="3.3022969961166382e-01" nType="-99"/>
        </Node>
        <Node pos="r" depth="1" NCoef="0" IVar="16" Cut="8.5697546386718750e+02" cType="1" res="-1.6821533441543579e-01" rms="4.2795062065124512e-01" purity="2.5327205657958984e-01" nType="0">
          <Node pos="l" depth="2" NCoef="0" IVar="-1" Cut="0.0000000000000000e+00" cType="1" res="-2.4486154317855835e-02" rms="4.5400553941726685e-01" purity="3.0065470933914185e-01" nType="-99"/>
          <Node pos="r" depth="2" NCoef="0" IVar="-1" Cut="0.0000000000000000e+00" cType="1" res="-7.0916026830673218e-02" rms="2.9657512903213501e-01" purity="9.7349472343921661e-02" nType="-99"/>
        </Node>
      </Node>
    </BinaryTree>
    <BinaryTree type="DecisionTree" boostWeight="1.0000000000000000e+00" itree="6">
      <Node pos="s" depth="0" NCoef="0" IVar="16" Cut="5.9840643310546875e+02" cType="1" res="7.9842405393719673e-03" rms="4.7791731357574463e-01" purity="4.9768972396850586e-01" nType="0">
        <Node pos="l" depth="1" NCoef="0" IVar="12" Cut="2.7350053191184998e-01" cType="1" res="6.6503524780273438e-02" rms="4.8271226882934570e-01" purity="5.8906209468841553e-01" nType="0">
          <Node pos="l" depth="2" NCoef="0" IVar="-1" Cut="0.0000000000000000e+00" cType="1" res="-2.6784513611346483e-03" rms="4.9115392565727234e-01" purity="5.0253105163574219e-01" nType="-99"/>
          <Node pos="r" depth="2" NCoef="0" IVar="-1" Cut="0.0000000000000000e+00" cType="1" res="1.7619522288441658e-02" rms="4.6755820512771606e-01" purity="6.5060973167419434e-01" nType="-99"/>
        </Node>
        <Node pos="r" depth="1" NCoef="0" IVar="12" Cut="3.5971140861511230e-01" cType="1" res="-1.2727826833724976e-01" rms="4.3766060471534729e-01" purity="2.8649017214775085e-01" nType="0">
          <Node pos="l" depth="2" NCoef="0" IVar="-1" Cut="0.0000000000000000e+00" cType="1" res="-4.1036497801542282e-02" rms="4.0240052342414856e-01" purity="2.1941760182380676e-01" nType="-99"/>
          <Node pos="r" depth="2" NCoef="0" IVar="-1" Cut="0.0000000000000000e+00" cType="1" res="-7.3431651107966900e-03" rms="4.6874526143074036e-01" purity="3.7974378466606140e-01" nType="-99"/>
        </Node>
      </Node>
    </BinaryTree>
    <BinaryTree type="DecisionTree" boostWeight="1.0000000000000000e+00" itree="7">
      <Node pos="s" depth="0" NCoef="0" IVar="17" Cut="7.9942726135253906e+01" cType="1" res="9.8037393763661385e-03" rms="4.7537097334861755e-01" purity="4.9895489215850830e-01" nType="0">
        <Node pos="l" depth="1" NCoef="0" IVar="6" Cut="1.3161271667480469e+02" cType="1" res="7.2637192904949188e-02" rms="4.7631061077117920e-01" purity="5.9789162874221802e-01" nType="0">
          <Node pos="l" depth="2" NCoef="0" IVar="-1" Cut="0.0000000000000000e+00" cType="1" res="1.5999658033251762e-02" rms="4.6970242261886597e-01" purity="6.5826737880706787e-01" nType="-99"/>
          <Node pos="r" depth="2" NCoef="0" IVar="-1" Cut="0.0000000000000000e+00" cType="1" res="-2.2321691736578941e-02" rms="4.6001687645912170e-01" purity="3.2040736079216003e-01" nType="-99"/>
        </Node>
        <Node pos="r" depth="1" NCoef="0" IVar="6" Cut="1.0388960266113281e+02" cType="1" res="-1.0848072171211243e-01" rms="4.5041173696517944e-01" purity="3.1270560622215271e-01" nType="0">
          <Node pos="l" depth="2" NCoef="0" IVar="-1" Cut="0.0000000000000000e+00" cType="1" res="-1.0324351489543915e-02" rms="4.7519248723983765e-01" purity="3.8254469633102417e-01" nType="-99"/>
          <Node pos="r" depth="2" NCoef="0" IVar="-1" Cut="0.0000000000000000e+00" cType="1" res="-4.2143635451793671e-02" rms="3.9023521542549133e-01" purity="1.9283498823642731e-01" nType="-99"/>
        </Node>
      </Node>
    </BinaryTree>
    <BinaryTree type="DecisionTree" boostWeight="1.0000000000000000e+00" itree="8">
      <Node pos="s" depth="0" NCoef="0" IVar="18" Cut="6.0148456573486328e+01" cType="1" res="1.1499441228806973e-02" rms="4.7374737262725830e-01" purity="5.0005322694778442e-01" nType="0">
        <Node pos="l" depth="1" NCoef="0" IVar="6" Cut="1.4303704833984375e+02" cType="1" res="6.6541068255901337e-02" rms="4.7332435846328735e-01" purity="5.7176655530929565e-01" nType="0">
          <Node pos="l" depth="2" NCoef="0" IVar="-1" Cut="0.0000000000000000e+00" cType="1" res="1.4718458987772465e-02" rms="4.7082316875457764e-01" purity="6.2632530927658081e-01" nType="-99"/>
          <Node pos="r" depth="2" NCoef="0" IVar="-1" Cut="0.0000000000000000e+00" cType="1" res="-2.5220006704330444e-02" rms="4.3929299712181091e-01" purity="2.7951091527938843e-01" nType="-99"/>
        </Node>
        <Node pos="r" depth="1" NCoef="0" IVar="18" Cut="8.3769119262695312e+01" cType="1" res="-1.1894820630550385e-01" rms="4.4854137301445007e-01" purity="3.3009403944015503e-01" nType="0">
          <Node pos="l" depth="2" NCoef="0" IVar="-1" Cut="0.0000000000000000e+00" cType="1" res="-8.1256581470370293e-03" rms="4.7334769368171692e-01" purity="4.2311257123947144e-01" nType="-99"/>
          <Node pos="r" depth="2" NCoef="0" IVar="-1" Cut="0.0000000000000000e+00" cType="1" res="-3.7012003362178802e-02" rms="4.1474300622940063e-01" purity="2.4677464365959167e-01" nType="-99"/>
        </Node>
      </Node>
    </BinaryTree>
    <BinaryTree type="DecisionTree" boostWeight="1.0000000000000000e+00" itree="9">
      <Node pos="s" depth="0" NCoef="0" IVar="17" Cut="9.4494415283203125e+01" cType="1" res="6.6522620618343353e-03" rms="4.7060647606849670e-01" purity="4.9423757195472717e-01" nType="0">
        <Node pos="l" depth="1" NCoef="0" IVar="6" Cut="1.0811945343017578e+02" cType="1" res="5.3881485015153885e-02" rms="4.7593912482261658e-01" purity="5.7694256305694580e-01" nType="0">
          <Node pos="l" depth="2" NCoef="0" IVar="-1" Cut="0.0000000000000000e+00" cType="1" res="1.4286714605987072e-02" rms="4.6934223175048828e-01" purity="6.5252143144607544e-01" nType="-99"/>
          <Node pos="r" depth="2" NCoef="0" IVar="-1" Cut="0.0000000000000000e+00" cType="1" res="-1.1412311345338821e-02" rms="4.7163325548171997e-01" purity="3.8932794332504272e-01" nType="-99"/>
        </Node>
        <Node pos="r" depth="1" NCoef="0" IVar="12" Cut="3.4523987770080566e-01" cType="1" res="-1.2429892271757126e-01" rms="4.2911788821220398e-01" purity="2.6492369174957275e-01" nType="0">
          <Node pos="l" depth="2" NCoef="0" IVar="-1" Cut="0.0000000000000000e+00" cType="1" res="-3.6063842475414276e-02" rms="3.9951649308204651e-01" purity="2.1641312539577484e-01" nType="-99"/>
          <Node pos="r" depth="2" NCoef="0" IVar="-1" Cut="0.0000000000000000e+00" cType="1" res="-1.0604206472635269e-02" rms="4.6195995807647705e-01" purity="3.3784514665603638e-01" nType="-99"/>
        </Node>
      </Node>
    </BinaryTree>
    <BinaryTree type="DecisionTree" boostWeight="1.0000000000000000e+00" itree="10">
      <Node pos="s" depth="0" NCoef="0" IVar="17" Cut="6.3260723114013672e+01" cType="1" res="7.5886296108365059e-03" rms="4.6877869963645935e-01" purity="4.9513921141624451e-01" nType="0">
        <Node pos="l" depth="1" NCoef="0" IVar="6" Cut="1.2923843383789062e+02" cType="1" res="8.4123954176902771e-02" rms="4.6678793430328369e-01" purity="6.2306642532348633e-01" nType="0">
          <Node pos="l" depth="2" NCoef="0" IVar="-1" Cut="0.0000000000000000e+00" cType="1" res="1.6720913350582123e-02" rms="4.5881062746047974e-01" purity="6.8597143888473511e-01" nType="-99"/>
          <Node pos="r" depth="2" NCoef="0" IVar="-1" Cut="0.0000000000000000e+00" cType="1" res="-1.3665959239006042e-02" rms="4.6894592046737671e-01" purity="3.4851443767547607e-01" nType="-99"/>
        </Node>
        <Node pos="r" depth="1" NCoef="0" IVar="18" Cut="6.9302650451660156e+01" cType="1" res="-7.5048558413982391e-02" rms="4.5673939585685730e-01" purity="3.5701289772987366e-01" nType="0">
          <Node pos="l" depth="2" NCoef="0" IVar="-1" Cut="0.0000000000000000e+00" cType="1" res="-5.8769239112734795e-03" rms="4.7470480203628540e-01" purity="4.1832080483436584e-01" nType="-99"/>
          <Node pos="r" depth="2" NCoef="0" IVar="-1" Cut="0.0000000000000000e+00" cType="1" res="-3.8619209080934525e-02" rms="3.8964119553565979e-01" purity="2.0281733572483063e-01" nType="-99"/>
        </Node>
      </Node>
    </BinaryTree>
    <BinaryTree type="DecisionTree" boostWeight="1.0000000000000000e+00" itree="11">
      <Node pos="s" depth="0" NCoef="0" IVar="18" Cut="6.2557159423828125e+01" cType="1" res="1.0587020777165890e-02" rms="4.6799460053443909e-01" purity="4.9601870775222778e-01" nType="0">
        <Node pos="l" depth="1" NCoef="0" IVar="6" Cut="7.7531898498535156e+01" cType="1" res="5.5943634361028671e-02" rms="4.7022855281829834e-01" purity="5.6567847728729248e-01" nType="0">
          <Node pos="l" depth="2" NCoef="0" IVar="-1" Cut="0.0000000000000000e+00" cType="1" res="1.7823876813054085e-02" rms="4.5516943931579590e-01" purity="6.7192506790161133e-01" nType="-99"/>
          <Node pos="r" depth="2" NCoef="0" IVar="-1" Cut="0.0000000000000000e+00" cType="1" res="-1.5721292002126575e-03" rms="4.7423216700553894e-01" purity="4.6865665912628174e-01" nType="-99"/>
        </Node>
        <Node pos="r" depth="1" NCoef="0" IVar="18" Cut="1.0824375915527344e+02" cType="1" res="-1.0521040856838226e-01" rms="4.4159558415412903e-01" purity="3.1817433238029480e-01" nType="0">
          <Node pos="l" depth="2" NCoef="0" IVar="-1" Cut="0.0000000000000000e+00" cType="1" res="-1.2522063218057156e-02" rms="4.5756679773330688e-01" purity="3.7300699949264526e-01" nType="-99"/>
          <Node pos="r" depth="2" NCoef="0" IVar="-1" Cut="0.0000000000000000e+00" cType="1" res="-3.9816766977310181e-02" rms="3.9589649438858032e-01" purity="2.0424132049083710e-01" nType="-99"/>
        </Node>
      </Node>
    </BinaryTree>
    <BinaryTree type="DecisionTree" boostWeight="1.0000000000000000e+00" itree="12">
      <Node pos="s" depth="0" NCoef="0" IVar="17" Cut="7.3309402465820312e+01" cType="1" res="1.1611940339207649e-02" rms="4.6568405628204346e-01" purity="4.9713519215583801e-01" nType="0">
        <Node pos="l" depth="1" NCoef="0" IVar="18" Cut="8.3115814208984375e+01" cType="1" res="6.8374760448932648e-02" rms="4.6787312626838684e-01" purity="6.0837763547897339e-01" nType="0">
          <Node pos="l" depth="2" NCoef="0" IVar="-1" Cut="0.0000000000000000e+00" cType="1" res="1.3584686443209648e-02" rms="4.6236363053321838e-01" purity="6.4538282155990601e-01" nType="-99"/>
          <Node pos="r" depth="2" NCoef="0" IVar="-1" Cut="0.0000000000000000e+00" cType="1" res="-2.0296029746532440e-02" rms="4.6692648530006409e-01" purity="3.4952503442764282e-01" nType="-99"/>
        </Node>
        <Node pos="r" depth="1" NCoef="0" IVar="16" Cut="8.7661773681640625e+02" cType="1" res="-7.4830718338489532e-02" rms="4.4874313473701477e-01" purity="3.2772696018218994e-01" nType="0">
          <Node pos="l" depth="2" NCoef="0" IVar="-1" Cut="0.0000000000000000e+00" cType="1" res="-9.4833588227629662e-03" rms="4.6786960959434509e-01" purity="3.6836972832679749e-01" nType="-99"/>
          <Node pos="r" depth="2" NCoef="0" IVar="-1" Cut="0.0000000000000000e+00" cType="1" res="-5.3670004010200500e-02" rms="2.9857751727104187e-01" purity="1.0745678097009659e-01" nType="-99"/>
        </Node>
      </Node>
    </BinaryTree>
    <BinaryTree type="DecisionTree" boostWeight="1.0000000000000000e+00" itree="13">
      <Node pos="s" depth="0" NCoef="0" IVar="6" Cut="1.6493881225585938e+02" cType="1" res="2.2717256098985672e-02" rms="4.6629357337951660e-01" purity="5.1082503795623779e-01" nType="0">
        <Node pos="l" depth="1" NCoef="0" IVar="18" Cut="7.6789916992187500e+01" cType="1" res="4.5768786221742630e-02" rms="4.7103849053382874e-01" purity="5.5353236198425293e-01" nType="0">
          <Node pos="l" depth="2" NCoef="0" IVar="-1" Cut="0.0000000000000000e+00" cType="1" res="1.1215669102966785e-02" rms="4.7090423107147217e-01" purity="6.0314995050430298e-01" nType="-99"/>
          <Node pos="r" depth="2" NCoef="0" IVar="-1" Cut="0.0000000000000000e+00" cType="1" res="-1.8627392128109932e-02" rms="4.4506010413169861e-01" purity="3.1621107459068298e-01" nType="-99"/>
        </Node>
        <Node pos="r" depth="1" NCoef="0" IVar="3" Cut="1.0422532653808594e+02" cType="1" res="-1.5028300881385803e-01" rms="3.8747149705886841e-01" purity="1.9030918180942535e-01" nType="0">
          <Node pos="l" depth="2" NCoef="0" IVar="-1" Cut="0.0000000000000000e+00" cType="1" res="-1.8086327239871025e-02" rms="4.3684428930282593e-01" purity="2.6335340738296509e-01" nType="-99"/>
          <Node pos="r" depth="2" NCoef="0" IVar="-1" Cut="0.0000000000000000e+00" cType="1" res="-5.1611434668302536e-02" rms="3.3785170316696167e-01" purity="1.3560247421264648e-01" nType="-99"/>
        </Node>
      </Node>
    </BinaryTree>
    <BinaryTree type="DecisionTree" boostWeight="1.0000000000000000e+00" itree="14">
      <Node pos="s" depth="0" NCoef="0" IVar="7" Cut="1.1686476135253906e+02" cType="1" res="1.6490848734974861e-02" rms="4.6249663829803467e-01" purity="5.0338393449783325e-01" nType="0">
        <Node pos="l" depth="1" NCoef="0" IVar="12" Cut="2.7188673615455627e-01" cType="1" res="5.1854170858860016e-02" rms="4.6745571494102478e-01" purity="5.7359415292739868e-01" nType="0">
          <Node pos="l" depth="2" NCoef="0" IVar="-1" Cut="0.0000000000000000e+00" cType="1" res="-3.8832088466733694e-03" rms="4.7255867719650269e-01" purity="4.8746570944786072e-01" nType="-99"/>
          <Node pos="r" depth="2" NCoef="0" IVar="-1" Cut="0.0000000000000000e+00" cType="1" res="1.4970349147915840e-02" rms="4.5723718404769897e-01" purity="6.3045817613601685e-01" nType="-99"/>
        </Node>
        <Node pos="r" depth="1" NCoef="0" IVar="14" Cut="2.9880535602569580e+00" cType="1" res="-9.6585184335708618e-02" rms="4.2705041170120239e-01" purity="2.7888318896293640e-01" nType="0">
          <Node pos="l" depth="2" NCoef="0" IVar="-1" Cut="0.0000000000000000e+00" cType="1" res="-3.7978772073984146e-02" rms="3.8253784179687500e-01" purity="2.0262894034385681e-01" nType="-99"/>
          <Node pos="r" depth="2" NCoef="0" IVar="-1" Cut="0.0000000000000000e+00" cType="1" res="-4.3586539104580879e-03" rms="4.5629203319549561e-01" purity="3.5635355114936829e-01" nType="-99"/>
        </Node>
      </Node>
    </BinaryTree>
    <BinaryTree type="DecisionTree" boostWeight="1.0000000000000000e+00" itree="15">
      <Node pos="s" depth="0" NCoef="0" IVar="18" Cut="5.5329509735107422e+01" cType="1" res="1.6400245949625969e-02" rms="4.6200630068778992e-01" purity="5.0480735301971436e-01" nType="0">
        <Node pos="l" depth="1" NCoef="0" IVar="6" Cut="1.4441806030273438e+02" cType="1" res="5.8468993753194809e-02" rms="4.6441501379013062e-01" purity="5.8321058750152588e-01" nType="0">
          <Node pos="l" depth="2" NCoef="0" IVar="-1" Cut="0.0000000000000000e+00" cType="1" res="1.2300237081944942e-02" rms="4.6391609311103821e-01" purity="6.3687062263488770e-01" nType="-99"/>
          <Node pos="r" depth="2" NCoef="0" IVar="-1" Cut="0.0000000000000000e+00" cType="1" res="-1.8137305974960327e-02" rms="4.3948215246200562e-01" purity="2.8428921103477478e-01" nType="-99"/>
        </Node>
        <Node pos="r" depth="1" NCoef="0" IVar="11" Cut="2.3652538657188416e-01" cType="1" res="-6.3387937843799591e-02" rms="4.4664841890335083e-01" purity="3.5610660910606384e-01" nType="0">
          <Node pos="l" depth="2" NCoef="0" IVar="-1" Cut="0.0000000000000000e+00" cType="1" res="-2.1251417696475983e-02" rms="4.3350401520729065e-01" purity="3.0824947357177734e-01" nType="-99"/>
          <Node pos="r" depth="2" NCoef="0" IVar="-1" Cut="0.0000000000000000e+00" cType="1" res="-1.5509474906139076e-04" rms="4.5780989527702332e-01" purity="4.2522424459457397e-01" nType="-99"/>
        </Node>
      </Node>
    </BinaryTree>
    <BinaryTree type="DecisionTree" boostWeight="1.0000000000000000e+00" itree="16">
      <Node pos="s" depth="0" NCoef="0" IVar="18" Cut="7.6785034179687500e+01" cType="1" res="9.3021085485816002e-03" rms="4.5962834358215332e-01" purity="4.9565538763999939e-01" nType="0">
        <Node pos="l" depth="1" NCoef="0" IVar="12" Cut="2.3327951133251190e-01" cType="1" res="3.9062134921550751e-02" rms="4.6528795361518860e-01" purity="5.5294841527938843e-01" nType="0">
          <Node pos="l" depth="2" NCoef="0" IVar="-1" Cut="0.0000000000000000e+00" cType="1" res="-9.2640584334731102e-03" rms="4.6820431947708130e-01" purity="4.4305643439292908e-01" nType="-99"/>
          <Node pos="r" depth="2" NCoef="0" IVar="-1" Cut="0.0000000000000000e+00" cType="1" res="1.1978175491094589e-02" rms="4.5831343531608582e-01" purity="5.9955281019210815e-01" nType="-99"/>
        </Node>
        <Node pos="r" depth="1" NCoef="0" IVar="7" Cut="1.4539804077148438e+02" cType="1" res="-1.1691538989543915e-01" rms="4.1154578328132629e-01" purity="2.5266528129577637e-01" nType="0">
          <Node pos="l" depth="2" NCoef="0" IVar="-1" Cut="0.0000000000000000e+00" cType="1" res="-1.6766853630542755e-02" rms="4.4534423947334290e-01" purity="3.1517410278320312e-01" nType="-99"/>
          <Node pos="r" depth="2" NCoef="0" IVar="-1" Cut="0.0000000000000000e+00" cType="1" res="-4.3677933514118195e-02" rms="3.3868283033370972e-01" purity="1.4461334049701691e-01" nType="-99"/>
        </Node>
      </Node>
    </BinaryTree>
    <BinaryTree type="DecisionTree" boostWeight="1.0000000000000000e+00" itree="17">
      <Node pos="s" depth="0" NCoef="0" IVar="6" Cut="1.2826325988769531e+02" cType="1" res="1.5381360426545143e-02" rms="4.5901137590408325e-01" purity="5.0408393144607544e-01" nType="0">
        <Node pos="l" depth="1" NCoef="0" IVar="24" Cut="3.2338094711303711e-01" cType="1" res="4.4926065951585770e-02" rms="4.6462494134902954e-01" purity="5.7110840082168579e-01" nType="0">
          <Node pos="l" depth="2" NCoef="0" IVar="-1" Cut="0.0000000000000000e+00" cType="1" res="1.2257029302418232e-02" rms="4.6012267470359802e-01" purity="6.3824969530105591e-01" nType="-99"/>
          <Node pos="r" depth="2" NCoef="0" IVar="-1" Cut="0.0000000000000000e+00" cType="1" res="-7.9783909022808075e-03" rms="4.6272552013397217e-01" purity="4.0909260511398315e-01" nType="-99"/>
        </Node>
        <Node pos="r" depth="1" NCoef="0" IVar="6" Cut="2.2809541320800781e+02" cType="1" res="-9.2205792665481567e-02" rms="4.2078146338462830e-01" purity="2.6001426577568054e-01" nType="0">
          <Node pos="l" depth="2" NCoef="0" IVar="-1" Cut="0.0000000000000000e+00" cType="1" res="-1.2914674356579781e-02" rms="4.4557636976242065e-01" purity="3.0724906921386719e-01" nType="-99"/>
          <Node pos="r" depth="2" NCoef="0" IVar="-1" Cut="0.0000000000000000e+00" cType="1" res="-4.8951547592878342e-02" rms="3.2198253273963928e-01" purity="1.2034866213798523e-01" nType="-99"/>
        </Node>
      </Node>
    </BinaryTree>
    <BinaryTree type="DecisionTree" boostWeight="1.0000000000000000e+00" itree="18">
      <Node pos="s" depth="0" NCoef="0" IVar="17" Cut="1.1118487548828125e+02" cType="1" res="1.0588103905320168e-02" rms="4.5844963192939758e-01" purity="5.0115531682968140e-01" nType="0">
        <Node pos="l" depth="1" NCoef="0" IVar="10" Cut="1.5425837039947510e-01" cType="1" res="3.7248283624649048e-02" rms="4.6636617183685303e-01" purity="5.6487166881561279e-01" nType="0">
          <Node pos="l" depth="2" NCoef="0" IVar="-1" Cut="0.0000000000000000e+00" cType="1" res="-6.6491486504673958e-03" rms="4.7110044956207275e-01" purity="4.7806268930435181e-01" nType="-99"/>
          <Node pos="r" depth="2" NCoef="0" IVar="-1" Cut="0.0000000000000000e+00" cType="1" res="1.1878940276801586e-02" rms="4.5848885178565979e-01" purity="6.1115878820419312e-01" nType="-99"/>
        </Node>
        <Node pos="r" depth="1" NCoef="0" IVar="3" Cut="8.5020767211914062e+01" cType="1" res="-1.0497730225324631e-01" rms="4.0249648690223694e-01" purity="2.2496032714843750e-01" nType="0">
          <Node pos="l" depth="2" NCoef="0" IVar="-1" Cut="0.0000000000000000e+00" cType="1" res="-8.3852838724851608e-03" rms="4.5756447315216064e-01" purity="3.1414881348609924e-01" nType="-99"/>
          <Node pos="r" depth="2" NCoef="0" IVar="-1" Cut="0.0000000000000000e+00" cType="1" res="-3.4214384853839874e-02" rms="3.6611929535865784e-01" purity="1.7815451323986053e-01" nType="-99"/>
        </Node>
      </Node>
    </BinaryTree>
    <BinaryTree type="DecisionTree" boostWeight="1.0000000000000000e+00" itree="19">
      <Node pos="s" depth="0" NCoef="0" IVar="18" Cut="6.3223133087158203e+01" cType="1" res="1.3603510335087776e-02" rms="4.5765838027000427e-01" purity="5.0337481498718262e-01" nType="0">
        <Node pos="l" depth="1" NCoef="0" IVar="6" Cut="1.4324685668945312e+02" cType="1" res="4.6029552817344666e-02" rms="4.6207055449485779e-01" purity="5.7464039325714111e-01" nType="0">
          <Node pos="l" depth="2" NCoef="0" IVar="-1" Cut="0.0000000000000000e+00" cType="1" res="1.0474718175828457e-02" rms="4.6362614631652832e-01" purity="6.3179248571395874e-01" nType="-99"/>
          <Node pos="r" depth="2" NCoef="0" IVar="-1" Cut="0.0000000000000000e+00" cType="1" res="-1.9996363669633865e-02" rms="4.2811873555183411e-01" purity="2.6152366399765015e-01" nType="-99"/>
        </Node>
        <Node pos="r" depth="1" NCoef="0" IVar="14" Cut="2.0763072967529297e+00" cType="1" res="-7.4589326977729797e-02" rms="4.3333175778388977e-01" purity="3.0954563617706299e-01" nType="0">
          <Node pos="l" depth="2" NCoef="0" IVar="-1" Cut="0.0000000000000000e+00" cType="1" res="-3.6900524049997330e-02" rms="3.8016834855079651e-01" purity="2.0971481502056122e-01" nType="-99"/>
          <Node pos="r" depth="2" NCoef="0" IVar="-1" Cut="0.0000000000000000e+00" cType="1" res="-9.7333909943699837e-03" rms="4.4476890563964844e-01" purity="3.3900156617164612e-01" nType="-99"/>
        </Node>
      </Node>
    </BinaryTree>
    <BinaryTree type="DecisionTree" boostWeight="1.0000000000000000e+00" itree="20">
      <Node pos="s" depth="0" NCoef="0" IVar="17" Cut="6.5075904846191406e+01" cType="1" res="7.7597629278898239e-03" rms="4.5810514688491821e-01" purity="4.9610939621925354e-01" nType="0">
        <Node pos="l" depth="1" NCoef="0" IVar="18" Cut="8.3382637023925781e+01" cType="1" res="5.5007707327604294e-02" rms="4.6025756001472473e-01" purity="6.1199820041656494e-01" nType="0">
          <Node pos="l" depth="2" NCoef="0" IVar="-1" Cut="0.0000000000000000e+00" cType="1" res="1.1122873984277248e-02" rms="4.5657584071159363e-01" purity="6.5215474367141724e-01" nType="-99"/>
          <Node pos="r" depth="2" NCoef="0" IVar="-1" Cut="0.0000000000000000e+00" cType="1" res="-1.5029351226985455e-02" rms="4.6216520667076111e-01" purity="3.4028443694114685e-01" nType="-99"/>
        </Node>
        <Node pos="r" depth="1" NCoef="0" IVar="10" Cut="1.5334060788154602e-01" cType="1" res="-4.8345558345317841e-02" rms="4.4912627339363098e-01" purity="3.5849541425704956e-01" nType="0">
          <Node pos="l" depth="2" NCoef="0" IVar="-1" Cut="0.0000000000000000e+00" cType="1" res="-2.2616371512413025e-02" rms="4.2627155780792236e-01" purity="2.7887177467346191e-01" nType="-99"/>
          <Node pos="r" depth="2" NCoef="0" IVar="-1" Cut="0.0000000000000000e+00" cType="1" res="-1.9297341350466013e-03" rms="4.5880579948425293e-01" purity="4.0817213058471680e-01" nType="-99"/>
        </Node>
      </Node>
    </BinaryTree>
    <BinaryTree type="DecisionTree" boostWeight="1.0000000000000000e+00" itree="21">
      <Node pos="s" depth="0" NCoef="0" IVar="16" Cut="4.4665698242187500e+02" cType="1" res="8.9247114956378937e-03" rms="4.5580530166625977e-01" purity="4.9880430102348328e-01" nType="0">
        <Node pos="l" depth="1" NCoef="0" IVar="1" Cut="-2.7091655731201172e+00" cType="1" res="7.0548720657825470e-02" rms="4.6070826053619385e-01" purity="6.6060525178909302e-01" nType="0">
          <Node pos="l" depth="2" NCoef="0" IVar="-1" Cut="0.0000000000000000e+00" cType="1" res="2.0654818043112755e-02" rms="4.1772472858428955e-01" purity="7.5893872976303101e-01" nType="-99"/>
          <Node pos="r" depth="2" NCoef="0" IVar="-1" Cut="0.0000000000000000e+00" cType="1" res="6.5758060663938522e-03" rms="4.7040462493896484e-01" purity="6.3002067804336548e-01" nType="-99"/>
        </Node>
        <Node pos="r" depth="1" NCoef="0" IVar="10" Cut="1.6497515141963959e-01" cType="1" res="-3.2033663243055344e-02" rms="4.4785064458847046e-01" purity="3.9126336574554443e-01" nType="0">
          <Node pos="l" depth="2" NCoef="0" IVar="-1" Cut="0.0000000000000000e+00" cType="1" res="-2.1178998053073883e-02" rms="4.2679658532142639e-01" purity="2.9270520806312561e-01" nType="-99"/>
          <Node pos="r" depth="2" NCoef="0" IVar="-1" Cut="0.0000000000000000e+00" cType="1" res="1.7495222855359316e-03" rms="4.5520392060279846e-01" purity="4.5148211717605591e-01" nType="-99"/>
        </Node>
      </Node>
    </BinaryTree>
    <BinaryTree type="DecisionTree" boostWeight="1.0000000000000000e+00" itree="22">
      <Node pos="s" depth="0" NCoef="0" IVar="12" Cut="3.0849191546440125e-01" cType="1" res="1.1297682300209999e-02" rms="4.5549577474594116e-01" purity="4.9942544102668762e-01" nType="0">
        <Node pos="l" depth="1" NCoef="0" IVar="0" Cut="3.9965014457702637e+00" cType="1" res="-4.1513141244649887e-02" rms="4.5477259159088135e-01" purity="4.2616546154022217e-01" nType="0">
          <Node pos="l" depth="2" NCoef="0" IVar="-1" Cut="0.0000000000000000e+00" cType="1" res="-2.4555485695600510e-02" rms="4.1872823238372803e-01" purity="3.0835023522377014e-01" nType="-99"/>
          <Node pos="r" depth="2" NCoef="0" IVar="-1" Cut="0.0000000000000000e+00" cType="1" res="-1.2389920884743333e-03" rms="4.6513909101486206e-01" purity="4.7652435302734375e-01" nType="-99"/>
        </Node>
        <Node pos="r" depth="1" NCoef="0" IVar="6" Cut="1.0699020385742188e+02" cType="1" res="6.3395731151103973e-02" rms="4.5017802715301514e-01" purity="5.7169663906097412e-01" nType="0">
          <Node pos="l" depth="2" NCoef="0" IVar="-1" Cut="0.0000000000000000e+00" cType="1" res="1.4720300212502480e-02" rms="4.4385147094726562e-01" purity="6.5392041206359863e-01" nType="-99"/>
          <Node pos="r" depth="2" NCoef="0" IVar="-1" Cut="0.0000000000000000e+00" cType="1" res="-3.3965797629207373e-03" rms="4.5365935564041138e-01" purity="3.8765400648117065e-01" nType="-99"/>
        </Node>
      </Node>
    </BinaryTree>
    <BinaryTree type="DecisionTree" boostWeight="1.0000000000000000e+00" itree="23">
      <Node pos="s" depth="0" NCoef="0" IVar="17" Cut="5.5370197296142578e+01" cType="1" res="1.0016512125730515e-02" rms="4.5731040835380554e-01" purity="4.9782660603523254e-01" nType="0">
        <Node pos="l" depth="1" NCoef="0" IVar="6" Cut="7.9377388000488281e+01" cType="1" res="5.9751797467470169e-02" rms="4.5765909552574158e-01" purity="6.2395298480987549e-01" nType="0">
          <Node pos="l" depth="2" NCoef="0" IVar="-1" Cut="0.0000000000000000e+00" cType="1" res="1.5610108152031898e-02" rms="4.3379220366477966e-01" purity="7.2527718544006348e-01" nType="-99"/>
          <Node pos="r" depth="2" NCoef="0" IVar="-1" Cut="0.0000000000000000e+00" cType="1" res="2.0610096398741007e-03" rms="4.7416713833808899e-01" purity="5.2873343229293823e-01" nType="-99"/>
        </Node>
        <Node pos="r" depth="1" NCoef="0" IVar="10" Cut="2.1373413503170013e-01" cType="1" res="-2.7589011937379837e-02" rms="4.5343917608261108e-01" purity="4.0246069431304932e-01" nType="0">
          <Node pos="l" depth="2" NCoef="0" IVar="-1" Cut="0.0000000000000000e+00" cType="1" res="-1.2959092855453491e-02" rms="4.4528779387474060e-01" purity="3.4109199047088623e-01" nType="-99"/>
          <Node pos="r" depth="2" NCoef="0" IVar="-1" Cut="0.0000000000000000e+00" cType="1" res="2.6261622551828623e-03" rms="4.5842719078063965e-01" purity="4.6995609998703003e-01" nType="-99"/>
        </Node>
      </Node>
    </BinaryTree>
    <BinaryTree type="DecisionTree" boostWeight="1.0000000000000000e+00" itree="24">
      <Node pos="s" depth="0" NCoef="0" IVar="1" Cut="-2.6910929679870605e+00" cType="1" res="2.6384091470390558e-03" rms="4.5386067032814026e-01" purity="4.9215731024742126e-01" nType="0">
        <Node pos="l" depth="1" NCoef="0" IVar="17" Cut="7.6520774841308594e+01" cType="1" res="9.9528901278972626e-02" rms="4.3989798426628113e-01" purity="6.3884425163269043e-01" nType="0">
          <Node pos="l" depth="2" NCoef="0" IVar="-1" Cut="0.0000000000000000e+00" cType="1" res="1.9285252317786217e-02" rms="4.2531663179397583e-01" purity="7.2545009851455688e-01" nType="-99"/>
          <Node pos="r" depth="2" NCoef="0" IVar="-1" Cut="0.0000000000000000e+00" cType="1" res="9.1067590983584523e-04" rms="4.6397480368614197e-01" purity="4.0526825189590454e-01" nType="-99"/>
        </Node>
        <Node pos="r" depth="1" NCoef="0" IVar="1" Cut="2.7069928646087646e+00" cType="1" res="-2.5888869538903236e-02" rms="4.5396688580513000e-01" purity="4.4896849989891052e-01" nType="0">
          <Node pos="l" depth="2" NCoef="0" IVar="-1" Cut="0.0000000000000000e+00" cType="1" res="-1.1437038891017437e-02" rms="4.5140886306762695e-01" purity="3.9113935828208923e-01" nType="-99"/>
          <Node pos="r" depth="2" NCoef="0" IVar="-1" Cut="0.0000000000000000e+00" cType="1" res="1.1698550544679165e-02" rms="4.4575816392898560e-01" purity="6.1163169145584106e-01" nType="-99"/>
        </Node>
      </Node>
    </BinaryTree>
    <BinaryTree type="DecisionTree" boostWeight="1.0000000000000000e+00" itree="25">
      <Node pos="s" depth="0" NCoef="0" IVar="12" Cut="3.0864951014518738e-01" cType="1" res="1.7264230409637094e-03" rms="4.5284405350685120e-01" purity="4.8911359906196594e-01" nType="0">
        <Node pos="l" depth="1" NCoef="0" IVar="14" Cut="2.2513320446014404e+00" cType="1" res="-4.4183202087879181e-02" rms="4.5081484317779541e-01" purity="4.2133224010467529e-01" nType="0">
          <Node pos="l" depth="2" NCoef="0" IVar="-1" Cut="0.0000000000000000e+00" cType="1" res="-2.7609851211309433e-02" rms="4.1975474357604980e-01" purity="3.1481531262397766e-01" nType="-99"/>
          <Node pos="r" depth="2" NCoef="0" IVar="-1" Cut="0.0000000000000000e+00" cType="1" res="-2.1843488793820143e-03" rms="4.5664903521537781e-01" purity="4.5772024989128113e-01" nType="-99"/>
        </Node>
        <Node pos="r" depth="1" NCoef="0" IVar="17" Cut="9.9424240112304688e+01" cType="1" res="4.6772815287113190e-02" rms="4.5029959082603455e-01" purity="5.5562049150466919e-01" nType="0">
          <Node pos="l" depth="2" NCoef="0" IVar="-1" Cut="0.0000000000000000e+00" cType="1" res="1.1374390684068203e-02" rms="4.5161530375480652e-01" purity="6.3166135549545288e-01" nType="-99"/>
          <Node pos="r" depth="2" NCoef="0" IVar="-1" Cut="0.0000000000000000e+00" cType="1" res="-1.0677090846002102e-02" rms="4.3175551295280457e-01" purity="2.8955209255218506e-01" nType="-99"/>
        </Node>
      </Node>
    </BinaryTree>
    <BinaryTree type="DecisionTree" boostWeight="1.0000000000000000e+00" itree="26">
      <Node pos="s" depth="0" NCoef="0" IVar="10" Cut="1.1520910263061523e-01" cType="1" res="1.6703801229596138e-02" rms="4.5326542854309082e-01" purity="5.0649857521057129e-01" nType="0">
        <Node pos="l" depth="1" NCoef="0" IVar="16" Cut="4.6148736572265625e+02" cType="1" res="-5.7511817663908005e-02" rms="4.4897615909576416e-01" purity="4.0118277072906494e-01" nType="0">
          <Node pos="l" depth="2" NCoef="0" IVar="-1" Cut="0.0000000000000000e+00" cType="1" res="-3.6732284934259951e-04" rms="4.8235461115837097e-01" purity="5.6832760572433472e-01" nType="-99"/>
          <Node pos="r" depth="2" NCoef="0" IVar="-1" Cut="0.0000000000000000e+00" cType="1" res="-2.3094125092029572e-02" rms="4.1414842009544373e-01" purity="2.6394456624984741e-01" nType="-99"/>
        </Node>
        <Node pos="r" depth="1" NCoef="0" IVar="6" Cut="1.1827217102050781e+02" cType="1" res="4.4301822781562805e-02" rms="4.5175081491470337e-01" purity="5.4566162824630737e-01" nType="0">
          <Node pos="l" depth="2" NCoef="0" IVar="-1" Cut="0.0000000000000000e+00" cType="1" res="1.1042157188057899e-02" rms="4.5206564664840698e-01" purity="6.1995351314544678e-01" nType="-99"/>
          <Node pos="r" depth="2" NCoef="0" IVar="-1" Cut="0.0000000000000000e+00" cType="1" res="-7.8863445669412613e-03" rms="4.4063600897789001e-01" purity="3.2621777057647705e-01" nType="-99"/>
        </Node>
      </Node>
    </BinaryTree>
    <BinaryTree type="DecisionTree" boostWeight="1.0000000000000000e+00" itree="27">
      <Node pos="s" depth="0" NCoef="0" IVar="11" Cut="1.6620232164859772e-01" cType="1" res="4.8727085813879967e-03" rms="4.5151075720787048e-01" purity="4.9454447627067566e-01" nType="0">
        <Node pos="l" depth="1" NCoef="0" IVar="18" Cut="4.4419239044189453e+01" cType="1" res="-5.2427891641855240e-02" rms="4.5046868920326233e-01" purity="4.2115676403045654e-01" nType="0">
          <Node pos="l" depth="2" NCoef="0" IVar="-1" Cut="0.0000000000000000e+00" cType="1" res="-1.1408200953155756e-03" rms="4.6522811055183411e-01" purity="5.2856206893920898e-01" nType="-99"/>
          <Node pos="r" depth="2" NCoef="0" IVar="-1" Cut="0.0000000000000000e+00" cType="1" res="-1.9903754815459251e-02" rms="4.3076550960540771e-01" purity="3.1529217958450317e-01" nType="-99"/>
        </Node>
        <Node pos="r" depth="1" NCoef="0" IVar="17" Cut="8.2784652709960938e+01" cType="1" res="4.2622461915016174e-02" rms="4.4821095466613770e-01" purity="5.4289245605468750e-01" nType="0">
          <Node pos="l" depth="2" NCoef="0" IVar="-1" Cut="0.0000000000000000e+00" cType="1" res="1.1541116051375866e-02" rms="4.4729241728782654e-01" purity="6.4377254247665405e-01" nType="-99"/>
          <Node pos="r" depth="2" NCoef="0" IVar="-1" Cut="0.0000000000000000e+00" cType="1" res="-6.1836787499487400e-03" rms="4.4146099686622620e-01" purity="3.2424592971801758e-01" nType="-99"/>
        </Node>
      </Node>
    </BinaryTree>
    <BinaryTree type="DecisionTree" boostWeight="1.0000000000000000e+00" itree="28">
      <Node pos="s" depth="0" NCoef="0" IVar="1" Cut="2.4510054588317871e+00" cType="1" res="1.4080204069614410e-02" rms="4.5344346761703491e-01" purity="5.0351566076278687e-01" nType="0">
        <Node pos="l" depth="1" NCoef="0" IVar="1" Cut="-2.2826442718505859e+00" cType="1" res="-1.4547296799719334e-02" rms="4.5250847935676575e-01" purity="4.5815324783325195e-01" nType="0">
          <Node pos="l" depth="2" NCoef="0" IVar="-1" Cut="0.0000000000000000e+00" cType="1" res="8.9005678892135620e-03" rms="4.5168754458427429e-01" purity="5.8782792091369629e-01" nType="-99"/>
          <Node pos="r" depth="2" NCoef="0" IVar="-1" Cut="0.0000000000000000e+00" cType="1" res="-1.6214799135923386e-02" rms="4.4303616881370544e-01" purity="3.3443737030029297e-01" nType="-99"/>
        </Node>
        <Node pos="r" depth="1" NCoef="0" IVar="12" Cut="3.5709640383720398e-01" cType="1" res="8.0254159867763519e-02" rms="4.4865977764129639e-01" purity="6.0837346315383911e-01" nType="0">
          <Node pos="l" depth="2" NCoef="0" IVar="-1" Cut="0.0000000000000000e+00" cType="1" res="6.7187719978392124e-03" rms="4.6154171228408813e-01" purity="5.4826086759567261e-01" nType="-99"/>
          <Node pos="r" depth="2" NCoef="0" IVar="-1" Cut="0.0000000000000000e+00" cType="1" res="2.0055476576089859e-02" rms="4.2318055033683777e-01" purity="6.9481819868087769e-01" nType="-99"/>
        </Node>
      </Node>
    </BinaryTree>
    <BinaryTree type="DecisionTree" boostWeight="1.0000000000000000e+00" itree="29">
      <Node pos="s" depth="0" NCoef="0" IVar="6" Cut="9.8476638793945312e+01" cType="1" res="7.3390975594520569e-03" rms="4.5208930969238281e-01" purity="4.9696791172027588e-01" nType="0">
        <Node pos="l" depth="1" NCoef="0" IVar="11" Cut="1.5046605467796326e-01" cType="1" res="4.0351025760173798e-02" rms="4.5731413364410400e-01" purity="5.8288252353668213e-01" nType="0">
          <Node pos="l" depth="2" NCoef="0" IVar="-1" Cut="0.0000000000000000e+00" cType="1" res="-2.9703618492931128e-03" rms="4.6890649199485779e-01" purity="5.0083655118942261e-01" nType="-99"/>
          <Node pos="r" depth="2" NCoef="0" IVar="-1" Cut="0.0000000000000000e+00" cType="1" res="1.1168752796947956e-02" rms="4.4737359881401062e-01" purity="6.2895011901855469e-01" nType="-99"/>
        </Node>
        <Node pos="r" depth="1" NCoef="0" IVar="17" Cut="4.6910530090332031e+01" cType="1" res="-5.0039745867252350e-02" rms="4.3696635961532593e-01" purity="3.4763750433921814e-01" nType="0">
          <Node pos="l" depth="2" NCoef="0" IVar="-1" Cut="0.0000000000000000e+00" cType="1" res="3.2230175565928221e-03" rms="4.6336320042610168e-01" purity="4.9962347745895386e-01" nType="-99"/>
          <Node pos="r" depth="2" NCoef="0" IVar="-1" Cut="0.0000000000000000e+00" cType="1" res="-1.8272673711180687e-02" rms="4.2003822326660156e-01" purity="2.7594029903411865e-01" nType="-99"/>
        </Node>
      </Node>
    </BinaryTree>
    <BinaryTree type="DecisionTree" boostWeight="1.0000000000000000e+00" itree="30">
      <Node pos="s" depth="0" NCoef="0" IVar="18" Cut="5.2347778320312500e+01" cType="1" res="8.2952938973903656e-03" rms="4.4829338788986206e-01" purity="4.9762228131294250e-01" nType="0">
        <Node pos="l" depth="1" NCoef="0" IVar="11" Cut="1.4535132050514221e-01" cType="1" res="4.2085547000169754e-02" rms="4.5182299613952637e-01" purity="5.8502763509750366e-01" nType="0">
          <Node pos="l" depth="2" NCoef="0" IVar="-1" Cut="0.0000000000000000e+00" cType="1" res="-3.6869226023554802e-03" rms="4.6378543972969055e-01" purity="4.9746716022491455e-01" nType="-99"/>
          <Node pos="r" depth="2" NCoef="0" IVar="-1" Cut="0.0000000000000000e+00" cType="1" res="1.1309957131743431e-02" rms="4.4257903099060059e-01" purity="6.2749075889587402e-01" nType="-99"/>
        </Node>
        <Node pos="r" depth="1" NCoef="0" IVar="11" Cut="1.1449830234050751e-01" cType="1" res="-4.6097483485937119e-02" rms="4.3709987401962280e-01" purity="3.5692429542541504e-01" nType="0">
          <Node pos="l" depth="2" NCoef="0" IVar="-1" Cut="0.0000000000000000e+00" cType="1" res="-2.3299284279346466e-02" rms="4.1655564308166504e-01" purity="2.6442828774452209e-01" nType="-99"/>
          <Node pos="r" depth="2" NCoef="0" IVar="-1" Cut="0.0000000000000000e+00" cType="1" res="-4.3388167396187782e-03" rms="4.4278085231781006e-01" purity="3.9349779486656189e-01" nType="-99"/>
        </Node>
      </Node>
    </BinaryTree>
    <BinaryTree type="DecisionTree" boostWeight="1.0000000000000000e+00" itree="31">
      <Node pos="s" depth="0" NCoef="0" IVar="16" Cut="4.5600546264648438e+02" cType="1" res="1.2047138996422291e-02" rms="4.4888895750045776e-01" purity="5.0347489118576050e-01" nType="0">
        <Node pos="l" depth="1" NCoef="0" IVar="14" Cut="3.6844742298126221e+00" cType="1" res="5.8930121362209320e-02" rms="4.5413243770599365e-01" purity="6.6443777084350586e-01" nType="0">
          <Node pos="l" depth="2" NCoef="0" IVar="-1" Cut="0.0000000000000000e+00" cType="1" res="4.1803536005318165e-03" rms="4.6351170539855957e-01" purity="6.3344854116439819e-01" nType="-99"/>
          <Node pos="r" depth="2" NCoef="0" IVar="-1" Cut="0.0000000000000000e+00" cType="1" res="1.5767822042107582e-02" rms="4.3217501044273376e-01" purity="7.1819466352462769e-01" nType="-99"/>
        </Node>
        <Node pos="r" depth="1" NCoef="0" IVar="12" Cut="3.4471556544303894e-01" cType="1" res="-2.2095277905464172e-02" rms="4.4191250205039978e-01" purity="3.8625410199165344e-01" nType="0">
          <Node pos="l" depth="2" NCoef="0" IVar="-1" Cut="0.0000000000000000e+00" cType="1" res="-1.3573745265603065e-02" rms="4.2971080541610718e-01" purity="3.1045287847518921e-01" nType="-99"/>
          <Node pos="r" depth="2" NCoef="0" IVar="-1" Cut="0.0000000000000000e+00" cType="1" res="4.5908316969871521e-03" rms="4.5134508609771729e-01" purity="4.7680258750915527e-01" nType="-99"/>
        </Node>
      </Node>
    </BinaryTree>
    <BinaryTree type="DecisionTree" boostWeight="1.0000000000000000e+00" itree="32">
      <Node pos="s" depth="0" NCoef="0" IVar="10" Cut="8.7691515684127808e-02" cType="1" res="1.3216496445238590e-02" rms="4.5019260048866272e-01" purity="5.0453591346740723e-01" nType="0">
        <Node pos="l" depth="1" NCoef="0" IVar="17" Cut="4.6943763732910156e+01" cType="1" res="-6.3699252903461456e-02" rms="4.4350808858871460e-01" purity="3.8383916020393372e-01" nType="0">
          <Node pos="l" depth="2" NCoef="0" IVar="-1" Cut="0.0000000000000000e+00" cType="1" res="3.4792141523212194e-03" rms="4.4969007372856140e-01" purity="5.8013570308685303e-01" nType="-99"/>
          <Node pos="r" depth="2" NCoef="0" IVar="-1" Cut="0.0000000000000000e+00" cType="1" res="-2.1621540188789368e-02" rms="4.3528330326080322e-01" purity="2.9583567380905151e-01" nType="-99"/>
        </Node>
        <Node pos="r" depth="1" NCoef="0" IVar="6" Cut="9.0945503234863281e+01" cType="1" res="3.2655186951160431e-02" rms="4.4978901743888855e-01" purity="5.3503918647766113e-01" nType="0">
          <Node pos="l" depth="2" NCoef="0" IVar="-1" Cut="0.0000000000000000e+00" cType="1" res="1.0397478938102722e-02" rms="4.4797039031982422e-01" purity="6.2718516588211060e-01" nType="-99"/>
          <Node pos="r" depth="2" NCoef="0" IVar="-1" Cut="0.0000000000000000e+00" cType="1" res="-3.3164392225444317e-03" rms="4.4765105843544006e-01" purity="4.0367442369461060e-01" nType="-99"/>
        </Node>
      </Node>
    </BinaryTree>
    <BinaryTree type="DecisionTree" boostWeight="1.0000000000000000e+00" itree="33">
      <Node pos="s" depth="0" NCoef="0" IVar="1" Cut="2.5622887611389160e+00" cType="1" res="1.2146630324423313e-02" rms="4.5014351606369019e-01" purity="5.0190353393554688e-01" nType="0">
        <Node pos="l" depth="1" NCoef="0" IVar="1" Cut="-2.5980403423309326e+00" cType="1" res="-9.5685645937919617e-03" rms="4.5051026344299316e-01" purity="4.5990085601806641e-01" nType="0">
          <Node pos="l" depth="2" NCoef="0" IVar="-1" Cut="0.0000000000000000e+00" cType="1" res="1.0853229090571404e-02" rms="4.3960368633270264e-01" purity="6.1692249774932861e-01" nType="-99"/>
          <Node pos="r" depth="2" NCoef="0" IVar="-1" Cut="0.0000000000000000e+00" cType="1" res="-9.8337670788168907e-03" rms="4.5076322555541992e-01" purity="3.7585720419883728e-01" nType="-99"/>
        </Node>
        <Node pos="r" depth="1" NCoef="0" IVar="14" Cut="3.5030522346496582e+00" cType="1" res="7.2314739227294922e-02" rms="4.4360703229904175e-01" purity="6.1828398704528809e-01" nType="0">
          <Node pos="l" depth="2" NCoef="0" IVar="-1" Cut="0.0000000000000000e+00" cType="1" res="6.5271011553704739e-03" rms="4.4748324155807495e-01" purity="5.7601344585418701e-01" nType="-99"/>
          <Node pos="r" depth="2" NCoef="0" IVar="-1" Cut="0.0000000000000000e+00" cType="1" res="2.1650761365890503e-02" rms="4.2497155070304871e-01" purity="7.1757471561431885e-01" nType="-99"/>
        </Node>
      </Node>
    </BinaryTree>
    <BinaryTree type="DecisionTree" boostWeight="1.0000000000000000e+00" itree="34">
      <Node pos="s" depth="0" NCoef="0" IVar="14" Cut="2.4147126674652100e+00" cType="1" res="7.7884299680590630e-03" rms="4.4719299674034119e-01" purity="4.9956417083740234e-01" nType="0">
        <Node pos="l" depth="1" NCoef="0" IVar="12" Cut="4.3630141019821167e-01" cType="1" res="-4.6466190367937088e-02" rms="4.3805411458015442e-01" purity="4.3637788295745850e-01" nType="0">
          <Node pos="l" depth="2" NCoef="0" IVar="-1" Cut="0.0000000000000000e+00" cType="1" res="-1.4450755901634693e-02" rms="4.3477937579154968e-01" purity="3.8910213112831116e-01" nType="-99"/>
          <Node pos="r" depth="2" NCoef="0" IVar="-1" Cut="0.0000000000000000e+00" cType="1" res="6.0747405514121056e-03" rms="4.3705302476882935e-01" purity="5.7382392883300781e-01" nType="-99"/>
        </Node>
        <Node pos="r" depth="1" NCoef="0" IVar="1" Cut="-2.6199796199798584e+00" cType="1" res="3.2468561083078384e-02" rms="4.4912543892860413e-01" purity="5.2830725908279419e-01" nType="0">
          <Node pos="l" depth="2" NCoef="0" IVar="-1" Cut="0.0000000000000000e+00" cType="1" res="1.6220785677433014e-02" rms="4.2899045348167419e-01" purity="6.7912250757217407e-01" nType="-99"/>
          <Node pos="r" depth="2" NCoef="0" IVar="-1" Cut="0.0000000000000000e+00" cType="1" res="1.8509152578189969e-03" rms="4.5261129736900330e-01" purity="4.8365956544876099e-01" nType="-99"/>
        </Node>
      </Node>
    </BinaryTree>
    <BinaryTree type="DecisionTree" boostWeight="1.0000000000000000e+00" itree="35">
      <Node pos="s" depth="0" NCoef="0" IVar="18" Cut="9.3807662963867188e+01" cType="1" res="8.8816452771425247e-03" rms="4.4698569178581238e-01" purity="5.0028741359710693e-01" nType="0">
        <Node pos="l" depth="1" NCoef="0" IVar="10" Cut="6.2017604708671570e-02" cType="1" res="2.2424805909395218e-02" rms="4.5240962505340576e-01" purity="5.4157280921936035e-01" nType="0">
          <Node pos="l" depth="2" NCoef="0" IVar="-1" Cut="0.0000000000000000e+00" cType="1" res="-1.3604020699858665e-02" rms="4.4579154253005981e-01" purity="3.9612835645675659e-01" nType="-99"/>
          <Node pos="r" depth="2" NCoef="0" IVar="-1" Cut="0.0000000000000000e+00" cType="1" res="6.1385226435959339e-03" rms="4.5161798596382141e-01" purity="5.6459331512451172e-01" nType="-99"/>
        </Node>
        <Node pos="r" depth="1" NCoef="0" IVar="14" Cut="2.7202916145324707e+00" cType="1" res="-8.2546368241310120e-02" rms="3.9656814932823181e-01" purity="2.2157540917396545e-01" nType="0">
          <Node pos="l" depth="2" NCoef="0" IVar="-1" Cut="0.0000000000000000e+00" cType="1" res="-3.9768256247043610e-02" rms="3.3604463934898376e-01" purity="1.4012791216373444e-01" nType="-99"/>
          <Node pos="r" depth="2" NCoef="0" IVar="-1" Cut="0.0000000000000000e+00" cType="1" res="-1.0164990089833736e-02" rms="4.2725026607513428e-01" purity="2.7459561824798584e-01" nType="-99"/>
        </Node>
      </Node>
    </BinaryTree>
    <BinaryTree type="DecisionTree" boostWeight="1.0000000000000000e+00" itree="36">
      <Node pos="s" depth="0" NCoef="0" IVar="6" Cut="8.5327911376953125e+01" cType="1" res="9.7283208742737770e-03" rms="4.4687730073928833e-01" purity="5.0132060050964355e-01" nType="0">
        <Node pos="l" depth="1" NCoef="0" IVar="17" Cut="6.1320865631103516e+01" cType="1" res="4.3326340615749359e-02" rms="4.4897732138633728e-01" purity="5.9924441576004028e-01" nType="0">
          <Node pos="l" depth="2" NCoef="0" IVar="-1" Cut="0.0000000000000000e+00" cType="1" res="1.2102704495191574e-02" rms="4.2873385548591614e-01" purity="7.2313559055328369e-01" nType="-99"/>
          <Node pos="r" depth="2" NCoef="0" IVar="-1" Cut="0.0000000000000000e+00" cType="1" res="3.6059026024304330e-04" rms="4.6642851829528809e-01" purity="4.6507924795150757e-01" nType="-99"/>
        </Node>
        <Node pos="r" depth="1" NCoef="0" IVar="14" Cut="2.9700107574462891e+00" cType="1" res="-2.9821986332535744e-02" rms="4.4112545251846313e-01" purity="3.8604837656021118e-01" nType="0">
          <Node pos="l" depth="2" NCoef="0" IVar="-1" Cut="0.0000000000000000e+00" cType="1" res="-1.5216319821774960e-02" rms="4.2249658703804016e-01" purity="3.3024230599403381e-01" nType="-99"/>
          <Node pos="r" depth="2" NCoef="0" IVar="-1" Cut="0.0000000000000000e+00" cType="1" res="1.6748947091400623e-03" rms="4.5383259654045105e-01" purity="4.3645939230918884e-01" nType="-99"/>
        </Node>
      </Node>
    </BinaryTree>
    <BinaryTree type="DecisionTree" boostWeight="1.0000000000000000e+00" itree="37">
      <Node pos="s" depth="0" NCoef="0" IVar="18" Cut="5.5679737091064453e+01" cType="1" res="9.8934210836887360e-03" rms="4.4663286209106445e-01" purity="5.0271993875503540e-01" nType="0">
        <Node pos="l" depth="1" NCoef="0" IVar="12" Cut="1.7344480752944946e-01" cType="1" res="3.6779213696718216e-02" rms="4.5171162486076355e-01" purity="5.8675581216812134e-01" nType="0">
          <Node pos="l" depth="2" NCoef="0" IVar="-1" Cut="0.0000000000000000e+00" cType="1" res="-7.7240816317498684e-03" rms="4.5753777027130127e-01" purity="4.4389477372169495e-01" nType="-99"/>
          <Node pos="r" depth="2" NCoef="0" IVar="-1" Cut="0.0000000000000000e+00" cType="1" res="8.2872947677969933e-03" rms="4.4895243644714355e-01" purity="6.1400145292282104e-01" nType="-99"/>
        </Node>
        <Node pos="r" depth="1" NCoef="0" IVar="3" Cut="7.2523880004882812e+01" cType="1" res="-4.2210198938846588e-02" rms="4.3188348412513733e-01" purity="3.3986169099807739e-01" nType="0">
          <Node pos="l" depth="2" NCoef="0" IVar="-1" Cut="0.0000000000000000e+00" cType="1" res="2.7778653893619776e-03" rms="4.7033041715621948e-01" purity="4.2755845189094543e-01" nType="-99"/>
          <Node pos="r" depth="2" NCoef="0" IVar="-1" Cut="0.0000000000000000e+00" cType="1" res="-1.3328181579709053e-02" rms="4.1639465093612671e-01" purity="3.1044876575469971e-01" nType="-99"/>
        </Node>
      </Node>
    </BinaryTree>
    <BinaryTree type="DecisionTree" boostWeight="1.0000000000000000e+00" itree="38">
      <Node pos="s" depth="0" NCoef="0" IVar="1" Cut="-2.6804087162017822e+00" cType="1" res="5.0381822511553764e-03" rms="4.4778710603713989e-01" purity="4.9782186746597290e-01" nType="0">
        <Node pos="l" depth="1" NCoef="0" IVar="11" Cut="1.6166494786739349e-01" cType="1" res="7.3540009558200836e-02" rms="4.3693366646766663e-01" purity="6.3740158081054688e-01" nType="0">
          <Node pos="l" depth="2" NCoef="0" IVar="-1" Cut="0.0000000000000000e+00" cType="1" res="9.6152798505499959e-04" rms="4.4807827472686768e-01" purity="5.4117882251739502e-01" nType="-99"/>
          <Node pos="r" depth="2" NCoef="0" IVar="-1" Cut="0.0000000000000000e+00" cType="1" res="1.7090253531932831e-02" rms="4.2607566714286804e-01" purity="6.9039785861968994e-01" nType="-99"/>
        </Node>
        <Node pos="r" depth="1" NCoef="0" IVar="1" Cut="2.2392320632934570e+00" cType="1" res="-1.5826467424631119e-02" rms="4.4896924495697021e-01" purity="4.5530793070793152e-01" nType="0">
          <Node pos="l" depth="2" NCoef="0" IVar="-1" Cut="0.0000000000000000e+00" cType="1" res="-1.2226327322423458e-02" rms="4.4403234124183655e-01" purity="3.5780861973762512e-01" nType="-99"/>
          <Node pos="r" depth="2" NCoef="0" IVar="-1" Cut="0.0000000000000000e+00" cType="1" res="6.5811448730528355e-03" rms="4.4856625795364380e-01" purity="5.7396173477172852e-01" nType="-99"/>
        </Node>
      </Node>
    </BinaryTree>
    <BinaryTree type="DecisionTree" boostWeight="1.0000000000000000e+00" itree="39">
      <Node pos="s" depth="0" NCoef="0" IVar="14" Cut="2.6432743072509766e+00" cType="1" res="1.5203815884888172e-02" rms="4.4723764061927795e-01" purity="5.0872755050659180e-01" nType="0">
        <Node pos="l" depth="1" NCoef="0" IVar="17" Cut="5.3686019897460938e+01" cType="1" res="-2.5827985256910324e-02" rms="4.4154727458953857e-01" purity="4.5609098672866821e-01" nType="0">
          <Node pos="l" depth="2" NCoef="0" IVar="-1" Cut="0.0000000000000000e+00" cType="1" res="4.3393243104219437e-03" rms="4.4397273659706116e-01" purity="6.0923206806182861e-01" nType="-99"/>
          <Node pos="r" depth="2" NCoef="0" IVar="-1" Cut="0.0000000000000000e+00" cType="1" res="-1.2466761283576488e-02" rms="4.3631002306938171e-01" purity="3.5234457254409790e-01" nType="-99"/>
        </Node>
        <Node pos="r" depth="1" NCoef="0" IVar="1" Cut="2.4503736495971680e+00" cType="1" res="4.0839739143848419e-02" rms="4.4885662198066711e-01" purity="5.4161393642425537e-01" nType="0">
          <Node pos="l" depth="2" NCoef="0" IVar="-1" Cut="0.0000000000000000e+00" cType="1" res="3.5586347803473473e-03" rms="4.5178040862083435e-01" purity="4.9672156572341919e-01" nType="-99"/>
          <Node pos="r" depth="2" NCoef="0" IVar="-1" Cut="0.0000000000000000e+00" cType="1" res="1.5154273249208927e-02" rms="4.3528473377227783e-01" purity="6.6842973232269287e-01" nType="-99"/>
        </Node>
      </Node>
    </BinaryTree>
    <BinaryTree type="DecisionTree" boostWeight="1.0000000000000000e+00" itree="40">
      <Node pos="s" depth="0" NCoef="0" IVar="6" Cut="9.0299736022949219e+01" cType="1" res="1.4307307079434395e-02" rms="4.4623073935508728e-01" purity="5.0845921039581299e-01" nType="0">
        <Node pos="l" depth="1" NCoef="0" IVar="24" Cut="4.8297002911567688e-01" cType="1" res="4.1590321809053421e-02" rms="4.4779601693153381e-01" purity="6.0059446096420288e-01" nType="0">
          <Node pos="l" depth="2" NCoef="0" IVar="-1" Cut="0.0000000000000000e+00" cType="1" res="9.1427583247423172e-03" rms="4.4375374913215637e-01" purity="6.5217983722686768e-01" nType="-99"/>
          <Node pos="r" depth="2" NCoef="0" IVar="-1" Cut="0.0000000000000000e+00" cType="1" res="-5.1169064827263355e-03" rms="4.5729136466979980e-01" purity="3.9003887772560120e-01" nType="-99"/>
        </Node>
        <Node pos="r" depth="1" NCoef="0" IVar="14" Cut="2.2263011932373047e+00" cType="1" res="-2.2362962365150452e-02" rms="4.4147002696990967e-01" purity="3.8462305068969727e-01" nType="0">
          <Node pos="l" depth="2" NCoef="0" IVar="-1" Cut="0.0000000000000000e+00" cType="1" res="-1.9028501585125923e-02" rms="4.1429880261421204e-01" purity="2.9556506872177124e-01" nType="-99"/>
          <Node pos="r" depth="2" NCoef="0" IVar="-1" Cut="0.0000000000000000e+00" cType="1" res="-5.4839998483657837e-04" rms="4.4760194420814514e-01" purity="4.1175827383995056e-01" nType="-99"/>
        </Node>
      </Node>
    </BinaryTree>
    <BinaryTree type="DecisionTree" boostWeight="1.0000000000000000e+00" itree="41">
      <Node pos="s" depth="0" NCoef="0" IVar="1" Cut="-2.5610532760620117e+00" cType="1" res="5.9817014262080193e-03" rms="4.4446131587028503e-01" purity="4.9838742613792419e-01" nType="0">
        <Node pos="l" depth="1" NCoef="0" IVar="12" Cut="3.3644104003906250e-01" cType="1" res="6.7418262362480164e-02" rms="4.3353644013404846e-01" purity="6.2766814231872559e-01" nType="0">
          <Node pos="l" depth="2" NCoef="0" IVar="-1" Cut="0.0000000000000000e+00" cType="1" res="3.5692420788109303e-03" rms="4.4647434353828430e-01" purity="5.5021685361862183e-01" nType="-99"/>
          <Node pos="r" depth="2" NCoef="0" IVar="-1" Cut="0.0000000000000000e+00" cType="1" res="1.7864082008600235e-02" rms="4.1416665911674500e-01" purity="7.0850962400436401e-01" nType="-99"/>
        </Node>
        <Node pos="r" depth="1" NCoef="0" IVar="1" Cut="2.2279937267303467e+00" cType="1" res="-1.6719967126846313e-02" rms="4.4629606604576111e-01" purity="4.5061638951301575e-01" nType="0">
          <Node pos="l" depth="2" NCoef="0" IVar="-1" Cut="0.0000000000000000e+00" cType="1" res="-1.1801412329077721e-02" rms="4.4217339158058167e-01" purity="3.4413748979568481e-01" nType="-99"/>
          <Node pos="r" depth="2" NCoef="0" IVar="-1" Cut="0.0000000000000000e+00" cType="1" res="5.0471518188714981e-03" rms="4.4624522328376770e-01" purity="5.7095700502395630e-01" nType="-99"/>
        </Node>
      </Node>
    </BinaryTree>
    <BinaryTree type="DecisionTree" boostWeight="1.0000000000000000e+00" itree="42">
      <Node pos="s" depth="0" NCoef="0" IVar="18" Cut="5.1937297821044922e+01" cType="1" res="7.8517617657780647e-03" rms="4.4528177380561829e-01" purity="5.0154727697372437e-01" nType="0">
        <Node pos="l" depth="1" NCoef="0" IVar="17" Cut="6.0069160461425781e+01" cType="1" res="3.3621553331613541e-02" rms="4.4994077086448669e-01" purity="5.9069013595581055e-01" nType="0">
          <Node pos="l" depth="2" NCoef="0" IVar="-1" Cut="0.0000000000000000e+00" cType="1" res="9.8243905231356621e-03" rms="4.3502306938171387e-01" purity="6.9086509943008423e-01" nType="-99"/>
          <Node pos="r" depth="2" NCoef="0" IVar="-1" Cut="0.0000000000000000e+00" cType="1" res="-4.7779147280380130e-04" rms="4.6497991681098938e-01" purity="4.6804109215736389e-01" nType="-99"/>
        </Node>
        <Node pos="r" depth="1" NCoef="0" IVar="16" Cut="8.6303112792968750e+02" cType="1" res="-3.3765591681003571e-02" rms="4.3443709611892700e-01" purity="3.5758453607559204e-01" nType="0">
          <Node pos="l" depth="2" NCoef="0" IVar="-1" Cut="0.0000000000000000e+00" cType="1" res="-3.8872400764375925e-03" rms="4.5426279306411743e-01" purity="4.0143653750419617e-01" nType="-99"/>
          <Node pos="r" depth="2" NCoef="0" IVar="-1" Cut="0.0000000000000000e+00" cType="1" res="-3.8610633462667465e-02" rms="2.8575184941291809e-01" purity="1.0776249319314957e-01" nType="-99"/>
        </Node>
      </Node>
    </BinaryTree>
    <BinaryTree type="DecisionTree" boostWeight="1.0000000000000000e+00" itree="43">
      <Node pos="s" depth="0" NCoef="0" IVar="1" Cut="-2.7613308429718018e+00" cType="1" res="3.9915530942380428e-03" rms="4.4480821490287781e-01" purity="4.9810791015625000e-01" nType="0">
        <Node pos="l" depth="1" NCoef="0" IVar="21" Cut="1.6460829973220825e+00" cType="1" res="6.6979773342609406e-02" rms="4.3335518240928650e-01" purity="6.4638382196426392e-01" nType="0">
          <Node pos="l" depth="2" NCoef="0" IVar="-1" Cut="0.0000000000000000e+00" cType="1" res="1.7863510176539421e-02" rms="4.1404908895492554e-01" purity="7.2607415914535522e-01" nType="-99"/>
          <Node pos="r" depth="2" NCoef="0" IVar="-1" Cut="0.0000000000000000e+00" cType="1" res="4.6578417532145977e-03" rms="4.4428172707557678e-01" purity="5.8276951313018799e-01" nType="-99"/>
        </Node>
        <Node pos="r" depth="1" NCoef="0" IVar="1" Cut="2.5565214157104492e+00" cType="1" res="-1.0808491148054600e-02" rms="4.4616842269897461e-01" purity="4.6326819062232971e-01" nType="0">
          <Node pos="l" depth="2" NCoef="0" IVar="-1" Cut="0.0000000000000000e+00" cType="1" res="-7.0144226774573326e-03" rms="4.4487562775611877e-01" purity="3.9468353986740112e-01" nType="-99"/>
          <Node pos="r" depth="2" NCoef="0" IVar="-1" Cut="0.0000000000000000e+00" cType="1" res="6.7720627412199974e-03" rms="4.4422751665115356e-01" purity="6.0345184803009033e-01" nType="-99"/>
        </Node>
      </Node>
    </BinaryTree>
    <BinaryTree type="DecisionTree" boostWeight="1.0000000000000000e+00" itree="44">
      <Node pos="s" depth="0" NCoef="0" IVar="14" Cut="2.6785941123962402e+00" cType="1" res="2.2460799664258957e-03" rms="4.4667237997055054e-01" purity="4.9659562110900879e-01" nType="0">
        <Node pos="l" depth="1" NCoef="0" IVar="11" Cut="3.1971013545989990e-01" cType="1" res="-4.0642336010932922e-02" rms="4.3926727771759033e-01" purity="4.3795165419578552e-01" nType="0">
          <Node pos="l" depth="2" NCoef="0" IVar="-1" Cut="0.0000000000000000e+00" cType="1" res="-1.2641777284443378e-02" rms="4.3622833490371704e-01" purity="3.9405253529548645e-01" nType="-99"/>
          <Node pos="r" depth="2" NCoef="0" IVar="-1" Cut="0.0000000000000000e+00" cType="1" res="2.8351505752652884e-03" rms="4.4130116701126099e-01" purity="5.4327309131622314e-01" nType="-99"/>
        </Node>
        <Node pos="r" depth="1" NCoef="0" IVar="11" Cut="1.0211196541786194e-01" cType="1" res="3.0238099396228790e-02" rms="4.4923707842826843e-01" purity="5.3487074375152588e-01" nType="0">
          <Node pos="l" depth="2" NCoef="0" IVar="-1" Cut="0.0000000000000000e+00" cType="1" res="-5.4571265354752541e-03" rms="4.5385473966598511e-01" purity="4.3978434801101685e-01" nType="-99"/>
          <Node pos="r" depth="2" NCoef="0" IVar="-1" Cut="0.0000000000000000e+00" cType="1" res="8.4445895627140999e-03" rms="4.4590404629707336e-01" purity="5.6656277179718018e-01" nType="-99"/>
        </Node>
      </Node>
    </BinaryTree>
    <BinaryTree type="DecisionTree" boostWeight="1.0000000000000000e+00" itree="45">
      <Node pos="s" depth="0" NCoef="0" IVar="10" Cut="1.1145232617855072e-01" cType="1" res="4.0295999497175217e-03" rms="4.4547688961029053e-01" purity="4.9596077203750610e-01" nType="0">
        <Node pos="l" depth="1" NCoef="0" IVar="0" Cut="5.5775847434997559e+00" cType="1" res="-4.1075751185417175e-02" rms="4.4351506233215332e-01" purity="3.9740622043609619e-01" nType="0">
          <Node pos="l" depth="2" NCoef="0" IVar="-1" Cut="0.0000000000000000e+00" cType="1" res="-1.2895190156996250e-02" rms="4.3263244628906250e-01" purity="3.6498343944549561e-01" nType="-99"/>
          <Node pos="r" depth="2" NCoef="0" IVar="-1" Cut="0.0000000000000000e+00" cType="1" res="7.0025986060500145e-03" rms="4.7284844517707825e-01" purity="5.1819533109664917e-01" nType="-99"/>
        </Node>
        <Node pos="r" depth="1" NCoef="0" IVar="17" Cut="1.3210351562500000e+02" cType="1" res="2.0052473992109299e-02" rms="4.4507274031639099e-01" purity="5.3097057342529297e-01" nType="0">
          <Node pos="l" depth="2" NCoef="0" IVar="-1" Cut="0.0000000000000000e+00" cType="1" res="5.4446626454591751e-03" rms="4.5149272680282593e-01" purity="5.7657957077026367e-01" nType="-99"/>
          <Node pos="r" depth="2" NCoef="0" IVar="-1" Cut="0.0000000000000000e+00" cType="1" res="-1.8817756325006485e-02" rms="3.8346225023269653e-01" purity="2.0315445959568024e-01" nType="-99"/>
        </Node>
      </Node>
    </BinaryTree>
    <BinaryTree type="DecisionTree" boostWeight="1.0000000000000000e+00" itree="46">
      <Node pos="s" depth="0" NCoef="0" IVar="14" Cut="3.8006360530853271e+00" cType="1" res="6.8986611440777779e-03" rms="4.4411653280258179e-01" purity="5.0265055894851685e-01" nType="0">
        <Node pos="l" depth="1" NCoef="0" IVar="6" Cut="1.0013764953613281e+02" cType="1" res="-9.5082083716988564e-03" rms="4.4268631935119629e-01" purity="4.7489261627197266e-01" nType="0">
          <Node pos="l" depth="2" NCoef="0" IVar="-1" Cut="0.0000000000000000e+00" cType="1" res="2.0331314299255610e-03" rms="4.5410817861557007e-01" purity="5.6096488237380981e-01" nType="-99"/>
          <Node pos="r" depth="2" NCoef="0" IVar="-1" Cut="0.0000000000000000e+00" cType="1" res="-1.1052861809730530e-02" rms="4.1754394769668579e-01" purity="3.1442153453826904e-01" nType="-99"/>
        </Node>
        <Node pos="r" depth="1" NCoef="0" IVar="3" Cut="6.6236351013183594e+01" cType="1" res="5.1509313285350800e-02" rms="4.4493374228477478e-01" purity="5.7812488079071045e-01" nType="0">
          <Node pos="l" depth="2" NCoef="0" IVar="-1" Cut="0.0000000000000000e+00" cType="1" res="1.7450984567403793e-02" rms="4.5115429162979126e-01" purity="6.6539192199707031e-01" nType="-99"/>
          <Node pos="r" depth="2" NCoef="0" IVar="-1" Cut="0.0000000000000000e+00" cType="1" res="4.5960200950503349e-03" rms="4.3993571400642395e-01" purity="5.4433619976043701e-01" nType="-99"/>
        </Node>
      </Node>
    </BinaryTree>
    <BinaryTree type="DecisionTree" boostWeight="1.0000000000000000e+00" itree="47">
      <Node pos="s" depth="0" NCoef="0" IVar="17" Cut="5.5274440765380859e+01" cType="1" res="9.0835224837064743e-03" rms="4.4129809737205505e-01" purity="5.0561439990997314e-01" nType="0">
        <Node pos="l" depth="1" NCoef="0" IVar="11" Cut="1.4083956182003021e-01" cType="1" res="4.7328591346740723e-02" rms="4.3970412015914917e-01" purity="6.4100402593612671e-01" nType="0">
          <Node pos="l" depth="2" NCoef="0" IVar="-1" Cut="0.0000000000000000e+00" cType="1" res="-6.2768760835751891e-04" rms="4.5823743939399719e-01" purity="5.5226075649261475e-01" nType="-99"/>
          <Node pos="r" depth="2" NCoef="0" IVar="-1" Cut="0.0000000000000000e+00" cType="1" res="1.1438489891588688e-02" rms="4.2809858918190002e-01" purity="6.8453150987625122e-01" nType="-99"/>
        </Node>
        <Node pos="r" depth="1" NCoef="0" IVar="10" Cut="2.2118102014064789e-01" cType="1" res="-2.0503506064414978e-02" rms="4.4025385379791260e-01" purity="4.0087464451789856e-01" nType="0">
          <Node pos="l" depth="2" NCoef="0" IVar="-1" Cut="0.0000000000000000e+00" cType="1" res="-1.0164863429963589e-02" rms="4.3399053812026978e-01" purity="3.3675718307495117e-01" nType="-99"/>
          <Node pos="r" depth="2" NCoef="0" IVar="-1" Cut="0.0000000000000000e+00" cType="1" res="2.2682039998471737e-03" rms="4.4504451751708984e-01" purity="4.7471266984939575e-01" nType="-99"/>
        </Node>
      </Node>
    </BinaryTree>
    <BinaryTree type="DecisionTree" boostWeight="1.0000000000000000e+00" itree="48">
      <Node pos="s" depth="0" NCoef="0" IVar="11" Cut="1.7192946374416351e-01" cType="1" res="2.8376965783536434e-03" rms="4.4380563497543335e-01" purity="4.9684262275695801e-01" nType="0">
        <Node pos="l" depth="1" NCoef="0" IVar="3" Cut="7.2120735168457031e+01" cType="1" res="-3.1398028135299683e-02" rms="4.4499039649963379e-01" purity="4.2316660284996033e-01" nType="0">
          <Node pos="l" depth="2" NCoef="0" IVar="-1" Cut="0.0000000000000000e+00" cType="1" res="4.5317942276597023e-03" rms="4.7717210650444031e-01" purity="5.1927542686462402e-01" nType="-99"/>
          <Node pos="r" depth="2" NCoef="0" IVar="-1" Cut="0.0000000000000000e+00" cType="1" res="-1.0810652747750282e-02" rms="4.2988473176956177e-01" purity="3.8629755377769470e-01" nType="-99"/>
        </Node>
        <Node pos="r" depth="1" NCoef="0" IVar="10" Cut="1.6825361549854279e-01" cType="1" res="2.6473494246602058e-02" rms="4.4143924117088318e-01" purity="5.4770737886428833e-01" nType="0">
          <Node pos="l" depth="2" NCoef="0" IVar="-1" Cut="0.0000000000000000e+00" cType="1" res="-3.9343065582215786e-03" rms="4.4686913490295410e-01" purity="4.5686519145965576e-01" nType="-99"/>
          <Node pos="r" depth="2" NCoef="0" IVar="-1" Cut="0.0000000000000000e+00" cType="1" res="9.2842942103743553e-03" rms="4.3543580174446106e-01" purity="6.0398405790328979e-01" nType="-99"/>
        </Node>
      </Node>
    </BinaryTree>
    <BinaryTree type="DecisionTree" boostWeight="1.0000000000000000e+00" itree="49">
      <Node pos="s" depth="0" NCoef="0" IVar="6" Cut="7.0105529785156250e+01" cType="1" res="2.9653236269950867e-03" rms="4.4228050112724304e-01" purity="4.9694296717643738e-01" nType="0">
        <Node pos="l" depth="1" NCoef="0" IVar="10" Cut="1.0040476173162460e-01" cType="1" res="3.8020443171262741e-02" rms="4.4412517547607422e-01" purity="6.0631489753723145e-01" nType="0">
          <Node pos="l" depth="2" NCoef="0" IVar="-1" Cut="0.0000000000000000e+00" cType="1" res="-4.3970863334834576e-03" rms="4.5350801944732666e-01" purity="4.8110637068748474e-01" nType="-99"/>
          <Node pos="r" depth="2" NCoef="0" IVar="-1" Cut="0.0000000000000000e+00" cType="1" res="9.0420376509428024e-03" rms="4.3949794769287109e-01" purity="6.4402425289154053e-01" nType="-99"/>
        </Node>
        <Node pos="r" depth="1" NCoef="0" IVar="1" Cut="-2.3469121456146240e+00" cType="1" res="-1.9941424950957298e-02" rms="4.3956327438354492e-01" purity="4.2547389864921570e-01" nType="0">
          <Node pos="l" depth="2" NCoef="0" IVar="-1" Cut="0.0000000000000000e+00" cType="1" res="4.4116126373410225e-03" rms="4.4625657796859741e-01" purity="5.3265482187271118e-01" nType="-99"/>
          <Node pos="r" depth="2" NCoef="0" IVar="-1" Cut="0.0000000000000000e+00" cType="1" res="-7.8785968944430351e-03" rms="4.3528467416763306e-01" purity="3.7999075651168823e-01" nType="-99"/>
        </Node>
      </Node>
    </BinaryTree>
    <BinaryTree type="DecisionTree" boostWeight="1.0000000000000000e+00" itree="50">
      <Node pos="s" depth="0" NCoef="0" IVar="14" Cut="2.6527307033538818e+00" cType="1" res="5.1497500389814377e-03" rms="4.4297456741333008e-01" purity="4.9995833635330200e-01" nType="0">
        <Node pos="l" depth="1" NCoef="0" IVar="18" Cut="8.8975112915039062e+01" cType="1" res="-3.6895439028739929e-02" rms="4.3475958704948425e-01" purity="4.4012787938117981e-01" nType="0">
          <Node pos="l" depth="2" NCoef="0" IVar="-1" Cut="0.0000000000000000e+00" cType="1" res="-4.0765241719782352e-03" rms="4.4814562797546387e-01" purity="4.9024716019630432e-01" nType="-99"/>
          <Node pos="r" depth="2" NCoef="0" IVar="-1" Cut="0.0000000000000000e+00" cType="1" res="-3.7034813314676285e-02" rms="3.2956817746162415e-01" purity="1.3529600203037262e-01" nType="-99"/>
        </Node>
        <Node pos="r" depth="1" NCoef="0" IVar="21" Cut="1.5564607381820679e+00" cType="1" res="3.1638525426387787e-02" rms="4.4604235887527466e-01" purity="5.3765189647674561e-01" nType="0">
          <Node pos="l" depth="2" NCoef="0" IVar="-1" Cut="0.0000000000000000e+00" cType="1" res="1.0904792696237564e-02" rms="4.4261029362678528e-01" purity="5.9832173585891724e-01" nType="-99"/>
          <Node pos="r" depth="2" NCoef="0" IVar="-1" Cut="0.0000000000000000e+00" cType="1" res="1.0165848070755601e-03" rms="4.4686621427536011e-01" purity="4.9184629321098328e-01" nType="-99"/>
        </Node>
      </Node>
    </BinaryTree>
    <BinaryTree type="DecisionTree" boostWeight="1.0000000000000000e+00" itree="51">
      <Node pos="s" depth="0" NCoef="0" IVar="14" Cut="3.5293297767639160e+00" cType="1" res="7.4491621926426888e-03" rms="4.4189554452896118e-01" purity="5.0303721427917480e-01" nType="0">
        <Node pos="l" depth="1" NCoef="0" IVar="8" Cut="8.0879631042480469e+01" cType="1" res="-1.3583805412054062e-02" rms="4.3961030244827271e-01" purity="4.6286988258361816e-01" nType="0">
          <Node pos="l" depth="2" NCoef="0" IVar="-1" Cut="0.0000000000000000e+00" cType="1" res="-1.0271517559885979e-02" rms="4.4477030634880066e-01" purity="4.2793026566505432e-01" nType="-99"/>
          <Node pos="r" depth="2" NCoef="0" IVar="-1" Cut="0.0000000000000000e+00" cType="1" res="1.9496801542118192e-03" rms="4.3465918302536011e-01" purity="4.8404172062873840e-01" nType="-99"/>
        </Node>
        <Node pos="r" depth="1" NCoef="0" IVar="24" Cut="5.1850402355194092e-01" cType="1" res="4.8270691186189651e-02" rms="4.4345951080322266e-01" purity="5.8099550008773804e-01" nType="0">
          <Node pos="l" depth="2" NCoef="0" IVar="-1" Cut="0.0000000000000000e+00" cType="1" res="1.0471575893461704e-02" rms="4.4041103124618530e-01" purity="6.3005352020263672e-01" nType="-99"/>
          <Node pos="r" depth="2" NCoef="0" IVar="-1" Cut="0.0000000000000000e+00" cType="1" res="-4.1443565860390663e-03" rms="4.4998091459274292e-01" purity="3.6536288261413574e-01" nType="-99"/>
        </Node>
      </Node>
    </BinaryTree>
    <BinaryTree type="DecisionTree" boostWeight="1.0000000000000000e+00" itree="52">
      <Node pos="s" depth="0" NCoef="0" IVar="10" Cut="1.7919865250587463e-01" cType="1" res="6.5963142551481724e-03" rms="4.4405931234359741e-01" purity="5.0035148859024048e-01" nType="0">
        <Node pos="l" depth="1" NCoef="0" IVar="0" Cut="4.6728539466857910e+00" cType="1" res="-2.3143665865063667e-02" rms="4.4470828771591187e-01" purity="4.2462471127510071e-01" nType="0">
          <Node pos="l" depth="2" NCoef="0" IVar="-1" Cut="0.0000000000000000e+00" cType="1" res="-1.1869919486343861e-02" rms="4.2577719688415527e-01" purity="3.6445727944374084e-01" nType="-99"/>
          <Node pos="r" depth="2" NCoef="0" IVar="-1" Cut="0.0000000000000000e+00" cType="1" res="3.4267406444996595e-03" rms="4.6358239650726318e-01" purity="4.9921411275863647e-01" nType="-99"/>
        </Node>
        <Node pos="r" depth="1" NCoef="0" IVar="1" Cut="2.8801214694976807e+00" cType="1" res="2.8460592031478882e-02" rms="4.4230797886848450e-01" purity="5.5602437257766724e-01" nType="0">
          <Node pos="l" depth="2" NCoef="0" IVar="-1" Cut="0.0000000000000000e+00" cType="1" res="2.8255425859242678e-03" rms="4.4468390941619873e-01" purity="5.3109169006347656e-01" nType="-99"/>
          <Node pos="r" depth="2" NCoef="0" IVar="-1" Cut="0.0000000000000000e+00" cType="1" res="1.5925416722893715e-02" rms="4.2062538862228394e-01" purity="7.0356142520904541e-01" nType="-99"/>
        </Node>
      </Node>
    </BinaryTree>
    <BinaryTree type="DecisionTree" boostWeight="1.0000000000000000e+00" itree="53">
      <Node pos="s" depth="0" NCoef="0" IVar="11" Cut="1.4184705913066864e-01" cType="1" res="5.8156009763479233e-03" rms="4.4300708174705505e-01" purity="4.9847781658172607e-01" nType="0">
        <Node pos="l" depth="1" NCoef="0" IVar="2" Cut="1.2174704742431641e+02" cType="1" res="-3.8085844367742538e-02" rms="4.5057293772697449e-01" purity="4.0806409716606140e-01" nType="0">
          <Node pos="l" depth="2" NCoef="0" IVar="-1" Cut="0.0000000000000000e+00" cType="1" res="2.2374703548848629e-03" rms="4.8032358288764954e-01" purity="5.4742324352264404e-01" nType="-99"/>
          <Node pos="r" depth="2" NCoef="0" IVar="-1" Cut="0.0000000000000000e+00" cType="1" res="-1.2372350320219994e-02" rms="4.3677553534507751e-01" purity="3.5383650660514832e-01" nType="-99"/>
        </Node>
        <Node pos="r" depth="1" NCoef="0" IVar="1" Cut="-2.3663501739501953e+00" cType="1" res="2.7834981679916382e-02" rms="4.3750751018524170e-01" purity="5.4382604360580444e-01" nType="0">
          <Node pos="l" depth="2" NCoef="0" IVar="-1" Cut="0.0000000000000000e+00" cType="1" res="1.2269048951566219e-02" rms="4.3127617239952087e-01" purity="6.5144598484039307e-01" nType="-99"/>
          <Node pos="r" depth="2" NCoef="0" IVar="-1" Cut="0.0000000000000000e+00" cType="1" res="6.1416812241077423e-04" rms="4.3864348530769348e-01" purity="4.8889866471290588e-01" nType="-99"/>
        </Node>
      </Node>
    </BinaryTree>
    <BinaryTree type="DecisionTree" boostWeight="1.0000000000000000e+00" itree="54">
      <Node pos="s" depth="0" NCoef="0" IVar="1" Cut="2.6508290767669678e+00" cType="1" res="3.6576639395207167e-03" rms="4.4392108917236328e-01" purity="4.9869182705879211e-01" nType="0">
        <Node pos="l" depth="1" NCoef="0" IVar="1" Cut="-2.3786044120788574e+00" cType="1" res="-9.7873313352465630e-03" rms="4.4533371925354004e-01" purity="4.6304291486740112e-01" nType="0">
          <Node pos="l" depth="2" NCoef="0" IVar="-1" Cut="0.0000000000000000e+00" cType="1" res="5.3582745604217052e-03" rms="4.4218283891677856e-01" purity="5.9383869171142578e-01" nType="-99"/>
          <Node pos="r" depth="2" NCoef="0" IVar="-1" Cut="0.0000000000000000e+00" cType="1" res="-7.8785391524434090e-03" rms="4.4521945714950562e-01" purity="3.6998546123504639e-01" nType="-99"/>
        </Node>
        <Node pos="r" depth="1" NCoef="0" IVar="12" Cut="3.1806266307830811e-01" cType="1" res="4.7904588282108307e-02" rms="4.3632462620735168e-01" purity="6.1601090431213379e-01" nType="0">
          <Node pos="l" depth="2" NCoef="0" IVar="-1" Cut="0.0000000000000000e+00" cType="1" res="1.5731590101495385e-03" rms="4.5143511891365051e-01" purity="5.3148978948593140e-01" nType="-99"/>
          <Node pos="r" depth="2" NCoef="0" IVar="-1" Cut="0.0000000000000000e+00" cType="1" res="1.3587599620223045e-02" rms="4.1764569282531738e-01" purity="6.9834113121032715e-01" nType="-99"/>
        </Node>
      </Node>
    </BinaryTree>
    <BinaryTree type="DecisionTree" boostWeight="1.0000000000000000e+00" itree="55">
      <Node pos="s" depth="0" NCoef="0" IVar="14" Cut="2.8510661125183105e+00" cType="1" res="7.9906582832336426e-03" rms="4.4250139594078064e-01" purity="5.0375437736511230e-01" nType="0">
        <Node pos="l" depth="1" NCoef="0" IVar="24" Cut="2.6118084788322449e-01" cType="1" res="-2.1771131083369255e-02" rms="4.3646106123924255e-01" purity="4.5146858692169189e-01" nType="0">
          <Node pos="l" depth="2" NCoef="0" IVar="-1" Cut="0.0000000000000000e+00" cType="1" res="2.3654791584704071e-04" rms="4.4274461269378662e-01" purity="5.1470309495925903e-01" nType="-99"/>
          <Node pos="r" depth="2" NCoef="0" IVar="-1" Cut="0.0000000000000000e+00" cType="1" res="-1.5768952667713165e-02" rms="4.1771423816680908e-01" purity="3.1156641244888306e-01" nType="-99"/>
        </Node>
        <Node pos="r" depth="1" NCoef="0" IVar="3" Cut="6.8652557373046875e+01" cType="1" res="3.2182648777961731e-02" rms="4.4588994979858398e-01" purity="5.4625517129898071e-01" nType="0">
          <Node pos="l" depth="2" NCoef="0" IVar="-1" Cut="0.0000000000000000e+00" cType="1" res="1.2199318967759609e-02" rms="4.6264809370040894e-01" purity="6.2056833505630493e-01" nType="-99"/>
          <Node pos="r" depth="2" NCoef="0" IVar="-1" Cut="0.0000000000000000e+00" cType="1" res="3.0822348780930042e-03" rms="4.3923234939575195e-01" purity="5.2195107936859131e-01" nType="-99"/>
        </Node>
      </Node>
    </BinaryTree>
    <BinaryTree type="DecisionTree" boostWeight="1.0000000000000000e+00" itree="56">
      <Node pos="s" depth="0" NCoef="0" IVar="11" Cut="2.1578742563724518e-01" cType="1" res="3.2474785111844540e-03" rms="4.4229161739349365e-01" purity="4.9824002385139465e-01" nType="0">
        <Node pos="l" depth="1" NCoef="0" IVar="18" Cut="4.3420780181884766e+01" cType="1" res="-2.1088644862174988e-02" rms="4.4593560695648193e-01" purity="4.3949514627456665e-01" nType="0">
          <Node pos="l" depth="2" NCoef="0" IVar="-1" Cut="0.0000000000000000e+00" cType="1" res="1.6069997800514102e-03" rms="4.5910680294036865e-01" purity="5.4590600728988647e-01" nType="-99"/>
          <Node pos="r" depth="2" NCoef="0" IVar="-1" Cut="0.0000000000000000e+00" cType="1" res="-1.0399373248219490e-02" rms="4.3150603771209717e-01" purity="3.4129095077514648e-01" nType="-99"/>
        </Node>
        <Node pos="r" depth="1" NCoef="0" IVar="24" Cut="5.9384006261825562e-01" cType="1" res="2.8544280678033829e-02" rms="4.3703758716583252e-01" purity="5.5930387973785400e-01" nType="0">
          <Node pos="l" depth="2" NCoef="0" IVar="-1" Cut="0.0000000000000000e+00" cType="1" res="6.7331842146813869e-03" rms="4.3759372830390930e-01" purity="5.9021264314651489e-01" nType="-99"/>
          <Node pos="r" depth="2" NCoef="0" IVar="-1" Cut="0.0000000000000000e+00" cType="1" res="-1.4090831391513348e-02" rms="4.2033982276916504e-01" purity="2.8891298174858093e-01" nType="-99"/>
        </Node>
      </Node>
    </BinaryTree>
    <BinaryTree type="DecisionTree" boostWeight="1.0000000000000000e+00" itree="57">
      <Node pos="s" depth="0" NCoef="0" IVar="1" Cut="-2.6509046554565430e+00" cType="1" res="3.0618282034993172e-03" rms="4.4088611006736755e-01" purity="4.9948722124099731e-01" nType="0">
        <Node pos="l" depth="1" NCoef="0" IVar="12" Cut="3.2211253046989441e-01" cType="1" res="4.9969889223575592e-02" rms="4.3200761079788208e-01" purity="6.3482958078384399e-01" nType="0">
          <Node pos="l" depth="2" NCoef="0" IVar="-1" Cut="0.0000000000000000e+00" cType="1" res="9.5668149879202247e-04" rms="4.4648924469947815e-01" purity="5.4645752906799316e-01" nType="-99"/>
          <Node pos="r" depth="2" NCoef="0" IVar="-1" Cut="0.0000000000000000e+00" cType="1" res="1.4458886347711086e-02" rms="4.1470611095428467e-01" purity="7.1349984407424927e-01" nType="-99"/>
        </Node>
        <Node pos="r" depth="1" NCoef="0" IVar="1" Cut="2.6750109195709229e+00" cType="1" res="-1.1890140362083912e-02" rms="4.4263523817062378e-01" purity="4.5634678006172180e-01" nType="0">
          <Node pos="l" depth="2" NCoef="0" IVar="-1" Cut="0.0000000000000000e+00" cType="1" res="-6.6343154758214951e-03" rms="4.4310554862022400e-01" purity="3.9042827486991882e-01" nType="-99"/>
          <Node pos="r" depth="2" NCoef="0" IVar="-1" Cut="0.0000000000000000e+00" cType="1" res="6.7412559874355793e-03" rms="4.3710941076278687e-01" purity="6.1371737718582153e-01" nType="-99"/>
        </Node>
      </Node>
    </BinaryTree>
    <BinaryTree type="DecisionTree" boostWeight="1.0000000000000000e+00" itree="58">
      <Node pos="s" depth="0" NCoef="0" IVar="0" Cut="3.4728474617004395e+00" cType="1" res="6.2903561629354954e-03" rms="4.4089320302009583e-01" purity="5.0024330615997314e-01" nType="0">
        <Node pos="l" depth="1" NCoef="0" IVar="12" Cut="3.9582511782646179e-01" cType="1" res="-3.4907694905996323e-02" rms="4.1998508572578430e-01" purity="4.2234933376312256e-01" nType="0">
          <Node pos="l" depth="2" NCoef="0" IVar="-1" Cut="0.0000000000000000e+00" cType="1" res="-1.9520197063684464e-02" rms="3.9591780304908752e-01" purity="3.1048789620399475e-01" nType="-99"/>
          <Node pos="r" depth="2" NCoef="0" IVar="-1" Cut="0.0000000000000000e+00" cType="1" res="3.0877410899847746e-03" rms="4.3612718582153320e-01" purity="5.3255909681320190e-01" nType="-99"/>
        </Node>
        <Node pos="r" depth="1" NCoef="0" IVar="24" Cut="3.0087634921073914e-01" cType="1" res="1.8139529973268509e-02" rms="4.4602143764495850e-01" purity="5.2264684438705444e-01" nType="0">
          <Node pos="l" depth="2" NCoef="0" IVar="-1" Cut="0.0000000000000000e+00" cType="1" res="6.1138393357396126e-03" rms="4.4204533100128174e-01" purity="5.8515077829360962e-01" nType="-99"/>
          <Node pos="r" depth="2" NCoef="0" IVar="-1" Cut="0.0000000000000000e+00" cType="1" res="-2.7770025189965963e-03" rms="4.5161542296409607e-01" purity="4.0480130910873413e-01" nType="-99"/>
        </Node>
      </Node>
    </BinaryTree>
    <BinaryTree type="DecisionTree" boostWeight="1.0000000000000000e+00" itree="59">
      <Node pos="s" depth="0" NCoef="0" IVar="14" Cut="2.6402068138122559e+00" cType="1" res="6.1206561513245106e-03" rms="4.3980008363723755e-01" purity="5.0413066148757935e-01" nType="0">
        <Node pos="l" depth="1" NCoef="0" IVar="18" Cut="4.3333095550537109e+01" cType="1" res="-2.5993408635258675e-02" rms="4.3367546796798706e-01" purity="4.4397750496864319e-01" nType="0">
          <Node pos="l" depth="2" NCoef="0" IVar="-1" Cut="0.0000000000000000e+00" cType="1" res="1.9267593743279576e-03" rms="4.4781485199928284e-01" purity="5.6201744079589844e-01" nType="-99"/>
          <Node pos="r" depth="2" NCoef="0" IVar="-1" Cut="0.0000000000000000e+00" cType="1" res="-1.3509945012629032e-02" rms="4.1664975881576538e-01" purity="3.3148574829101562e-01" nType="-99"/>
        </Node>
        <Node pos="r" depth="1" NCoef="0" IVar="1" Cut="2.3587360382080078e+00" cType="1" res="2.5881143286824226e-02" rms="4.4236955046653748e-01" purity="5.4114419221878052e-01" nType="0">
          <Node pos="l" depth="2" NCoef="0" IVar="-1" Cut="0.0000000000000000e+00" cType="1" res="1.7077348893508315e-03" rms="4.4604709744453430e-01" purity="4.9013447761535645e-01" nType="-99"/>
          <Node pos="r" depth="2" NCoef="0" IVar="-1" Cut="0.0000000000000000e+00" cType="1" res="1.0547609999775887e-02" rms="4.3094238638877869e-01" purity="6.6252267360687256e-01" nType="-99"/>
        </Node>
      </Node>
    </BinaryTree>
    <BinaryTree type="DecisionTree" boostWeight="1.0000000000000000e+00" itree="60">
      <Node pos="s" depth="0" NCoef="0" IVar="21" Cut="1.5311836004257202e+00" cType="1" res="1.7749363905750215e-04" rms="4.4096124172210693e-01" purity="4.9533930420875549e-01" nType="0">
        <Node pos="l" depth="1" NCoef="0" IVar="8" Cut="9.7392097473144531e+01" cType="1" res="2.9433969408273697e-02" rms="4.3895643949508667e-01" purity="5.5618315935134888e-01" nType="0">
          <Node pos="l" depth="2" NCoef="0" IVar="-1" Cut="0.0000000000000000e+00" cType="1" res="-7.0970398373901844e-03" rms="4.4608089327812195e-01" purity="4.4643062353134155e-01" nType="-99"/>
          <Node pos="r" depth="2" NCoef="0" IVar="-1" Cut="0.0000000000000000e+00" cType="1" res="1.0435430333018303e-02" rms="4.3155202269554138e-01" purity="6.1122280359268188e-01" nType="-99"/>
        </Node>
        <Node pos="r" depth="1" NCoef="0" IVar="6" Cut="8.2656135559082031e+01" cType="1" res="-2.0804869011044502e-02" rms="4.4120046496391296e-01" purity="4.5170289278030396e-01" nType="0">
