<?xml version="1.0"?>
<MethodSetup Method="DNN::DNN">
  <GeneralInfo>
    <Info name="TMVA Release" value="4.2.1 [262657]"/>
    <Info name="ROOT Release" value="6.10/09 [395785]"/>
    <Info name="Creator" value="arapyan"/>
    <Info name="Date" value="Tue Dec  3 13:33:49 2019"/>
    <Info name="Host" value="Linux cmsbuild76.cern.ch 2.6.32-696.30.1.el6.x86_64 #1 SMP Tue May 22 06:09:36 CEST 2018 x86_64 x86_64 x86_64 GNU/Linux"/>
    <Info name="Dir" value="/afs/cern.ch/work/a/arapyan/Run2/test/CMSSW_9_4_12/src/MitAnalysisRunII/panda/macros/9x"/>
    <Info name="Training events" value="153399"/>
    <Info name="TrainingTime" value="1.77972027e+04"/>
    <Info name="AnalysisType" value="Classification"/>
  </GeneralInfo>
  <Options>
    <Option name="V" modified="Yes">True</Option>
    <Option name="VerbosityLevel" modified="No">Verbose</Option>
    <Option name="VarTransform" modified="Yes">N</Option>
    <Option name="H" modified="Yes">False</Option>
    <Option name="CreateMVAPdfs" modified="No">False</Option>
    <Option name="IgnoreNegWeightsInTraining" modified="No">False</Option>
    <Option name="Layout" modified="Yes">TANH|100,TANH|50,TANH|10,LINEAR</Option>
    <Option name="ErrorStrategy" modified="Yes">CROSSENTROPY</Option>
    <Option name="WeightInitialization" modified="Yes">XAVIERUNIFORM</Option>
    <Option name="Architecture" modified="Yes">CPU</Option>
    <Option name="TrainingStrategy" modified="Yes">LearningRate=1e-1,Momentum=0.0,Repetitions=1,ConvergenceSteps=300,BatchSize=20,TestRepetitions=15,WeightDecay=0.001,Regularization=NONE,DropConfig=0.0+0.5+0.5+0.5,DropRepetitions=1,Multithreading=True|LearningRate=1e-2,Momentum=0.5,Repetitions=1,ConvergenceSteps=300,BatchSize=30,TestRepetitions=7,WeightDecay=0.001,Regularization=L2,Multithreading=True,DropConfig=0.0+0.1+0.1+0.1,DropRepetitions=1|LearningRate=1e-2,Momentum=0.3,Repetitions=1,ConvergenceSteps=300,BatchSize=40,TestRepetitions=7,WeightDecay=0.0001,Regularization=L2,Multithreading=True</Option>
  </Options>
  <Variables NVar="26">
    <Variable VarIndex="0" Expression="mvamjj" Label="mvamjj" Title="mvamjj" Unit="" Internal="mvamjj" Type="F" Min="5.00000671e+02" Max="1.00925156e+04"/>
    <Variable VarIndex="1" Expression="mvadetajj" Label="mvadetajj" Title="mvadetajj" Unit="" Internal="mvadetajj" Type="F" Min="2.50012064e+00" Max="8.94531250e+00"/>
    <Variable VarIndex="2" Expression="mvadphijj" Label="mvadphijj" Title="mvadphijj" Unit="" Internal="mvadphijj" Type="F" Min="-3.14158773e+00" Max="3.14157963e+00"/>
    <Variable VarIndex="3" Expression="mvajetpt1" Label="mvajetpt1" Title="mvajetpt1" Unit="" Internal="mvajetpt1" Type="F" Min="5.00126457e+01" Max="2.27259277e+03"/>
    <Variable VarIndex="4" Expression="mvajetpt2" Label="mvajetpt2" Title="mvajetpt2" Unit="" Internal="mvajetpt2" Type="F" Min="3.00469704e+01" Max="8.81691895e+02"/>
    <Variable VarIndex="5" Expression="mvajeteta1" Label="mvajeteta1" Title="mvajeteta1" Unit="" Internal="mvajeteta1" Type="F" Min="-4.67729092e+00" Max="4.69285107e+00"/>
    <Variable VarIndex="6" Expression="mvajeteta2" Label="mvajeteta2" Title="mvajeteta2" Unit="" Internal="mvajeteta2" Type="F" Min="-4.69719505e+00" Max="4.69961834e+00"/>
    <Variable VarIndex="7" Expression="mvaWpt" Label="mvaWpt" Title="mvaMet" Unit="" Internal="mvaWpt" Type="F" Min="3.00001774e+01" Max="2.33687012e+03"/>
    <Variable VarIndex="8" Expression="mvaZpt" Label="mvaZpt" Title="mvaZpt" Unit="" Internal="mvaZpt" Type="F" Min="2.68581688e-01" Max="1.71788208e+03"/>
    <Variable VarIndex="9" Expression="mvaVVmt" Label="mvaVVmt" Title="mvaVVmt" Unit="" Internal="mvaVVmt" Type="F" Min="3.63522489e-03" Max="1.67123352e+03"/>
    <Variable VarIndex="10" Expression="mvazstar" Label="mvazstar" Title="mvazstar" Unit="" Internal="mvazstar" Type="F" Min="3.18882456e-07" Max="2.02733016e+00"/>
    <Variable VarIndex="11" Expression="mvazep1" Label="mvazep1" Title="mvazep1" Unit="" Internal="mvazep1" Type="F" Min="6.12125496e-06" Max="7.49936759e-01"/>
    <Variable VarIndex="12" Expression="mvazep2" Label="mvazep2" Title="mvazep2" Unit="" Internal="mvazep2" Type="F" Min="6.10486438e-07" Max="7.49970317e-01"/>
    <Variable VarIndex="13" Expression="mvamaxzep" Label="mvamaxzep" Title="mvamaxzep" Unit="" Internal="mvamaxzep" Type="F" Min="3.57390410e-04" Max="7.49970317e-01"/>
    <Variable VarIndex="14" Expression="mvaj1Zdr" Label="mvaj1Zdr" Title="mvaj1Zdr" Unit="" Internal="mvaj1Zdr" Type="F" Min="3.59564088e-02" Max="9.49631119e+00"/>
    <Variable VarIndex="15" Expression="mvaj2Zdr" Label="mvaj2Zdr" Title="mvaj2Zdr" Unit="" Internal="mvaj2Zdr" Type="F" Min="7.96650164e-03" Max="9.67917728e+00"/>
    <Variable VarIndex="16" Expression="mvapttot" Label="mvapttot" Title="mvapttot" Unit="" Internal="mvapttot" Type="F" Min="9.02700424e-02" Max="1.33147339e+03"/>
    <Variable VarIndex="17" Expression="mvasumpttot" Label="mvasumpttot" Title="mvasumpttot" Unit="" Internal="mvasumpttot" Type="F" Min="1.77773300e+02" Max="4.97982910e+03"/>
    <Variable VarIndex="18" Expression="mvaleppt1" Label="mvaleppt1" Title="mvaleppt1" Unit="" Internal="mvaleppt1" Type="F" Min="2.00001831e+01" Max="1.68633154e+03"/>
    <Variable VarIndex="19" Expression="mvaleppt2" Label="mvaleppt2" Title="mvaleppt2" Unit="" Internal="mvaleppt2" Type="F" Min="2.00001926e+01" Max="1.29047327e+03"/>
    <Variable VarIndex="20" Expression="mvalepeta1" Label="mvalepeta1" Title="mvalepeta1" Unit="" Internal="mvalepeta1" Type="F" Min="-2.49804616e+00" Max="2.49923539e+00"/>
    <Variable VarIndex="21" Expression="mvalepeta2" Label="mvalepeta2" Title="mvalepeta2" Unit="" Internal="mvalepeta2" Type="F" Min="-2.49945045e+00" Max="2.49920559e+00"/>
    <Variable VarIndex="22" Expression="mvadphill" Label="mvadphill" Title="mvadphill" Unit="" Internal="mvadphill" Type="F" Min="9.53674316e-07" Max="3.14154840e+00"/>
    <Variable VarIndex="23" Expression="mvadrll" Label="mvadrll" Title="mvadrll" Unit="" Internal="mvadrll" Type="F" Min="1.61331534e-01" Max="5.62048006e+00"/>
    <Variable VarIndex="24" Expression="mvamll" Label="mvamll" Title="mvamll" Unit="" Internal="mvamll" Type="F" Min="2.00003128e+01" Max="3.33824365e+03"/>
    <Variable VarIndex="25" Expression="(mvaleppt1*mvaleppt2)/(mvajetpt1*mvajetpt2)" Label="(mvaleppt1*mvaleppt2)/(mvajetpt1*mvajetpt2)" Title="mvaptrel" Unit="" Internal="_mvaleppt1_T_mvaleppt2__D__mvajetpt1_T_mvajetpt2_" Type="F" Min="1.29400170e-03" Max="1.15134636e+02"/>
  </Variables>
  <Spectators NSpec="0"/>
  <Classes NClass="2">
    <Class Name="Background" Index="0"/>
    <Class Name="Signal" Index="1"/>
  </Classes>
  <Transformations NTransformations="1">
    <Transform Name="Normalize">
      <Selection>
        <Input NInputs="26">
          <Input Type="Variable" Label="mvamjj" Expression="mvamjj"/>
          <Input Type="Variable" Label="mvadetajj" Expression="mvadetajj"/>
          <Input Type="Variable" Label="mvadphijj" Expression="mvadphijj"/>
          <Input Type="Variable" Label="mvajetpt1" Expression="mvajetpt1"/>
          <Input Type="Variable" Label="mvajetpt2" Expression="mvajetpt2"/>
          <Input Type="Variable" Label="mvajeteta1" Expression="mvajeteta1"/>
          <Input Type="Variable" Label="mvajeteta2" Expression="mvajeteta2"/>
          <Input Type="Variable" Label="mvaWpt" Expression="mvaWpt"/>
          <Input Type="Variable" Label="mvaZpt" Expression="mvaZpt"/>
          <Input Type="Variable" Label="mvaVVmt" Expression="mvaVVmt"/>
          <Input Type="Variable" Label="mvazstar" Expression="mvazstar"/>
          <Input Type="Variable" Label="mvazep1" Expression="mvazep1"/>
          <Input Type="Variable" Label="mvazep2" Expression="mvazep2"/>
          <Input Type="Variable" Label="mvamaxzep" Expression="mvamaxzep"/>
          <Input Type="Variable" Label="mvaj1Zdr" Expression="mvaj1Zdr"/>
          <Input Type="Variable" Label="mvaj2Zdr" Expression="mvaj2Zdr"/>
          <Input Type="Variable" Label="mvapttot" Expression="mvapttot"/>
          <Input Type="Variable" Label="mvasumpttot" Expression="mvasumpttot"/>
          <Input Type="Variable" Label="mvaleppt1" Expression="mvaleppt1"/>
          <Input Type="Variable" Label="mvaleppt2" Expression="mvaleppt2"/>
          <Input Type="Variable" Label="mvalepeta1" Expression="mvalepeta1"/>
          <Input Type="Variable" Label="mvalepeta2" Expression="mvalepeta2"/>
          <Input Type="Variable" Label="mvadphill" Expression="mvadphill"/>
          <Input Type="Variable" Label="mvadrll" Expression="mvadrll"/>
          <Input Type="Variable" Label="mvamll" Expression="mvamll"/>
          <Input Type="Variable" Label="(mvaleppt1*mvaleppt2)/(mvajetpt1*mvajetpt2)" Expression="(mvaleppt1*mvaleppt2)/(mvajetpt1*mvajetpt2)"/>
        </Input>
        <Output NOutputs="26">
          <Output Type="Variable" Label="mvamjj" Expression="mvamjj"/>
          <Output Type="Variable" Label="mvadetajj" Expression="mvadetajj"/>
          <Output Type="Variable" Label="mvadphijj" Expression="mvadphijj"/>
          <Output Type="Variable" Label="mvajetpt1" Expression="mvajetpt1"/>
          <Output Type="Variable" Label="mvajetpt2" Expression="mvajetpt2"/>
          <Output Type="Variable" Label="mvajeteta1" Expression="mvajeteta1"/>
          <Output Type="Variable" Label="mvajeteta2" Expression="mvajeteta2"/>
          <Output Type="Variable" Label="mvaWpt" Expression="mvaWpt"/>
          <Output Type="Variable" Label="mvaZpt" Expression="mvaZpt"/>
          <Output Type="Variable" Label="mvaVVmt" Expression="mvaVVmt"/>
          <Output Type="Variable" Label="mvazstar" Expression="mvazstar"/>
          <Output Type="Variable" Label="mvazep1" Expression="mvazep1"/>
          <Output Type="Variable" Label="mvazep2" Expression="mvazep2"/>
          <Output Type="Variable" Label="mvamaxzep" Expression="mvamaxzep"/>
          <Output Type="Variable" Label="mvaj1Zdr" Expression="mvaj1Zdr"/>
          <Output Type="Variable" Label="mvaj2Zdr" Expression="mvaj2Zdr"/>
          <Output Type="Variable" Label="mvapttot" Expression="mvapttot"/>
          <Output Type="Variable" Label="mvasumpttot" Expression="mvasumpttot"/>
          <Output Type="Variable" Label="mvaleppt1" Expression="mvaleppt1"/>
          <Output Type="Variable" Label="mvaleppt2" Expression="mvaleppt2"/>
          <Output Type="Variable" Label="mvalepeta1" Expression="mvalepeta1"/>
          <Output Type="Variable" Label="mvalepeta2" Expression="mvalepeta2"/>
          <Output Type="Variable" Label="mvadphill" Expression="mvadphill"/>
          <Output Type="Variable" Label="mvadrll" Expression="mvadrll"/>
          <Output Type="Variable" Label="mvamll" Expression="mvamll"/>
          <Output Type="Variable" Label="(mvaleppt1*mvaleppt2)/(mvajetpt1*mvajetpt2)" Expression="(mvaleppt1*mvaleppt2)/(mvajetpt1*mvajetpt2)"/>
        </Output>
      </Selection>
      <Class ClassIndex="0">
        <Ranges>
          <Range Index="0" Min="5.0000067138671875e+02" Max="1.0092515625000000e+04"/>
          <Range Index="1" Min="2.5003659725189209e+00" Max="8.7941169738769531e+00"/>
          <Range Index="2" Min="-3.1415398120880127e+00" Max="3.1415278911590576e+00"/>
          <Range Index="3" Min="5.0012645721435547e+01" Max="2.2725927734375000e+03"/>
          <Range Index="4" Min="3.0046970367431641e+01" Max="8.8169189453125000e+02"/>
          <Range Index="5" Min="-4.6721248626708984e+00" Max="4.6799783706665039e+00"/>
          <Range Index="6" Min="-4.6971950531005859e+00" Max="4.6919784545898438e+00"/>
          <Range Index="7" Min="3.0000431060791016e+01" Max="2.3368701171875000e+03"/>
          <Range Index="8" Min="3.7920361757278442e-01" Max="1.3260279541015625e+03"/>
          <Range Index="9" Min="6.5874331630766392e-03" Max="1.6712335205078125e+03"/>
          <Range Index="10" Min="3.1888245644040580e-07" Max="2.0273301601409912e+00"/>
          <Range Index="11" Min="6.1212549553602003e-06" Max="7.4993675947189331e-01"/>
          <Range Index="12" Min="6.1048643829053617e-07" Max="7.4997031688690186e-01"/>
          <Range Index="13" Min="3.5739041049964726e-04" Max="7.4997031688690186e-01"/>
          <Range Index="14" Min="3.5956408828496933e-02" Max="8.7325906753540039e+00"/>
          <Range Index="15" Min="7.9665016382932663e-03" Max="9.5955944061279297e+00"/>
          <Range Index="16" Min="9.0270042419433594e-02" Max="6.3006304931640625e+02"/>
          <Range Index="17" Min="1.7777330017089844e+02" Max="4.9798291015625000e+03"/>
          <Range Index="18" Min="2.0000183105468750e+01" Max="1.3924304199218750e+03"/>
          <Range Index="19" Min="2.0000579833984375e+01" Max="1.2904732666015625e+03"/>
          <Range Index="20" Min="-2.4972128868103027e+00" Max="2.4975786209106445e+00"/>
          <Range Index="21" Min="-2.4994504451751709e+00" Max="2.4992055892944336e+00"/>
          <Range Index="22" Min="9.5367431640625000e-07" Max="3.1415483951568604e+00"/>
          <Range Index="23" Min="1.6133153438568115e-01" Max="5.6204800605773926e+00"/>
          <Range Index="24" Min="2.0000312805175781e+01" Max="3.3382436523437500e+03"/>
          <Range Index="25" Min="1.2940017040818930e-03" Max="9.6706237792968750e+01"/>
        </Ranges>
      </Class>
      <Class ClassIndex="1">
        <Ranges>
          <Range Index="0" Min="5.0002743530273438e+02" Max="8.1092705078125000e+03"/>
          <Range Index="1" Min="2.5001206398010254e+00" Max="8.9453125000000000e+00"/>
          <Range Index="2" Min="-3.1415877342224121e+00" Max="3.1415796279907227e+00"/>
          <Range Index="3" Min="5.0094661712646484e+01" Max="1.0234036865234375e+03"/>
          <Range Index="4" Min="3.0056974411010742e+01" Max="7.3209161376953125e+02"/>
          <Range Index="5" Min="-4.6772909164428711e+00" Max="4.6928510665893555e+00"/>
          <Range Index="6" Min="-4.6925044059753418e+00" Max="4.6996183395385742e+00"/>
          <Range Index="7" Min="3.0000177383422852e+01" Max="7.5380395507812500e+02"/>
          <Range Index="8" Min="2.6858168840408325e-01" Max="1.7178820800781250e+03"/>
          <Range Index="9" Min="3.6352248862385750e-03" Max="7.9566699218750000e+02"/>
          <Range Index="10" Min="4.9598384066484869e-06" Max="1.9860919713973999e+00"/>
          <Range Index="11" Min="9.9406661320244893e-06" Max="7.4990916252136230e-01"/>
          <Range Index="12" Min="2.1062831365270540e-05" Max="7.4993795156478882e-01"/>
          <Range Index="13" Min="1.6100606881082058e-03" Max="7.4993795156478882e-01"/>
          <Range Index="14" Min="3.7038978189229965e-02" Max="9.4963111877441406e+00"/>
          <Range Index="15" Min="1.7209395766258240e-02" Max="9.6791772842407227e+00"/>
          <Range Index="16" Min="2.0242393016815186e-01" Max="1.3314733886718750e+03"/>
          <Range Index="17" Min="1.8223005676269531e+02" Max="2.3835488281250000e+03"/>
          <Range Index="18" Min="2.0001277923583984e+01" Max="1.6863315429687500e+03"/>
          <Range Index="19" Min="2.0000192642211914e+01" Max="7.9048913574218750e+02"/>
          <Range Index="20" Min="-2.4980461597442627e+00" Max="2.4992353916168213e+00"/>
          <Range Index="21" Min="-2.4991307258605957e+00" Max="2.4963386058807373e+00"/>
          <Range Index="22" Min="8.3684921264648438e-05" Max="3.1415333747863770e+00"/>
          <Range Index="23" Min="2.1601444482803345e-01" Max="5.5566930770874023e+00"/>
          <Range Index="24" Min="2.0020013809204102e+01" Max="1.8327023925781250e+03"/>
          <Range Index="25" Min="2.0539965480566025e-03" Max="1.1513463592529297e+02"/>
        </Ranges>
      </Class>
      <Class ClassIndex="2">
        <Ranges>
          <Range Index="0" Min="5.0000067138671875e+02" Max="1.0092515625000000e+04"/>
          <Range Index="1" Min="2.5001206398010254e+00" Max="8.9453125000000000e+00"/>
          <Range Index="2" Min="-3.1415877342224121e+00" Max="3.1415796279907227e+00"/>
          <Range Index="3" Min="5.0012645721435547e+01" Max="2.2725927734375000e+03"/>
          <Range Index="4" Min="3.0046970367431641e+01" Max="8.8169189453125000e+02"/>
          <Range Index="5" Min="-4.6772909164428711e+00" Max="4.6928510665893555e+00"/>
          <Range Index="6" Min="-4.6971950531005859e+00" Max="4.6996183395385742e+00"/>
          <Range Index="7" Min="3.0000177383422852e+01" Max="2.3368701171875000e+03"/>
          <Range Index="8" Min="2.6858168840408325e-01" Max="1.7178820800781250e+03"/>
          <Range Index="9" Min="3.6352248862385750e-03" Max="1.6712335205078125e+03"/>
          <Range Index="10" Min="3.1888245644040580e-07" Max="2.0273301601409912e+00"/>
          <Range Index="11" Min="6.1212549553602003e-06" Max="7.4993675947189331e-01"/>
          <Range Index="12" Min="6.1048643829053617e-07" Max="7.4997031688690186e-01"/>
          <Range Index="13" Min="3.5739041049964726e-04" Max="7.4997031688690186e-01"/>
          <Range Index="14" Min="3.5956408828496933e-02" Max="9.4963111877441406e+00"/>
          <Range Index="15" Min="7.9665016382932663e-03" Max="9.6791772842407227e+00"/>
          <Range Index="16" Min="9.0270042419433594e-02" Max="1.3314733886718750e+03"/>
          <Range Index="17" Min="1.7777330017089844e+02" Max="4.9798291015625000e+03"/>
          <Range Index="18" Min="2.0000183105468750e+01" Max="1.6863315429687500e+03"/>
          <Range Index="19" Min="2.0000192642211914e+01" Max="1.2904732666015625e+03"/>
          <Range Index="20" Min="-2.4980461597442627e+00" Max="2.4992353916168213e+00"/>
          <Range Index="21" Min="-2.4994504451751709e+00" Max="2.4992055892944336e+00"/>
          <Range Index="22" Min="9.5367431640625000e-07" Max="3.1415483951568604e+00"/>
          <Range Index="23" Min="1.6133153438568115e-01" Max="5.6204800605773926e+00"/>
          <Range Index="24" Min="2.0000312805175781e+01" Max="3.3382436523437500e+03"/>
          <Range Index="25" Min="1.2940017040818930e-03" Max="1.1513463592529297e+02"/>
        </Ranges>
      </Class>
    </Transform>
  </Transformations>
  <MVAPdfs/>
  <Weights InputWidth="26" Depth="4" LossFunction="C" OutputFunction="S">
    <Layer ActivationFunction="3">
      <Weights rows="100" cols="26">
        -9.0928740799427032e-02 6.9450549781322479e-02 -1.1096452362835407e-02 1.9397912919521332e-01 -4.9266687035560608e-01 2.3006454575806856e-03 -1.4692904427647591e-02 8.3860628306865692e-02 1.2934835255146027e-01 -3.2420642673969269e-02 2.3676019161939621e-02 -1.8051223829388618e-02 5.5331595242023468e-02 -8.8994866237044334e-03 1.3374394737184048e-02 1.0084305703639984e-01 7.0362262427806854e-02 9.8366029560565948e-02 1.1902408301830292e-01 4.7066807746887207e-02 -1.9080685451626778e-02 5.8027483522891998e-02 1.1500222235918045e-01 -1.5763331949710846e-01 -1.4813315868377686e-01 1.4850176870822906e-01 3.9388433098793030e-02 -4.8547185957431793e-02 9.3575380742549896e-04 4.7938883304595947e-02 1.4132030308246613e-02 2.1469790488481522e-02 6.2761097215116024e-03 6.1120182275772095e-02 8.7560169398784637e-02 -7.3786854743957520e-02 -3.5052824765443802e-02 -1.1170585639774799e-02 -2.5407109409570694e-02 -1.2849911116063595e-02 2.0981360226869583e-02 -5.0095138140022755e-03 1.7674644477665424e-03 8.6753048002719879e-02 8.7629757821559906e-02 3.7420682609081268e-02 8.3582699298858643e-03 -1.2176415184512734e-03 2.6651304215192795e-02 4.4828135520219803e-02 4.6342249959707260e-02 4.1465866379439831e-03 3.6190889775753021e-02 -1.6805764287710190e-02 1.9721086136996746e-03 6.8656232906505466e-04 6.0503076761960983e-02 -1.9798479042947292e-03 -3.1497504096478224e-03 -1.7661312595009804e-02 1.3953258283436298e-02 -1.1847939342260361e-02 -1.5029867179691792e-02 7.3465299792587757e-03 -6.9928253069519997e-03 -5.0751350820064545e-02 1.1190359480679035e-02 -1.6818584874272346e-02 -2.5074509903788567e-02 3.8387535605579615e-03 3.9525111205875874e-03 3.0802265973761678e-04 7.3719150386750698e-03 2.6044307742267847e-03 2.8779134154319763e-03 -3.8124121725559235e-02 9.4392569735646248e-03 -2.4989807978272438e-02 1.1460340465418994e-04 5.2328388846945018e-05 4.8345805225835647e-06 1.1867057037306949e-04 1.2176391464890912e-04 1.0306321200914681e-06 4.0591794459032826e-07 1.2545452045742422e-04 1.2199877528473735e-04 1.1828611604869366e-04 9.8501157481223345e-05 4.6011493395781144e-05 4.4695494580082595e-05 1.6076000974862836e-05 4.5998251152923331e-05 4.1888102714437991e-05 1.2601481284946203e-04 1.1514748621266335e-04 1.2599394540302455e-04 1.2892707309219986e-04 2.0505792690528324e-06 -5.4402465821112855e-07 -1.6485550077049993e-05 3.5760785976890475e-05 1.3218179810792208e-04 1.3308241614140570e-04 5.8304544538259506e-02 -7.2244768962264061e-03 -4.5963875018060207e-03 -3.3634636551141739e-02 1.2829792499542236e-01 -2.6006063446402550e-02 -1.4250960201025009e-02 -1.4511139690876007e-01 -4.7092512249946594e-02 3.4019656479358673e-02 -1.3687156140804291e-02 4.1050761938095093e-02 1.8998885527253151e-02 -1.4199599623680115e-01 3.9424910210072994e-03 -3.7921480834484100e-02 -7.4791423976421356e-02 -9.1971531510353088e-02 -8.4343776106834412e-02 -5.1003087311983109e-02 4.9170483835041523e-03 1.9694257527589798e-02 9.0324282646179199e-03 -1.6779841482639313e-01 -4.7651577740907669e-02 -7.7408760786056519e-02 -1.9604470580816269e-02 4.2993146926164627e-02 4.1430727578699589e-03 -8.4731332957744598e-02 7.8286714851856232e-02 -2.7654161676764488e-02 -2.7082182932645082e-03 -1.0910677909851074e-01 -1.1958622932434082e-01 1.0419152677059174e-01 3.6847900599241257e-02 3.6512777209281921e-02 4.2573757469654083e-02 -3.3293652813881636e-04 -2.0327843725681305e-02 -6.2230066396296024e-03 -2.5279592722654343e-02 -1.2686809897422791e-01 -1.2624172866344452e-01 -5.8416705578565598e-02 -6.0771661810576916e-03 -1.4672860270366073e-03 -5.4031986743211746e-02 -5.2945677191019058e-02 -3.7424948066473007e-02 -3.7714757025241852e-02 1.4747041463851929e-01 -2.7159105986356735e-02 9.4470223411917686e-03 9.0418927371501923e-02 1.3704535365104675e-01 -6.9499090313911438e-03 7.9450113698840141e-03 1.1055742949247360e-01 2.2669774293899536e-01 2.8276897966861725e-02 1.9452046602964401e-02 2.0973794162273407e-01 2.2415959835052490e-01 -1.7839351668953896e-02 1.0133127868175507e-01 1.6380810737609863e-01 -4.0822811424732208e-02 1.8799047172069550e-01 2.1173882484436035e-01 7.8299254179000854e-02 -1.7092114314436913e-02 7.9133091494441032e-03 -7.1257501840591431e-03 -7.3846273124217987e-02 1.1071142554283142e-01 -7.4764713644981384e-04 4.0561798214912415e-01 -3.9693221449851990e-01 3.5663705319166183e-02 7.1359497308731079e-01 4.1216719150543213e-01 1.8767939880490303e-02 3.3551000058650970e-02 -7.4101477861404419e-01 -7.6576286554336548e-01 -1.6031194925308228e+00 -1.2875506281852722e-01 2.6740270853042603e-01 1.8141193687915802e-01 1.5973134338855743e-01 1.8441405892372131e-01 3.1289547681808472e-01 5.4316663742065430e-01 -7.3343622684478760e-01 -1.1625349521636963e+00 -9.0778625011444092e-01 -3.6122154444456100e-02 1.4708183705806732e-02 -9.1268879175186157e-01 2.1843683719635010e-01 -9.9341917037963867e-01 -2.9495362192392349e-02 5.1201514899730682e-02 6.3007683493196964e-03 6.7590586841106415e-03 -9.8515622317790985e-02 2.1750037372112274e-01 -3.2688345760107040e-02 -1.8089024350047112e-02 -1.4085650444030762e-01 -9.9743247032165527e-02 7.0121951401233673e-02 8.1111509352922440e-03 4.0909077972173691e-02 2.3582667112350464e-02 -9.9130921065807343e-02 -1.2180762132629752e-03 -4.8181500285863876e-02 -8.3873614668846130e-02 -1.2180154770612717e-01 -1.2391918152570724e-01 -5.8008536696434021e-02 1.2654006481170654e-02 -1.3550178147852421e-02 -4.5209303498268127e-02 -1.3235551118850708e-01 -1.1579290032386780e-02 -9.8699778318405151e-02 -3.1311862170696259e-02 5.1581829786300659e-02 3.0634165741503239e-03 -8.3041891455650330e-02 5.0549108535051346e-02 -2.8018739074468613e-02 -1.6246667131781578e-02 -6.2801212072372437e-02 -1.1949393898248672e-01 7.5312219560146332e-02 3.9275906980037689e-02 -9.8145892843604088e-03 -4.8561608418822289e-03 -2.7732341550290585e-03 -2.4710901081562042e-02 -2.7849279344081879e-02 -1.9111298024654388e-02 -1.0339436680078506e-01 -1.1601690202951431e-01 -3.9044763892889023e-02 2.8717711102217436e-03 -1.8390115350484848e-02 -5.0585899502038956e-02 -6.6023483872413635e-02 -2.9351634904742241e-02 -2.8020817786455154e-02 -2.4458661209791899e-03 -1.1188756907358766e-03 -1.0231389023829252e-04 -2.5299724657088518e-03 -2.5965510867536068e-03 -2.2568463464267552e-05 -7.4615800258470699e-06 -2.6743754278868437e-03 -2.6008845306932926e-03 -2.5212299078702927e-03 -2.0991205237805843e-03 -9.8062516190111637e-04 -9.5518131274729967e-04 -3.4522492205724120e-04 -9.8184868693351746e-04 -8.9329900220036507e-04 -2.6863107923418283e-03 -2.4551472160965204e-03 -2.6862083468586206e-03 -2.7488598134368658e-03 -4.3785457819467410e-05 1.1929961146961432e-05 3.4745485754683614e-04 -7.6611759141087532e-04 -2.8179928194731474e-03 -2.8372211381793022e-03 1.3800073415040970e-02 6.3534318469464779e-03 5.5773084750398993e-04 1.4200725592672825e-02 1.4589749276638031e-02 1.4605015167035162e-04 8.7654680100968108e-06 1.5056170523166656e-02 1.4628021977841854e-02 1.4109395444393158e-02 1.1753297410905361e-02 5.4894154891371727e-03 5.4160072468221188e-03 2.0041144452989101e-03 5.5506597273051739e-03 5.0314883701503277e-03 1.5056862495839596e-02 1.3830951415002346e-02 1.5114334411919117e-02 1.5452680177986622e-02 2.5206248392350972e-04 -8.7399756012018770e-05 -1.8523215549066663e-03 4.3926793150603771e-03 1.5841355547308922e-02 1.5918666496872902e-02 4.5503000478674949e-08 2.0773970987875146e-08 1.9014363417113600e-09 4.7126519575613202e-08 4.8343174796627864e-08 4.0848349702748976e-10 1.6773898936506271e-10 4.9809624869112668e-08 4.8443748568161027e-08 4.6965940470045098e-08 3.9110165772626715e-08 1.8271393287250248e-08 1.7748682523688331e-08 6.3834941776974574e-09 1.8261202328062609e-08 1.6635745225812570e-08 5.0041222721119993e-08 4.5720433661244897e-08 5.0030003251322341e-08 5.1192429850743792e-08 8.1083229019895953e-10 -2.1411923623038120e-10 -6.5447247621364113e-09 1.4202893972026231e-08 5.2480320533732083e-08 5.2847983766923790e-08 2.0681319292634726e-03 9.4584381440654397e-04 8.6760090198367834e-05 2.1396258380264044e-03 2.1957578137516975e-03 1.9008200979442336e-05 6.4357845985796303e-06 2.2616977803409100e-03 2.1995748393237591e-03 2.1323417313396931e-03 1.7753560096025467e-03 8.2937395200133324e-04 8.0749846529215574e-04 2.9160099802538753e-04 8.3019031444564462e-04 7.5543101411312819e-04 2.2718696855008602e-03 2.0762430503964424e-03 2.2716682869940996e-03 2.3246586788445711e-03 3.7030895327916369e-05 -1.0045662747870665e-05 -2.9440305661410093e-04 6.4736994681879878e-04 2.3831084836274385e-03 2.3994660004973412e-03 1.4629735052585602e-01 -6.6294938325881958e-02 8.8391220197081566e-03 -1.6828037798404694e-01 4.8856985569000244e-01 -4.1437763720750809e-02 -1.2167727574706078e-02 -2.9414615035057068e-01 -1.2545026838779449e-01 7.1035094559192657e-02 -3.9906252175569534e-02 9.8801352083683014e-02 6.6841207444667816e-02 -2.0011977851390839e-01 3.0130296945571899e-03 -7.7050447463989258e-02 -1.5752173960208893e-01 -2.0526613295078278e-01 -1.8315710127353668e-01 -1.1478126049041748e-01 1.9054375588893890e-02 -1.7654215916991234e-02 -1.5997555106878281e-02 -1.3174815475940704e-01 9.6490373834967613e-03 -2.0838277041912079e-01 -9.9792212247848511e-02 3.2909294962882996e-01 -3.4900773316621780e-02 1.5179900825023651e-01 -2.5035965442657471e-01 -1.4780982164666057e-03 -1.9929891452193260e-02 -2.7258589863777161e-01 -1.1792711913585663e-01 -4.4066202640533447e-01 1.2186876684427261e-01 -2.3374493420124054e-01 -1.1992151290178299e-01 3.2670896500349045e-02 2.7456400915980339e-02 -2.2330149076879025e-03 1.3739842176437378e-01 -2.5891527533531189e-01 -1.8927034735679626e-01 3.2444726675748825e-02 4.0649733273312449e-04 -6.1935681849718094e-02 9.2771959304809570e-01 4.4924077391624451e-01 -1.5276479721069336e-01 2.8806495666503906e-01 -2.6352042332291603e-03 6.4244074746966362e-03 1.0399325983598828e-03 -1.7549542710185051e-02 2.0493552088737488e-02 -4.3527898378670216e-03 1.3503636000677943e-04 -1.4921676367521286e-02 -2.1028842777013779e-02 1.8069945275783539e-02 6.9886604323983192e-03 6.8687801249325275e-03 7.6581686735153198e-03 4.7838687896728516e-03 -2.6854390744119883e-03 -9.7608048235997558e-04 -4.6397033147513866e-03 -2.0032439380884171e-02 -2.0719226449728012e-02 -8.9884391054511070e-03 -6.3456589123234153e-04 -3.1693545170128345e-03 -1.2622756883502007e-02 -2.1560236345976591e-03 -1.1253901757299900e-03 -7.4480334296822548e-03 -4.6284189447760582e-03 2.1551260724663734e-02 2.0708160009235144e-03 -4.0506333112716675e-02 4.3146327137947083e-02 -1.4673559926450253e-02 -2.5422316975891590e-03 -5.2071616053581238e-02 -5.4838720709085464e-02 5.0113555043935776e-02 1.7424955964088440e-02 2.0077005028724670e-02 2.2827414795756340e-02 -6.6480650566518307e-03 -6.4801513217389584e-03 -2.0177261903882027e-03 -1.6220491379499435e-02 -5.9012342244386673e-02 -5.8881856501102448e-02 -2.7040947228670120e-02 -1.8899821443483233e-03 -1.4803467784076929e-03 -2.5207670405507088e-02 -3.3589158207178116e-02 -1.6811165958642960e-02 -2.0403644070029259e-02 9.7954068332910538e-03 -1.9579518586397171e-02 -2.4983896873891354e-03 4.5454509556293488e-02 -4.6005874872207642e-02 1.2279724702239037e-02 2.4926338810473680e-03 3.5432994365692139e-02 5.7293660938739777e-02 -4.3681990355253220e-02 -1.8790666013956070e-02 -9.2188958078622818e-03 -1.0926976799964905e-02 -8.0270161852240562e-03 8.8844448328018188e-03 7.4776317924261093e-03 1.1480448767542839e-02 5.1964256912469864e-02 5.5771585553884506e-02 2.1841691806912422e-02 1.8505292246118188e-04 9.1602327302098274e-03 3.1498782336711884e-02 1.4242466539144516e-02 5.6954841129481792e-03 1.8061924725770950e-02 -1.3690784573554993e-01 2.6632830500602722e-01 -3.4443143755197525e-02 -1.0464320331811905e-01 -2.1047098934650421e-01 -4.4602114707231522e-02 -7.8402586281299591e-02 -1.4277656376361847e-01 -2.5854721665382385e-01 2.2860863804817200e-01 1.2419078499078751e-01 -7.8450612723827362e-02 -6.6742545459419489e-04 -5.2823379635810852e-02 -6.7637600004673004e-02 3.3556580543518066e-02 4.1472896933555603e-02 -2.5079819560050964e-01 -2.5212350487709045e-01 -7.8683845698833466e-02 -1.7655806615948677e-02 -1.7908703535795212e-02 -4.9537595361471176e-02 -2.1459598839282990e-01 -1.8704380095005035e-01 5.9056743979454041e-02 -5.3012859076261520e-02 -4.4279866851866245e-03 2.1773960907012224e-03 3.2743625342845917e-02 -1.1463341861963272e-01 2.5136789306998253e-02 1.7704365774989128e-02 1.1156242340803146e-01 4.0321785956621170e-02 -3.3466078341007233e-02 6.0378559865057468e-03 -3.1241608783602715e-02 -1.5868708491325378e-02 1.2743975222110748e-01 -8.0067254602909088e-03 3.0924670398235321e-02 6.7951895296573639e-02 7.2918817400932312e-02 6.9979719817638397e-02 3.7542734295129776e-02 -8.1736855208873749e-03 -1.1875620111823082e-02 -2.6527594309300184e-03 1.5980418026447296e-01 3.5551957786083221e-02 6.6240884363651276e-02 -1.7058236524462700e-02 1.8760371953248978e-02 4.6252934262156487e-03 -7.2011962532997131e-02 8.0681800842285156e-02 -1.2202872894704342e-02 -1.4823419041931629e-03 -2.4996478110551834e-02 -8.1190869212150574e-02 4.8458319157361984e-02 2.5376429781317711e-02 -1.4294828288257122e-03 -3.7312190979719162e-03 3.3433832228183746e-02 -1.5183658339083195e-02 -2.0471628755331039e-02 -1.0340322740375996e-02 -6.0033168643712997e-02 -7.0973217487335205e-02 -2.2511005401611328e-02 2.4550314992666245e-03 -2.4766664952039719e-02 -5.4405752569437027e-02 1.6740320250391960e-02 1.4250440523028374e-02 -2.5063814595341682e-02 -9.9760815501213074e-03 -4.5854868367314339e-03 -4.0794428787194192e-04 -1.0283697396516800e-02 -1.0561798699200153e-02 -1.0072407167172059e-04 -1.4218139767763205e-05 -1.0885646566748619e-02 -1.0581873357295990e-02 -1.0231930762529373e-02 -8.5196020081639290e-03 -3.9799632504582405e-03 -3.9100404828786850e-03 -1.4358505140990019e-03 -4.0090954862535000e-03 -3.6383881233632565e-03 -1.0910637676715851e-02 -9.9978735670447350e-03 -1.0931486263871193e-02 -1.1182332411408424e-02 -1.8038805865217000e-04 5.6989978475030512e-05 1.3634301722049713e-03 -3.1602527014911175e-03 -1.1462665162980556e-02 -1.1530624702572823e-02 1.3937924802303314e-01 -2.4803258478641510e-01 -1.8562378361821175e-02 1.4345254004001617e-01 2.5556907057762146e-01 2.0234644412994385e-02 4.4636391103267670e-03 6.4016318321228027e-01 -1.3880333304405212e-01 -3.3266201615333557e-01 4.0764135122299194e-01 -9.2851996421813965e-02 -7.8923553228378296e-03 2.3256735503673553e-01 1.0184546709060669e+00 -1.7299807071685791e+00 -4.5011651515960693e-01 4.3292048573493958e-01 2.4379583075642586e-02 9.2858731746673584e-02 -3.8853775709867477e-02 7.6287269592285156e-02 -1.5749658923596144e-03 -2.9259526729583740e-01 1.8739260733127594e-01 -1.0215069353580475e-01 6.8116523325443268e-02 -6.2939241528511047e-02 9.6411406993865967e-03 -5.5427812039852142e-03 1.5487420558929443e-01 2.2697677835822105e-02 5.3088720887899399e-03 7.0992767810821533e-02 6.3718736171722412e-02 -6.3295140862464905e-02 -3.0714059248566628e-02 -6.3159191049635410e-03 -2.9864093288779259e-02 6.2720396090298891e-04 2.9012573882937431e-02 -2.6363078504800797e-02 -2.3420829325914383e-02 8.2415424287319183e-02 7.2135359048843384e-02 3.8634438067674637e-02 2.2347593680024147e-02 -3.2938905060291290e-02 -2.2429252043366432e-02 7.8611083328723907e-02 1.0519393533468246e-01 -3.4315727651119232e-02 -1.3882561028003693e-01 1.0308659076690674e-01 -9.8585849627852440e-03 5.7262118905782700e-02 -3.6380499601364136e-01 -1.9454808905720711e-02 -8.3953635767102242e-03 -7.9839192330837250e-03 -4.1457306593656540e-02 5.2834827452898026e-02 5.3954735398292542e-02 -3.1600002199411392e-02 2.7539487928152084e-02 5.2062872797250748e-02 -3.7741515785455704e-02 5.8663077652454376e-02 7.5287267565727234e-02 -4.8183321952819824e-02 -3.6649964749813080e-02 -1.6587769612669945e-02 -3.2327201217412949e-02 4.1070230305194855e-02 5.3081616759300232e-02 -8.0314837396144867e-02 -1.5024064481258392e-01 1.0727717727422714e-01 -4.2140800505876541e-02 -7.1968357078731060e-03 3.0272956937551498e-03 -6.2427413649857044e-03 -3.5971701145172119e-02 1.7233498394489288e-02 1.4860479161143303e-02 7.3009207844734192e-02 1.8429514020681381e-03 -9.8168784752488136e-03 1.1226865462958813e-02 -1.8682504072785378e-02 -1.0193744674324989e-02 1.1539953202009201e-01 -1.1507514864206314e-02 1.3938442803919315e-02 4.5212138444185257e-02 3.3606871962547302e-02 2.8110422194004059e-02 1.8696712329983711e-02 -6.0094981454312801e-03 -2.1906886249780655e-02 -2.5550859048962593e-02 1.4222656190395355e-01 4.1085094213485718e-02 3.4721005707979202e-02 6.9155231118202209e-02 -3.7477862089872360e-02 1.8434626981616020e-03 3.7270095199346542e-02 6.1728589236736298e-02 4.4290795922279358e-03 8.8972691446542740e-04 -2.0379044115543365e-02 6.8365193903446198e-02 -3.5049486905336380e-02 -3.6078251898288727e-02 2.9082421213388443e-02 1.2048932723701000e-02 -8.5885018110275269e-02 2.9028577730059624e-02 -2.3403775412589312e-03 -3.4307103604078293e-02 3.6297008395195007e-02 4.6459745615720749e-02 8.9911418035626411e-03 7.6267174445092678e-03 1.8786797299981117e-02 3.0445277690887451e-02 -5.2580740302801132e-02 1.1149135418236256e-02 -2.7397641912102699e-02 -1.9580012559890747e-01 7.1967281401157379e-02 -1.4453425072133541e-02 -2.9221647977828979e-01 1.5174491703510284e-01 -5.4655750282108784e-03 6.3482813537120819e-02 -1.7252062261104584e-01 -4.0731772780418396e-01 2.3949091136455536e-01 1.0960308462381363e-01 -3.0408930033445358e-02 -2.8887515887618065e-02 2.6898166537284851e-01 -1.0592789947986603e-01 -5.1543980836868286e-02 7.5095072388648987e-02 -3.3788731694221497e-01 -3.4678298234939575e-01 -1.4836788177490234e-01 -7.4477784335613251e-02 -6.1172977089881897e-02 -1.5592503547668457e-01 3.4299716353416443e-01 5.5006542243063450e-03 -2.8035098686814308e-02 5.1224795170128345e-03 2.3478735238313675e-03 2.1290642325766385e-04 5.2921264432370663e-03 5.4329531267285347e-03 4.8748457629699260e-05 1.2548144695756491e-05 5.5953585542738438e-03 5.4413299076259136e-03 5.2718310616910458e-03 4.3887281790375710e-03 2.0503739360719919e-03 2.0032781176269054e-03 7.2806415846571326e-04 2.0569819025695324e-03 1.8695855978876352e-03 5.6180222891271114e-03 5.1375287584960461e-03 5.6201200932264328e-03 5.7510226033627987e-03 9.1977060947101563e-05 -2.6178644475294277e-05 -7.1762228617444634e-04 1.6111474251374602e-03 5.8955047279596329e-03 5.9346426278352737e-03 4.4113349169492722e-02 2.0334336906671524e-02 1.7682276666164398e-03 4.4815059751272202e-02 4.6101443469524384e-02 5.4694607388228178e-04 -9.4526898465119302e-05 4.8650875687599182e-02 4.6922169625759125e-02 4.3630659580230713e-02 3.6647748202085495e-02 1.6966219991445541e-02 1.7360284924507141e-02 6.5412377007305622e-03 1.7944226041436195e-02 1.6117971390485764e-02 4.7065928578376770e-02 4.4765111058950424e-02 4.8623085021972656e-02 4.9224007874727249e-02 1.0374005651101470e-03 -5.1305489614605904e-04 -5.5152010172605515e-03 1.4143314212560654e-02 5.0510503351688385e-02 5.0054959952831268e-02 1.0554271191358566e-01 -1.1401813477277756e-01 5.8116498403251171e-03 -1.4226934313774109e-01 4.1441711783409119e-01 -2.7120037004351616e-02 -1.3154410757124424e-02 -1.8781444430351257e-01 -1.0718128830194473e-01 -3.8952115923166275e-02 -6.7718170583248138e-02 6.1358176171779633e-03 -7.3436923325061798e-02 -1.5601581335067749e-01 -1.1414198204874992e-02 -1.6553606092929840e-01 -1.2850488722324371e-01 -1.3294127583503723e-01 -1.4252534508705139e-01 -7.6433748006820679e-02 3.8480304181575775e-02 -2.4277303367853165e-02 -3.6862984299659729e-02 -9.3407809734344482e-02 3.7485759705305099e-02 -1.9095650315284729e-01 -5.3316522389650345e-03 -2.4441748391836882e-03 -2.2150827862787992e-04 -5.5077914148569107e-03 -5.6542097590863705e-03 -5.0833587010856718e-05 -1.2848460755776614e-05 -5.8232923038303852e-03 -5.6631183251738548e-03 -5.4866117425262928e-03 -4.5674056746065617e-03 -2.1338618826121092e-03 -2.0854431204497814e-03 -7.5821956852450967e-04 -2.1409655455499887e-03 -1.9459122559055686e-03 -5.8469558134675026e-03 -5.3468067198991776e-03 -5.8490214869379997e-03 -5.9852744452655315e-03 -9.5749863248784095e-05 2.7323296308168210e-05 7.4607913848012686e-04 -1.6775203403085470e-03 -6.1356271617114544e-03 -6.1765313148498535e-03 -4.0817469358444214e-02 5.6102778762578964e-02 4.9759456887841225e-03 -1.1480055004358292e-01 8.8605120778083801e-02 -3.4060891717672348e-02 5.0684803863987327e-04 -1.4640350639820099e-01 -1.7030449211597443e-01 1.4042526483535767e-01 5.1070392131805420e-02 4.0476277470588684e-02 4.7897737473249435e-02 1.8485618755221367e-02 -3.7179071456193924e-02 -1.2382796034216881e-02 -2.1903371438384056e-02 -1.7640306055545807e-01 -1.7614187300205231e-01 -8.1289783120155334e-02 -1.2028380297124386e-02 8.3976658061146736e-04 -7.5423091650009155e-02 -4.8577889800071716e-02 -5.3853936493396759e-02 -4.3632451444864273e-02 8.4003344178199768e-02 1.7897588014602661e-01 1.8967956304550171e+00 -2.0923303440213203e-02 3.3309116959571838e-01 5.1462221890687943e-02 -3.0003055930137634e-02 -7.3502737283706665e-01 -1.6637870669364929e-01 4.2346167564392090e-01 9.0063802897930145e-02 -3.6063246428966522e-02 1.5931278467178345e-01 -2.7893498539924622e-01 -1.6724219918251038e-01 -1.1038327589631081e-02 8.5408866405487061e-02 -3.9222010970115662e-01 -1.9725042581558228e-01 -2.7339053153991699e-01 -1.9182872027158737e-02 8.3741173148155212e-02 7.8494951128959656e-02 1.0030739754438400e-01 -1.2837757170200348e-01 -1.4287175238132477e-01 -1.2464578449726105e-01 7.4772514402866364e-02 -9.2170611023902893e-03 2.6157397031784058e-01 -6.4682006835937500e-01 1.2159726582467556e-02 -2.8204020112752914e-02 2.0231884717941284e-01 2.0168288052082062e-01 -6.6603057086467743e-02 4.3049562722444534e-02 -2.3832084611058235e-02 3.8972076028585434e-02 1.7756141722202301e-02 2.8225449845194817e-02 1.3804674148559570e-01 8.7740674614906311e-02 1.9493965804576874e-01 2.0587077736854553e-01 1.0110329836606979e-01 -1.3215870596468449e-02 5.2587505429983139e-02 1.0910815745592117e-01 -1.9620905816555023e-01 -1.4054042100906372e-01 2.0315216481685638e-01 -6.9371089339256287e-02 4.1786782443523407e-02 -1.2792952358722687e-02 2.0179027318954468e-01 -4.5335954427719116e-01 1.0145747102797031e-02 -1.6240457072854042e-02 1.1198923736810684e-01 1.5433226525783539e-01 -6.5280161798000336e-02 6.9268392398953438e-03 -2.7148982509970665e-02 2.8113698586821556e-02 -1.4557864516973495e-02 1.6344601288437843e-02 8.6665198206901550e-02 6.8532057106494904e-02 1.3187631964683533e-01 1.4651392400264740e-01 6.2650687992572784e-02 -1.5207077376544476e-02 5.5790670216083527e-02 1.1252452433109283e-01 -1.3220965862274170e-01 -1.1691367626190186e-01 1.4090850949287415e-01 9.0656382963061333e-03 4.1657756082713604e-03 3.7438853178173304e-04 9.3488618731498718e-03 9.6007436513900757e-03 9.0546593128237873e-05 1.3905972082284279e-05 9.8921628668904305e-03 9.6178734675049782e-03 9.3057053163647652e-03 7.7471965923905373e-03 3.6191018298268318e-03 3.5523099359124899e-03 1.3015923323109746e-03 3.6425611469894648e-03 3.3067998010665178e-03 9.9204760044813156e-03 9.0847564861178398e-03 9.9346563220024109e-03 1.0163909755647182e-02 1.6397441504523158e-04 -5.0737322453642264e-05 -1.2448378838598728e-03 2.8678153175860643e-03 1.0418974794447422e-02 1.0482911951839924e-02 -1.6440191864967346e-01 -1.9178058952093124e-02 -4.4618263840675354e-02 7.8288570046424866e-02 -3.0368405580520630e-01 3.0285781249403954e-02 8.8695436716079712e-03 -1.0544097423553467e-01 -1.3967415690422058e-01 -3.5013321787118912e-02 -1.4142610598355532e-03 -1.8682578206062317e-01 -2.6669114828109741e-01 5.8812141418457031e-02 -1.4398761093616486e-01 -2.1102216839790344e-01 1.6227531433105469e-01 -1.3762570917606354e-01 -1.5176370739936829e-01 -3.4169625490903854e-02 -8.3248745650053024e-03 4.3062061071395874e-02 -1.2324116192758083e-02 8.2103282213211060e-02 -1.4662992954254150e-01 1.1296953260898590e-01 -3.5122320055961609e-02 2.7208486571907997e-02 8.4654713282361627e-04 -4.4536810368299484e-02 4.1602547280490398e-03 -9.0019442141056061e-03 -1.8866293830797076e-03 -9.4256484881043434e-03 -6.3591711223125458e-02 3.9931066334247589e-02 2.6772374287247658e-02 -8.3582224324345589e-03 -1.3360071170609444e-04 4.3386258184909821e-02 -1.7523409798741341e-02 -4.3372297659516335e-03 7.6706847175955772e-03 -4.4981911778450012e-02 -5.2378293126821518e-02 -1.5878014266490936e-02 -2.7122790925204754e-03 -1.5126557089388371e-02 -3.3246073871850967e-02 1.6863441094756126e-02 -5.2753379568457603e-03 3.8812449201941490e-04 -1.7475351691246033e-02 4.8012729734182358e-02 6.2759504653513432e-03 -1.0264188796281815e-01 1.0380581766366959e-01 -3.2237075269222260e-02 -1.7164001241326332e-02 -8.7373383343219757e-02 -1.3390713930130005e-01 8.8145300745964050e-02 3.9191164076328278e-02 3.0937006231397390e-03 4.0869251824915409e-03 -1.5370425768196583e-02 -2.3231226950883865e-02 -3.4817025065422058e-02 -3.5327088087797165e-02 -1.2239425629377365e-01 -1.3477092981338501e-01 -4.9048602581024170e-02 5.3004687651991844e-03 -2.2267371416091919e-02 -6.3131861388683319e-02 -7.8787401318550110e-02 -2.3837776854634285e-02 -4.8837754875421524e-02 3.4894578158855438e-02 2.8258033096790314e-02 -1.0648249648511410e-02 1.6544284299015999e-02 -1.2509746477007866e-02 -2.3563511669635773e-02 -2.5098972022533417e-02 -9.4517685472965240e-02 -1.0919623076915741e-02 1.2945057824254036e-02 -7.4147940613329411e-03 1.0333809070289135e-02 8.9683057740330696e-03 -1.5021309256553650e-01 6.1997077427804470e-03 -1.2049294076859951e-02 -4.9636825919151306e-02 -5.0527215003967285e-02 -4.4089570641517639e-02 -2.6481892913579941e-02 5.1896111108362675e-03 3.2634843140840530e-02 4.9032036215066910e-02 -2.0389761030673981e-01 -7.8297384083271027e-02 -3.1177872791886330e-02 7.0207956014201045e-04 3.2074726186692715e-04 2.9618662665598094e-05 7.2680454468354583e-04 7.4579962529242039e-04 6.3747656895429827e-06 2.3610166408616351e-06 7.6834234641864896e-04 7.4715539813041687e-04 7.2443240787833929e-04 6.0320092597976327e-04 2.8175712213851511e-04 2.7390453033149242e-04 9.8633223387878388e-05 2.8181384550407529e-04 2.5654400815255940e-04 7.7176309423521161e-04 7.0523913018405437e-04 7.7165599213913083e-04 7.8963406849652529e-04 1.2570407307066489e-05 -3.3707026432239218e-06 -1.0068873234558851e-04 2.1926675981376320e-04 8.0954388249665499e-04 8.1505766138434410e-04 1.9496743334457278e-03 8.9165521785616875e-04 8.1977625086437911e-05 2.0172407384961843e-03 2.0700974855571985e-03 1.7882557585835457e-05 6.0954876062169205e-06 2.1321966778486967e-03 2.0736381411552429e-03 2.0104809664189816e-03 1.6738423146307468e-03 7.8194675734266639e-04 7.6129572698846459e-04 2.7479400159791112e-04 7.8262435272336006e-04 7.1223085978999734e-04 2.1419136319309473e-03 1.9572309684008360e-03 2.1415709052234888e-03 2.1915326360613108e-03 3.4926419175462797e-05 -9.4481229098164476e-06 -2.7771780150942504e-04 6.1017682310193777e-04 2.2467100061476231e-03 2.2621969692409039e-03 -3.2788168755359948e-04 -1.4973968791309744e-04 -1.3816807040711865e-05 -3.3949041971936822e-04 -3.4834237885661423e-04 -2.9634879865625408e-06 -1.1394927241781261e-06 -3.5888343700207770e-04 -3.4900187165476382e-04 -3.3838456147350371e-04 -2.8177857166156173e-04 -1.3162221875973046e-04 -1.2789950415026397e-04 -4.6024244511500001e-05 -1.3160314119886607e-04 -1.1983363219769672e-04 -3.6050227936357260e-04 -3.2941455719992518e-04 -3.6045108572579920e-04 -3.6882015410810709e-04 -5.8646464822231792e-06 1.5639035382264410e-06 4.7108926082728431e-05 -1.0235196532448754e-04 -3.7812712253071368e-04 -3.8073534960858524e-04 -9.8425503820180893e-03 3.9090953767299652e-02 -3.7289443425834179e-03 3.8524314295500517e-03 -5.3328618407249451e-02 -1.8930194899439812e-02 -1.0352953337132931e-02 -6.1132509261369705e-02 -2.7803540229797363e-02 3.9785858243703842e-02 1.2469801120460033e-02 1.5784131363034248e-02 2.9108976945281029e-02 -5.0827510654926300e-02 -3.9636990986764431e-03 1.3927609659731388e-02 -1.1123030446469784e-02 -5.0300765782594681e-02 -4.2830985039472580e-02 -2.4337567389011383e-02 -5.8087366633117199e-03 2.3491194471716881e-02 1.8722053617238998e-02 -1.0360584408044815e-01 -6.4382545650005341e-02 9.8746386356651783e-04 1.8262408673763275e-02 -4.6598359942436218e-02 -7.9722236841917038e-03 1.1606285721063614e-01 -1.2478060275316238e-01 3.3768985420465469e-02 1.6571724787354469e-02 9.6076264977455139e-02 1.4787794649600983e-01 -9.2946387827396393e-02 -4.0415666997432709e-02 -2.5792319793254137e-03 -9.7024929709732533e-04 1.0990330018103123e-02 2.6664776727557182e-02 4.2429130524396896e-02 3.8461927324533463e-02 1.3430035114288330e-01 1.4806662499904633e-01 5.4477181285619736e-02 -6.1511280946433544e-03 2.6542276144027710e-02 7.1711711585521698e-02 7.2899624705314636e-02 2.0366627722978592e-02 5.6654542684555054e-02 -1.2425231188535690e-01 1.3956981897354126e-01 1.7172552645206451e-02 -1.3196857273578644e-01 -1.1653463542461395e-01 1.7018316313624382e-02 -5.5552370846271515e-02 -2.3470060899853706e-02 -2.3704917728900909e-01 -2.9817275702953339e-02 -4.0262192487716675e-02 -4.7550109028816223e-01 -2.9544931650161743e-01 -1.0863701254129410e-01 -6.8123497068881989e-02 -2.1448802947998047e-01 6.5076276659965515e-02 -1.6542667150497437e-01 -2.0274601876735687e-01 -1.6058895736932755e-02 8.7246201932430267e-02 -6.1413712799549103e-02 6.4187504351139069e-02 8.5704863071441650e-02 -5.8284774422645569e-02 2.7307923883199692e-02 9.5628498820587993e-04 2.5965938344597816e-02 9.1185914352536201e-03 -1.0716755688190460e-01 1.5507511794567108e-01 -2.5524146854877472e-02 -6.6992691718041897e-03 -8.4615975618362427e-02 -1.1971782892942429e-01 8.1050679087638855e-02 2.9254436492919922e-02 1.7769584432244301e-02 1.0283133946359158e-02 -4.8900460824370384e-03 -1.5691405162215233e-02 -3.4389819949865341e-02 -3.9938338100910187e-02 -1.1050571501255035e-01 -1.2019790709018707e-01 -4.6881970018148422e-02 6.4208838157355785e-03 -2.5101970881223679e-02 -7.0995286107063293e-02 -3.5649660974740982e-02 3.9364919066429138e-03 -5.9776365756988525e-02 -1.4762216806411743e-01 1.0988506674766541e-01 -1.4087893068790436e-02 -1.3440355658531189e-02 -2.6749050617218018e-01 -3.2182037830352783e-02 -1.3048487715423107e-02 -6.9874994456768036e-02 -1.3382644951343536e-01 9.9346265196800232e-02 6.5558947622776031e-02 -3.0220599845051765e-02 4.3601868674159050e-03 5.2249148488044739e-02 -6.2239564955234528e-02 2.5214053690433502e-02 6.1175424605607986e-02 -1.3046231865882874e-01 -1.2646618485450745e-01 -5.1822163164615631e-02 -3.4990698099136353e-02 2.8423091396689415e-02 1.4329359866678715e-02 -7.0463702082633972e-02 -1.5054820477962494e-01 7.3546834290027618e-02 1.2467541637306567e-05 5.6919507187558338e-06 5.2487638413367677e-07 1.2911243175039999e-05 1.3246958587842528e-05 1.1234598673581786e-07 4.4416296418603451e-08 1.3649708307639230e-05 1.3273248441691976e-05 1.2868289559264667e-05 1.0716499673435465e-05 5.0056632971973158e-06 4.8619440349284559e-06 1.7486918295617215e-06 5.0041180656990036e-06 4.5570445763587486e-06 1.3709906852454878e-05 1.2528493243735284e-05 1.3708591723116115e-05 1.4026822100277059e-05 2.2277629341260763e-07 -5.9385882877904805e-08 -1.7941375745067489e-06 3.8900534491403960e-06 1.4380875654751435e-05 1.4478685443464201e-05 -1.2285811408219161e-06 -5.6091499800459133e-07 -5.1773280773659280e-08 -1.2722844076051842e-06 -1.3053952443442540e-06 -1.1071328742673359e-08 -4.3621830592144306e-09 -1.3450445521812071e-06 -1.3079754808131838e-06 -1.2680732197623001e-06 -1.0560124792391434e-06 -4.9328173190588132e-07 -4.7910839384712745e-07 -1.7231397464456677e-07 -4.9310375516142813e-07 -4.4905453933097306e-07 -1.3509906011677231e-06 -1.2345359436949366e-06 -1.3508420124708209e-06 -1.3822398159391014e-06 -2.1960993024094932e-08 5.8525650992180545e-09 1.7681247754808282e-07 -3.8330901475092105e-07 -1.4171006341712200e-06 -1.4267629921960179e-06 2.1878860425204039e-03 -2.0851306617259979e-02 -2.7769389562308788e-03 4.5845188200473785e-02 -5.5809907615184784e-02 1.5359642915427685e-02 3.2663797028362751e-03 5.2873741835355759e-02 5.8655310422182083e-02 -5.0915993750095367e-02 -1.7665276303887367e-02 -1.8980756402015686e-02 -2.0106395706534386e-02 8.4349019452929497e-03 6.3917934894561768e-03 6.0069430619478226e-03 1.9226804375648499e-02 6.1133936047554016e-02 6.2343459576368332e-02 2.7451155707240105e-02 4.1131413308903575e-04 4.1640060953795910e-03 2.9369376599788666e-02 3.4658569842576981e-02 1.3016662560403347e-02 2.4556754156947136e-02 4.6632293611764908e-02 -1.1295694857835770e-01 -6.3775412738323212e-02 -1.2773513793945312e-01 3.2317015528678894e-01 -1.7151221632957458e-02 1.2651793658733368e-01 -3.3821356296539307e-01 -1.7214915156364441e-01 7.1230597794055939e-02 -5.0094850361347198e-02 1.6670636832714081e-01 -8.5780657827854156e-03 -1.6582090407609940e-02 -8.4263086318969727e-02 -6.1062116175889969e-02 -3.4180585294961929e-02 -2.6105600595474243e-01 -2.0594953000545502e-01 -1.6353428363800049e-01 -1.3503722846508026e-01 9.0013436973094940e-02 4.0498990565538406e-02 1.5342800319194794e-01 -3.4159380942583084e-02 -1.2201522290706635e-01 -4.0332376956939697e-02 1.9003329798579216e-02 -5.9718405827879906e-04 -2.0124370232224464e-02 -3.5031933337450027e-02 4.0155326132662594e-04 4.6651032753288746e-03 1.4173592440783978e-02 -3.3222090452909470e-02 2.4749822914600372e-02 2.1530864760279655e-02 -5.0473492592573166e-03 8.9772278442978859e-03 6.6959269344806671e-02 -1.4524730853736401e-02 1.3603988103568554e-02 2.3892950266599655e-02 -1.6874652355909348e-02 -1.9467569887638092e-02 -5.3876363672316074e-03 -7.3199518956243992e-03 -1.0439646430313587e-02 -1.9653659313917160e-02 5.4211642593145370e-02 -7.6929363422095776e-04 1.8933994695544243e-02 -1.0802567750215530e-01 1.1227618902921677e-01 -1.1710672639310360e-02 -3.4680925309658051e-02 -1.8233774602413177e-01 -3.5612162202596664e-02 -2.3009395226836205e-02 -7.8499943017959595e-02 -1.3470393419265747e-01 1.0460841655731201e-01 6.2342852354049683e-02 -2.3304248228669167e-02 1.0296171531081200e-02 6.9330078549683094e-03 -4.8733126372098923e-02 1.6351943835616112e-02 2.9448620975017548e-02 -1.3195338845252991e-01 -1.3256318867206573e-01 -5.0875723361968994e-02 -2.0806690678000450e-02 1.6777211800217628e-02 9.7630190430209041e-04 -1.1499537527561188e-01 -1.3024522364139557e-01 4.1679129004478455e-02 -7.4648637335656702e-33 2.0849013024669465e-32 -4.1142170035665595e-33 -7.4365534214940539e-32 -2.3535111655846458e-32 -4.1142140648306825e-33 -4.1142151668566364e-33 4.2486365458246143e-32 1.1444018199464275e-31 1.1490780540234337e-31 -4.1142162688825903e-33 -1.0461050427649890e-32 -6.3173659847601232e-33 2.6806029012133108e-32 5.2100958566916228e-33 -1.2613283605721555e-32 -8.3547261814495886e-32 2.0508617190914987e-31 1.1976381958536427e-31 1.0354528892819900e-31 -4.6373303567817091e-33 4.1142140648306825e-33 4.0568146756800302e-32 -3.4561170790058773e-32 9.2420921732059481e-32 -1.8814708672481756e-31 -2.1389978937804699e-03 2.2671082988381386e-02 -3.2014038879424334e-03 2.1159874275326729e-02 -5.7873215526342392e-02 -1.0474132373929024e-02 -7.4206171557307243e-03 -3.5903155803680420e-02 1.4540853444486856e-03 1.4376599341630936e-02 2.1619875915348530e-03 1.0116111487150192e-02 1.9767321646213531e-02 -4.5774050056934357e-02 1.4320787740871310e-03 1.3796627521514893e-02 -5.7146460749208927e-03 -1.9466901198029518e-02 -1.1732820421457291e-02 -1.0871852748095989e-02 -3.9517083205282688e-03 2.2642062976956367e-02 2.7437124401330948e-02 -7.9242452979087830e-02 -4.8817966133356094e-02 6.7285755649209023e-03 -1.7208976671099663e-02 3.4464441239833832e-02 3.4733724314719439e-03 -6.6626496613025665e-02 5.7839985936880112e-02 -2.0690277218818665e-02 -9.4054713845252991e-03 -4.9698743969202042e-02 -8.8691622018814087e-02 5.9987697750329971e-02 2.8652695938944817e-02 8.7365839863196015e-04 3.0939728021621704e-03 3.0947012419346720e-06 -1.5527574345469475e-02 -1.9114831462502480e-02 -1.8135625869035721e-02 -7.7740997076034546e-02 -8.6446069180965424e-02 -3.0376607552170753e-02 2.3675882257521152e-03 -1.4674579724669456e-02 -4.3456569314002991e-02 -4.2048320174217224e-02 -1.4586561359465122e-02 -2.6098525151610374e-02 6.3703606656417833e-07 2.9085762776048796e-07 2.6878856473899759e-08 6.5969607021543197e-07 6.7684902660403168e-07 5.7421707388982668e-09 2.2540918021007883e-09 6.9742998221045127e-07 6.7819240712196915e-07 6.5752954014897114e-07 5.4756890222051879e-07 2.5576804318916402e-07 2.4843262735885219e-07 8.9349313725506363e-08 2.5569133299541136e-07 2.3284893302388809e-07 7.0053448553153430e-07 6.4013602241175249e-07 7.0043165578681510e-07 7.1670899615128292e-07 1.1392101484375416e-08 -3.0365325809356136e-09 -9.1682593961195380e-08 1.9875254508860962e-07 7.3479236561979633e-07 7.3981567538794479e-07 -7.9310621367767453e-04 1.3207319192588329e-02 1.3660584809258580e-03 -2.4938134476542473e-02 2.9394565150141716e-02 -9.5815407112240791e-03 -1.8980206223204732e-03 -3.3844612538814545e-02 -3.3326048403978348e-02 3.1183021143078804e-02 1.0280819609761238e-02 1.3496102765202522e-02 1.4754570089280605e-02 -7.6369275338947773e-03 -3.1324049923568964e-03 -1.5265863621607423e-03 -1.1749087832868099e-02 -3.6796856671571732e-02 -3.6580875515937805e-02 -1.6953583806753159e-02 -8.6302869021892548e-04 -5.0853018183261156e-04 -1.5200281515717506e-02 -2.4623692035675049e-02 -1.0670122690498829e-02 -1.3962673023343086e-02 1.1161804944276810e-01 -6.4719043672084808e-02 9.7973607480525970e-03 -1.3276952505111694e-01 4.0874701738357544e-01 -1.3811348937451839e-02 1.8965571653097868e-03 -1.3177885115146637e-01 -7.9689912497997284e-02 2.9237717390060425e-02 -3.3845838159322739e-02 4.9171756953001022e-02 -5.8273398317396641e-03 -8.6675740778446198e-02 9.5332255586981773e-03 -7.9985260963439941e-02 -9.9550664424896240e-02 -9.5607683062553406e-02 -9.8764330148696899e-02 -5.2708718925714493e-02 2.1319163963198662e-02 -3.2649192959070206e-02 -6.6124647855758667e-02 6.1532319523394108e-03 8.1166580319404602e-02 -1.4561635255813599e-01 2.7727583423256874e-02 -5.5398095399141312e-02 -2.4428409524261951e-03 7.7461890876293182e-02 -4.4863481074571609e-02 3.0318764969706535e-02 1.1729121208190918e-02 9.3717403709888458e-02 1.1828307807445526e-01 -9.7550764679908752e-02 -4.0746439248323441e-02 -1.9179936498403549e-02 -3.0307905748486519e-02 9.4476677477359772e-03 2.2222809493541718e-02 7.6570138335227966e-03 2.2160086780786514e-02 1.1944408714771271e-01 1.2288459390401840e-01 5.1366154104471207e-02 3.8792956620454788e-03 4.2575770057737827e-03 4.6062603592872620e-02 7.8847117722034454e-02 4.6847835183143616e-02 2.8591353446245193e-02 3.5787440836429596e-02 -7.7314503490924835e-02 -7.9788928851485252e-03 1.2287411093711853e-01 -9.4317346811294556e-02 4.3788872659206390e-02 1.1768570169806480e-02 1.6177736222743988e-01 1.8195429444313049e-01 -1.6218039393424988e-01 -6.0684632509946823e-02 -4.2959135025739670e-02 -6.3580177724361420e-02 1.0198653675615788e-02 3.7420015782117844e-02 7.1331202052533627e-03 3.5460405051708221e-02 1.9178849458694458e-01 1.9307509064674377e-01 8.5116714239120483e-02 7.6750488951802254e-03 7.4219814268872142e-04 8.0586753785610199e-02 1.0935898125171661e-01 6.8143956363201141e-02 5.0733603537082672e-02 -1.1005248874425888e-01 -5.0739747285842896e-01 1.1381627060472965e-02 -4.8428702354431152e-01 6.9435602426528931e-01 -1.5821194974705577e-03 5.2541892975568771e-02 -7.9818886518478394e-01 -4.8903897404670715e-01 1.2001452445983887e+00 6.6977822780609131e-01 3.3102369308471680e-01 3.6665958166122437e-01 -4.6479785442352295e-01 4.3635096400976181e-02 1.6253410279750824e-01 -9.7637750208377838e-02 -7.1045345067977905e-01 -5.0826179981231689e-01 -2.8965863585472107e-01 -2.2496307268738747e-02 -5.2713315933942795e-02 3.5303369164466858e-01 1.0841019451618195e-01 -4.4445514678955078e-02 -1.6440330445766449e-01 9.5912097021937370e-03 4.4726780615746975e-03 -8.2026200834661722e-04 1.1629591695964336e-02 -1.0887593030929565e-02 -4.5459028333425522e-03 -5.0304410979151726e-03 -1.5878040343523026e-02 7.5244498439133167e-03 -1.1822507949545979e-03 -4.1731558740139008e-03 2.8008031658828259e-03 2.3881972301751375e-03 -3.5984799265861511e-02 4.0685776621103287e-03 -2.7792222681455314e-04 -9.0155396610498428e-03 -3.1722853891551495e-03 -5.7173479581251740e-04 -2.1295312326401472e-03 1.1790387798100710e-03 1.0138086974620819e-02 1.4266039244830608e-02 -4.6556401997804642e-02 -1.7499160021543503e-02 -3.0088850762695074e-03 -2.0703397240140475e-05 -9.4527786131948233e-06 -8.7226732148337760e-07 -2.1439789634314366e-05 -2.1996669602231123e-05 -1.8606735352477699e-07 -7.4257648918774066e-08 -2.2662155970465392e-05 -2.2040361727704294e-05 -2.1370738977566361e-05 -1.7795142412069254e-05 -8.3130125858588144e-06 -8.0754289228934795e-06 -2.9035318220849149e-06 -8.3087306848028675e-06 -7.5681682574213482e-06 -2.2766862457501702e-05 -2.0800884158234112e-05 -2.2761822037864476e-05 -2.3291133402381092e-05 -3.6995896834923769e-07 9.8030874084997777e-08 2.9790312510158401e-06 -6.4599194047332276e-06 -2.3877884814282879e-05 -2.4044018573476933e-05 4.6414997428655624e-02 2.8622320387512445e-03 -1.1856041382998228e-03 -1.3482007198035717e-02 7.7747106552124023e-02 -1.8945928663015366e-02 -1.4165560714900494e-02 -8.1210173666477203e-02 -1.7810922116041183e-02 1.8501330167055130e-02 -8.9637720957398415e-03 2.2674156352877617e-02 9.5086470246315002e-03 -1.1073231697082520e-01 1.0346611961722374e-02 -2.2631622850894928e-02 -5.2613999694585800e-02 -4.5871056616306305e-02 -4.2776290327310562e-02 -2.4021644145250320e-02 7.5601134449243546e-03 1.4108275063335896e-02 9.5659717917442322e-03 -1.3416865468025208e-01 -2.9691731557250023e-02 -4.7674529254436493e-02 4.7025750391185284e-03 2.1546303760260344e-03 1.9535481987986714e-04 4.8591606318950653e-03 4.9882926978170872e-03 4.4525164412334561e-05 1.2033299753966276e-05 5.1374793983995914e-03 4.9959593452513218e-03 4.8408121801912785e-03 4.0300795808434486e-03 1.8827791791409254e-03 1.8386066658422351e-03 6.6764146322384477e-04 1.8882406875491142e-03 1.7164159798994660e-03 5.1585915498435497e-03 4.7169728204607964e-03 5.1600625738501549e-03 5.2803498692810535e-03 8.4351733676157892e-05 -2.3822927687433548e-05 -6.6021864768117666e-04 1.4781126519665122e-03 5.4131154902279377e-03 5.4490463808178902e-03 7.8671671450138092e-02 -8.0924831330776215e-02 5.1576141268014908e-03 5.2008334547281265e-02 9.0335488319396973e-02 2.6811268180608749e-02 2.3360881954431534e-02 3.6864724010229111e-02 1.2074399739503860e-01 -6.4869374036788940e-02 -4.9679491668939590e-02 4.8003163188695908e-02 3.0151780694723129e-02 -1.0299365036189556e-02 3.9547186344861984e-02 1.9729703664779663e-02 -1.5782928094267845e-02 9.7018301486968994e-02 1.1066867411136627e-01 3.0679766088724136e-02 3.0319993384182453e-03 8.5540656000375748e-03 2.0117662847042084e-02 7.8073799610137939e-02 7.1555919945240021e-02 -1.7621414735913277e-02 3.7924642674624920e-03 4.5139901340007782e-02 -2.4453948717564344e-03 -3.0172891914844513e-02 1.6106612980365753e-02 -2.7903247624635696e-02 -1.6656763851642609e-02 -9.2998281121253967e-02 -6.1591889709234238e-02 6.3766203820705414e-02 1.8790913745760918e-02 2.3554375395178795e-02 3.2193128019571304e-02 -7.4332810938358307e-02 -4.8783277161419392e-03 -9.3245494645088911e-04 -3.4601535648107529e-02 -8.3838820457458496e-02 -8.0421231687068939e-02 -3.8348264992237091e-02 -1.2417337857186794e-03 1.4979812316596508e-02 -2.8744544833898544e-03 -1.3814640045166016e-01 -6.1148736625909805e-02 -2.7025213465094566e-02 -3.3628713339567184e-02 6.4694494009017944e-02 -1.0900450870394707e-02 -1.0108780115842819e-01 4.2648717761039734e-02 -3.6537513136863708e-02 -4.3409753590822220e-02 -1.3453686237335205e-01 -1.6755682229995728e-01 6.6638991236686707e-02 3.1365249305963516e-02 -3.9104625582695007e-02 -4.5296177268028259e-02 -9.0321555733680725e-02 -4.1733562946319580e-02 -7.4622951447963715e-02 -4.9999043345451355e-02 -1.6362816095352173e-01 -1.8050949275493622e-01 -6.8046808242797852e-02 5.5288318544626236e-03 -1.5071968547999859e-02 -2.1417897194623947e-02 -1.8437603116035461e-01 -8.7021045386791229e-02 -6.1964776366949081e-02 6.6581572173163295e-04 3.0416052322834730e-04 2.7990496164420620e-05 6.8929843837395310e-04 7.0726359263062477e-04 6.0330494306981564e-06 2.2848901153338375e-06 7.2862394154071808e-04 7.0858624530956149e-04 6.8701745476573706e-04 5.7205458870157599e-04 2.6722613256424665e-04 2.5977124460041523e-04 9.3543545517604798e-05 2.6723582413978875e-04 2.4332242901436985e-04 7.3191733099520206e-04 6.6880707163363695e-04 7.3181511834263802e-04 7.4884813511744142e-04 1.1904834536835551e-05 -3.1783843041921500e-06 -9.5480172603856772e-05 2.0797058823518455e-04 7.6770951272919774e-04 7.7300478005781770e-04 -1.0361494496464729e-02 -1.6763599589467049e-02 -2.9754899442195892e-03 4.3156947940587997e-02 -7.1035444736480713e-02 1.6974302008748055e-02 5.4589682258665562e-03 6.2588572502136230e-02 5.3225737065076828e-02 -4.7295622527599335e-02 -1.2308985926210880e-02 -2.1970257163047791e-02 -1.8953213468194008e-02 3.1510531902313232e-02 2.5133378803730011e-03 1.1070459149777889e-02 2.8761835768818855e-02 6.1425436288118362e-02 6.1874218285083771e-02 2.8255563229322433e-02 -1.8167286179959774e-03 1.2509974185377359e-03 2.5086304172873497e-02 5.6753356009721756e-02 1.4730170369148254e-02 3.2792299985885620e-02 1.4779248833656311e-01 -3.5194152593612671e-01 2.5701019912958145e-02 -5.8838516473770142e-01 1.0792084932327271e+00 7.8500054776668549e-02 -3.8506567478179932e-02 8.6275750398635864e-01 2.9546741396188736e-02 -1.5037921071052551e-01 5.0651889294385910e-02 -3.0365639925003052e-01 -1.1670511215925217e-01 6.8106882274150848e-02 -1.0993952751159668e+00 8.8078910112380981e-01 -2.6640931144356728e-02 5.5144828557968140e-01 3.7435936927795410e-01 3.8846445083618164e-01 -9.3088382855057716e-03 1.6745761036872864e-01 2.1136388182640076e-01 -2.6006036996841431e-01 5.4799807071685791e-01 -1.7473268508911133e-01 -1.4198487997055054e-01 4.0924088098108768e-03 -1.3970186933875084e-02 -8.4363132715225220e-02 -1.2621392309665680e-01 6.5760378492996097e-04 -2.4722327943891287e-03 -1.4026972651481628e-01 -2.1762627363204956e-01 -2.1996857598423958e-02 -1.9416637718677521e-02 -1.4579237997531891e-01 -1.8235071003437042e-01 2.1839175373315811e-02 -1.0199014842510223e-01 -1.4226320385932922e-01 2.4782648310065269e-02 -1.9449862837791443e-01 -2.1162918210029602e-01 -9.4814456999301910e-02 -1.6285942401736975e-03 -1.1963819270022213e-04 8.6500393226742744e-03 4.9493458122014999e-02 -1.2493576854467392e-01 -1.4942171052098274e-02 6.5968975424766541e-02 -5.6551050394773483e-02 -6.7361042601987720e-04 1.2006593495607376e-01 -6.1511076986789703e-02 3.2370433211326599e-02 -5.1313331350684166e-03 1.4800339937210083e-01 1.9164063036441803e-01 -1.4442387223243713e-01 -5.6379944086074829e-02 -3.1221838667988777e-02 -3.5116940736770630e-02 -4.8559263348579407e-02 5.0937838852405548e-02 1.6923617571592331e-02 5.4413322359323502e-03 1.9071306288242340e-01 1.9183886051177979e-01 8.8238202035427094e-02 2.0129606127738953e-02 -1.2944808695465326e-03 7.8661352396011353e-02 1.6822120174765587e-02 6.2160555273294449e-02 3.3284131437540054e-02 2.2536592558026314e-02 -4.6765118837356567e-02 -4.8952423967421055e-03 9.5580846071243286e-02 -8.9231975376605988e-02 3.0497601255774498e-02 1.6448486130684614e-03 1.2697423994541168e-01 1.3600151240825653e-01 -1.1815807223320007e-01 -4.0689799934625626e-02 -4.1657205671072006e-02 -4.7769032418727875e-02 -2.9404397355392575e-04 2.4446880444884300e-02 8.1639224663376808e-03 2.7610985562205315e-02 1.4556691050529480e-01 1.4417631924152374e-01 6.7489795386791229e-02 7.5443661771714687e-03 -3.2231328077614307e-04 6.1352618038654327e-02 5.7047728449106216e-02 4.3259773403406143e-02 4.2977184057235718e-02 3.2956652343273163e-02 -3.1051207333803177e-02 3.2685272162780166e-04 3.4252323210239410e-02 1.2932658195495605e-02 1.1023131199181080e-02 8.9891272364184260e-04 2.7249613776803017e-02 5.7632591575384140e-02 -4.8217669129371643e-02 -2.6017585769295692e-02 -6.3646626658737659e-03 -1.8654381856322289e-02 -3.1819846481084824e-02 1.4946945942938328e-02 -7.8978948295116425e-03 -6.0827718116343021e-03 5.1370460540056229e-02 5.2658393979072571e-02 2.1741611883044243e-02 6.6439476795494556e-03 4.0505328215658665e-03 2.2633133456110954e-02 1.3578699436038733e-03 2.1622423082590103e-02 -2.6263161562383175e-03 2.8211720746185165e-06 1.2880755093647167e-06 1.1909033759138765e-07 2.9215084396128077e-06 2.9974237349961186e-06 2.5409649495600206e-08 9.9844479350963411e-09 3.0884125408192631e-06 3.0033918392291525e-06 2.9120296858309302e-06 2.4249177386082010e-06 1.1327020956741762e-06 1.1002800874848617e-06 3.9564656617585570e-07 1.1323331818857696e-06 1.0312203357898397e-06 3.1023250812722836e-06 2.8347444640530739e-06 3.1018041681818431e-06 3.1739377845951822e-06 5.0455781774871866e-08 -1.3432571499549795e-08 -4.0602384387966595e-07 8.8016179233818548e-07 3.2539719541091472e-06 3.2762577575340401e-06 7.9821035265922546e-02 -9.3859501183032990e-02 7.8791268169879913e-03 2.4670204147696495e-02 1.4714983105659485e-01 2.8221853077411652e-02 2.7229700237512589e-02 3.6012418568134308e-02 9.8037630319595337e-02 -6.3742682337760925e-02 -4.9801368266344070e-02 4.1444834321737289e-02 1.3552226126194000e-02 1.0528679005801678e-02 3.3998966217041016e-02 -1.2253912864252925e-03 -1.8746089190244675e-02 8.5791394114494324e-02 9.3667775392532349e-02 2.6560463011264801e-02 6.2252399511635303e-03 -5.4806345142424107e-03 -3.5939840599894524e-03 1.1627218127250671e-01 9.5624655485153198e-02 -3.2620303332805634e-02 -1.1297891614958644e-03 -5.1630061352625489e-04 -4.7468642151216045e-05 -1.1693860869854689e-03 -1.1999207781627774e-03 -1.0284209565725178e-05 -3.7517384043894708e-06 -1.2360902037471533e-03 -1.2021223083138466e-03 -1.1654783738777041e-03 -9.7041839035227895e-04 -4.5331806177273393e-04 -4.4090027222409844e-04 -1.5891264774836600e-04 -4.5348657295107841e-04 -4.1280750883743167e-04 -1.2416566023603082e-03 -1.1346442624926567e-03 -1.2415238888934255e-03 -1.2704256223514676e-03 -2.0210940419929102e-05 5.4262736739474349e-06 1.6161306120920926e-04 -3.5312824184074998e-04 -1.3024029321968555e-03 -1.3113549211993814e-03 2.1593447029590607e-01 9.4297610223293304e-02 -1.7549089193344116e+00 -5.2604917436838150e-03 2.8447136282920837e-01 2.2200092673301697e-02 -1.8670320510864258e-02 -6.2595033645629883e-01 -2.4266775697469711e-02 4.7446513175964355e-01 1.1340751312673092e-02 -3.9069831371307373e-02 1.5054287016391754e-01 -2.8312426805496216e-01 -1.4576441049575806e-01 -1.1290059983730316e-01 9.4667054712772369e-02 -3.8195425271987915e-01 -1.4033384621143341e-01 -1.4732553064823151e-01 -7.0944286882877350e-02 8.1651359796524048e-02 1.9915322959423065e-01 8.6523152887821198e-02 -6.5743707120418549e-02 -1.0686031542718410e-02 1.1074546724557877e-01 -3.1941395998001099e-01 7.0470978971570730e-04 3.0570200085639954e-01 -2.9575833678245544e-01 -1.5443405508995056e-01 1.5332832932472229e-01 5.3514808416366577e-01 4.5258340239524841e-01 -5.0537973642349243e-01 -6.0625482350587845e-02 -3.9025285840034485e-01 -1.0102749615907669e-01 -2.3988714814186096e-01 -2.0367914810776711e-02 -9.9630519747734070e-02 -4.4723629951477051e-02 5.6243687868118286e-01 5.0117653608322144e-01 2.4900452792644501e-01 -1.4700655639171600e-01 -2.2047619521617889e-01 1.2318669259548187e-01 -4.8621276021003723e-01 6.9298416376113892e-02 8.1119343638420105e-02 7.2064943611621857e-02 6.2038674950599670e-03 7.1592149324715137e-03 -3.2654300332069397e-01 6.1678141355514526e-01 -2.5337213650345802e-02 4.6686727553606033e-02 -3.0011945962905884e-01 -3.1216946244239807e-01 1.8557801842689514e-01 1.4216796495020390e-02 5.2402667701244354e-02 5.3270827978849411e-02 2.1843846887350082e-02 -3.5382963716983795e-02 -9.7261898219585419e-02 -8.4157325327396393e-02 -3.2020720839500427e-01 -3.1461933255195618e-01 -1.6273224353790283e-01 7.4822474271059036e-03 -6.6067054867744446e-02 -9.1377653181552887e-02 1.9670486450195312e-01 7.4672587215900421e-02 -1.9721537828445435e-01 8.8542647659778595e-02 -7.9953812062740326e-02 3.2747338991612196e-03 1.0895013809204102e-01 6.0180975124239922e-03 3.8242492824792862e-02 8.1806052476167679e-03 1.3515003025531769e-01 1.9906774163246155e-01 -1.4551319181919098e-01 -6.5981209278106689e-02 -9.6950372681021690e-03 -2.3292953148484230e-02 -4.2329676449298859e-02 5.9413786977529526e-02 1.3361074961721897e-02 -4.9554943107068539e-03 1.9134779274463654e-01 1.9647721946239471e-01 8.3914473652839661e-02 2.1278221160173416e-02 1.3317898265086114e-04 6.6126771271228790e-02 5.3307209163904190e-02 8.8088199496269226e-02 1.3733040541410446e-02 3.6659505218267441e-02 -4.5478794723749161e-02 -8.3782110596075654e-04 5.7545669376850128e-02 -7.2164912708103657e-03 2.0432190969586372e-02 1.1276775039732456e-02 3.8524970412254333e-02 9.0920284390449524e-02 -5.8456405997276306e-02 -3.4085419028997421e-02 1.1590545065701008e-02 2.9509833548218012e-03 -1.1847300454974174e-02 2.1651297807693481e-02 1.4128955081105232e-02 4.4504343532025814e-03 7.5768038630485535e-02 8.5121504962444305e-02 2.7739712968468666e-02 5.3790863603353500e-04 1.2248280458152294e-02 3.5257428884506226e-02 4.1070882230997086e-02 2.8236808255314827e-02 9.1603696346282959e-03 -6.8320341408252716e-02 9.3555748462677002e-02 1.3284025713801384e-02 -1.6348034143447876e-01 1.1328294128179550e-01 -5.1600735634565353e-02 1.7155958339571953e-02 -2.1304877102375031e-01 -2.5452053546905518e-01 2.3260426521301270e-01 8.6298763751983643e-02 5.7893503457307816e-02 8.1611856818199158e-02 4.0442772209644318e-02 -6.9146379828453064e-02 -6.6164690069854259e-03 -1.8974300473928452e-02 -2.6104247570037842e-01 -2.6294356584548950e-01 -1.1683776974678040e-01 -2.3524133488535881e-02 2.7214910835027695e-02 -1.3013097643852234e-01 -7.9682268202304840e-02 -8.5260279476642609e-02 -5.2275858819484711e-02 -1.8201137663709233e-07 -8.3093276259660342e-08 -7.6558324124675892e-09 -1.8848288618755760e-07 -1.9339162804499210e-07 -1.6398195024081019e-09 -6.4977229152773930e-10 -1.9927044547785044e-07 -1.9377331739178771e-07 -1.8785853228564520e-07 -1.5644431528016867e-07 -7.3078147977412300e-08 -7.0979197630549606e-08 -2.5528192892920742e-08 -7.3054728488841647e-08 -6.6527242381653195e-08 -2.0014797996736888e-07 -1.8289847503183410e-07 -2.0012464574392652e-07 -2.0477551743169897e-07 -3.2515274916988801e-09 8.6611562366556427e-10 2.6192905622224316e-08 -5.6789026814385579e-08 -2.0994495741888386e-07 -2.1137230987733346e-07 -1.8525472283363342e-01 4.2299564927816391e-02 -9.3007432296872139e-03 -1.8171514570713043e-01 1.8310017185285687e-04 -8.5793742910027504e-03 3.1958505511283875e-02 -1.2937989830970764e-01 -3.1119734048843384e-01 1.3594844937324524e-01 6.9084107875823975e-02 -6.1366524547338486e-02 -7.4875779449939728e-02 2.0899926126003265e-01 -1.1433050036430359e-01 -7.2346881031990051e-02 7.1480371057987213e-02 -2.5573393702507019e-01 -2.6959887146949768e-01 -1.1130180954933167e-01 -5.8081146329641342e-02 -4.2099814862012863e-02 -9.3469418585300446e-02 2.3574039340019226e-01 -4.4707976281642914e-02 4.1336826980113983e-03 1.2636987864971161e-01 -7.6395504176616669e-02 1.0825926437973976e-02 9.2186801135540009e-02 8.4934510290622711e-02 3.0480304732918739e-02 4.4864797964692116e-03 1.1041593551635742e-01 2.0071573555469513e-01 -1.2462041527032852e-01 -6.6266000270843506e-02 1.6389004886150360e-02 7.6469872146844864e-03 -8.0952271819114685e-02 7.3430716991424561e-02 1.7342763021588326e-02 -3.5546451807022095e-02 1.8233735859394073e-01 1.8861368298530579e-01 7.8345753252506256e-02 3.0589696019887924e-02 9.6609402680769563e-04 4.8772033303976059e-02 3.7918654270470142e-03 9.8793543875217438e-02 -1.6235982999205589e-02 1.3333004713058472e-01 -1.1550886929035187e-01 -1.0209348052740097e-02 1.2248902767896652e-01 1.2599831819534302e-01 -1.7833346500992775e-02 4.2227916419506073e-02 4.1829004883766174e-02 2.3963256180286407e-01 2.9382849112153053e-02 3.2960824668407440e-02 4.1630408167839050e-01 2.8906071186065674e-01 6.8937577307224274e-02 7.7785976231098175e-02 2.0568734407424927e-01 -6.3516624271869659e-02 1.7275558412075043e-01 2.0829476416110992e-01 3.0477404594421387e-02 -7.5439691543579102e-02 4.4765006750822067e-02 -4.3000005185604095e-02 -9.4625458121299744e-02 6.9603882730007172e-02 -2.5097055360674858e-02 -1.2607954442501068e-01 -1.7758311703801155e-02 -1.6696007922291756e-02 -8.7199091911315918e-02 -9.9670976400375366e-02 -7.3472503572702408e-03 -6.7069317447021604e-04 -1.7857567965984344e-01 -2.0378230512142181e-01 -1.6141939908266068e-02 -2.8118597343564034e-02 -7.5763031840324402e-02 -1.2183845788240433e-01 8.0898199230432510e-03 -9.4590254127979279e-02 -1.1119958013296127e-01 -1.0219354182481766e-02 -2.0119649171829224e-01 -2.1030271053314209e-01 -1.1722244322299957e-01 -1.7416154965758324e-02 8.3690555766224861e-03 1.3505504466593266e-02 7.4189500883221626e-03 -1.4104942977428436e-01 -4.7234818339347839e-02 4.9537530867382884e-04 2.2627085854765028e-04 2.0868374122073874e-05 5.1289453404024243e-04 5.2625651005655527e-04 4.4867765609524213e-06 1.7038983060047030e-06 5.4218951845541596e-04 5.2727002184838057e-04 5.1119661657139659e-04 4.2567818309180439e-04 1.9883817003574222e-04 1.9324461754877120e-04 6.9567227910738438e-05 1.9883752975147218e-04 1.8104012997355312e-04 5.4461776744574308e-04 4.9765472067520022e-04 5.4455082863569260e-04 5.5721309036016464e-04 8.8614497144590132e-06 -2.3677594072069041e-06 -7.1111586294136941e-05 1.5468259516637772e-04 5.7125720195472240e-04 5.7516642846167088e-04 -1.1276594363152981e-02 9.1380760073661804e-02 -1.9039779901504517e-02 -9.6661351621150970e-02 5.0910230726003647e-02 -4.1222531348466873e-02 -5.8842066675424576e-02 -1.5754498541355133e-01 -1.5803186595439911e-01 9.7845852375030518e-02 4.3167408555746078e-02 -6.4295572228729725e-03 5.5039809085428715e-03 -1.3300660252571106e-01 -3.2442368566989899e-02 -3.5679150372743607e-02 -6.9659486413002014e-02 -1.7143633961677551e-01 -1.8159683048725128e-01 -7.3108628392219543e-02 -1.1519391555339098e-03 -1.1282913386821747e-02 -1.2439445592463017e-02 -2.5805857777595520e-01 -1.0353083163499832e-01 -6.9148436188697815e-02 -6.6059201955795288e-02 -2.2596189379692078e-01 7.5115740299224854e-01 7.2248347103595734e-02 -1.1398847401142120e-01 -6.5855830907821655e-02 6.3276365399360657e-02 3.7707012891769409e-01 1.6281996667385101e-01 -2.6650533080101013e-01 1.0273875668644905e-03 -3.0001968145370483e-02 -1.6785553097724915e-01 2.1863159537315369e-01 1.9498012959957123e-02 -3.1606879085302353e-02 7.3877818882465363e-02 3.2522875070571899e-01 2.6165431737899780e-01 1.5516050159931183e-01 -1.1900761723518372e-01 1.7600255087018013e-02 1.4190448820590973e-01 1.8201506137847900e-01 1.4314976334571838e-01 4.4883031398057938e-02 -1.4028635621070862e-01 3.0653779394924641e-03 -1.4180712401866913e-02 -8.3529122173786163e-02 -1.2454116344451904e-01 1.9287886971142143e-04 -2.5323182344436646e-03 -1.4089825749397278e-01 -2.1554265916347504e-01 -2.1959142759442329e-02 -1.9542776048183441e-02 -1.4210908114910126e-01 -1.7948752641677856e-01 2.0294658839702606e-02 -1.0119958221912384e-01 -1.4078822731971741e-01 2.3182012140750885e-02 -1.9336517155170441e-01 -2.1023526787757874e-01 -9.4917096197605133e-02 -2.2566448897123337e-03 2.8188241412863135e-04 8.8531980291008949e-03 4.5826423913240433e-02 -1.2508249282836914e-01 -1.6162488609552383e-02 1.5642289072275162e-02 7.2072665207087994e-03 6.3291762489825487e-04 1.6082080081105232e-02 1.6525818035006523e-02 1.6928132390603423e-04 3.0289795631688321e-06 1.7066909000277519e-02 1.6576407477259636e-02 1.5968432649970055e-02 1.3305171392858028e-02 6.2127131968736649e-03 6.1429128982126713e-03 2.2803512401878834e-03 6.2946109101176262e-03 5.7030827738344669e-03 1.7046675086021423e-02 1.5679256990551949e-02 1.7129285261034966e-02 1.7507307231426239e-02 2.8811272932216525e-04 -1.0443959035910666e-04 -2.0829013083130121e-03 4.9885734915733337e-03 1.7948100343346596e-02 1.8026378005743027e-02 -9.7169592976570129e-02 1.3326840102672577e-01 1.9413796067237854e-01 1.0455788671970367e-01 -2.8927698731422424e-01 1.0563040524721146e-01 2.9398966580629349e-02 -2.4882571399211884e-01 -1.2080097943544388e-01 1.4551949501037598e-01 -2.1129580214619637e-02 -1.3688467442989349e-01 1.6413412988185883e-01 1.6643207520246506e-02 -3.9466671645641327e-02 -1.1617735773324966e-01 1.3814184069633484e-01 -1.9299626350402832e-01 -1.4234176278114319e-01 -1.1800874024629593e-01 9.8590590059757233e-02 1.9576421380043030e-01 -6.1233844608068466e-03 2.6112789288163185e-02 -2.0035229623317719e-01 1.0006247460842133e-01 1.0321036726236343e-01 -5.7749215513467789e-02 -3.2832939177751541e-03 2.0517165958881378e-01 -1.4318059384822845e-01 2.8996739536523819e-02 -2.6585305109620094e-02 2.0064602792263031e-01 3.0272999405860901e-01 -1.8216750025749207e-01 -7.0404917001724243e-02 -7.0985704660415649e-03 -5.2976742153987288e-04 -1.1859745532274246e-01 8.1718757748603821e-02 6.0373418033123016e-02 -7.8950673341751099e-03 2.8055745363235474e-01 2.8717434406280518e-01 1.3020172715187073e-01 2.9695808887481689e-02 1.8427588045597076e-02 1.1729035526514053e-01 -1.0125055909156799e-01 4.6372570097446442e-02 5.7563539594411850e-02 
      </Weights>
      <Biases rows="100" cols="1">
        1.8175745010375977e-01 3.7138795852661133e-01 -7.3334790067747235e-04 4.7499980926513672e+00 -4.9282330274581909e-01 -4.9569091200828552e-01 1.4732383489608765e+00 -3.5381050109863281e+00 -5.2814990282058716e-01 -4.5951965451240540e-01 -3.2436635494232178e+00 2.4897055625915527e+00 8.6444787979125977e+00 3.3235149383544922e+00 -8.0111110210418701e-01 -1.9191346168518066e+00 -6.5115459263324738e-02 -2.2477637231349945e-01 1.8986396491527557e-01 -1.1128488779067993e+00 3.8745754957199097e-01 -1.9922795891761780e-01 -2.6159057617187500e+00 1.8137441575527191e-01 4.6176210045814514e-01 -3.8942271471023560e-01 2.3611694574356079e-01 1.4051036536693573e-01 -1.1538816690444946e+00 2.9014425277709961e+00 2.1369726657867432e+00 -7.6200366020202637e-01 -2.8835363388061523e+00 -7.0322006940841675e-01 -2.2696969509124756e+00 5.4851585626602173e-01 3.2737532258033752e-01 2.6549639701843262e+00 -1.0293813943862915e+00 -1.6419002413749695e-01 -5.2300763130187988e-01 -3.8456913828849792e-01 3.8503744602203369e+00 3.3517231941223145e+00 -4.2268567085266113e+00 -2.8295969963073730e-01 5.7178372144699097e-01 -1.4951632022857666e+00 -4.1354936361312866e-01 -7.2628349065780640e-01 5.8587512969970703e+00 -7.0143399238586426e+00 2.3113851249217987e-01 -1.1674799919128418e+00 -2.3737996816635132e-02 -7.0413863658905029e-01 9.9885139465332031e+00 -1.4803218841552734e-01 -3.2076910138130188e-01 7.3540081977844238e+00 -1.4055716991424561e-01 -2.8233784437179565e-01 5.0309610366821289e-01 7.8485465049743652e-01 -6.6924721002578735e-01 -5.3121972829103470e-02 -5.6041083335876465e+00 -2.6628512144088745e-01 2.9400138854980469e+00 5.3058236837387085e-01 -4.1458877921104431e-01 -9.5207267999649048e-01 3.8765137195587158e+00 2.4761143326759338e-01 1.8553664684295654e+00 -1.4848642349243164e+00 7.7671903371810913e-01 5.7238435745239258e-01 1.9336222112178802e-01 6.5981993675231934e+00 5.0936591625213623e-01 -3.6163451671600342e+00 -1.5869978666305542e+00 1.0351202487945557e+00 -9.7844684123992920e-01 8.3947992324829102e-01 3.3891862630844116e-01 -1.0331603288650513e+00 -7.9436073303222656e+00 -1.1170850992202759e+00 8.5195475816726685e-01 1.4943623542785645e+00 -1.5441819429397583e+00 4.0224776268005371e+00 -9.3208980560302734e-01 1.8577277660369873e+00 -1.4780503511428833e+00 2.4438104629516602e+00 -8.3799934387207031e-01 1.1162508726119995e+00 
      </Biases>
    </Layer>
    <Layer ActivationFunction="3">
      <Weights rows="50" cols="100">
