<?xml version="1.0"?>
<MethodSetup Method="BDT::BDTG_v6">
  <GeneralInfo>
    <Info name="TMVA Release" value="4.2.1 [262657]"/>
    <Info name="ROOT Release" value="6.10/09 [395785]"/>
    <Info name="Creator" value="arapyan"/>
    <Info name="Date" value="Fri Dec  6 21:56:56 2019"/>
    <Info name="Host" value="Linux cmsbuild76.cern.ch 2.6.32-696.30.1.el6.x86_64 #1 SMP Tue May 22 06:09:36 CEST 2018 x86_64 x86_64 x86_64 GNU/Linux"/>
    <Info name="Dir" value="/afs/cern.ch/work/a/arapyan/Run2/test/CMSSW_9_4_12/src/MitAnalysisRunII/panda/macros/9x"/>
    <Info name="Training events" value="99038"/>
    <Info name="TrainingTime" value="1.46945659e+02"/>
    <Info name="AnalysisType" value="Classification"/>
  </GeneralInfo>
  <Options>
    <Option name="V" modified="Yes">False</Option>
    <Option name="VerbosityLevel" modified="No">Default</Option>
    <Option name="VarTransform" modified="No">None</Option>
    <Option name="H" modified="Yes">False</Option>
    <Option name="CreateMVAPdfs" modified="No">False</Option>
    <Option name="IgnoreNegWeightsInTraining" modified="No">False</Option>
    <Option name="NTrees" modified="Yes">800</Option>
    <Option name="MaxDepth" modified="Yes">2</Option>
    <Option name="MinNodeSize" modified="Yes">5%</Option>
    <Option name="nCuts" modified="Yes">10000</Option>
    <Option name="BoostType" modified="Yes">Grad</Option>
    <Option name="AdaBoostR2Loss" modified="No">quadratic</Option>
    <Option name="UseBaggedBoost" modified="Yes">True</Option>
    <Option name="Shrinkage" modified="Yes">1.000000e-01</Option>
    <Option name="AdaBoostBeta" modified="No">5.000000e-01</Option>
    <Option name="UseRandomisedTrees" modified="No">False</Option>
    <Option name="UseNvars" modified="No">5</Option>
    <Option name="UsePoissonNvars" modified="No">True</Option>
    <Option name="BaggedSampleFraction" modified="No">5.000000e-01</Option>
    <Option name="UseYesNoLeaf" modified="No">True</Option>
    <Option name="NegWeightTreatment" modified="Yes">ignorenegweightsintraining</Option>
    <Option name="Css" modified="No">1.000000e+00</Option>
    <Option name="Cts_sb" modified="No">1.000000e+00</Option>
    <Option name="Ctb_ss" modified="No">1.000000e+00</Option>
    <Option name="Cbb" modified="No">1.000000e+00</Option>
    <Option name="NodePurityLimit" modified="No">5.000000e-01</Option>
    <Option name="SeparationType" modified="No">giniindex</Option>
    <Option name="RegressionLossFunctionBDTG" modified="No">huber</Option>
    <Option name="HuberQuantile" modified="No">7.000000e-01</Option>
    <Option name="DoBoostMonitor" modified="No">False</Option>
    <Option name="UseFisherCuts" modified="No">False</Option>
    <Option name="MinLinCorrForFisher" modified="No">8.000000e-01</Option>
    <Option name="UseExclusiveVars" modified="No">False</Option>
    <Option name="DoPreselection" modified="No">False</Option>
    <Option name="SigToBkgFraction" modified="No">1.000000e+00</Option>
    <Option name="PruneMethod" modified="No">nopruning</Option>
    <Option name="PruneStrength" modified="No">0.000000e+00</Option>
    <Option name="PruningValFraction" modified="No">5.000000e-01</Option>
    <Option name="SkipNormalization" modified="No">False</Option>
    <Option name="nEventsMin" modified="No">0</Option>
    <Option name="UseBaggedGrad" modified="No">False</Option>
    <Option name="GradBaggingFraction" modified="Yes">5.000000e-01</Option>
    <Option name="UseNTrainEvents" modified="No">0</Option>
    <Option name="NNodesMax" modified="No">0</Option>
  </Options>
  <Variables NVar="25">
    <Variable VarIndex="0" Expression="mvadetajj" Label="mvadetajj" Title="mvadetajj" Unit="" Internal="mvadetajj" Type="F" Min="2.50019526e+00" Max="9.04717445e+00"/>
    <Variable VarIndex="1" Expression="mvadphijj" Label="mvadphijj" Title="mvadphijj" Unit="" Internal="mvadphijj" Type="F" Min="-3.14157629e+00" Max="3.14157629e+00"/>
    <Variable VarIndex="2" Expression="mvajetpt1" Label="mvajetpt1" Title="mvajetpt1" Unit="" Internal="mvajetpt1" Type="F" Min="5.09521751e+01" Max="2.27259277e+03"/>
    <Variable VarIndex="3" Expression="mvajetpt2" Label="mvajetpt2" Title="mvajetpt2" Unit="" Internal="mvajetpt2" Type="F" Min="5.00011940e+01" Max="1.40093030e+03"/>
    <Variable VarIndex="4" Expression="mvajeteta1" Label="mvajeteta1" Title="mvajeteta1" Unit="" Internal="mvajeteta1" Type="F" Min="-4.67193937e+00" Max="4.67147160e+00"/>
    <Variable VarIndex="5" Expression="mvajeteta2" Label="mvajeteta2" Title="mvajeteta2" Unit="" Internal="mvajeteta2" Type="F" Min="-4.69564533e+00" Max="4.69961834e+00"/>
    <Variable VarIndex="6" Expression="mvaWpt" Label="mvaWpt" Title="mvaMet" Unit="" Internal="mvaWpt" Type="F" Min="3.00004311e+01" Max="2.33687012e+03"/>
    <Variable VarIndex="7" Expression="mvaZpt" Label="mvaZpt" Title="mvaZpt" Unit="" Internal="mvaZpt" Type="F" Min="2.68581688e-01" Max="1.15134448e+03"/>
    <Variable VarIndex="8" Expression="mvaVVmt" Label="mvaVVmt" Title="mvaVVmt" Unit="" Internal="mvaVVmt" Type="F" Min="3.32779530e-03" Max="1.70929480e+03"/>
    <Variable VarIndex="9" Expression="mvazstar" Label="mvazstar" Title="mvazstar" Unit="" Internal="mvazstar" Type="F" Min="3.27622843e-06" Max="2.11514378e+00"/>
    <Variable VarIndex="10" Expression="mvazep1" Label="mvazep1" Title="mvazep1" Unit="" Internal="mvazep1" Type="F" Min="1.16902766e-05" Max="1.70357406e+00"/>
    <Variable VarIndex="11" Expression="mvazep2" Label="mvazep2" Title="mvazep2" Unit="" Internal="mvazep2" Type="F" Min="6.10486438e-07" Max="1.58162689e+00"/>
    <Variable VarIndex="12" Expression="mvamaxzep" Label="mvamaxzep" Title="mvamaxzep" Unit="" Internal="mvamaxzep" Type="F" Min="4.11187561e-04" Max="1.70357406e+00"/>
    <Variable VarIndex="13" Expression="mvaj1Zdr" Label="mvaj1Zdr" Title="mvaj1Zdr" Unit="" Internal="mvaj1Zdr" Type="F" Min="6.61024638e-03" Max="9.02027988e+00"/>
    <Variable VarIndex="14" Expression="mvaj2Zdr" Label="mvaj2Zdr" Title="mvaj2Zdr" Unit="" Internal="mvaj2Zdr" Type="F" Min="7.96650164e-03" Max="9.67917728e+00"/>
    <Variable VarIndex="15" Expression="mvapttot" Label="mvapttot" Title="mvapttot" Unit="" Internal="mvapttot" Type="F" Min="9.02700424e-02" Max="6.30063049e+02"/>
    <Variable VarIndex="16" Expression="mvasumpttot" Label="mvasumpttot" Title="mvasumpttot" Unit="" Internal="mvasumpttot" Type="F" Min="1.91462555e+02" Max="4.97982910e+03"/>
    <Variable VarIndex="17" Expression="mvaleppt1" Label="mvaleppt1" Title="mvaleppt1" Unit="" Internal="mvaleppt1" Type="F" Min="2.00019054e+01" Max="1.06341870e+03"/>
    <Variable VarIndex="18" Expression="mvaleppt2" Label="mvaleppt2" Title="mvaleppt2" Unit="" Internal="mvaleppt2" Type="F" Min="1.44593315e+01" Max="1.29047327e+03"/>
    <Variable VarIndex="19" Expression="mvalepeta1" Label="mvalepeta1" Title="mvalepeta1" Unit="" Internal="mvalepeta1" Type="F" Min="-2.49742913e+00" Max="2.49885178e+00"/>
    <Variable VarIndex="20" Expression="mvalepeta2" Label="mvalepeta2" Title="mvalepeta2" Unit="" Internal="mvalepeta2" Type="F" Min="-2.49945045e+00" Max="2.49920559e+00"/>
    <Variable VarIndex="21" Expression="mvadphill" Label="mvadphill" Title="mvadphill" Unit="" Internal="mvadphill" Type="F" Min="1.20401382e-05" Max="3.14158416e+00"/>
    <Variable VarIndex="22" Expression="mvadrll" Label="mvadrll" Title="mvadrll" Unit="" Internal="mvadrll" Type="F" Min="1.61331534e-01" Max="5.49873066e+00"/>
    <Variable VarIndex="23" Expression="mvamll" Label="mvamll" Title="mvamll" Unit="" Internal="mvamll" Type="F" Min="2.00200138e+01" Max="2.20288867e+03"/>
    <Variable VarIndex="24" Expression="(mvaleppt1*mvaleppt2)/(mvajetpt1*mvajetpt2)" Label="(mvaleppt1*mvaleppt2)/(mvajetpt1*mvajetpt2)" Title="mvaptrel" Unit="" Internal="_mvaleppt1_T_mvaleppt2__D__mvajetpt1_T_mvajetpt2_" Type="F" Min="1.56296720e-03" Max="1.15134636e+02"/>
  </Variables>
  <Spectators NSpec="0"/>
  <Classes NClass="2">
    <Class Name="Background" Index="0"/>
    <Class Name="Signal" Index="1"/>
  </Classes>
  <Transformations NTransformations="0"/>
  <MVAPdfs/>
  <Weights NTrees="800" AnalysisType="1">
    <BinaryTree type="DecisionTree" boostWeight="1.0000000000000000e+00" itree="0">
      <Node pos="s" depth="0" NCoef="0" IVar="16" Cut="5.6924401855468750e+02" cType="1" res="5.7366432156413794e-04" rms="4.9999967217445374e-01" purity="5.0057369470596313e-01" nType="0">
        <Node pos="l" depth="1" NCoef="0" IVar="17" Cut="7.7292442321777344e+01" cType="1" res="1.0564657300710678e-01" rms="4.8871135711669922e-01" purity="6.0564661026000977e-01" nType="0">
          <Node pos="l" depth="2" NCoef="0" IVar="-1" Cut="0.0000000000000000e+00" cType="1" res="2.3833854123950005e-02" rms="4.7352293133735657e-01" purity="6.6054916381835938e-01" nType="-99"/>
          <Node pos="r" depth="2" NCoef="0" IVar="-1" Cut="0.0000000000000000e+00" cType="1" res="-1.2025272473692894e-02" rms="4.9537876248359680e-01" purity="4.3217751383781433e-01" nType="-99"/>
        </Node>
        <Node pos="r" depth="1" NCoef="0" IVar="24" Cut="1.1169889569282532e-01" cType="1" res="-1.8535721302032471e-01" rms="4.6437343955039978e-01" purity="3.1464278697967529e-01" nType="0">
          <Node pos="l" depth="2" NCoef="0" IVar="-1" Cut="0.0000000000000000e+00" cType="1" res="-1.3186277821660042e-02" rms="4.9449655413627625e-01" purity="4.2601925134658813e-01" nType="-99"/>
          <Node pos="r" depth="2" NCoef="0" IVar="-1" Cut="0.0000000000000000e+00" cType="1" res="-5.9974554926156998e-02" rms="4.1572049260139465e-01" purity="2.2219346463680267e-01" nType="-99"/>
        </Node>
      </Node>
    </BinaryTree>
    <BinaryTree type="DecisionTree" boostWeight="1.0000000000000000e+00" itree="1">
      <Node pos="s" depth="0" NCoef="0" IVar="17" Cut="8.4998847961425781e+01" cType="1" res="4.2514489032328129e-03" rms="4.9487724900245667e-01" purity="5.0218158960342407e-01" nType="0">
        <Node pos="l" depth="1" NCoef="0" IVar="6" Cut="1.3498324584960938e+02" cType="1" res="8.9750394225120544e-02" rms="4.8834767937660217e-01" purity="5.9461247920989990e-01" nType="0">
          <Node pos="l" depth="2" NCoef="0" IVar="-1" Cut="0.0000000000000000e+00" cType="1" res="2.1944710984826088e-02" rms="4.7427174448966980e-01" purity="6.5412920713424683e-01" nType="-99"/>
          <Node pos="r" depth="2" NCoef="0" IVar="-1" Cut="0.0000000000000000e+00" cType="1" res="-3.5227883607149124e-02" rms="4.6309816837310791e-01" purity="3.1569311022758484e-01" nType="-99"/>
        </Node>
        <Node pos="r" depth="1" NCoef="0" IVar="16" Cut="6.3687182617187500e+02" cType="1" res="-1.8634307384490967e-01" rms="4.5452526211738586e-01" purity="2.9613426327705383e-01" nType="0">
          <Node pos="l" depth="2" NCoef="0" IVar="-1" Cut="0.0000000000000000e+00" cType="1" res="-1.7963821068406105e-02" rms="4.8704451322555542e-01" purity="3.9087122678756714e-01" nType="-99"/>
          <Node pos="r" depth="2" NCoef="0" IVar="-1" Cut="0.0000000000000000e+00" cType="1" res="-6.3736669719219208e-02" rms="3.9258950948715210e-01" purity="1.9086848199367523e-01" nType="-99"/>
        </Node>
      </Node>
    </BinaryTree>
    <BinaryTree type="DecisionTree" boostWeight="1.0000000000000000e+00" itree="2">
      <Node pos="s" depth="0" NCoef="0" IVar="16" Cut="5.0823852539062500e+02" cType="1" res="4.2890664190053940e-03" rms="4.8983824253082275e-01" purity="5.0022286176681519e-01" nType="0">
        <Node pos="l" depth="1" NCoef="0" IVar="17" Cut="7.1197105407714844e+01" cType="1" res="1.1324070394039154e-01" rms="4.8046815395355225e-01" purity="6.2809592485427856e-01" nType="0">
          <Node pos="l" depth="2" NCoef="0" IVar="-1" Cut="0.0000000000000000e+00" cType="1" res="2.3213498294353485e-02" rms="4.6592319011688232e-01" purity="6.7946833372116089e-01" nType="-99"/>
          <Node pos="r" depth="2" NCoef="0" IVar="-1" Cut="0.0000000000000000e+00" cType="1" res="-3.3366086427122355e-03" rms="4.9793925881385803e-01" purity="4.7628182172775269e-01" nType="-99"/>
        </Node>
        <Node pos="r" depth="1" NCoef="0" IVar="6" Cut="1.5266333007812500e+02" cType="1" res="-1.1783903837203979e-01" rms="4.7107496857643127e-01" purity="3.5688504576683044e-01" nType="0">
          <Node pos="l" depth="2" NCoef="0" IVar="-1" Cut="0.0000000000000000e+00" cType="1" res="-1.0956899262964725e-02" rms="4.8523372411727905e-01" purity="4.1950130462646484e-01" nType="-99"/>
          <Node pos="r" depth="2" NCoef="0" IVar="-1" Cut="0.0000000000000000e+00" cType="1" res="-5.5150471627712250e-02" rms="4.0633970499038696e-01" purity="2.1085320413112640e-01" nType="-99"/>
        </Node>
      </Node>
    </BinaryTree>
    <BinaryTree type="DecisionTree" boostWeight="1.0000000000000000e+00" itree="3">
      <Node pos="s" depth="0" NCoef="0" IVar="17" Cut="9.4714744567871094e+01" cType="1" res="4.4267517514526844e-03" rms="4.8623159527778625e-01" purity="4.9886536598205566e-01" nType="0">
        <Node pos="l" depth="1" NCoef="0" IVar="6" Cut="1.2948222351074219e+02" cType="1" res="6.9765284657478333e-02" rms="4.8530465364456177e-01" purity="5.7908308506011963e-01" nType="0">
          <Node pos="l" depth="2" NCoef="0" IVar="-1" Cut="0.0000000000000000e+00" cType="1" res="1.8231114372611046e-02" rms="4.7667387127876282e-01" purity="6.4160037040710449e-01" nType="-99"/>
          <Node pos="r" depth="2" NCoef="0" IVar="-1" Cut="0.0000000000000000e+00" cType="1" res="-2.5739867240190506e-02" rms="4.6636274456977844e-01" purity="3.3200865983963013e-01" nType="-99"/>
        </Node>
        <Node pos="r" depth="1" NCoef="0" IVar="16" Cut="7.1529016113281250e+02" cType="1" res="-1.8324972689151764e-01" rms="4.3763327598571777e-01" purity="2.6845023036003113e-01" nType="0">
          <Node pos="l" depth="2" NCoef="0" IVar="-1" Cut="0.0000000000000000e+00" cType="1" res="-2.4651415646076202e-02" rms="4.7036322951316833e-01" purity="3.3838182687759399e-01" nType="-99"/>
          <Node pos="r" depth="2" NCoef="0" IVar="-1" Cut="0.0000000000000000e+00" cType="1" res="-6.4731679856777191e-02" rms="3.6119705438613892e-01" purity="1.5587711334228516e-01" nType="-99"/>
        </Node>
      </Node>
    </BinaryTree>
    <BinaryTree type="DecisionTree" boostWeight="1.0000000000000000e+00" itree="4">
      <Node pos="s" depth="0" NCoef="0" IVar="17" Cut="8.1957839965820312e+01" cType="1" res="6.3094603829085827e-03" rms="4.8291400074958801e-01" purity="4.9923601746559143e-01" nType="0">
        <Node pos="l" depth="1" NCoef="0" IVar="6" Cut="1.2280769348144531e+02" cType="1" res="7.3392041027545929e-02" rms="4.8208770155906677e-01" purity="5.9159457683563232e-01" nType="0">
          <Node pos="l" depth="2" NCoef="0" IVar="-1" Cut="0.0000000000000000e+00" cType="1" res="1.8671950325369835e-02" rms="4.7229418158531189e-01" purity="6.5892022848129272e-01" nType="-99"/>
          <Node pos="r" depth="2" NCoef="0" IVar="-1" Cut="0.0000000000000000e+00" cType="1" res="-2.0752923563122749e-02" rms="4.7226610779762268e-01" purity="3.5436305403709412e-01" nType="-99"/>
        </Node>
        <Node pos="r" depth="1" NCoef="0" IVar="18" Cut="6.2052871704101562e+01" cType="1" res="-1.3119204342365265e-01" rms="4.5465335249900818e-01" purity="3.0992549657821655e-01" nType="0">
          <Node pos="l" depth="2" NCoef="0" IVar="-1" Cut="0.0000000000000000e+00" cType="1" res="-1.3392373919487000e-02" rms="4.7816815972328186e-01" purity="3.7834846973419189e-01" nType="-99"/>
          <Node pos="r" depth="2" NCoef="0" IVar="-1" Cut="0.0000000000000000e+00" cType="1" res="-4.7952778637409210e-02" rms="4.0496304631233215e-01" purity="2.1439047157764435e-01" nType="-99"/>
        </Node>
      </Node>
    </BinaryTree>
    <BinaryTree type="DecisionTree" boostWeight="1.0000000000000000e+00" itree="5">
      <Node pos="s" depth="0" NCoef="0" IVar="16" Cut="4.9120144653320312e+02" cType="1" res="6.2339748255908489e-03" rms="4.7970011830329895e-01" purity="4.9835121631622314e-01" nType="0">
        <Node pos="l" depth="1" NCoef="0" IVar="24" Cut="3.5649704933166504e-01" cType="1" res="1.0004977881908417e-01" rms="4.7553882002830505e-01" purity="6.3430732488632202e-01" nType="0">
          <Node pos="l" depth="2" NCoef="0" IVar="-1" Cut="0.0000000000000000e+00" cType="1" res="2.1080166101455688e-02" rms="4.6106591820716858e-01" purity="6.8551605939865112e-01" nType="-99"/>
          <Node pos="r" depth="2" NCoef="0" IVar="-1" Cut="0.0000000000000000e+00" cType="1" res="-3.7485659122467041e-03" rms="4.9435183405876160e-01" purity="4.8924115300178528e-01" nType="-99"/>
        </Node>
        <Node pos="r" depth="1" NCoef="0" IVar="18" Cut="8.3744758605957031e+01" cType="1" res="-8.4711253643035889e-02" rms="4.6600696444511414e-01" purity="3.6655506491661072e-01" nType="0">
          <Node pos="l" depth="2" NCoef="0" IVar="-1" Cut="0.0000000000000000e+00" cType="1" res="-7.3295780457556248e-03" rms="4.7783684730529785e-01" purity="4.1759949922561646e-01" nType="-99"/>
          <Node pos="r" depth="2" NCoef="0" IVar="-1" Cut="0.0000000000000000e+00" cType="1" res="-4.8584025353193283e-02" rms="4.0091267228126526e-01" purity="2.1520893275737762e-01" nType="-99"/>
        </Node>
      </Node>
    </BinaryTree>
    <BinaryTree type="DecisionTree" boostWeight="1.0000000000000000e+00" itree="6">
      <Node pos="s" depth="0" NCoef="0" IVar="17" Cut="1.0478340911865234e+02" cType="1" res="6.7780553363263607e-03" rms="4.7674775123596191e-01" purity="4.9800226092338562e-01" nType="0">
        <Node pos="l" depth="1" NCoef="0" IVar="6" Cut="1.4473068237304688e+02" cType="1" res="5.3431391716003418e-02" rms="4.8043665289878845e-01" purity="5.6774079799652100e-01" nType="0">
          <Node pos="l" depth="2" NCoef="0" IVar="-1" Cut="0.0000000000000000e+00" cType="1" res="1.3911839574575424e-02" rms="4.7784754633903503e-01" purity="6.2118434906005859e-01" nType="-99"/>
          <Node pos="r" depth="2" NCoef="0" IVar="-1" Cut="0.0000000000000000e+00" cType="1" res="-3.0701566487550735e-02" rms="4.4398906826972961e-01" purity="2.7688556909561157e-01" nType="-99"/>
        </Node>
        <Node pos="r" depth="1" NCoef="0" IVar="14" Cut="2.9298563003540039e+00" cType="1" res="-1.6520532965660095e-01" rms="4.2032128572463989e-01" purity="2.4091696739196777e-01" nType="0">
          <Node pos="l" depth="2" NCoef="0" IVar="-1" Cut="0.0000000000000000e+00" cType="1" res="-5.2570182830095291e-02" rms="3.7910267710685730e-01" purity="1.8055509030818939e-01" nType="-99"/>
          <Node pos="r" depth="2" NCoef="0" IVar="-1" Cut="0.0000000000000000e+00" cType="1" res="-2.3283695802092552e-02" rms="4.4817748665809631e-01" purity="2.9617390036582947e-01" nType="-99"/>
        </Node>
      </Node>
    </BinaryTree>
    <BinaryTree type="DecisionTree" boostWeight="1.0000000000000000e+00" itree="7">
      <Node pos="s" depth="0" NCoef="0" IVar="16" Cut="6.1327990722656250e+02" cType="1" res="1.2921658344566822e-02" rms="4.7436311841011047e-01" purity="5.0314062833786011e-01" nType="0">
        <Node pos="l" depth="1" NCoef="0" IVar="17" Cut="6.3093856811523438e+01" cType="1" res="6.5551996231079102e-02" rms="4.7901678085327148e-01" purity="5.9034460783004761e-01" nType="0">
          <Node pos="l" depth="2" NCoef="0" IVar="-1" Cut="0.0000000000000000e+00" cType="1" res="1.7636926844716072e-02" rms="4.6443891525268555e-01" purity="6.6669273376464844e-01" nType="-99"/>
          <Node pos="r" depth="2" NCoef="0" IVar="-1" Cut="0.0000000000000000e+00" cType="1" res="-2.5339787825942039e-03" rms="4.9002471566200256e-01" purity="4.7238498926162720e-01" nType="-99"/>
        </Node>
        <Node pos="r" depth="1" NCoef="0" IVar="24" Cut="5.9154283255338669e-02" cType="1" res="-1.1466554552316666e-01" rms="4.3734583258628845e-01" purity="2.9173970222473145e-01" nType="0">
          <Node pos="l" depth="2" NCoef="0" IVar="-1" Cut="0.0000000000000000e+00" cType="1" res="-1.1756676249206066e-03" rms="4.7890534996986389e-01" purity="4.4869133830070496e-01" nType="-99"/>
          <Node pos="r" depth="2" NCoef="0" IVar="-1" Cut="0.0000000000000000e+00" cType="1" res="-3.6780551075935364e-02" rms="4.0973189473152161e-01" purity="2.2467820346355438e-01" nType="-99"/>
        </Node>
      </Node>
    </BinaryTree>
    <BinaryTree type="DecisionTree" boostWeight="1.0000000000000000e+00" itree="8">
      <Node pos="s" depth="0" NCoef="0" IVar="18" Cut="6.5622375488281250e+01" cType="1" res="9.0023856610059738e-03" rms="4.7235754132270813e-01" purity="4.9883240461349487e-01" nType="0">
        <Node pos="l" depth="1" NCoef="0" IVar="6" Cut="1.2628734588623047e+02" cType="1" res="5.5471673607826233e-02" rms="4.7415086627006531e-01" purity="5.6393939256668091e-01" nType="0">
          <Node pos="l" depth="2" NCoef="0" IVar="-1" Cut="0.0000000000000000e+00" cType="1" res="1.4943821355700493e-02" rms="4.7020211815834045e-01" purity="6.2901622056961060e-01" nType="-99"/>
          <Node pos="r" depth="2" NCoef="0" IVar="-1" Cut="0.0000000000000000e+00" cType="1" res="-1.8585020676255226e-02" rms="4.5855474472045898e-01" purity="3.2972216606140137e-01" nType="-99"/>
        </Node>
        <Node pos="r" depth="1" NCoef="0" IVar="11" Cut="1.8604008853435516e-01" cType="1" res="-1.2689292430877686e-01" rms="4.3974453210830688e-01" purity="3.0843284726142883e-01" nType="0">
          <Node pos="l" depth="2" NCoef="0" IVar="-1" Cut="0.0000000000000000e+00" cType="1" res="-4.0767028927803040e-02" rms="4.1613286733627319e-01" purity="2.4712878465652466e-01" nType="-99"/>
          <Node pos="r" depth="2" NCoef="0" IVar="-1" Cut="0.0000000000000000e+00" cType="1" res="-1.4577864669263363e-02" rms="4.5391979813575745e-01" purity="3.6452168226242065e-01" nType="-99"/>
        </Node>
      </Node>
    </BinaryTree>
    <BinaryTree type="DecisionTree" boostWeight="1.0000000000000000e+00" itree="9">
      <Node pos="s" depth="0" NCoef="0" IVar="17" Cut="7.3410171508789062e+01" cType="1" res="1.0257407091557980e-02" rms="4.6962153911590576e-01" purity="4.9927273392677307e-01" nType="0">
        <Node pos="l" depth="1" NCoef="0" IVar="6" Cut="1.3103416442871094e+02" cType="1" res="7.1420945227146149e-02" rms="4.7036048769950867e-01" purity="6.0761117935180664e-01" nType="0">
          <Node pos="l" depth="2" NCoef="0" IVar="-1" Cut="0.0000000000000000e+00" cType="1" res="1.6044989228248596e-02" rms="4.6468713879585266e-01" purity="6.6991752386093140e-01" nType="-99"/>
          <Node pos="r" depth="2" NCoef="0" IVar="-1" Cut="0.0000000000000000e+00" cType="1" res="-1.6435997560620308e-02" rms="4.6419596672058105e-01" purity="3.3501189947128296e-01" nType="-99"/>
        </Node>
        <Node pos="r" depth="1" NCoef="0" IVar="10" Cut="1.7602190375328064e-01" cType="1" res="-8.5532799363136292e-02" rms="4.5213043689727783e-01" purity="3.2960042357444763e-01" nType="0">
          <Node pos="l" depth="2" NCoef="0" IVar="-1" Cut="0.0000000000000000e+00" cType="1" res="-3.2955974340438843e-02" rms="4.2562189698219299e-01" purity="2.5935244560241699e-01" nType="-99"/>
          <Node pos="r" depth="2" NCoef="0" IVar="-1" Cut="0.0000000000000000e+00" cType="1" res="-6.4814402721822262e-03" rms="4.6565055847167969e-01" purity="3.8540816307067871e-01" nType="-99"/>
        </Node>
      </Node>
    </BinaryTree>
    <BinaryTree type="DecisionTree" boostWeight="1.0000000000000000e+00" itree="10">
      <Node pos="s" depth="0" NCoef="0" IVar="18" Cut="6.3576404571533203e+01" cType="1" res="1.2637302279472351e-02" rms="4.6805745363235474e-01" purity="5.0159627199172974e-01" nType="0">
        <Node pos="l" depth="1" NCoef="0" IVar="6" Cut="1.0953563690185547e+02" cType="1" res="5.7068597525358200e-02" rms="4.7005492448806763e-01" purity="5.7046562433242798e-01" nType="0">
          <Node pos="l" depth="2" NCoef="0" IVar="-1" Cut="0.0000000000000000e+00" cType="1" res="1.6251487657427788e-02" rms="4.6338275074958801e-01" purity="6.5034002065658569e-01" nType="-99"/>
          <Node pos="r" depth="2" NCoef="0" IVar="-1" Cut="0.0000000000000000e+00" cType="1" res="-1.1781773529946804e-02" rms="4.6509408950805664e-01" purity="3.7746244668960571e-01" nType="-99"/>
        </Node>
        <Node pos="r" depth="1" NCoef="0" IVar="6" Cut="8.7689315795898438e+01" cType="1" res="-1.0809566825628281e-01" rms="4.4050568342208862e-01" purity="3.1445765495300293e-01" nType="0">
          <Node pos="l" depth="2" NCoef="0" IVar="-1" Cut="0.0000000000000000e+00" cType="1" res="-1.0986549779772758e-02" rms="4.6771219372749329e-01" purity="4.0152895450592041e-01" nType="-99"/>
          <Node pos="r" depth="2" NCoef="0" IVar="-1" Cut="0.0000000000000000e+00" cType="1" res="-3.8260936737060547e-02" rms="4.0182837843894958e-01" purity="2.1965147554874420e-01" nType="-99"/>
        </Node>
      </Node>
    </BinaryTree>
    <BinaryTree type="DecisionTree" boostWeight="1.0000000000000000e+00" itree="11">
      <Node pos="s" depth="0" NCoef="0" IVar="17" Cut="6.6917739868164062e+01" cType="1" res="1.1691607534885406e-02" rms="4.6683716773986816e-01" purity="4.9990239739418030e-01" nType="0">
        <Node pos="l" depth="1" NCoef="0" IVar="18" Cut="8.7580055236816406e+01" cType="1" res="7.1581810712814331e-02" rms="4.6612700819969177e-01" purity="6.1451184749603271e-01" nType="0">
          <Node pos="l" depth="2" NCoef="0" IVar="-1" Cut="0.0000000000000000e+00" cType="1" res="1.4936975203454494e-02" rms="4.6083110570907593e-01" purity="6.4967161417007446e-01" nType="-99"/>
          <Node pos="r" depth="2" NCoef="0" IVar="-1" Cut="0.0000000000000000e+00" cType="1" res="-2.4704189971089363e-02" rms="4.6083089709281921e-01" purity="3.3928629755973816e-01" nType="-99"/>
        </Node>
        <Node pos="r" depth="1" NCoef="0" IVar="6" Cut="9.0906982421875000e+01" cType="1" res="-6.3345253467559814e-02" rms="4.5677408576011658e-01" purity="3.5630738735198975e-01" nType="0">
          <Node pos="l" depth="2" NCoef="0" IVar="-1" Cut="0.0000000000000000e+00" cType="1" res="-2.0537737291306257e-03" rms="4.7882476449012756e-01" purity="4.4227811694145203e-01" nType="-99"/>
          <Node pos="r" depth="2" NCoef="0" IVar="-1" Cut="0.0000000000000000e+00" cType="1" res="-2.9566060751676559e-02" rms="4.1801217198371887e-01" purity="2.4738745391368866e-01" nType="-99"/>
        </Node>
      </Node>
    </BinaryTree>
    <BinaryTree type="DecisionTree" boostWeight="1.0000000000000000e+00" itree="12">
      <Node pos="s" depth="0" NCoef="0" IVar="18" Cut="6.0902469635009766e+01" cType="1" res="8.6179580539464951e-03" rms="4.6482428908348083e-01" purity="4.9703314900398254e-01" nType="0">
        <Node pos="l" depth="1" NCoef="0" IVar="12" Cut="2.4424852430820465e-01" cType="1" res="5.1364183425903320e-02" rms="4.6821749210357666e-01" purity="5.7126116752624512e-01" nType="0">
          <Node pos="l" depth="2" NCoef="0" IVar="-1" Cut="0.0000000000000000e+00" cType="1" res="-8.0311521887779236e-03" rms="4.7331386804580688e-01" purity="4.7054773569107056e-01" nType="-99"/>
          <Node pos="r" depth="2" NCoef="0" IVar="-1" Cut="0.0000000000000000e+00" cType="1" res="1.5448127873241901e-02" rms="4.5864182710647583e-01" purity="6.1946791410446167e-01" nType="-99"/>
        </Node>
        <Node pos="r" depth="1" NCoef="0" IVar="16" Cut="8.2099072265625000e+02" cType="1" res="-9.3065761029720306e-02" rms="4.4027754664421082e-01" purity="3.2046112418174744e-01" nType="0">
          <Node pos="l" depth="2" NCoef="0" IVar="-1" Cut="0.0000000000000000e+00" cType="1" res="-1.3157007284462452e-02" rms="4.6400341391563416e-01" purity="3.7293872237205505e-01" nType="-99"/>
          <Node pos="r" depth="2" NCoef="0" IVar="-1" Cut="0.0000000000000000e+00" cType="1" res="-5.4552674293518066e-02" rms="3.1570810079574585e-01" purity="1.2044325470924377e-01" nType="-99"/>
        </Node>
      </Node>
    </BinaryTree>
    <BinaryTree type="DecisionTree" boostWeight="1.0000000000000000e+00" itree="13">
      <Node pos="s" depth="0" NCoef="0" IVar="7" Cut="1.1198117828369141e+02" cType="1" res="1.3738811947405338e-02" rms="4.6375700831413269e-01" purity="5.0231045484542847e-01" nType="0">
        <Node pos="l" depth="1" NCoef="0" IVar="12" Cut="2.4700428545475006e-01" cType="1" res="5.1172643899917603e-02" rms="4.6729204058647156e-01" purity="5.7423591613769531e-01" nType="0">
          <Node pos="l" depth="2" NCoef="0" IVar="-1" Cut="0.0000000000000000e+00" cType="1" res="-6.4616827294230461e-03" rms="4.7527116537094116e-01" purity="4.7349181771278381e-01" nType="-99"/>
          <Node pos="r" depth="2" NCoef="0" IVar="-1" Cut="0.0000000000000000e+00" cType="1" res="1.5081704594194889e-02" rms="4.5693308115005493e-01" purity="6.2496381998062134e-01" nType="-99"/>
        </Node>
        <Node pos="r" depth="1" NCoef="0" IVar="14" Cut="3.6213924884796143e+00" cType="1" res="-9.4097509980201721e-02" rms="4.3580257892608643e-01" purity="2.9511329531669617e-01" nType="0">
          <Node pos="l" depth="2" NCoef="0" IVar="-1" Cut="0.0000000000000000e+00" cType="1" res="-2.7889905497431755e-02" rms="4.2081359028816223e-01" purity="2.6000279188156128e-01" nType="-99"/>
          <Node pos="r" depth="2" NCoef="0" IVar="-1" Cut="0.0000000000000000e+00" cType="1" res="-2.9768042732030153e-03" rms="4.6378409862518311e-01" purity="3.8744735717773438e-01" nType="-99"/>
        </Node>
      </Node>
    </BinaryTree>
    <BinaryTree type="DecisionTree" boostWeight="1.0000000000000000e+00" itree="14">
      <Node pos="s" depth="0" NCoef="0" IVar="16" Cut="5.8831365966796875e+02" cType="1" res="1.2574953027069569e-02" rms="4.6278247237205505e-01" purity="5.0104373693466187e-01" nType="0">
        <Node pos="l" depth="1" NCoef="0" IVar="10" Cut="1.7840865254402161e-01" cType="1" res="5.3340800106525421e-02" rms="4.7258853912353516e-01" purity="5.9772253036499023e-01" nType="0">
          <Node pos="l" depth="2" NCoef="0" IVar="-1" Cut="0.0000000000000000e+00" cType="1" res="-1.6377454157918692e-03" rms="4.8325535655021667e-01" purity="5.2363234758377075e-01" nType="-99"/>
          <Node pos="r" depth="2" NCoef="0" IVar="-1" Cut="0.0000000000000000e+00" cType="1" res="1.5353002585470676e-02" rms="4.5927023887634277e-01" purity="6.5165901184082031e-01" nType="-99"/>
        </Node>
        <Node pos="r" depth="1" NCoef="0" IVar="6" Cut="1.5439903259277344e+02" cType="1" res="-7.2071097791194916e-02" rms="4.2954242229461670e-01" purity="3.0030018091201782e-01" nType="0">
          <Node pos="l" depth="2" NCoef="0" IVar="-1" Cut="0.0000000000000000e+00" cType="1" res="-6.0669579543173313e-03" rms="4.5136731863021851e-01" purity="3.6972925066947937e-01" nType="-99"/>
          <Node pos="r" depth="2" NCoef="0" IVar="-1" Cut="0.0000000000000000e+00" cType="1" res="-3.7296403199434280e-02" rms="3.7853336334228516e-01" purity="1.8099610507488251e-01" nType="-99"/>
        </Node>
      </Node>
    </BinaryTree>
    <BinaryTree type="DecisionTree" boostWeight="1.0000000000000000e+00" itree="15">
      <Node pos="s" depth="0" NCoef="0" IVar="12" Cut="3.0966606736183167e-01" cType="1" res="1.3943087309598923e-02" rms="4.6271947026252747e-01" purity="5.0349289178848267e-01" nType="0">
        <Node pos="l" depth="1" NCoef="0" IVar="16" Cut="4.5429852294921875e+02" cType="1" res="-3.8218963891267776e-02" rms="4.6292686462402344e-01" purity="4.4007566571235657e-01" nType="0">
          <Node pos="l" depth="2" NCoef="0" IVar="-1" Cut="0.0000000000000000e+00" cType="1" res="4.8215975984930992e-03" rms="4.8097586631774902e-01" purity="5.9829801321029663e-01" nType="-99"/>
          <Node pos="r" depth="2" NCoef="0" IVar="-1" Cut="0.0000000000000000e+00" cType="1" res="-1.8484733998775482e-02" rms="4.4266736507415771e-01" purity="3.2434198260307312e-01" nType="-99"/>
        </Node>
        <Node pos="r" depth="1" NCoef="0" IVar="6" Cut="1.7624110412597656e+02" cType="1" res="6.6166728734970093e-02" rms="4.5658043026924133e-01" purity="5.6698501110076904e-01" nType="0">
          <Node pos="l" depth="2" NCoef="0" IVar="-1" Cut="0.0000000000000000e+00" cType="1" res="1.4168254099786282e-02" rms="4.5776614546775818e-01" purity="6.0877066850662231e-01" nType="-99"/>
          <Node pos="r" depth="2" NCoef="0" IVar="-1" Cut="0.0000000000000000e+00" cType="1" res="-2.9029238969087601e-02" rms="4.0257784724235535e-01" purity="2.1275027096271515e-01" nType="-99"/>
        </Node>
      </Node>
    </BinaryTree>
    <BinaryTree type="DecisionTree" boostWeight="1.0000000000000000e+00" itree="16">
      <Node pos="s" depth="0" NCoef="0" IVar="6" Cut="1.0312937927246094e+02" cType="1" res="1.5205713920295238e-02" rms="4.5973715186119080e-01" purity="5.0469654798507690e-01" nType="0">
        <Node pos="l" depth="1" NCoef="0" IVar="17" Cut="1.1847091674804688e+02" cType="1" res="5.6391935795545578e-02" rms="4.6360278129577637e-01" purity="5.9002912044525146e-01" nType="0">
          <Node pos="l" depth="2" NCoef="0" IVar="-1" Cut="0.0000000000000000e+00" cType="1" res="1.2625829316675663e-02" rms="4.6338367462158203e-01" purity="6.4322787523269653e-01" nType="-99"/>
          <Node pos="r" depth="2" NCoef="0" IVar="-1" Cut="0.0000000000000000e+00" cType="1" res="-1.8433637917041779e-02" rms="4.3950718641281128e-01" purity="2.8293493390083313e-01" nType="-99"/>
        </Node>
        <Node pos="r" depth="1" NCoef="0" IVar="1" Cut="-2.5359301567077637e+00" cType="1" res="-6.3521713018417358e-02" rms="4.4169569015502930e-01" purity="3.4158340096473694e-01" nType="0">
          <Node pos="l" depth="2" NCoef="0" IVar="-1" Cut="0.0000000000000000e+00" cType="1" res="7.1220728568732738e-03" rms="4.6229377388954163e-01" purity="4.7803232073783875e-01" nType="-99"/>
          <Node pos="r" depth="2" NCoef="0" IVar="-1" Cut="0.0000000000000000e+00" cType="1" res="-1.9292786717414856e-02" rms="4.3272462487220764e-01" purity="3.0787694454193115e-01" nType="-99"/>
        </Node>
      </Node>
    </BinaryTree>
    <BinaryTree type="DecisionTree" boostWeight="1.0000000000000000e+00" itree="17">
      <Node pos="s" depth="0" NCoef="0" IVar="18" Cut="5.8194656372070312e+01" cType="1" res="1.1530843563377857e-02" rms="4.5956107974052429e-01" purity="5.0115829706192017e-01" nType="0">
        <Node pos="l" depth="1" NCoef="0" IVar="6" Cut="1.7347636413574219e+02" cType="1" res="4.7952048480510712e-02" rms="4.6300733089447021e-01" purity="5.7740509510040283e-01" nType="0">
          <Node pos="l" depth="2" NCoef="0" IVar="-1" Cut="0.0000000000000000e+00" cType="1" res="1.0593657381832600e-02" rms="4.6447414159774780e-01" purity="6.1642605066299438e-01" nType="-99"/>
          <Node pos="r" depth="2" NCoef="0" IVar="-1" Cut="0.0000000000000000e+00" cType="1" res="-2.7333524078130722e-02" rms="4.1613075137138367e-01" purity="2.2753052413463593e-01" nType="-99"/>
        </Node>
        <Node pos="r" depth="1" NCoef="0" IVar="11" Cut="2.9873353242874146e-01" cType="1" res="-6.6973730921745300e-02" rms="4.4195148348808289e-01" purity="3.3681127429008484e-01" nType="0">
          <Node pos="l" depth="2" NCoef="0" IVar="-1" Cut="0.0000000000000000e+00" cType="1" res="-2.1104544401168823e-02" rms="4.3282213807106018e-01" purity="3.0215576291084290e-01" nType="-99"/>
          <Node pos="r" depth="2" NCoef="0" IVar="-1" Cut="0.0000000000000000e+00" cType="1" res="4.5464103459380567e-04" rms="4.5541790127754211e-01" purity="4.1889873147010803e-01" nType="-99"/>
        </Node>
      </Node>
    </BinaryTree>
    <BinaryTree type="DecisionTree" boostWeight="1.0000000000000000e+00" itree="18">
      <Node pos="s" depth="0" NCoef="0" IVar="17" Cut="8.0141418457031250e+01" cType="1" res="1.4322723262012005e-02" rms="4.5906063914299011e-01" purity="5.0348448753356934e-01" nType="0">
        <Node pos="l" depth="1" NCoef="0" IVar="11" Cut="1.4436265826225281e-01" cType="1" res="4.8674486577510834e-02" rms="4.6306937932968140e-01" purity="5.9828943014144897e-01" nType="0">
          <Node pos="l" depth="2" NCoef="0" IVar="-1" Cut="0.0000000000000000e+00" cType="1" res="-4.8111374489963055e-03" rms="4.7207731008529663e-01" purity="5.1270067691802979e-01" nType="-99"/>
          <Node pos="r" depth="2" NCoef="0" IVar="-1" Cut="0.0000000000000000e+00" cType="1" res="1.3691736385226250e-02" rms="4.5394784212112427e-01" purity="6.4022618532180786e-01" nType="-99"/>
        </Node>
        <Node pos="r" depth="1" NCoef="0" IVar="14" Cut="3.2052786350250244e+00" cType="1" res="-5.2021324634552002e-02" rms="4.4375315308570862e-01" purity="3.2038623094558716e-01" nType="0">
          <Node pos="l" depth="2" NCoef="0" IVar="-1" Cut="0.0000000000000000e+00" cType="1" res="-1.9864350557327271e-02" rms="4.2589035630226135e-01" purity="2.7687782049179077e-01" nType="-99"/>
          <Node pos="r" depth="2" NCoef="0" IVar="-1" Cut="0.0000000000000000e+00" cType="1" res="-5.8747647562995553e-04" rms="4.6270054578781128e-01" purity="3.8016149401664734e-01" nType="-99"/>
        </Node>
      </Node>
    </BinaryTree>
    <BinaryTree type="DecisionTree" boostWeight="1.0000000000000000e+00" itree="19">
      <Node pos="s" depth="0" NCoef="0" IVar="6" Cut="1.0192476654052734e+02" cType="1" res="1.2235403060913086e-02" rms="4.5731261372566223e-01" purity="5.0175756216049194e-01" nType="0">
        <Node pos="l" depth="1" NCoef="0" IVar="24" Cut="3.4383526444435120e-01" cType="1" res="4.7460898756980896e-02" rms="4.6187591552734375e-01" purity="5.8630526065826416e-01" nType="0">
          <Node pos="l" depth="2" NCoef="0" IVar="-1" Cut="0.0000000000000000e+00" cType="1" res="1.2922077439725399e-02" rms="4.5463907718658447e-01" purity="6.5177756547927856e-01" nType="-99"/>
          <Node pos="r" depth="2" NCoef="0" IVar="-1" Cut="0.0000000000000000e+00" cType="1" res="-7.1865068748593330e-03" rms="4.6868735551834106e-01" purity="4.2281305789947510e-01" nType="-99"/>
        </Node>
        <Node pos="r" depth="1" NCoef="0" IVar="14" Cut="3.7654922008514404e+00" cType="1" res="-5.1634259521961212e-02" rms="4.4181478023529053e-01" purity="3.4845864772796631e-01" nType="0">
          <Node pos="l" depth="2" NCoef="0" IVar="-1" Cut="0.0000000000000000e+00" cType="1" res="-1.7314689233899117e-02" rms="4.2902699112892151e-01" purity="3.1222480535507202e-01" nType="-99"/>
          <Node pos="r" depth="2" NCoef="0" IVar="-1" Cut="0.0000000000000000e+00" cType="1" res="3.1146137043833733e-03" rms="4.6517926454544067e-01" purity="4.3848556280136108e-01" nType="-99"/>
        </Node>
      </Node>
    </BinaryTree>
    <BinaryTree type="DecisionTree" boostWeight="1.0000000000000000e+00" itree="20">
      <Node pos="s" depth="0" NCoef="0" IVar="17" Cut="6.0169525146484375e+01" cType="1" res="9.5554580911993980e-03" rms="4.5653706789016724e-01" purity="5.0020056962966919e-01" nType="0">
        <Node pos="l" depth="1" NCoef="0" IVar="18" Cut="8.3201507568359375e+01" cType="1" res="5.9516411274671555e-02" rms="4.5611414313316345e-01" purity="6.2343126535415649e-01" nType="0">
          <Node pos="l" depth="2" NCoef="0" IVar="-1" Cut="0.0000000000000000e+00" cType="1" res="1.2584678828716278e-02" rms="4.5196577906608582e-01" purity="6.6174131631851196e-01" nType="-99"/>
          <Node pos="r" depth="2" NCoef="0" IVar="-1" Cut="0.0000000000000000e+00" cType="1" res="-1.5458352863788605e-02" rms="4.6070078015327454e-01" purity="3.6148047447204590e-01" nType="-99"/>
        </Node>
        <Node pos="r" depth="1" NCoef="0" IVar="10" Cut="2.2165749967098236e-01" cType="1" res="-3.8026310503482819e-02" rms="4.5183229446411133e-01" purity="3.8283830881118774e-01" nType="0">
          <Node pos="l" depth="2" NCoef="0" IVar="-1" Cut="0.0000000000000000e+00" cType="1" res="-1.8334006890654564e-02" rms="4.3952140212059021e-01" purity="3.1665313243865967e-01" nType="-99"/>
          <Node pos="r" depth="2" NCoef="0" IVar="-1" Cut="0.0000000000000000e+00" cType="1" res="2.9241428710520267e-03" rms="4.5973768830299377e-01" purity="4.5887321233749390e-01" nType="-99"/>
        </Node>
      </Node>
    </BinaryTree>
    <BinaryTree type="DecisionTree" boostWeight="1.0000000000000000e+00" itree="21">
      <Node pos="s" depth="0" NCoef="0" IVar="10" Cut="1.6525374352931976e-01" cType="1" res="7.2259507142007351e-03" rms="4.5637625455856323e-01" purity="4.9806827306747437e-01" nType="0">
        <Node pos="l" depth="1" NCoef="0" IVar="17" Cut="5.2215457916259766e+01" cType="1" res="-5.2016362547874451e-02" rms="4.5431575179100037e-01" purity="4.1599291563034058e-01" nType="0">
          <Node pos="l" depth="2" NCoef="0" IVar="-1" Cut="0.0000000000000000e+00" cType="1" res="2.4533926043659449e-03" rms="4.6858385205268860e-01" purity="5.7178193330764771e-01" nType="-99"/>
          <Node pos="r" depth="2" NCoef="0" IVar="-1" Cut="0.0000000000000000e+00" cType="1" res="-1.9869327545166016e-02" rms="4.4060763716697693e-01" purity="3.2177746295928955e-01" nType="-99"/>
        </Node>
        <Node pos="r" depth="1" NCoef="0" IVar="18" Cut="7.5165237426757812e+01" cType="1" res="4.4954001903533936e-02" rms="4.5366927981376648e-01" purity="5.5033743381500244e-01" nType="0">
          <Node pos="l" depth="2" NCoef="0" IVar="-1" Cut="0.0000000000000000e+00" cType="1" res="1.1613640934228897e-02" rms="4.5455196499824524e-01" purity="6.0668396949768066e-01" nType="-99"/>
          <Node pos="r" depth="2" NCoef="0" IVar="-1" Cut="0.0000000000000000e+00" cType="1" res="-1.4590431004762650e-02" rms="4.3279421329498291e-01" purity="3.0601257085800171e-01" nType="-99"/>
        </Node>
      </Node>
    </BinaryTree>
    <BinaryTree type="DecisionTree" boostWeight="1.0000000000000000e+00" itree="22">
      <Node pos="s" depth="0" NCoef="0" IVar="1" Cut="-2.7520463466644287e+00" cType="1" res="7.4670258909463882e-03" rms="4.5583239197731018e-01" purity="4.9731767177581787e-01" nType="0">
        <Node pos="l" depth="1" NCoef="0" IVar="10" Cut="1.6321972012519836e-01" cType="1" res="9.6232146024703979e-02" rms="4.4273868203163147e-01" purity="6.3749784231185913e-01" nType="0">
          <Node pos="l" depth="2" NCoef="0" IVar="-1" Cut="0.0000000000000000e+00" cType="1" res="3.4595360048115253e-03" rms="4.5738250017166138e-01" purity="5.3563332557678223e-01" nType="-99"/>
          <Node pos="r" depth="2" NCoef="0" IVar="-1" Cut="0.0000000000000000e+00" cType="1" res="2.1559014916419983e-02" rms="4.2868214845657349e-01" purity="6.9364452362060547e-01" nType="-99"/>
        </Node>
        <Node pos="r" depth="1" NCoef="0" IVar="1" Cut="2.5063192844390869e+00" cType="1" res="-1.4734214171767235e-02" rms="4.5635765790939331e-01" purity="4.6225687861442566e-01" nType="0">
          <Node pos="l" depth="2" NCoef="0" IVar="-1" Cut="0.0000000000000000e+00" cType="1" res="-1.2253085151314735e-02" rms="4.5191755890846252e-01" purity="3.8770139217376709e-01" nType="-99"/>
          <Node pos="r" depth="2" NCoef="0" IVar="-1" Cut="0.0000000000000000e+00" cType="1" res="1.1613268405199051e-02" rms="4.5236578583717346e-01" purity="5.9879642724990845e-01" nType="-99"/>
        </Node>
      </Node>
    </BinaryTree>
    <BinaryTree type="DecisionTree" boostWeight="1.0000000000000000e+00" itree="23">
      <Node pos="s" depth="0" NCoef="0" IVar="17" Cut="1.1351950836181641e+02" cType="1" res="1.3840864412486553e-02" rms="4.5394957065582275e-01" purity="5.0506252050399780e-01" nType="0">
        <Node pos="l" depth="1" NCoef="0" IVar="11" Cut="1.9827225804328918e-01" cType="1" res="3.4376919269561768e-02" rms="4.6093475818634033e-01" purity="5.6574660539627075e-01" nType="0">
          <Node pos="l" depth="2" NCoef="0" IVar="-1" Cut="0.0000000000000000e+00" cType="1" res="-2.3972396738827229e-03" rms="4.6645700931549072e-01" purity="5.0423520803451538e-01" nType="-99"/>
          <Node pos="r" depth="2" NCoef="0" IVar="-1" Cut="0.0000000000000000e+00" cType="1" res="1.2464313767850399e-02" rms="4.5196807384490967e-01" purity="6.1930000782012939e-01" nType="-99"/>
        </Node>
        <Node pos="r" depth="1" NCoef="0" IVar="14" Cut="2.5754163265228271e+00" cType="1" res="-7.8128874301910400e-02" rms="4.0878224372863770e-01" purity="2.3329168558120728e-01" nType="0">
          <Node pos="l" depth="2" NCoef="0" IVar="-1" Cut="0.0000000000000000e+00" cType="1" res="-3.7967603653669357e-02" rms="3.6028563976287842e-01" purity="1.6239209473133087e-01" nType="-99"/>
          <Node pos="r" depth="2" NCoef="0" IVar="-1" Cut="0.0000000000000000e+00" cType="1" res="-1.1515908874571323e-02" rms="4.2907649278640747e-01" purity="2.7068218588829041e-01" nType="-99"/>
        </Node>
      </Node>
    </BinaryTree>
    <BinaryTree type="DecisionTree" boostWeight="1.0000000000000000e+00" itree="24">
      <Node pos="s" depth="0" NCoef="0" IVar="10" Cut="1.7938639223575592e-01" cType="1" res="8.0188252031803131e-03" rms="4.5401600003242493e-01" purity="4.9970981478691101e-01" nType="0">
        <Node pos="l" depth="1" NCoef="0" IVar="0" Cut="4.7095007896423340e+00" cType="1" res="-4.1015591472387314e-02" rms="4.5288950204849243e-01" purity="4.2159599065780640e-01" nType="0">
          <Node pos="l" depth="2" NCoef="0" IVar="-1" Cut="0.0000000000000000e+00" cType="1" res="-1.7676910385489464e-02" rms="4.3503972887992859e-01" purity="3.6131423711776733e-01" nType="-99"/>
          <Node pos="r" depth="2" NCoef="0" IVar="-1" Cut="0.0000000000000000e+00" cType="1" res="2.4966369383037090e-03" rms="4.6866267919540405e-01" purity="4.9737232923507690e-01" nType="-99"/>
        </Node>
        <Node pos="r" depth="1" NCoef="0" IVar="1" Cut="-2.6954870223999023e+00" cType="1" res="4.4382430613040924e-02" rms="4.5142307877540588e-01" purity="5.5763858556747437e-01" nType="0">
          <Node pos="l" depth="2" NCoef="0" IVar="-1" Cut="0.0000000000000000e+00" cType="1" res="2.0253354683518410e-02" rms="4.3038401007652283e-01" purity="6.9505882263183594e-01" nType="-99"/>
          <Node pos="r" depth="2" NCoef="0" IVar="-1" Cut="0.0000000000000000e+00" cType="1" res="3.2148035243153572e-03" rms="4.5458719134330750e-01" purity="5.1458036899566650e-01" nType="-99"/>
        </Node>
      </Node>
    </BinaryTree>
    <BinaryTree type="DecisionTree" boostWeight="1.0000000000000000e+00" itree="25">
      <Node pos="s" depth="0" NCoef="0" IVar="17" Cut="5.7198474884033203e+01" cType="1" res="8.5717607289552689e-03" rms="4.5253166556358337e-01" purity="5.0026708841323853e-01" nType="0">
        <Node pos="l" depth="1" NCoef="0" IVar="6" Cut="1.2711479187011719e+02" cType="1" res="5.6416109204292297e-02" rms="4.4909822940826416e-01" purity="6.3124555349349976e-01" nType="0">
          <Node pos="l" depth="2" NCoef="0" IVar="-1" Cut="0.0000000000000000e+00" cType="1" res="1.2908264994621277e-02" rms="4.4267413020133972e-01" purity="7.0115512609481812e-01" nType="-99"/>
          <Node pos="r" depth="2" NCoef="0" IVar="-1" Cut="0.0000000000000000e+00" cType="1" res="-9.5484051853418350e-03" rms="4.5927450060844421e-01" purity="3.5470366477966309e-01" nType="-99"/>
        </Node>
        <Node pos="r" depth="1" NCoef="0" IVar="6" Cut="1.0196756744384766e+02" cType="1" res="-3.2288886606693268e-02" rms="4.5144677162170410e-01" purity="3.8840720057487488e-01" nType="0">
          <Node pos="l" depth="2" NCoef="0" IVar="-1" Cut="0.0000000000000000e+00" cType="1" res="-5.6811678223311901e-04" rms="4.7021102905273438e-01" purity="4.7054213285446167e-01" nType="-99"/>
          <Node pos="r" depth="2" NCoef="0" IVar="-1" Cut="0.0000000000000000e+00" cType="1" res="-2.0828267559409142e-02" rms="4.1172251105308533e-01" purity="2.4496705830097198e-01" nType="-99"/>
        </Node>
      </Node>
    </BinaryTree>
    <BinaryTree type="DecisionTree" boostWeight="1.0000000000000000e+00" itree="26">
      <Node pos="s" depth="0" NCoef="0" IVar="7" Cut="1.5671752929687500e+02" cType="1" res="6.6012302413582802e-03" rms="4.5149427652359009e-01" purity="4.9870258569717407e-01" nType="0">
        <Node pos="l" depth="1" NCoef="0" IVar="10" Cut="1.1617996543645859e-01" cType="1" res="2.0917931571602821e-02" rms="4.5788413286209106e-01" purity="5.3920358419418335e-01" nType="0">
          <Node pos="l" depth="2" NCoef="0" IVar="-1" Cut="0.0000000000000000e+00" cType="1" res="-8.5836295038461685e-03" rms="4.5939943194389343e-01" purity="4.3882894515991211e-01" nType="-99"/>
          <Node pos="r" depth="2" NCoef="0" IVar="-1" Cut="0.0000000000000000e+00" cType="1" res="7.7276048250496387e-03" rms="4.5493164658546448e-01" purity="5.7614308595657349e-01" nType="-99"/>
        </Node>
        <Node pos="r" depth="1" NCoef="0" IVar="3" Cut="1.1185501098632812e+02" cType="1" res="-9.9984943866729736e-02" rms="3.8431715965270996e-01" purity="1.9717705249786377e-01" nType="0">
          <Node pos="l" depth="2" NCoef="0" IVar="-1" Cut="0.0000000000000000e+00" cType="1" res="-1.5288087539374828e-02" rms="4.2519754171371460e-01" purity="2.5452369451522827e-01" nType="-99"/>
          <Node pos="r" depth="2" NCoef="0" IVar="-1" Cut="0.0000000000000000e+00" cType="1" res="-4.0767643600702286e-02" rms="3.3634757995605469e-01" purity="1.4209534227848053e-01" nType="-99"/>
        </Node>
      </Node>
    </BinaryTree>
    <BinaryTree type="DecisionTree" boostWeight="1.0000000000000000e+00" itree="27">
      <Node pos="s" depth="0" NCoef="0" IVar="6" Cut="9.1359794616699219e+01" cType="1" res="7.9357177019119263e-03" rms="4.5237576961517334e-01" purity="4.9830749630928040e-01" nType="0">
        <Node pos="l" depth="1" NCoef="0" IVar="18" Cut="8.4238349914550781e+01" cType="1" res="4.2776443064212799e-02" rms="4.5571699738502502e-01" purity="5.9151691198348999e-01" nType="0">
          <Node pos="l" depth="2" NCoef="0" IVar="-1" Cut="0.0000000000000000e+00" cType="1" res="1.0122699663043022e-02" rms="4.5441231131553650e-01" purity="6.3764935731887817e-01" nType="-99"/>
          <Node pos="r" depth="2" NCoef="0" IVar="-1" Cut="0.0000000000000000e+00" cType="1" res="-1.4988134615123272e-02" rms="4.4695848226547241e-01" purity="3.2205611467361450e-01" nType="-99"/>
        </Node>
        <Node pos="r" depth="1" NCoef="0" IVar="1" Cut="-2.3361504077911377e+00" cType="1" res="-3.8989692926406860e-02" rms="4.4353172183036804e-01" purity="3.7276789546012878e-01" nType="0">
          <Node pos="l" depth="2" NCoef="0" IVar="-1" Cut="0.0000000000000000e+00" cType="1" res="3.4747924655675888e-03" rms="4.5740818977355957e-01" purity="4.8021119832992554e-01" nType="-99"/>
          <Node pos="r" depth="2" NCoef="0" IVar="-1" Cut="0.0000000000000000e+00" cType="1" res="-1.3292499817907810e-02" rms="4.3634945154190063e-01" purity="3.3296161890029907e-01" nType="-99"/>
        </Node>
      </Node>
    </BinaryTree>
    <BinaryTree type="DecisionTree" boostWeight="1.0000000000000000e+00" itree="28">
      <Node pos="s" depth="0" NCoef="0" IVar="12" Cut="2.2749237716197968e-01" cType="1" res="9.7006382420659065e-03" rms="4.5114398002624512e-01" purity="5.0153797864913940e-01" nType="0">
        <Node pos="l" depth="1" NCoef="0" IVar="0" Cut="5.0761737823486328e+00" cType="1" res="-5.8820318430662155e-02" rms="4.5018842816352844e-01" purity="3.8746771216392517e-01" nType="0">
          <Node pos="l" depth="2" NCoef="0" IVar="-1" Cut="0.0000000000000000e+00" cType="1" res="-2.1438363939523697e-02" rms="4.3008762598037720e-01" purity="3.2844960689544678e-01" nType="-99"/>
          <Node pos="r" depth="2" NCoef="0" IVar="-1" Cut="0.0000000000000000e+00" cType="1" res="4.2062703869305551e-04" rms="4.7293213009834290e-01" purity="4.7805535793304443e-01" nType="-99"/>
        </Node>
        <Node pos="r" depth="1" NCoef="0" IVar="1" Cut="2.6904931068420410e+00" cType="1" res="3.8010664284229279e-02" rms="4.4849240779876709e-01" purity="5.4866707324981689e-01" nType="0">
          <Node pos="l" depth="2" NCoef="0" IVar="-1" Cut="0.0000000000000000e+00" cType="1" res="2.2553531453013420e-03" rms="4.5143505930900574e-01" purity="5.0772738456726074e-01" nType="-99"/>
          <Node pos="r" depth="2" NCoef="0" IVar="-1" Cut="0.0000000000000000e+00" cType="1" res="1.9636552780866623e-02" rms="4.2781341075897217e-01" purity="6.8366903066635132e-01" nType="-99"/>
        </Node>
      </Node>
    </BinaryTree>
    <BinaryTree type="DecisionTree" boostWeight="1.0000000000000000e+00" itree="29">
      <Node pos="s" depth="0" NCoef="0" IVar="17" Cut="5.5265865325927734e+01" cType="1" res="8.0253416672348976e-03" rms="4.5174863934516907e-01" purity="5.0003796815872192e-01" nType="0">
        <Node pos="l" depth="1" NCoef="0" IVar="1" Cut="-2.6920771598815918e+00" cType="1" res="4.7541916370391846e-02" rms="4.5136666297912598e-01" purity="6.2580811977386475e-01" nType="0">
          <Node pos="l" depth="2" NCoef="0" IVar="-1" Cut="0.0000000000000000e+00" cType="1" res="1.8135646358132362e-02" rms="4.2436921596527100e-01" purity="7.3349779844284058e-01" nType="-99"/>
          <Node pos="r" depth="2" NCoef="0" IVar="-1" Cut="0.0000000000000000e+00" cType="1" res="3.8167943712323904e-03" rms="4.5827805995941162e-01" purity="5.8637446165084839e-01" nType="-99"/>
        </Node>
        <Node pos="r" depth="1" NCoef="0" IVar="14" Cut="2.9976301193237305e+00" cType="1" res="-2.2160701453685760e-02" rms="4.4970691204071045e-01" purity="4.0396428108215332e-01" nType="0">
          <Node pos="l" depth="2" NCoef="0" IVar="-1" Cut="0.0000000000000000e+00" cType="1" res="-1.3037894852459431e-02" rms="4.3506282567977905e-01" purity="3.5498419404029846e-01" nType="-99"/>
          <Node pos="r" depth="2" NCoef="0" IVar="-1" Cut="0.0000000000000000e+00" cType="1" res="3.3224294893443584e-03" rms="4.6070560812950134e-01" purity="4.5354631543159485e-01" nType="-99"/>
        </Node>
      </Node>
    </BinaryTree>
    <BinaryTree type="DecisionTree" boostWeight="1.0000000000000000e+00" itree="30">
      <Node pos="s" depth="0" NCoef="0" IVar="18" Cut="8.0492683410644531e+01" cType="1" res="8.6924489587545395e-03" rms="4.5087510347366333e-01" purity="5.0098472833633423e-01" nType="0">
        <Node pos="l" depth="1" NCoef="0" IVar="10" Cut="7.9810984432697296e-02" cType="1" res="2.5666624307632446e-02" rms="4.5664149522781372e-01" purity="5.5001252889633179e-01" nType="0">
          <Node pos="l" depth="2" NCoef="0" IVar="-1" Cut="0.0000000000000000e+00" cType="1" res="-1.0632241144776344e-02" rms="4.5839485526084900e-01" purity="4.2311069369316101e-01" nType="-99"/>
          <Node pos="r" depth="2" NCoef="0" IVar="-1" Cut="0.0000000000000000e+00" cType="1" res="7.5156791135668755e-03" rms="4.5433169603347778e-01" purity="5.7831376791000366e-01" nType="-99"/>
        </Node>
        <Node pos="r" depth="1" NCoef="0" IVar="14" Cut="2.3585934638977051e+00" cType="1" res="-7.3596328496932983e-02" rms="4.1200816631317139e-01" purity="2.6330381631851196e-01" nType="0">
          <Node pos="l" depth="2" NCoef="0" IVar="-1" Cut="0.0000000000000000e+00" cType="1" res="-3.7829674780368805e-02" rms="3.6900836229324341e-01" purity="1.8150432407855988e-01" nType="-99"/>
          <Node pos="r" depth="2" NCoef="0" IVar="-1" Cut="0.0000000000000000e+00" cType="1" res="-1.0871752165257931e-02" rms="4.2606967687606812e-01" purity="2.9802197217941284e-01" nType="-99"/>
        </Node>
      </Node>
    </BinaryTree>
    <BinaryTree type="DecisionTree" boostWeight="1.0000000000000000e+00" itree="31">
      <Node pos="s" depth="0" NCoef="0" IVar="11" Cut="1.6210860013961792e-01" cType="1" res="6.6733448766171932e-03" rms="4.4898152351379395e-01" purity="4.9881073832511902e-01" nType="0">
        <Node pos="l" depth="1" NCoef="0" IVar="18" Cut="4.7568706512451172e+01" cType="1" res="-4.1391145437955856e-02" rms="4.4884511828422546e-01" purity="4.2610847949981689e-01" nType="0">
          <Node pos="l" depth="2" NCoef="0" IVar="-1" Cut="0.0000000000000000e+00" cType="1" res="-1.5128705126699060e-04" rms="4.5957159996032715e-01" purity="5.3316235542297363e-01" nType="-99"/>
          <Node pos="r" depth="2" NCoef="0" IVar="-1" Cut="0.0000000000000000e+00" cType="1" res="-2.0511314272880554e-02" rms="4.3089091777801514e-01" purity="2.9929566383361816e-01" nType="-99"/>
        </Node>
        <Node pos="r" depth="1" NCoef="0" IVar="6" Cut="7.8209190368652344e+01" cType="1" res="3.6665569990873337e-02" rms="4.4645234942436218e-01" purity="5.4417693614959717e-01" nType="0">
          <Node pos="l" depth="2" NCoef="0" IVar="-1" Cut="0.0000000000000000e+00" cType="1" res="1.3361683115363121e-02" rms="4.3992227315902710e-01" purity="6.5002399682998657e-01" nType="-99"/>
          <Node pos="r" depth="2" NCoef="0" IVar="-1" Cut="0.0000000000000000e+00" cType="1" res="-5.8996601728722453e-04" rms="4.4848456978797913e-01" purity="4.4980865716934204e-01" nType="-99"/>
        </Node>
      </Node>
    </BinaryTree>
    <BinaryTree type="DecisionTree" boostWeight="1.0000000000000000e+00" itree="32">
      <Node pos="s" depth="0" NCoef="0" IVar="1" Cut="-2.4347949028015137e+00" cType="1" res="3.2729182858020067e-03" rms="4.4862082600593567e-01" purity="4.9692475795745850e-01" nType="0">
        <Node pos="l" depth="1" NCoef="0" IVar="14" Cut="2.8148460388183594e+00" cType="1" res="5.8563131839036942e-02" rms="4.4385048747062683e-01" purity="6.0552150011062622e-01" nType="0">
          <Node pos="l" depth="2" NCoef="0" IVar="-1" Cut="0.0000000000000000e+00" cType="1" res="1.8596465233713388e-03" rms="4.4826322793960571e-01" purity="5.3228342533111572e-01" nType="-99"/>
          <Node pos="r" depth="2" NCoef="0" IVar="-1" Cut="0.0000000000000000e+00" cType="1" res="1.6816066578030586e-02" rms="4.3475481867790222e-01" purity="6.7462921142578125e-01" nType="-99"/>
        </Node>
        <Node pos="r" depth="1" NCoef="0" IVar="1" Cut="2.3118858337402344e+00" cType="1" res="-2.1337533369660378e-02" rms="4.4854128360748291e-01" purity="4.4858679175376892e-01" nType="0">
          <Node pos="l" depth="2" NCoef="0" IVar="-1" Cut="0.0000000000000000e+00" cType="1" res="-1.7761647701263428e-02" rms="4.3993067741394043e-01" purity="3.3019649982452393e-01" nType="-99"/>
          <Node pos="r" depth="2" NCoef="0" IVar="-1" Cut="0.0000000000000000e+00" cType="1" res="7.5273164547979832e-03" rms="4.4886711239814758e-01" purity="5.7726514339447021e-01" nType="-99"/>
        </Node>
      </Node>
    </BinaryTree>
    <BinaryTree type="DecisionTree" boostWeight="1.0000000000000000e+00" itree="33">
      <Node pos="s" depth="0" NCoef="0" IVar="12" Cut="3.4317934513092041e-01" cType="1" res="5.8571114204823971e-03" rms="4.4795301556587219e-01" purity="4.9825555086135864e-01" nType="0">
        <Node pos="l" depth="1" NCoef="0" IVar="0" Cut="4.2692427635192871e+00" cType="1" res="-2.4138698354363441e-02" rms="4.4911271333694458e-01" purity="4.4554677605628967e-01" nType="0">
          <Node pos="l" depth="2" NCoef="0" IVar="-1" Cut="0.0000000000000000e+00" cType="1" res="-1.6917321830987930e-02" rms="4.2704850435256958e-01" purity="3.5591596364974976e-01" nType="-99"/>
          <Node pos="r" depth="2" NCoef="0" IVar="-1" Cut="0.0000000000000000e+00" cType="1" res="1.6022296622395515e-03" rms="4.5875576138496399e-01" purity="4.9941366910934448e-01" nType="-99"/>
        </Node>
        <Node pos="r" depth="1" NCoef="0" IVar="6" Cut="1.6997264099121094e+02" cType="1" res="4.7151803970336914e-02" rms="4.4304156303405762e-01" purity="5.7081872224807739e-01" nType="0">
          <Node pos="l" depth="2" NCoef="0" IVar="-1" Cut="0.0000000000000000e+00" cType="1" res="1.0780346579849720e-02" rms="4.4590654969215393e-01" purity="6.1980980634689331e-01" nType="-99"/>
          <Node pos="r" depth="2" NCoef="0" IVar="-1" Cut="0.0000000000000000e+00" cType="1" res="-1.9772315397858620e-02" rms="4.0161928534507751e-01" purity="2.1637785434722900e-01" nType="-99"/>
        </Node>
      </Node>
    </BinaryTree>
    <BinaryTree type="DecisionTree" boostWeight="1.0000000000000000e+00" itree="34">
      <Node pos="s" depth="0" NCoef="0" IVar="1" Cut="2.5378165245056152e+00" cType="1" res="1.0296528227627277e-02" rms="4.4869741797447205e-01" purity="5.0353121757507324e-01" nType="0">
        <Node pos="l" depth="1" NCoef="0" IVar="1" Cut="-2.4010605812072754e+00" cType="1" res="-1.1167389340698719e-02" rms="4.4925945997238159e-01" purity="4.6141067147254944e-01" nType="0">
          <Node pos="l" depth="2" NCoef="0" IVar="-1" Cut="0.0000000000000000e+00" cType="1" res="9.2707863077521324e-03" rms="4.4569268822669983e-01" purity="6.0416960716247559e-01" nType="-99"/>
          <Node pos="r" depth="2" NCoef="0" IVar="-1" Cut="0.0000000000000000e+00" cType="1" res="-1.3317124918103218e-02" rms="4.4548529386520386e-01" purity="3.5103157162666321e-01" nType="-99"/>
        </Node>
        <Node pos="r" depth="1" NCoef="0" IVar="14" Cut="2.2299511432647705e+00" cType="1" res="6.6456846892833710e-02" rms="4.4232279062271118e-01" purity="6.1373943090438843e-01" nType="0">
          <Node pos="l" depth="2" NCoef="0" IVar="-1" Cut="0.0000000000000000e+00" cType="1" res="3.3881328999996185e-04" rms="4.4643098115921021e-01" purity="5.2194374799728394e-01" nType="-99"/>
          <Node pos="r" depth="2" NCoef="0" IVar="-1" Cut="0.0000000000000000e+00" cType="1" res="1.5811901539564133e-02" rms="4.3714892864227295e-01" purity="6.5649157762527466e-01" nType="-99"/>
        </Node>
      </Node>
    </BinaryTree>
    <BinaryTree type="DecisionTree" boostWeight="1.0000000000000000e+00" itree="35">
      <Node pos="s" depth="0" NCoef="0" IVar="14" Cut="2.9821963310241699e+00" cType="1" res="6.5717292018234730e-03" rms="4.4733682274818420e-01" purity="4.9847450852394104e-01" nType="0">
        <Node pos="l" depth="1" NCoef="0" IVar="1" Cut="2.8802144527435303e+00" cType="1" res="-2.7968507260084152e-02" rms="4.4451305270195007e-01" purity="4.4964671134948730e-01" nType="0">
          <Node pos="l" depth="2" NCoef="0" IVar="-1" Cut="0.0000000000000000e+00" cType="1" res="-8.9592393487691879e-03" rms="4.4287574291229248e-01" purity="4.2112782597541809e-01" nType="-99"/>
          <Node pos="r" depth="2" NCoef="0" IVar="-1" Cut="0.0000000000000000e+00" cType="1" res="1.0123758576810360e-02" rms="4.4315469264984131e-01" purity="6.0154628753662109e-01" nType="-99"/>
        </Node>
        <Node pos="r" depth="1" NCoef="0" IVar="1" Cut="-2.6689436435699463e+00" cType="1" res="3.9552740752696991e-02" rms="4.4753548502922058e-01" purity="5.4509818553924561e-01" nType="0">
          <Node pos="l" depth="2" NCoef="0" IVar="-1" Cut="0.0000000000000000e+00" cType="1" res="1.8327740952372551e-02" rms="4.2262423038482666e-01" purity="7.0456027984619141e-01" nType="-99"/>
          <Node pos="r" depth="2" NCoef="0" IVar="-1" Cut="0.0000000000000000e+00" cType="1" res="3.6994989495724440e-03" rms="4.5188057422637939e-01" purity="5.0278842449188232e-01" nType="-99"/>
        </Node>
      </Node>
    </BinaryTree>
    <BinaryTree type="DecisionTree" boostWeight="1.0000000000000000e+00" itree="36">
      <Node pos="s" depth="0" NCoef="0" IVar="18" Cut="4.8363151550292969e+01" cType="1" res="3.4431496169418097e-03" rms="4.4747921824455261e-01" purity="4.9540674686431885e-01" nType="0">
        <Node pos="l" depth="1" NCoef="0" IVar="6" Cut="7.7000183105468750e+01" cType="1" res="3.2681580632925034e-02" rms="4.5088869333267212e-01" purity="5.8416169881820679e-01" nType="0">
          <Node pos="l" depth="2" NCoef="0" IVar="-1" Cut="0.0000000000000000e+00" cType="1" res="1.2060665525496006e-02" rms="4.3787270784378052e-01" purity="6.9088548421859741e-01" nType="-99"/>
          <Node pos="r" depth="2" NCoef="0" IVar="-1" Cut="0.0000000000000000e+00" cType="1" res="-1.7769922851584852e-04" rms="4.5838859677314758e-01" purity="4.9788686633110046e-01" nType="-99"/>
        </Node>
        <Node pos="r" depth="1" NCoef="0" IVar="11" Cut="2.3405112326145172e-01" cType="1" res="-3.5076193511486053e-02" rms="4.3999141454696655e-01" purity="3.7847912311553955e-01" nType="0">
          <Node pos="l" depth="2" NCoef="0" IVar="-1" Cut="0.0000000000000000e+00" cType="1" res="-1.4864847064018250e-02" rms="4.3351432681083679e-01" purity="3.2364967465400696e-01" nType="-99"/>
          <Node pos="r" depth="2" NCoef="0" IVar="-1" Cut="0.0000000000000000e+00" cType="1" res="1.0339099681004882e-03" rms="4.4513612985610962e-01" purity="4.5038658380508423e-01" nType="-99"/>
        </Node>
      </Node>
    </BinaryTree>
    <BinaryTree type="DecisionTree" boostWeight="1.0000000000000000e+00" itree="37">
      <Node pos="s" depth="0" NCoef="0" IVar="1" Cut="2.5642030239105225e+00" cType="1" res="9.9177183583378792e-03" rms="4.4586837291717529e-01" purity="5.0381344556808472e-01" nType="0">
        <Node pos="l" depth="1" NCoef="0" IVar="1" Cut="-2.3462996482849121e+00" cType="1" res="-9.6521871164441109e-03" rms="4.4643083214759827e-01" purity="4.6102824807167053e-01" nType="0">
          <Node pos="l" depth="2" NCoef="0" IVar="-1" Cut="0.0000000000000000e+00" cType="1" res="7.3689720593392849e-03" rms="4.4394391775131226e-01" purity="5.9219747781753540e-01" nType="-99"/>
          <Node pos="r" depth="2" NCoef="0" IVar="-1" Cut="0.0000000000000000e+00" cType="1" res="-1.1167026124894619e-02" rms="4.4401389360427856e-01" purity="3.5502836108207703e-01" nType="-99"/>
        </Node>
        <Node pos="r" depth="1" NCoef="0" IVar="10" Cut="9.0475417673587799e-02" cType="1" res="6.2098667025566101e-02" rms="4.4013217091560364e-01" purity="6.1789530515670776e-01" nType="0">
          <Node pos="l" depth="2" NCoef="0" IVar="-1" Cut="0.0000000000000000e+00" cType="1" res="-5.8316481299698353e-03" rms="4.5034164190292358e-01" purity="4.7697693109512329e-01" nType="-99"/>
          <Node pos="r" depth="2" NCoef="0" IVar="-1" Cut="0.0000000000000000e+00" cType="1" res="1.4175402931869030e-02" rms="4.3443959951400757e-01" purity="6.5314918756484985e-01" nType="-99"/>
        </Node>
      </Node>
    </BinaryTree>
    <BinaryTree type="DecisionTree" boostWeight="1.0000000000000000e+00" itree="38">
      <Node pos="s" depth="0" NCoef="0" IVar="12" Cut="3.4220179915428162e-01" cType="1" res="8.4636872634291649e-03" rms="4.4625630974769592e-01" purity="5.0085550546646118e-01" nType="0">
        <Node pos="l" depth="1" NCoef="0" IVar="0" Cut="3.6660015583038330e+00" cType="1" res="-1.9573835656046867e-02" rms="4.4777321815490723e-01" purity="4.4579705595970154e-01" nType="0">
          <Node pos="l" depth="2" NCoef="0" IVar="-1" Cut="0.0000000000000000e+00" cType="1" res="-2.0281847566366196e-02" rms="4.1318136453628540e-01" purity="3.2068961858749390e-01" nType="-99"/>
          <Node pos="r" depth="2" NCoef="0" IVar="-1" Cut="0.0000000000000000e+00" cType="1" res="-3.6998966243118048e-04" rms="4.5436578989028931e-01" purity="4.7727897763252258e-01" nType="-99"/>
        </Node>
        <Node pos="r" depth="1" NCoef="0" IVar="1" Cut="2.4602108001708984e+00" cType="1" res="4.6682827174663544e-02" rms="4.4132044911384583e-01" purity="5.7590794563293457e-01" nType="0">
          <Node pos="l" depth="2" NCoef="0" IVar="-1" Cut="0.0000000000000000e+00" cType="1" res="4.0221381932497025e-03" rms="4.4347587227821350e-01" purity="5.2724164724349976e-01" nType="-99"/>
          <Node pos="r" depth="2" NCoef="0" IVar="-1" Cut="0.0000000000000000e+00" cType="1" res="1.6838453710079193e-02" rms="4.3136078119277954e-01" purity="6.8376767635345459e-01" nType="-99"/>
        </Node>
      </Node>
    </BinaryTree>
    <BinaryTree type="DecisionTree" boostWeight="1.0000000000000000e+00" itree="39">
      <Node pos="s" depth="0" NCoef="0" IVar="17" Cut="5.9893306732177734e+01" cType="1" res="3.6444708239287138e-03" rms="4.4504401087760925e-01" purity="4.9863064289093018e-01" nType="0">
        <Node pos="l" depth="1" NCoef="0" IVar="8" Cut="8.5390396118164062e+01" cType="1" res="3.4998390823602676e-02" rms="4.4649413228034973e-01" purity="6.2326806783676147e-01" nType="0">
          <Node pos="l" depth="2" NCoef="0" IVar="-1" Cut="0.0000000000000000e+00" cType="1" res="-1.0887843091040850e-03" rms="4.5730525255203247e-01" purity="5.8656948804855347e-01" nType="-99"/>
          <Node pos="r" depth="2" NCoef="0" IVar="-1" Cut="0.0000000000000000e+00" cType="1" res="1.1108289472758770e-02" rms="4.3548136949539185e-01" purity="6.5121126174926758e-01" nType="-99"/>
        </Node>
        <Node pos="r" depth="1" NCoef="0" IVar="14" Cut="2.1755976676940918e+00" cType="1" res="-2.6520293205976486e-02" rms="4.4154801964759827e-01" purity="3.7872031331062317e-01" nType="0">
          <Node pos="l" depth="2" NCoef="0" IVar="-1" Cut="0.0000000000000000e+00" cType="1" res="-1.7812661826610565e-02" rms="4.2524120211601257e-01" purity="3.1775289773941040e-01" nType="-99"/>
          <Node pos="r" depth="2" NCoef="0" IVar="-1" Cut="0.0000000000000000e+00" cType="1" res="-1.9051195122301579e-03" rms="4.4546970725059509e-01" purity="3.9891755580902100e-01" nType="-99"/>
        </Node>
      </Node>
    </BinaryTree>
    <BinaryTree type="DecisionTree" boostWeight="1.0000000000000000e+00" itree="40">
      <Node pos="s" depth="0" NCoef="0" IVar="18" Cut="8.4505493164062500e+01" cType="1" res="7.1549084968864918e-03" rms="4.4501930475234985e-01" purity="5.0074243545532227e-01" nType="0">
        <Node pos="l" depth="1" NCoef="0" IVar="6" Cut="7.7044281005859375e+01" cType="1" res="2.0332293584942818e-02" rms="4.5073893666267395e-01" purity="5.4781734943389893e-01" nType="0">
          <Node pos="l" depth="2" NCoef="0" IVar="-1" Cut="0.0000000000000000e+00" cType="1" res="8.9361341670155525e-03" rms="4.4697034358978271e-01" purity="6.4768284559249878e-01" nType="-99"/>
          <Node pos="r" depth="2" NCoef="0" IVar="-1" Cut="0.0000000000000000e+00" cType="1" res="-1.5276924241334200e-03" rms="4.5203104615211487e-01" purity="4.6234989166259766e-01" nType="-99"/>
        </Node>
        <Node pos="r" depth="1" NCoef="0" IVar="0" Cut="4.8094286918640137e+00" cType="1" res="-6.4652495086193085e-02" rms="4.0499454736709595e-01" purity="2.4421736598014832e-01" nType="0">
          <Node pos="l" depth="2" NCoef="0" IVar="-1" Cut="0.0000000000000000e+00" cType="1" res="-2.3718031123280525e-02" rms="3.8155555725097656e-01" purity="2.1222911775112152e-01" nType="-99"/>
          <Node pos="r" depth="2" NCoef="0" IVar="-1" Cut="0.0000000000000000e+00" cType="1" res="-4.6666031703352928e-03" rms="4.4683513045310974e-01" purity="3.1125083565711975e-01" nType="-99"/>
        </Node>
      </Node>
    </BinaryTree>
    <BinaryTree type="DecisionTree" boostWeight="1.0000000000000000e+00" itree="41">
      <Node pos="s" depth="0" NCoef="0" IVar="6" Cut="1.0953465270996094e+02" cType="1" res="1.1143206618726254e-02" rms="4.4483560323715210e-01" purity="5.0566279888153076e-01" nType="0">
        <Node pos="l" depth="1" NCoef="0" IVar="10" Cut="1.9763381779193878e-01" cType="1" res="3.1008377671241760e-02" rms="4.4963735342025757e-01" purity="5.8688020706176758e-01" nType="0">
          <Node pos="l" depth="2" NCoef="0" IVar="-1" Cut="0.0000000000000000e+00" cType="1" res="-1.1265783105045557e-03" rms="4.6057900786399841e-01" purity="5.0942295789718628e-01" nType="-99"/>
          <Node pos="r" depth="2" NCoef="0" IVar="-1" Cut="0.0000000000000000e+00" cType="1" res="1.0613631457090378e-02" rms="4.3757092952728271e-01" purity="6.5312111377716064e-01" nType="-99"/>
        </Node>
        <Node pos="r" depth="1" NCoef="0" IVar="1" Cut="-2.5792591571807861e+00" cType="1" res="-3.3446978777647018e-02" rms="4.3053898215293884e-01" purity="3.2335892319679260e-01" nType="0">
          <Node pos="l" depth="2" NCoef="0" IVar="-1" Cut="0.0000000000000000e+00" cType="1" res="5.8460603468120098e-03" rms="4.5416679978370667e-01" purity="4.6588835120201111e-01" nType="-99"/>
          <Node pos="r" depth="2" NCoef="0" IVar="-1" Cut="0.0000000000000000e+00" cType="1" res="-1.1406289413571358e-02" rms="4.2393022775650024e-01" purity="2.9229140281677246e-01" nType="-99"/>
        </Node>
      </Node>
    </BinaryTree>
    <BinaryTree type="DecisionTree" boostWeight="1.0000000000000000e+00" itree="42">
      <Node pos="s" depth="0" NCoef="0" IVar="11" Cut="1.4485573768615723e-01" cType="1" res="4.6697077341377735e-03" rms="4.4429448246955872e-01" purity="4.9791622161865234e-01" nType="0">
        <Node pos="l" depth="1" NCoef="0" IVar="0" Cut="3.7093963623046875e+00" cType="1" res="-3.5229295492172241e-02" rms="4.4502767920494080e-01" purity="4.2375952005386353e-01" nType="0">
          <Node pos="l" depth="2" NCoef="0" IVar="-1" Cut="0.0000000000000000e+00" cType="1" res="-2.3217834532260895e-02" rms="4.0061166882514954e-01" purity="3.1155166029930115e-01" nType="-99"/>
          <Node pos="r" depth="2" NCoef="0" IVar="-1" Cut="0.0000000000000000e+00" cType="1" res="-3.1237800139933825e-03" rms="4.5569071173667908e-01" purity="4.5728036761283875e-01" nType="-99"/>
        </Node>
        <Node pos="r" depth="1" NCoef="0" IVar="10" Cut="2.1397033333778381e-01" cType="1" res="2.5979878380894661e-02" rms="4.4243073463439941e-01" purity="5.3752356767654419e-01" nType="0">
          <Node pos="l" depth="2" NCoef="0" IVar="-1" Cut="0.0000000000000000e+00" cType="1" res="-1.2886086478829384e-03" rms="4.4723808765411377e-01" purity="4.7011637687683105e-01" nType="-99"/>
          <Node pos="r" depth="2" NCoef="0" IVar="-1" Cut="0.0000000000000000e+00" cType="1" res="1.0216488502919674e-02" rms="4.3530398607254028e-01" purity="6.0360234975814819e-01" nType="-99"/>
        </Node>
      </Node>
    </BinaryTree>
    <BinaryTree type="DecisionTree" boostWeight="1.0000000000000000e+00" itree="43">
      <Node pos="s" depth="0" NCoef="0" IVar="17" Cut="5.3990314483642578e+01" cType="1" res="6.5116616897284985e-03" rms="4.4596865773200989e-01" purity="5.0068056583404541e-01" nType="0">
        <Node pos="l" depth="1" NCoef="0" IVar="8" Cut="1.0483654785156250e+02" cType="1" res="3.9262950420379639e-02" rms="4.4431334733963013e-01" purity="6.2900048494338989e-01" nType="0">
          <Node pos="l" depth="2" NCoef="0" IVar="-1" Cut="0.0000000000000000e+00" cType="1" res="1.9787789788097143e-03" rms="4.5176368951797485e-01" purity="6.1082392930984497e-01" nType="-99"/>
          <Node pos="r" depth="2" NCoef="0" IVar="-1" Cut="0.0000000000000000e+00" cType="1" res="1.2683444656431675e-02" rms="4.3175622820854187e-01" purity="6.5259307622909546e-01" nType="-99"/>
        </Node>
        <Node pos="r" depth="1" NCoef="0" IVar="14" Cut="2.1816513538360596e+00" cType="1" res="-1.7096143215894699e-02" rms="4.4566780328750610e-01" purity="4.0818491578102112e-01" nType="0">
          <Node pos="l" depth="2" NCoef="0" IVar="-1" Cut="0.0000000000000000e+00" cType="1" res="-1.5153110958635807e-02" rms="4.3128722906112671e-01" purity="3.4350538253784180e-01" nType="-99"/>
          <Node pos="r" depth="2" NCoef="0" IVar="-1" Cut="0.0000000000000000e+00" cType="1" res="-1.8934182662633248e-05" rms="4.4903868436813354e-01" purity="4.2961138486862183e-01" nType="-99"/>
        </Node>
      </Node>
    </BinaryTree>
    <BinaryTree type="DecisionTree" boostWeight="1.0000000000000000e+00" itree="44">
      <Node pos="s" depth="0" NCoef="0" IVar="11" Cut="1.7775875329971313e-01" cType="1" res="2.5953114964067936e-03" rms="4.4476491212844849e-01" purity="4.9570700526237488e-01" nType="0">
        <Node pos="l" depth="1" NCoef="0" IVar="14" Cut="2.1235389709472656e+00" cType="1" res="-2.8483269736170769e-02" rms="4.4709458947181702e-01" purity="4.3046391010284424e-01" nType="0">
          <Node pos="l" depth="2" NCoef="0" IVar="-1" Cut="0.0000000000000000e+00" cType="1" res="-1.8555188551545143e-02" rms="4.2969816923141479e-01" purity="3.5905408859252930e-01" nType="-99"/>
          <Node pos="r" depth="2" NCoef="0" IVar="-1" Cut="0.0000000000000000e+00" cType="1" res="-2.5884751230478287e-03" rms="4.5051023364067078e-01" purity="4.5000782608985901e-01" nType="-99"/>
        </Node>
        <Node pos="r" depth="1" NCoef="0" IVar="17" Cut="1.1303520965576172e+02" cType="1" res="2.4984003975987434e-02" rms="4.4172614812850952e-01" purity="5.4270744323730469e-01" nType="0">
          <Node pos="l" depth="2" NCoef="0" IVar="-1" Cut="0.0000000000000000e+00" cType="1" res="6.9295619614422321e-03" rms="4.4682076573371887e-01" purity="6.0620981454849243e-01" nType="-99"/>
          <Node pos="r" depth="2" NCoef="0" IVar="-1" Cut="0.0000000000000000e+00" cType="1" res="-1.1441849172115326e-02" rms="4.1036891937255859e-01" purity="2.4853321909904480e-01" nType="-99"/>
        </Node>
      </Node>
    </BinaryTree>
    <BinaryTree type="DecisionTree" boostWeight="1.0000000000000000e+00" itree="45">
      <Node pos="s" depth="0" NCoef="0" IVar="1" Cut="2.7193398475646973e+00" cType="1" res="4.9763084389269352e-03" rms="4.4327235221862793e-01" purity="5.0061714649200439e-01" nType="0">
        <Node pos="l" depth="1" NCoef="0" IVar="1" Cut="-2.2818679809570312e+00" cType="1" res="-1.0745206847786903e-02" rms="4.4401723146438599e-01" purity="4.6454891562461853e-01" nType="0">
          <Node pos="l" depth="2" NCoef="0" IVar="-1" Cut="0.0000000000000000e+00" cType="1" res="6.2688882462680340e-03" rms="4.4204422831535339e-01" purity="5.8709090948104858e-01" nType="-99"/>
          <Node pos="r" depth="2" NCoef="0" IVar="-1" Cut="0.0000000000000000e+00" cType="1" res="-9.7962291911244392e-03" rms="4.4233390688896179e-01" purity="3.7195253372192383e-01" nType="-99"/>
        </Node>
        <Node pos="r" depth="1" NCoef="0" IVar="10" Cut="1.2516181170940399e-01" cType="1" res="6.3585855066776276e-02" rms="4.3551117181777954e-01" purity="6.3507896661758423e-01" nType="0">
          <Node pos="l" depth="2" NCoef="0" IVar="-1" Cut="0.0000000000000000e+00" cType="1" res="-7.9852557973936200e-04" rms="4.4621956348419189e-01" purity="5.1154345273971558e-01" nType="-99"/>
          <Node pos="r" depth="2" NCoef="0" IVar="-1" Cut="0.0000000000000000e+00" cType="1" res="1.4818693511188030e-02" rms="4.2892140150070190e-01" purity="6.7985081672668457e-01" nType="-99"/>
        </Node>
      </Node>
    </BinaryTree>
    <BinaryTree type="DecisionTree" boostWeight="1.0000000000000000e+00" itree="46">
      <Node pos="s" depth="0" NCoef="0" IVar="16" Cut="8.6351531982421875e+02" cType="1" res="4.3164710514247417e-03" rms="4.4359388947486877e-01" purity="4.9774256348609924e-01" nType="0">
        <Node pos="l" depth="1" NCoef="0" IVar="10" Cut="1.1175911128520966e-01" cType="1" res="1.3052935712039471e-02" rms="4.5095866918563843e-01" purity="5.3136324882507324e-01" nType="0">
          <Node pos="l" depth="2" NCoef="0" IVar="-1" Cut="0.0000000000000000e+00" cType="1" res="-6.7502190358936787e-03" rms="4.5658192038536072e-01" purity="4.2646601796150208e-01" nType="-99"/>
          <Node pos="r" depth="2" NCoef="0" IVar="-1" Cut="0.0000000000000000e+00" cType="1" res="5.3062220104038715e-03" rms="4.4780421257019043e-01" purity="5.6828367710113525e-01" nType="-99"/>
        </Node>
        <Node pos="r" depth="1" NCoef="0" IVar="-1" Cut="0.0000000000000000e+00" cType="1" res="-2.6138110086321831e-02" rms="3.5265734791755676e-01" purity="1.6922484338283539e-01" nType="-99"/>
      </Node>
    </BinaryTree>
    <BinaryTree type="DecisionTree" boostWeight="1.0000000000000000e+00" itree="47">
      <Node pos="s" depth="0" NCoef="0" IVar="1" Cut="2.9072163105010986e+00" cType="1" res="5.8948313817381859e-03" rms="4.4337373971939087e-01" purity="4.9988582730293274e-01" nType="0">
        <Node pos="l" depth="1" NCoef="0" IVar="1" Cut="-2.5603489875793457e+00" cType="1" res="-3.2764684874564409e-03" rms="4.4476187229156494e-01" purity="4.7757330536842346e-01" nType="0">
          <Node pos="l" depth="2" NCoef="0" IVar="-1" Cut="0.0000000000000000e+00" cType="1" res="7.2117974050343037e-03" rms="4.3661358952522278e-01" purity="6.1064600944519043e-01" nType="-99"/>
          <Node pos="r" depth="2" NCoef="0" IVar="-1" Cut="0.0000000000000000e+00" cType="1" res="-4.6657230705022812e-03" rms="4.4690331816673279e-01" purity="4.1938856244087219e-01" nType="-99"/>
        </Node>
        <Node pos="r" depth="1" NCoef="0" IVar="18" Cut="4.3315563201904297e+01" cType="1" res="6.9524891674518585e-02" rms="4.2824596166610718e-01" purity="6.5468907356262207e-01" nType="0">
          <Node pos="l" depth="2" NCoef="0" IVar="-1" Cut="0.0000000000000000e+00" cType="1" res="1.7005810514092445e-02" rms="4.1109186410903931e-01" purity="7.4025255441665649e-01" nType="-99"/>
          <Node pos="r" depth="2" NCoef="0" IVar="-1" Cut="0.0000000000000000e+00" cType="1" res="4.6723335981369019e-03" rms="4.4523271918296814e-01" purity="5.4595053195953369e-01" nType="-99"/>
        </Node>
      </Node>
    </BinaryTree>
    <BinaryTree type="DecisionTree" boostWeight="1.0000000000000000e+00" itree="48">
      <Node pos="s" depth="0" NCoef="0" IVar="1" Cut="2.5284018516540527e+00" cType="1" res="1.0755445808172226e-02" rms="4.4295281171798706e-01" purity="5.0646567344665527e-01" nType="0">
        <Node pos="l" depth="1" NCoef="0" IVar="1" Cut="-2.3552327156066895e+00" cType="1" res="-5.3754979744553566e-03" rms="4.4322425127029419e-01" purity="4.6271425485610962e-01" nType="0">
          <Node pos="l" depth="2" NCoef="0" IVar="-1" Cut="0.0000000000000000e+00" cType="1" res="6.7523294128477573e-03" rms="4.4111520051956177e-01" purity="5.9864568710327148e-01" nType="-99"/>
          <Node pos="r" depth="2" NCoef="0" IVar="-1" Cut="0.0000000000000000e+00" cType="1" res="-9.2589100822806358e-03" rms="4.4170466065406799e-01" purity="3.4919387102127075e-01" nType="-99"/>
        </Node>
        <Node pos="r" depth="1" NCoef="0" IVar="17" Cut="6.8550750732421875e+01" cType="1" res="5.2921347320079803e-02" rms="4.3945449590682983e-01" purity="6.2083065509796143e-01" nType="0">
          <Node pos="l" depth="2" NCoef="0" IVar="-1" Cut="0.0000000000000000e+00" cType="1" res="1.2780180200934410e-02" rms="4.2628484964370728e-01" purity="7.1414285898208618e-01" nType="-99"/>
          <Node pos="r" depth="2" NCoef="0" IVar="-1" Cut="0.0000000000000000e+00" cType="1" res="1.1585528263822198e-03" rms="4.6044442057609558e-01" purity="4.3885561823844910e-01" nType="-99"/>
        </Node>
      </Node>
    </BinaryTree>
    <BinaryTree type="DecisionTree" boostWeight="1.0000000000000000e+00" itree="49">
      <Node pos="s" depth="0" NCoef="0" IVar="6" Cut="7.0503463745117188e+01" cType="1" res="4.2915055528283119e-03" rms="4.4290697574615479e-01" purity="4.9883756041526794e-01" nType="0">
        <Node pos="l" depth="1" NCoef="0" IVar="24" Cut="2.6546412706375122e-01" cType="1" res="3.8370877504348755e-02" rms="4.4389033317565918e-01" purity="6.1018562316894531e-01" nType="0">
          <Node pos="l" depth="2" NCoef="0" IVar="-1" Cut="0.0000000000000000e+00" cType="1" res="1.0426894761621952e-02" rms="4.3120533227920532e-01" purity="6.9391709566116333e-01" nType="-99"/>
          <Node pos="r" depth="2" NCoef="0" IVar="-1" Cut="0.0000000000000000e+00" cType="1" res="5.5177352624014020e-04" rms="4.6007809042930603e-01" purity="4.8404467105865479e-01" nType="-99"/>
        </Node>
        <Node pos="r" depth="1" NCoef="0" IVar="12" Cut="2.7353140711784363e-01" cType="1" res="-1.7636077478528023e-02" rms="4.4088250398635864e-01" purity="4.2719319462776184e-01" nType="0">
          <Node pos="l" depth="2" NCoef="0" IVar="-1" Cut="0.0000000000000000e+00" cType="1" res="-1.1767691001296043e-02" rms="4.3043336272239685e-01" purity="3.4280201792716980e-01" nType="-99"/>
          <Node pos="r" depth="2" NCoef="0" IVar="-1" Cut="0.0000000000000000e+00" cType="1" res="1.1893172049894929e-03" rms="4.4639420509338379e-01" purity="4.8529231548309326e-01" nType="-99"/>
        </Node>
      </Node>
    </BinaryTree>
    <BinaryTree type="DecisionTree" boostWeight="1.0000000000000000e+00" itree="50">
      <Node pos="s" depth="0" NCoef="0" IVar="11" Cut="2.9826548695564270e-01" cType="1" res="7.8723663464188576e-03" rms="4.4333854317665100e-01" purity="5.0407755374908447e-01" nType="0">
        <Node pos="l" depth="1" NCoef="0" IVar="0" Cut="5.5441918373107910e+00" cType="1" res="-9.5123294740915298e-03" rms="4.4406118988990784e-01" purity="4.6878275275230408e-01" nType="0">
          <Node pos="l" depth="2" NCoef="0" IVar="-1" Cut="0.0000000000000000e+00" cType="1" res="-4.9424017779529095e-03" rms="4.3887227773666382e-01" purity="4.4406905770301819e-01" nType="-99"/>
          <Node pos="r" depth="2" NCoef="0" IVar="-1" Cut="0.0000000000000000e+00" cType="1" res="8.2051176577806473e-03" rms="4.5870864391326904e-01" purity="5.6079590320587158e-01" nType="-99"/>
        </Node>
        <Node pos="r" depth="1" NCoef="0" IVar="10" Cut="1.9530738890171051e-01" cType="1" res="4.4136501848697662e-02" rms="4.3962010741233826e-01" purity="5.7770162820816040e-01" nType="0">
          <Node pos="l" depth="2" NCoef="0" IVar="-1" Cut="0.0000000000000000e+00" cType="1" res="-3.0276200050138868e-05" rms="4.4882845878601074e-01" purity="4.9437448382377625e-01" nType="-99"/>
          <Node pos="r" depth="2" NCoef="0" IVar="-1" Cut="0.0000000000000000e+00" cType="1" res="1.3733047991991043e-02" rms="4.2941123247146606e-01" purity="6.4122104644775391e-01" nType="-99"/>
        </Node>
      </Node>
    </BinaryTree>
    <BinaryTree type="DecisionTree" boostWeight="1.0000000000000000e+00" itree="51">
      <Node pos="s" depth="0" NCoef="0" IVar="12" Cut="3.7443909049034119e-01" cType="1" res="7.1987798437476158e-03" rms="4.4269356131553650e-01" purity="5.0345498323440552e-01" nType="0">
        <Node pos="l" depth="1" NCoef="0" IVar="0" Cut="4.0320177078247070e+00" cType="1" res="-1.1793332174420357e-02" rms="4.4530662894248962e-01" purity="4.5932722091674805e-01" nType="0">
          <Node pos="l" depth="2" NCoef="0" IVar="-1" Cut="0.0000000000000000e+00" cType="1" res="-1.3431631028652191e-02" rms="4.2260196805000305e-01" purity="3.5989272594451904e-01" nType="-99"/>
          <Node pos="r" depth="2" NCoef="0" IVar="-1" Cut="0.0000000000000000e+00" cType="1" res="1.8982108449563384e-03" rms="4.5345526933670044e-01" purity="5.0398373603820801e-01" nType="-99"/>
        </Node>
        <Node pos="r" depth="1" NCoef="0" IVar="18" Cut="7.7148521423339844e+01" cType="1" res="4.1711751371622086e-02" rms="4.3579152226448059e-01" purity="5.8364498615264893e-01" nType="0">
          <Node pos="l" depth="2" NCoef="0" IVar="-1" Cut="0.0000000000000000e+00" cType="1" res="1.0128771886229515e-02" rms="4.3638259172439575e-01" purity="6.3494867086410522e-01" nType="-99"/>
          <Node pos="r" depth="2" NCoef="0" IVar="-1" Cut="0.0000000000000000e+00" cType="1" res="-9.6105355769395828e-03" rms="4.2312544584274292e-01" purity="3.1632488965988159e-01" nType="-99"/>
        </Node>
      </Node>
    </BinaryTree>
    <BinaryTree type="DecisionTree" boostWeight="1.0000000000000000e+00" itree="52">
      <Node pos="s" depth="0" NCoef="0" IVar="6" Cut="6.9677413940429688e+01" cType="1" res="7.9875951632857323e-04" rms="4.4324710965156555e-01" purity="4.9696075916290283e-01" nType="0">
        <Node pos="l" depth="1" NCoef="0" IVar="10" Cut="1.3904008269309998e-01" cType="1" res="3.2518949359655380e-02" rms="4.4406005740165710e-01" purity="6.0485267639160156e-01" nType="0">
          <Node pos="l" depth="2" NCoef="0" IVar="-1" Cut="0.0000000000000000e+00" cType="1" res="-2.5905745569616556e-03" rms="4.6245750784873962e-01" purity="4.9654993414878845e-01" nType="-99"/>
          <Node pos="r" depth="2" NCoef="0" IVar="-1" Cut="0.0000000000000000e+00" cType="1" res="9.3944761902093887e-03" rms="4.3353044986724854e-01" purity="6.5534675121307373e-01" nType="-99"/>
        </Node>
        <Node pos="r" depth="1" NCoef="0" IVar="8" Cut="1.1008581542968750e+02" cType="1" res="-1.9688067957758904e-02" rms="4.4151166081428528e-01" purity="4.2727759480476379e-01" nType="0">
          <Node pos="l" depth="2" NCoef="0" IVar="-1" Cut="0.0000000000000000e+00" cType="1" res="-1.0080767795443535e-02" rms="4.4587841629981995e-01" purity="3.9114114642143250e-01" nType="-99"/>
          <Node pos="r" depth="2" NCoef="0" IVar="-1" Cut="0.0000000000000000e+00" cType="1" res="1.0062048677355051e-03" rms="4.3606275320053101e-01" purity="4.5992156863212585e-01" nType="-99"/>
        </Node>
      </Node>
    </BinaryTree>
    <BinaryTree type="DecisionTree" boostWeight="1.0000000000000000e+00" itree="53">
      <Node pos="s" depth="0" NCoef="0" IVar="16" Cut="9.5560943603515625e+02" cType="1" res="7.7320274431258440e-04" rms="4.4103714823722839e-01" purity="4.9604094028472900e-01" nType="0">
        <Node pos="l" depth="1" NCoef="0" IVar="1" Cut="2.7306554317474365e+00" cType="1" res="7.4448282830417156e-03" rms="4.4747304916381836e-01" purity="5.1995885372161865e-01" nType="0">
          <Node pos="l" depth="2" NCoef="0" IVar="-1" Cut="0.0000000000000000e+00" cType="1" res="-8.8399322703480721e-04" rms="4.4967153668403625e-01" purity="4.8575589060783386e-01" nType="-99"/>
          <Node pos="r" depth="2" NCoef="0" IVar="-1" Cut="0.0000000000000000e+00" cType="1" res="9.3711959198117256e-03" rms="4.3576782941818237e-01" purity="6.5227735042572021e-01" nType="-99"/>
        </Node>
        <Node pos="r" depth="1" NCoef="0" IVar="-1" Cut="0.0000000000000000e+00" cType="1" res="-3.6382939666509628e-02" rms="3.0929177999496460e-01" purity="1.2922146916389465e-01" nType="-99"/>
      </Node>
    </BinaryTree>
    <BinaryTree type="DecisionTree" boostWeight="1.0000000000000000e+00" itree="54">
      <Node pos="s" depth="0" NCoef="0" IVar="14" Cut="2.2306077480316162e+00" cType="1" res="4.6655628830194473e-03" rms="4.4153696298599243e-01" purity="5.0133842229843140e-01" nType="0">
        <Node pos="l" depth="1" NCoef="0" IVar="12" Cut="2.6293081045150757e-01" cType="1" res="-3.4983363002538681e-02" rms="4.3392056226730347e-01" purity="4.4779634475708008e-01" nType="0">
          <Node pos="l" depth="2" NCoef="0" IVar="-1" Cut="0.0000000000000000e+00" cType="1" res="-1.9962552934885025e-02" rms="4.2377829551696777e-01" purity="3.1896507740020752e-01" nType="-99"/>
          <Node pos="r" depth="2" NCoef="0" IVar="-1" Cut="0.0000000000000000e+00" cType="1" res="-1.6820160672068596e-03" rms="4.3670824170112610e-01" purity="5.1392555236816406e-01" nType="-99"/>
        </Node>
        <Node pos="r" depth="1" NCoef="0" IVar="1" Cut="-2.7062005996704102e+00" cType="1" res="1.8651071935892105e-02" rms="4.4334724545478821e-01" purity="5.2022457122802734e-01" nType="0">
          <Node pos="l" depth="2" NCoef="0" IVar="-1" Cut="0.0000000000000000e+00" cType="1" res="1.1186295188963413e-02" rms="4.2760953307151794e-01" purity="6.7592209577560425e-01" nType="-99"/>
          <Node pos="r" depth="2" NCoef="0" IVar="-1" Cut="0.0000000000000000e+00" cType="1" res="1.3092897133901715e-03" rms="4.4653183221817017e-01" purity="4.8006317019462585e-01" nType="-99"/>
        </Node>
      </Node>
    </BinaryTree>
    <BinaryTree type="DecisionTree" boostWeight="1.0000000000000000e+00" itree="55">
      <Node pos="s" depth="0" NCoef="0" IVar="17" Cut="5.0153636932373047e+01" cType="1" res="6.1996118165552616e-04" rms="4.4079300761222839e-01" purity="4.9529996514320374e-01" nType="0">
        <Node pos="l" depth="1" NCoef="0" IVar="6" Cut="1.5223632812500000e+02" cType="1" res="2.9951723292469978e-02" rms="4.3695876002311707e-01" purity="6.2805986404418945e-01" nType="0">
          <Node pos="l" depth="2" NCoef="0" IVar="-1" Cut="0.0000000000000000e+00" cType="1" res="7.3509463109076023e-03" rms="4.3633469939231873e-01" purity="6.8274241685867310e-01" nType="-99"/>
          <Node pos="r" depth="2" NCoef="0" IVar="-1" Cut="0.0000000000000000e+00" cType="1" res="-1.2545710429549217e-02" rms="4.3163809180259705e-01" purity="2.8320205211639404e-01" nType="-99"/>
        </Node>
        <Node pos="r" depth="1" NCoef="0" IVar="6" Cut="5.4917659759521484e+01" cType="1" res="-1.6383541747927666e-02" rms="4.4211038947105408e-01" purity="4.1833961009979248e-01" nType="0">
          <Node pos="l" depth="2" NCoef="0" IVar="-1" Cut="0.0000000000000000e+00" cType="1" res="4.5654997229576111e-03" rms="4.5259708166122437e-01" purity="5.4431867599487305e-01" nType="-99"/>
          <Node pos="r" depth="2" NCoef="0" IVar="-1" Cut="0.0000000000000000e+00" cType="1" res="-6.5815085545182228e-03" rms="4.3779855966567993e-01" purity="3.7732160091400146e-01" nType="-99"/>
        </Node>
      </Node>
    </BinaryTree>
    <BinaryTree type="DecisionTree" boostWeight="1.0000000000000000e+00" itree="56">
      <Node pos="s" depth="0" NCoef="0" IVar="11" Cut="1.6684550046920776e-01" cType="1" res="2.6930421590805054e-03" rms="4.4137507677078247e-01" purity="4.9848061800003052e-01" nType="0">
        <Node pos="l" depth="1" NCoef="0" IVar="14" Cut="2.4748520851135254e+00" cType="1" res="-2.5423770770430565e-02" rms="4.4253525137901306e-01" purity="4.2978218197822571e-01" nType="0">
          <Node pos="l" depth="2" NCoef="0" IVar="-1" Cut="0.0000000000000000e+00" cType="1" res="-1.6691358759999275e-02" rms="4.2645251750946045e-01" purity="3.5492298007011414e-01" nType="-99"/>
          <Node pos="r" depth="2" NCoef="0" IVar="-1" Cut="0.0000000000000000e+00" cType="1" res="-5.1299325423315167e-04" rms="4.4801619648933411e-01" purity="4.6471580862998962e-01" nType="-99"/>
        </Node>
        <Node pos="r" depth="1" NCoef="0" IVar="17" Cut="5.4118316650390625e+01" cType="1" res="2.1170550957322121e-02" rms="4.3963289260864258e-01" purity="5.4362714290618896e-01" nType="0">
          <Node pos="l" depth="2" NCoef="0" IVar="-1" Cut="0.0000000000000000e+00" cType="1" res="9.5226382836699486e-03" rms="4.2811387777328491e-01" purity="6.8010127544403076e-01" nType="-99"/>
          <Node pos="r" depth="2" NCoef="0" IVar="-1" Cut="0.0000000000000000e+00" cType="1" res="-8.1422546645626426e-04" rms="4.4641909003257751e-01" purity="4.4133415818214417e-01" nType="-99"/>
        </Node>
      </Node>
    </BinaryTree>
    <BinaryTree type="DecisionTree" boostWeight="1.0000000000000000e+00" itree="57">
      <Node pos="s" depth="0" NCoef="0" IVar="1" Cut="2.4498517513275146e+00" cType="1" res="1.5309018781408668e-03" rms="4.4008749723434448e-01" purity="4.9732905626296997e-01" nType="0">
        <Node pos="l" depth="1" NCoef="0" IVar="1" Cut="-2.0250723361968994e+00" cType="1" res="-1.3140530325472355e-02" rms="4.3985870480537415e-01" purity="4.5313140749931335e-01" nType="0">
          <Node pos="l" depth="2" NCoef="0" IVar="-1" Cut="0.0000000000000000e+00" cType="1" res="3.2548638992011547e-03" rms="4.4186368584632874e-01" purity="5.6274598836898804e-01" nType="-99"/>
          <Node pos="r" depth="2" NCoef="0" IVar="-1" Cut="0.0000000000000000e+00" cType="1" res="-1.1861494742333889e-02" rms="4.3446680903434753e-01" purity="3.1953862309455872e-01" nType="-99"/>
        </Node>
        <Node pos="r" depth="1" NCoef="0" IVar="21" Cut="1.9502955675125122e+00" cType="1" res="3.5776257514953613e-02" rms="4.3871602416038513e-01" purity="6.0049307346343994e-01" nType="0">
          <Node pos="l" depth="2" NCoef="0" IVar="-1" Cut="0.0000000000000000e+00" cType="1" res="1.1619475670158863e-02" rms="4.3262207508087158e-01" purity="6.5698701143264771e-01" nType="-99"/>
          <Node pos="r" depth="2" NCoef="0" IVar="-1" Cut="0.0000000000000000e+00" cType="1" res="-2.9187521431595087e-04" rms="4.4302931427955627e-01" purity="5.3285336494445801e-01" nType="-99"/>
        </Node>
      </Node>
    </BinaryTree>
    <BinaryTree type="DecisionTree" boostWeight="1.0000000000000000e+00" itree="58">
      <Node pos="s" depth="0" NCoef="0" IVar="10" Cut="1.0238555073738098e-01" cType="1" res="4.6248594298958778e-03" rms="4.4147872924804688e-01" purity="4.9994656443595886e-01" nType="0">
        <Node pos="l" depth="1" NCoef="0" IVar="0" Cut="4.3204846382141113e+00" cType="1" res="-3.4931603819131851e-02" rms="4.4228607416152954e-01" purity="3.8990288972854614e-01" nType="0">
          <Node pos="l" depth="2" NCoef="0" IVar="-1" Cut="0.0000000000000000e+00" cType="1" res="-1.9253997132182121e-02" rms="4.0862625837326050e-01" purity="3.0954143404960632e-01" nType="-99"/>
          <Node pos="r" depth="2" NCoef="0" IVar="-1" Cut="0.0000000000000000e+00" cType="1" res="-1.3293385563883930e-04" rms="4.6322497725486755e-01" purity="4.5074865221977234e-01" nType="-99"/>
        </Node>
        <Node pos="r" depth="1" NCoef="0" IVar="17" Cut="1.4007473754882812e+02" cType="1" res="1.7128048464655876e-02" rms="4.4048497080802917e-01" purity="5.3472971916198730e-01" nType="0">
          <Node pos="l" depth="2" NCoef="0" IVar="-1" Cut="0.0000000000000000e+00" cType="1" res="4.8059131950139999e-03" rms="4.4638973474502563e-01" purity="5.7604438066482544e-01" nType="-99"/>
          <Node pos="r" depth="2" NCoef="0" IVar="-1" Cut="0.0000000000000000e+00" cType="1" res="-1.7709577456116676e-02" rms="3.8018527626991272e-01" purity="1.9447909295558929e-01" nType="-99"/>
        </Node>
      </Node>
    </BinaryTree>
    <BinaryTree type="DecisionTree" boostWeight="1.0000000000000000e+00" itree="59">
      <Node pos="s" depth="0" NCoef="0" IVar="14" Cut="3.3200249671936035e+00" cType="1" res="7.2169578634202480e-03" rms="4.4010779261589050e-01" purity="5.0200617313385010e-01" nType="0">
        <Node pos="l" depth="1" NCoef="0" IVar="1" Cut="-2.8431260585784912e+00" cType="1" res="-1.1995538137853146e-02" rms="4.3663635849952698e-01" purity="4.6313995122909546e-01" nType="0">
          <Node pos="l" depth="2" NCoef="0" IVar="-1" Cut="0.0000000000000000e+00" cType="1" res="7.5878673233091831e-03" rms="4.3494722247123718e-01" purity="6.1106556653976440e-01" nType="-99"/>
          <Node pos="r" depth="2" NCoef="0" IVar="-1" Cut="0.0000000000000000e+00" cType="1" res="-4.8949876800179482e-03" rms="4.3613326549530029e-01" purity="4.3244180083274841e-01" nType="-99"/>
        </Node>
        <Node pos="r" depth="1" NCoef="0" IVar="21" Cut="1.7617313861846924e+00" cType="1" res="3.6031894385814667e-02" rms="4.4370675086975098e-01" purity="5.6029784679412842e-01" nType="0">
          <Node pos="l" depth="2" NCoef="0" IVar="-1" Cut="0.0000000000000000e+00" cType="1" res="1.1876268312335014e-02" rms="4.3868416547775269e-01" purity="6.1577451229095459e-01" nType="-99"/>
          <Node pos="r" depth="2" NCoef="0" IVar="-1" Cut="0.0000000000000000e+00" cType="1" res="1.8215330783277750e-03" rms="4.4633966684341431e-01" purity="5.1193797588348389e-01" nType="-99"/>
        </Node>
      </Node>
    </BinaryTree>
    <BinaryTree type="DecisionTree" boostWeight="1.0000000000000000e+00" itree="60">
      <Node pos="s" depth="0" NCoef="0" IVar="5" Cut="3.1238617897033691e+00" cType="1" res="6.6106594167649746e-03" rms="4.4157469272613525e-01" purity="5.0297474861145020e-01" nType="0">
        <Node pos="l" depth="1" NCoef="0" IVar="12" Cut="3.4572955965995789e-01" cType="1" res="-1.8989758100360632e-03" rms="4.3897664546966553e-01" purity="4.9227896332740784e-01" nType="0">
          <Node pos="l" depth="2" NCoef="0" IVar="-1" Cut="0.0000000000000000e+00" cType="1" res="-4.4028852134943008e-03" rms="4.3960469961166382e-01" purity="4.3619003891944885e-01" nType="-99"/>
          <Node pos="r" depth="2" NCoef="0" IVar="-1" Cut="0.0000000000000000e+00" cType="1" res="4.5683975331485271e-03" rms="4.3676555156707764e-01" purity="5.6786185503005981e-01" nType="-99"/>
        </Node>
        <Node pos="r" depth="1" NCoef="0" IVar="19" Cut="5.7227909564971924e-01" cType="1" res="6.5808199346065521e-02" rms="4.5485690236091614e-01" purity="5.7738006114959717e-01" nType="0">
          <Node pos="l" depth="2" NCoef="0" IVar="-1" Cut="0.0000000000000000e+00" cType="1" res="1.5425691381096840e-02" rms="4.5280340313911438e-01" purity="6.1491280794143677e-01" nType="-99"/>
          <Node pos="r" depth="2" NCoef="0" IVar="-1" Cut="0.0000000000000000e+00" cType="1" res="7.0264069363474846e-03" rms="4.5614361763000488e-01" purity="5.2486401796340942e-01" nType="-99"/>
        </Node>
      </Node>
    </BinaryTree>
    <BinaryTree type="DecisionTree" boostWeight="1.0000000000000000e+00" itree="61">
      <Node pos="s" depth="0" NCoef="0" IVar="18" Cut="5.2775497436523438e+01" cType="1" res="2.5474561844021082e-03" rms="4.4063121080398560e-01" purity="4.9962249398231506e-01" nType="0">
