<?xml version="1.0"?>
<MethodSetup Method="BDT::BDTG_13var_detajj2p5">
  <GeneralInfo>
    <Info name="TMVA Release" value="4.2.1 [262657]"/>
    <Info name="ROOT Release" value="6.12/07 [396295]"/>
    <Info name="Creator" value="ceballos"/>
    <Info name="Date" value="Sun Dec  1 08:10:18 2019"/>
    <Info name="Host" value="Linux vocms0315.cern.ch 2.6.32-696.30.1.el6.x86_64 #1 SMP Tue May 22 06:09:36 CEST 2018 x86_64 x86_64 x86_64 GNU/Linux"/>
    <Info name="Dir" value="/home/ceballos/cms/cmssw/051/CMSSW_10_3_2/src"/>
    <Info name="Training events" value="59087"/>
    <Info name="TrainingTime" value="2.73618460e+01"/>
    <Info name="AnalysisType" value="Classification"/>
  </GeneralInfo>
  <Options>
    <Option name="V" modified="Yes">False</Option>
    <Option name="VerbosityLevel" modified="No">Default</Option>
    <Option name="VarTransform" modified="No">None</Option>
    <Option name="H" modified="Yes">False</Option>
    <Option name="CreateMVAPdfs" modified="No">False</Option>
    <Option name="IgnoreNegWeightsInTraining" modified="No">False</Option>
    <Option name="NTrees" modified="Yes">800</Option>
    <Option name="MaxDepth" modified="Yes">2</Option>
    <Option name="MinNodeSize" modified="Yes">5%</Option>
    <Option name="nCuts" modified="Yes">10000</Option>
    <Option name="BoostType" modified="Yes">Grad</Option>
    <Option name="AdaBoostR2Loss" modified="No">quadratic</Option>
    <Option name="UseBaggedBoost" modified="Yes">True</Option>
    <Option name="Shrinkage" modified="Yes">1.000000e-01</Option>
    <Option name="AdaBoostBeta" modified="No">5.000000e-01</Option>
    <Option name="UseRandomisedTrees" modified="No">False</Option>
    <Option name="UseNvars" modified="No">4</Option>
    <Option name="UsePoissonNvars" modified="No">True</Option>
    <Option name="BaggedSampleFraction" modified="No">5.000000e-01</Option>
    <Option name="UseYesNoLeaf" modified="No">True</Option>
    <Option name="NegWeightTreatment" modified="Yes">ignorenegweightsintraining</Option>
    <Option name="Css" modified="No">1.000000e+00</Option>
    <Option name="Cts_sb" modified="No">1.000000e+00</Option>
    <Option name="Ctb_ss" modified="No">1.000000e+00</Option>
    <Option name="Cbb" modified="No">1.000000e+00</Option>
    <Option name="NodePurityLimit" modified="No">5.000000e-01</Option>
    <Option name="SeparationType" modified="No">giniindex</Option>
    <Option name="RegressionLossFunctionBDTG" modified="No">huber</Option>
    <Option name="HuberQuantile" modified="No">7.000000e-01</Option>
    <Option name="DoBoostMonitor" modified="No">False</Option>
    <Option name="UseFisherCuts" modified="No">False</Option>
    <Option name="MinLinCorrForFisher" modified="No">8.000000e-01</Option>
    <Option name="UseExclusiveVars" modified="No">False</Option>
    <Option name="DoPreselection" modified="No">False</Option>
    <Option name="SigToBkgFraction" modified="No">1.000000e+00</Option>
    <Option name="PruneMethod" modified="No">nopruning</Option>
    <Option name="PruneStrength" modified="No">0.000000e+00</Option>
    <Option name="PruningValFraction" modified="No">5.000000e-01</Option>
    <Option name="SkipNormalization" modified="No">False</Option>
    <Option name="nEventsMin" modified="No">0</Option>
    <Option name="UseBaggedGrad" modified="No">False</Option>
    <Option name="GradBaggingFraction" modified="Yes">5.000000e-01</Option>
    <Option name="UseNTrainEvents" modified="No">0</Option>
    <Option name="NNodesMax" modified="No">0</Option>
  </Options>
  <Variables NVar="13">
    <Variable VarIndex="0" Expression="mvamjj" Label="mvamjj" Title="mvamjj" Unit="" Internal="mvamjj" Type="F" Min="5.00013458e+02" Max="8.50562500e+03"/>
    <Variable VarIndex="1" Expression="mvadetajj" Label="mvadetajj" Title="mvadetajj" Unit="" Internal="mvadetajj" Type="F" Min="2.50018930e+00" Max="9.08534050e+00"/>
    <Variable VarIndex="2" Expression="mvadphijj" Label="mvadphijj" Title="mvadphijj" Unit="" Internal="mvadphijj" Type="F" Min="-3.14157367e+00" Max="3.14137316e+00"/>
    <Variable VarIndex="3" Expression="mvajetpt1" Label="mvajetpt1" Title="mvajetpt1" Unit="" Internal="mvajetpt1" Type="F" Min="5.05005722e+01" Max="1.67924976e+03"/>
    <Variable VarIndex="4" Expression="mvajetpt2" Label="mvajetpt2" Title="mvajetpt2" Unit="" Internal="mvajetpt2" Type="F" Min="5.00006981e+01" Max="9.58130859e+02"/>
    <Variable VarIndex="5" Expression="mvajeteta1" Label="mvajeteta1" Title="mvajeteta1" Unit="" Internal="mvajeteta1" Type="F" Min="-4.69844055e+00" Max="4.63340044e+00"/>
    <Variable VarIndex="6" Expression="mvaWlZdeta" Label="mvaWlZdeta" Title="mvaWlZdeta" Unit="" Internal="mvaWlZdeta" Type="F" Min="5.44579016e-05" Max="7.43716240e+00"/>
    <Variable VarIndex="7" Expression="mvazstar" Label="mvazstar" Title="mvazstar" Unit="" Internal="mvazstar" Type="F" Min="6.48300784e-07" Max="1.99122322e+00"/>
    <Variable VarIndex="8" Expression="mvazep1" Label="mvazep1" Title="mvazep1" Unit="" Internal="mvazep1" Type="F" Min="3.78908248e-06" Max="1.43219137e+00"/>
    <Variable VarIndex="9" Expression="mvazep2" Label="mvazep2" Title="mvazep2" Unit="" Internal="mvazep2" Type="F" Min="5.54831922e-06" Max="1.39050829e+00"/>
    <Variable VarIndex="10" Expression="mvazep3" Label="mvazep3" Title="mvazep3" Unit="" Internal="mvazep3" Type="F" Min="0.00000000e+00" Max="1.64575803e+00"/>
    <Variable VarIndex="11" Expression="mvaj1Zdr" Label="mvaj1Zdr" Title="mvaj1Zdr" Unit="" Internal="mvaj1Zdr" Type="F" Min="1.76054910e-02" Max="8.64919758e+00"/>
    <Variable VarIndex="12" Expression="mvapttot/mvasumpttot" Label="mvapttot/mvasumpttot" Title="mvapttotN" Unit="" Internal="mvapttot_D_mvasumpttot" Type="F" Min="3.37780395e-04" Max="7.29336917e-01"/>
  </Variables>
  <Spectators NSpec="0"/>
  <Classes NClass="2">
    <Class Name="Background" Index="0"/>
    <Class Name="Signal" Index="1"/>
  </Classes>
  <Transformations NTransformations="0"/>
  <MVAPdfs/>
  <Weights NTrees="800" AnalysisType="1">
    <BinaryTree type="DecisionTree" boostWeight="1.0000000000000000e+00" itree="0">
      <Node pos="s" depth="0" NCoef="0" IVar="0" Cut="1.1968214111328125e+03" cType="1" res="-4.7820439795032144e-04" rms="4.9999976158142090e-01" purity="4.9952179193496704e-01" nType="0">
        <Node pos="l" depth="1" NCoef="0" IVar="7" Cut="3.9940646290779114e-01" cType="1" res="-1.1538776010274887e-01" rms="4.8650351166725159e-01" purity="3.8461223244667053e-01" nType="0">
          <Node pos="l" depth="2" NCoef="0" IVar="-1" Cut="0.0000000000000000e+00" cType="1" res="-8.5678072646260262e-03" rms="4.9816143512725830e-01" purity="4.5716097950935364e-01" nType="-99"/>
          <Node pos="r" depth="2" NCoef="0" IVar="-1" Cut="0.0000000000000000e+00" cType="1" res="-4.4904422014951706e-02" rms="4.4675475358963013e-01" purity="2.7547788619995117e-01" nType="-99"/>
        </Node>
        <Node pos="r" depth="1" NCoef="0" IVar="7" Cut="2.8451025485992432e-01" cType="1" res="2.2973592579364777e-01" rms="4.4409617781639099e-01" purity="7.2973591089248657e-01" nType="0">
          <Node pos="l" depth="2" NCoef="0" IVar="-1" Cut="0.0000000000000000e+00" cType="1" res="6.5191641449928284e-02" rms="3.7914541363716125e-01" purity="8.2595819234848022e-01" nType="-99"/>
          <Node pos="r" depth="2" NCoef="0" IVar="-1" Cut="0.0000000000000000e+00" cType="1" res="2.0606234669685364e-02" rms="4.8926943540573120e-01" purity="6.0303115844726562e-01" nType="-99"/>
        </Node>
      </Node>
    </BinaryTree>
    <BinaryTree type="DecisionTree" boostWeight="1.0000000000000000e+00" itree="1">
      <Node pos="s" depth="0" NCoef="0" IVar="0" Cut="9.0837585449218750e+02" cType="1" res="2.8441401664167643e-03" rms="4.9331411719322205e-01" purity="5.0303494930267334e-01" nType="0">
        <Node pos="l" depth="1" NCoef="0" IVar="7" Cut="4.2694717645645142e-01" cType="1" res="-1.4792703092098236e-01" rms="4.7271636128425598e-01" purity="3.4047001600265503e-01" nType="0">
          <Node pos="l" depth="2" NCoef="0" IVar="-1" Cut="0.0000000000000000e+00" cType="1" res="-2.0763518288731575e-02" rms="4.8782774806022644e-01" purity="3.9081919193267822e-01" nType="-99"/>
          <Node pos="r" depth="2" NCoef="0" IVar="-1" Cut="0.0000000000000000e+00" cType="1" res="-4.5049592852592468e-02" rms="4.3459933996200562e-01" purity="2.5276845693588257e-01" nType="-99"/>
        </Node>
        <Node pos="r" depth="1" NCoef="0" IVar="7" Cut="3.8151836395263672e-01" cType="1" res="1.4265149831771851e-01" rms="4.7030299901962280e-01" purity="6.5377843379974365e-01" nType="0">
          <Node pos="l" depth="2" NCoef="0" IVar="-1" Cut="0.0000000000000000e+00" cType="1" res="4.4666245579719543e-02" rms="4.3501251935958862e-01" purity="7.4042999744415283e-01" nType="-99"/>
          <Node pos="r" depth="2" NCoef="0" IVar="-1" Cut="0.0000000000000000e+00" cType="1" res="-6.5045375376939774e-03" rms="4.9626773595809937e-01" purity="4.6444305777549744e-01" nType="-99"/>
        </Node>
      </Node>
    </BinaryTree>
    <BinaryTree type="DecisionTree" boostWeight="1.0000000000000000e+00" itree="2">
      <Node pos="s" depth="0" NCoef="0" IVar="0" Cut="1.1277563476562500e+03" cType="1" res="1.3176555512472987e-04" rms="4.8752719163894653e-01" purity="5.0074255466461182e-01" nType="0">
        <Node pos="l" depth="1" NCoef="0" IVar="0" Cut="7.8465441894531250e+02" cType="1" res="-1.0550533980131149e-01" rms="4.8014211654663086e-01" purity="3.7487620115280151e-01" nType="0">
          <Node pos="l" depth="2" NCoef="0" IVar="-1" Cut="0.0000000000000000e+00" cType="1" res="-3.3434424549341202e-02" rms="4.5931380987167358e-01" purity="3.0666658282279968e-01" nType="-99"/>
          <Node pos="r" depth="2" NCoef="0" IVar="-1" Cut="0.0000000000000000e+00" cType="1" res="-4.0553496219217777e-03" rms="4.9537092447280884e-01" purity="4.7015953063964844e-01" nType="-99"/>
        </Node>
        <Node pos="r" depth="1" NCoef="0" IVar="7" Cut="3.8306698203086853e-01" cType="1" res="1.8151763081550598e-01" rms="4.4484999775886536e-01" purity="7.1686333417892456e-01" nType="0">
          <Node pos="l" depth="2" NCoef="0" IVar="-1" Cut="0.0000000000000000e+00" cType="1" res="4.8952482640743256e-02" rms="4.0616562962532043e-01" purity="7.8997236490249634e-01" nType="-99"/>
          <Node pos="r" depth="2" NCoef="0" IVar="-1" Cut="0.0000000000000000e+00" cType="1" res="4.6140109188854694e-03" rms="4.9881556630134583e-01" purity="5.2658635377883911e-01" nType="-99"/>
        </Node>
      </Node>
    </BinaryTree>
    <BinaryTree type="DecisionTree" boostWeight="1.0000000000000000e+00" itree="3">
      <Node pos="s" depth="0" NCoef="0" IVar="0" Cut="1.3631608886718750e+03" cType="1" res="2.7335153426975012e-03" rms="4.8272174596786499e-01" purity="5.0286865234375000e-01" nType="0">
        <Node pos="l" depth="1" NCoef="0" IVar="8" Cut="3.5474675893783569e-01" cType="1" res="-7.0848219096660614e-02" rms="4.8379850387573242e-01" purity="4.0851551294326782e-01" nType="0">
          <Node pos="l" depth="2" NCoef="0" IVar="-1" Cut="0.0000000000000000e+00" cType="1" res="-2.5080181658267975e-03" rms="4.9292421340942383e-01" purity="4.7518640756607056e-01" nType="-99"/>
          <Node pos="r" depth="2" NCoef="0" IVar="-1" Cut="0.0000000000000000e+00" cType="1" res="-3.4106273204088211e-02" rms="4.5127710700035095e-01" purity="2.9626029729843140e-01" nType="-99"/>
        </Node>
        <Node pos="r" depth="1" NCoef="0" IVar="8" Cut="3.6988222599029541e-01" cType="1" res="2.0636889338493347e-01" rms="4.1676002740859985e-01" purity="7.6398837566375732e-01" nType="0">
          <Node pos="l" depth="2" NCoef="0" IVar="-1" Cut="0.0000000000000000e+00" cType="1" res="5.1569502800703049e-02" rms="3.8219830393791199e-01" purity="8.1808233261108398e-01" nType="-99"/>
          <Node pos="r" depth="2" NCoef="0" IVar="-1" Cut="0.0000000000000000e+00" cType="1" res="1.5303733525797725e-03" rms="4.9294760823249817e-01" purity="5.3272491693496704e-01" nType="-99"/>
        </Node>
      </Node>
    </BinaryTree>
    <BinaryTree type="DecisionTree" boostWeight="1.0000000000000000e+00" itree="4">
      <Node pos="s" depth="0" NCoef="0" IVar="0" Cut="9.4243164062500000e+02" cType="1" res="-6.6099306568503380e-03" rms="4.7835049033164978e-01" purity="4.9419671297073364e-01" nType="0">
        <Node pos="l" depth="1" NCoef="0" IVar="9" Cut="3.7614244222640991e-01" cType="1" res="-1.2054157257080078e-01" rms="4.6853768825531006e-01" purity="3.3485797047615051e-01" nType="0">
          <Node pos="l" depth="2" NCoef="0" IVar="-1" Cut="0.0000000000000000e+00" cType="1" res="-1.6021905466914177e-02" rms="4.8396304249763489e-01" purity="3.8171452283859253e-01" nType="-99"/>
          <Node pos="r" depth="2" NCoef="0" IVar="-1" Cut="0.0000000000000000e+00" cType="1" res="-3.8862936198711395e-02" rms="4.3142357468605042e-01" purity="2.5374621152877808e-01" nType="-99"/>
        </Node>
        <Node pos="r" depth="1" NCoef="0" IVar="8" Cut="3.8991603255271912e-01" cType="1" res="1.1387254297733307e-01" rms="4.5869624614715576e-01" purity="6.6269713640213013e-01" nType="0">
          <Node pos="l" depth="2" NCoef="0" IVar="-1" Cut="0.0000000000000000e+00" cType="1" res="3.4238252788782120e-02" rms="4.3548148870468140e-01" purity="7.3029196262359619e-01" nType="-99"/>
          <Node pos="r" depth="2" NCoef="0" IVar="-1" Cut="0.0000000000000000e+00" cType="1" res="-1.4148552902042866e-02" rms="4.8816421627998352e-01" purity="4.2928472161293030e-01" nType="-99"/>
        </Node>
      </Node>
    </BinaryTree>
    <BinaryTree type="DecisionTree" boostWeight="1.0000000000000000e+00" itree="5">
      <Node pos="s" depth="0" NCoef="0" IVar="0" Cut="1.4126044921875000e+03" cType="1" res="-6.7482464946806431e-03" rms="4.7402834892272949e-01" purity="4.9162614345550537e-01" nType="0">
        <Node pos="l" depth="1" NCoef="0" IVar="0" Cut="7.3729162597656250e+02" cType="1" res="-7.0845708250999451e-02" rms="4.7762975096702576e-01" purity="3.9879012107849121e-01" nType="0">
          <Node pos="l" depth="2" NCoef="0" IVar="-1" Cut="0.0000000000000000e+00" cType="1" res="-3.1939789652824402e-02" rms="4.4747921824455261e-01" purity="2.8152447938919067e-01" nType="-99"/>
          <Node pos="r" depth="2" NCoef="0" IVar="-1" Cut="0.0000000000000000e+00" cType="1" res="-2.1512842795345932e-04" rms="4.8974186182022095e-01" purity="4.9379384517669678e-01" nType="-99"/>
        </Node>
        <Node pos="r" depth="1" NCoef="0" IVar="9" Cut="2.9910114407539368e-01" cType="1" res="1.9915908575057983e-01" rms="3.9761421084403992e-01" purity="7.8985351324081421e-01" nType="0">
          <Node pos="l" depth="2" NCoef="0" IVar="-1" Cut="0.0000000000000000e+00" cType="1" res="5.3384035825729370e-02" rms="3.4703880548477173e-01" purity="8.5667312145233154e-01" nType="-99"/>
          <Node pos="r" depth="2" NCoef="0" IVar="-1" Cut="0.0000000000000000e+00" cType="1" res="1.6446474939584732e-02" rms="4.6716153621673584e-01" purity="6.4628326892852783e-01" nType="-99"/>
        </Node>
      </Node>
    </BinaryTree>
    <BinaryTree type="DecisionTree" boostWeight="1.0000000000000000e+00" itree="6">
      <Node pos="s" depth="0" NCoef="0" IVar="0" Cut="1.1491779785156250e+03" cType="1" res="5.1814587786793709e-03" rms="4.7076189517974854e-01" purity="5.0629663467407227e-01" nType="0">
        <Node pos="l" depth="1" NCoef="0" IVar="7" Cut="2.2897280752658844e-01" cType="1" res="-7.1479856967926025e-02" rms="4.7687655687332153e-01" purity="3.7733727693557739e-01" nType="0">
          <Node pos="l" depth="2" NCoef="0" IVar="-1" Cut="0.0000000000000000e+00" cType="1" res="2.5662635453045368e-03" rms="4.9398410320281982e-01" purity="4.8114600777626038e-01" nType="-99"/>
          <Node pos="r" depth="2" NCoef="0" IVar="-1" Cut="0.0000000000000000e+00" cType="1" res="-2.3741917684674263e-02" rms="4.6132859587669373e-01" purity="3.2219755649566650e-01" nType="-99"/>
        </Node>
        <Node pos="r" depth="1" NCoef="0" IVar="7" Cut="2.7805766463279724e-01" cType="1" res="1.3987615704536438e-01" rms="4.2774671316146851e-01" purity="7.3287945985794067e-01" nType="0">
          <Node pos="l" depth="2" NCoef="0" IVar="-1" Cut="0.0000000000000000e+00" cType="1" res="4.5831378549337387e-02" rms="3.6269769072532654e-01" purity="8.4032589197158813e-01" nType="-99"/>
          <Node pos="r" depth="2" NCoef="0" IVar="-1" Cut="0.0000000000000000e+00" cType="1" res="1.0068980976939201e-02" rms="4.8065069317817688e-01" purity="6.0133743286132812e-01" nType="-99"/>
        </Node>
      </Node>
    </BinaryTree>
    <BinaryTree type="DecisionTree" boostWeight="1.0000000000000000e+00" itree="7">
      <Node pos="s" depth="0" NCoef="0" IVar="0" Cut="1.6447014160156250e+03" cType="1" res="-9.3265913892537355e-04" rms="4.6891364455223083e-01" purity="4.9964144825935364e-01" nType="0">
        <Node pos="l" depth="1" NCoef="0" IVar="0" Cut="8.5857550048828125e+02" cType="1" res="-4.2700041085481644e-02" rms="4.7742834687232971e-01" purity="4.2991858720779419e-01" nType="0">
          <Node pos="l" depth="2" NCoef="0" IVar="-1" Cut="0.0000000000000000e+00" cType="1" res="-1.9929645583033562e-02" rms="4.6449571847915649e-01" purity="3.2504081726074219e-01" nType="-99"/>
          <Node pos="r" depth="2" NCoef="0" IVar="-1" Cut="0.0000000000000000e+00" cType="1" res="4.1274307295680046e-03" rms="4.8446667194366455e-01" purity="5.5152022838592529e-01" nType="-99"/>
        </Node>
        <Node pos="r" depth="1" NCoef="0" IVar="8" Cut="2.3902176320552826e-01" cType="1" res="1.9138544797897339e-01" rms="3.7115892767906189e-01" purity="8.2068085670471191e-01" nType="0">
          <Node pos="l" depth="2" NCoef="0" IVar="-1" Cut="0.0000000000000000e+00" cType="1" res="5.3934179246425629e-02" rms="3.0454465746879578e-01" purity="8.9543247222900391e-01" nType="-99"/>
          <Node pos="r" depth="2" NCoef="0" IVar="-1" Cut="0.0000000000000000e+00" cType="1" res="2.2467210888862610e-02" rms="4.4511473178863525e-01" purity="7.0119518041610718e-01" nType="-99"/>
        </Node>
      </Node>
    </BinaryTree>
    <BinaryTree type="DecisionTree" boostWeight="1.0000000000000000e+00" itree="8">
      <Node pos="s" depth="0" NCoef="0" IVar="0" Cut="1.6067713623046875e+03" cType="1" res="-2.3031190503388643e-03" rms="4.6752384305000305e-01" purity="4.9802371859550476e-01" nType="0">
        <Node pos="l" depth="1" NCoef="0" IVar="7" Cut="2.6003268361091614e-01" cType="1" res="-3.8700617849826813e-02" rms="4.7683694958686829e-01" purity="4.2821794748306274e-01" nType="0">
          <Node pos="l" depth="2" NCoef="0" IVar="-1" Cut="0.0000000000000000e+00" cType="1" res="7.8147556632757187e-03" rms="4.8424056172370911e-01" purity="5.4175883531570435e-01" nType="-99"/>
          <Node pos="r" depth="2" NCoef="0" IVar="-1" Cut="0.0000000000000000e+00" cType="1" res="-1.8749414011836052e-02" rms="4.6456179022789001e-01" purity="3.5104942321777344e-01" nType="-99"/>
        </Node>
        <Node pos="r" depth="1" NCoef="0" IVar="0" Cut="2.5085156250000000e+03" cType="1" res="1.5697936713695526e-01" rms="3.8590401411056519e-01" purity="8.0350720882415771e-01" nType="0">
          <Node pos="l" depth="2" NCoef="0" IVar="-1" Cut="0.0000000000000000e+00" cType="1" res="2.5493640452623367e-02" rms="4.1832816600799561e-01" purity="7.5671839714050293e-01" nType="-99"/>
          <Node pos="r" depth="2" NCoef="0" IVar="-1" Cut="0.0000000000000000e+00" cType="1" res="5.7398892939090729e-02" rms="2.6991689205169678e-01" purity="9.1536659002304077e-01" nType="-99"/>
        </Node>
      </Node>
    </BinaryTree>
    <BinaryTree type="DecisionTree" boostWeight="1.0000000000000000e+00" itree="9">
      <Node pos="s" depth="0" NCoef="0" IVar="0" Cut="1.0559111328125000e+03" cType="1" res="2.9020109213888645e-03" rms="4.6551072597503662e-01" purity="5.0376760959625244e-01" nType="0">
        <Node pos="l" depth="1" NCoef="0" IVar="9" Cut="2.3068211972713470e-01" cType="1" res="-6.1444118618965149e-02" rms="4.7417056560516357e-01" purity="3.6508753895759583e-01" nType="0">
          <Node pos="l" depth="2" NCoef="0" IVar="-1" Cut="0.0000000000000000e+00" cType="1" res="-1.1025046696886420e-03" rms="4.9123683571815491e-01" purity="4.3834707140922546e-01" nType="-99"/>
          <Node pos="r" depth="2" NCoef="0" IVar="-1" Cut="0.0000000000000000e+00" cType="1" res="-2.1103061735630035e-02" rms="4.5736399292945862e-01" purity="3.1263318657875061e-01" nType="-99"/>
        </Node>
        <Node pos="r" depth="1" NCoef="0" IVar="8" Cut="3.3463042974472046e-01" cType="1" res="9.5624111592769623e-02" rms="4.3636053800582886e-01" purity="7.0360410213470459e-01" nType="0">
          <Node pos="l" depth="2" NCoef="0" IVar="-1" Cut="0.0000000000000000e+00" cType="1" res="3.0870124697685242e-02" rms="4.0680781006813049e-01" purity="7.7671623229980469e-01" nType="-99"/>
          <Node pos="r" depth="2" NCoef="0" IVar="-1" Cut="0.0000000000000000e+00" cType="1" res="-3.0903725419193506e-03" rms="4.8476752638816833e-01" purity="5.2230596542358398e-01" nType="-99"/>
        </Node>
      </Node>
    </BinaryTree>
    <BinaryTree type="DecisionTree" boostWeight="1.0000000000000000e+00" itree="10">
      <Node pos="s" depth="0" NCoef="0" IVar="0" Cut="1.6447014160156250e+03" cType="1" res="2.1740570082329214e-04" rms="4.6210300922393799e-01" purity="5.0090688467025757e-01" nType="0">
        <Node pos="l" depth="1" NCoef="0" IVar="7" Cut="2.5926759839057922e-01" cType="1" res="-3.4267917275428772e-02" rms="4.7442740201950073e-01" purity="4.2891964316368103e-01" nType="0">
          <Node pos="l" depth="2" NCoef="0" IVar="-1" Cut="0.0000000000000000e+00" cType="1" res="7.3018926195800304e-03" rms="4.8279771208763123e-01" purity="5.4683136940002441e-01" nType="-99"/>
          <Node pos="r" depth="2" NCoef="0" IVar="-1" Cut="0.0000000000000000e+00" cType="1" res="-1.7196008935570717e-02" rms="4.6246364712715149e-01" purity="3.4733566641807556e-01" nType="-99"/>
        </Node>
        <Node pos="r" depth="1" NCoef="0" IVar="9" Cut="3.0463796854019165e-01" cType="1" res="1.5902587771415710e-01" rms="3.6012440919876099e-01" purity="8.3241540193557739e-01" nType="0">
          <Node pos="l" depth="2" NCoef="0" IVar="-1" Cut="0.0000000000000000e+00" cType="1" res="4.6582680195569992e-02" rms="3.1084027886390686e-01" purity="8.8851553201675415e-01" nType="-99"/>
          <Node pos="r" depth="2" NCoef="0" IVar="-1" Cut="0.0000000000000000e+00" cType="1" res="1.3491961173713207e-02" rms="4.4836005568504333e-01" purity="6.8920397758483887e-01" nType="-99"/>
        </Node>
      </Node>
    </BinaryTree>
    <BinaryTree type="DecisionTree" boostWeight="1.0000000000000000e+00" itree="11">
      <Node pos="s" depth="0" NCoef="0" IVar="0" Cut="9.0025402832031250e+02" cType="1" res="5.6529226712882519e-03" rms="4.6199533343315125e-01" purity="5.0695425271987915e-01" nType="0">
        <Node pos="l" depth="1" NCoef="0" IVar="4" Cut="6.3920936584472656e+01" cType="1" res="-6.0827575623989105e-02" rms="4.6849906444549561e-01" purity="3.4131884574890137e-01" nType="0">
          <Node pos="l" depth="2" NCoef="0" IVar="-1" Cut="0.0000000000000000e+00" cType="1" res="-3.0034324154257774e-02" rms="4.3286910653114319e-01" purity="2.5933122634887695e-01" nType="-99"/>
          <Node pos="r" depth="2" NCoef="0" IVar="-1" Cut="0.0000000000000000e+00" cType="1" res="-5.5346749722957611e-03" rms="4.7835800051689148e-01" purity="3.7543502449989319e-01" nType="-99"/>
        </Node>
        <Node pos="r" depth="1" NCoef="0" IVar="8" Cut="4.0417760610580444e-01" cType="1" res="6.7304514348506927e-02" rms="4.4713312387466431e-01" purity="6.6055852174758911e-01" nType="0">
          <Node pos="l" depth="2" NCoef="0" IVar="-1" Cut="0.0000000000000000e+00" cType="1" res="2.1908096969127655e-02" rms="4.3218460679054260e-01" purity="7.2020667791366577e-01" nType="-99"/>
          <Node pos="r" depth="2" NCoef="0" IVar="-1" Cut="0.0000000000000000e+00" cType="1" res="-1.1579160578548908e-02" rms="4.8111641407012939e-01" purity="4.2953440546989441e-01" nType="-99"/>
        </Node>
      </Node>
    </BinaryTree>
    <BinaryTree type="DecisionTree" boostWeight="1.0000000000000000e+00" itree="12">
      <Node pos="s" depth="0" NCoef="0" IVar="0" Cut="1.9313154296875000e+03" cType="1" res="-4.3624159879982471e-03" rms="4.6190318465232849e-01" purity="4.9613490700721741e-01" nType="0">
        <Node pos="l" depth="1" NCoef="0" IVar="4" Cut="7.9240730285644531e+01" cType="1" res="-2.5144221261143684e-02" rms="4.7188895940780640e-01" purity="4.4967573881149292e-01" nType="0">
          <Node pos="l" depth="2" NCoef="0" IVar="-1" Cut="0.0000000000000000e+00" cType="1" res="-1.8051199615001678e-02" rms="4.6084898710250854e-01" purity="3.7060779333114624e-01" nType="-99"/>
          <Node pos="r" depth="2" NCoef="0" IVar="-1" Cut="0.0000000000000000e+00" cType="1" res="4.3171937577426434e-03" rms="4.7500172257423401e-01" purity="5.0943762063980103e-01" nType="-99"/>
        </Node>
        <Node pos="r" depth="1" NCoef="0" IVar="9" Cut="2.2032046318054199e-01" cType="1" res="1.5764138102531433e-01" rms="3.3324590325355530e-01" purity="8.5830563306808472e-01" nType="0">
          <Node pos="l" depth="2" NCoef="0" IVar="-1" Cut="0.0000000000000000e+00" cType="1" res="5.0383687019348145e-02" rms="2.6432430744171143e-01" purity="9.2434310913085938e-01" nType="-99"/>
          <Node pos="r" depth="2" NCoef="0" IVar="-1" Cut="0.0000000000000000e+00" cType="1" res="2.4047451093792915e-02" rms="3.9858224987983704e-01" purity="7.7349740266799927e-01" nType="-99"/>
        </Node>
      </Node>
    </BinaryTree>
    <BinaryTree type="DecisionTree" boostWeight="1.0000000000000000e+00" itree="13">
      <Node pos="s" depth="0" NCoef="0" IVar="0" Cut="7.9534735107421875e+02" cType="1" res="1.7016689525917172e-03" rms="4.5875620841979980e-01" purity="5.0513446331024170e-01" nType="0">
        <Node pos="l" depth="1" NCoef="0" IVar="10" Cut="3.1144707463681698e-04" cType="1" res="-7.4685998260974884e-02" rms="4.5949074625968933e-01" purity="3.1229597330093384e-01" nType="0">
          <Node pos="l" depth="2" NCoef="0" IVar="-1" Cut="0.0000000000000000e+00" cType="1" res="-3.1874671578407288e-02" rms="4.2506608366966248e-01" purity="2.4023023247718811e-01" nType="-99"/>
          <Node pos="r" depth="2" NCoef="0" IVar="-1" Cut="0.0000000000000000e+00" cType="1" res="-1.0160411708056927e-02" rms="4.6806713938713074e-01" purity="3.3767560124397278e-01" nType="-99"/>
        </Node>
        <Node pos="r" depth="1" NCoef="0" IVar="7" Cut="3.5575112700462341e-01" cType="1" res="4.7803927212953568e-02" rms="4.5210963487625122e-01" purity="6.2151825428009033e-01" nType="0">
          <Node pos="l" depth="2" NCoef="0" IVar="-1" Cut="0.0000000000000000e+00" cType="1" res="2.2554416209459305e-02" rms="4.2773562669754028e-01" purity="7.2544664144515991e-01" nType="-99"/>
          <Node pos="r" depth="2" NCoef="0" IVar="-1" Cut="0.0000000000000000e+00" cType="1" res="-8.5808821022510529e-03" rms="4.7756233811378479e-01" purity="4.4550871849060059e-01" nType="-99"/>
        </Node>
      </Node>
    </BinaryTree>
    <BinaryTree type="DecisionTree" boostWeight="1.0000000000000000e+00" itree="14">
      <Node pos="s" depth="0" NCoef="0" IVar="11" Cut="3.3713555335998535e+00" cType="1" res="-2.7481850702315569e-03" rms="4.5748871564865112e-01" purity="4.9782705307006836e-01" nType="0">
        <Node pos="l" depth="1" NCoef="0" IVar="4" Cut="8.6128944396972656e+01" cType="1" res="-4.1274961084127426e-02" rms="4.5852866768836975e-01" purity="4.3941891193389893e-01" nType="0">
          <Node pos="l" depth="2" NCoef="0" IVar="-1" Cut="0.0000000000000000e+00" cType="1" res="-2.3294193670153618e-02" rms="4.4145137071609497e-01" purity="3.3206406235694885e-01" nType="-99"/>
          <Node pos="r" depth="2" NCoef="0" IVar="-1" Cut="0.0000000000000000e+00" cType="1" res="4.1454602032899857e-03" rms="4.6503314375877380e-01" purity="5.3554356098175049e-01" nType="-99"/>
        </Node>
        <Node pos="r" depth="1" NCoef="0" IVar="3" Cut="1.0783171844482422e+02" cType="1" res="7.5339719653129578e-02" rms="4.4526273012161255e-01" purity="6.1621147394180298e-01" nType="0">
          <Node pos="l" depth="2" NCoef="0" IVar="-1" Cut="0.0000000000000000e+00" cType="1" res="-8.4919836372137070e-03" rms="4.6384197473526001e-01" purity="4.5464977622032166e-01" nType="-99"/>
          <Node pos="r" depth="2" NCoef="0" IVar="-1" Cut="0.0000000000000000e+00" cType="1" res="2.3887824267148972e-02" rms="4.3468034267425537e-01" purity="6.6102522611618042e-01" nType="-99"/>
        </Node>
      </Node>
    </BinaryTree>
    <BinaryTree type="DecisionTree" boostWeight="1.0000000000000000e+00" itree="15">
      <Node pos="s" depth="0" NCoef="0" IVar="0" Cut="1.4373808593750000e+03" cType="1" res="-9.2394426465034485e-03" rms="4.5648941397666931e-01" purity="4.9327000975608826e-01" nType="0">
        <Node pos="l" depth="1" NCoef="0" IVar="9" Cut="2.0624867081642151e-01" cType="1" res="-3.8362842053174973e-02" rms="4.7088938951492310e-01" purity="4.0299704670906067e-01" nType="0">
          <Node pos="l" depth="2" NCoef="0" IVar="-1" Cut="0.0000000000000000e+00" cType="1" res="3.6369177978485823e-03" rms="4.8271390795707703e-01" purity="4.8911648988723755e-01" nType="-99"/>
          <Node pos="r" depth="2" NCoef="0" IVar="-1" Cut="0.0000000000000000e+00" cType="1" res="-1.5740498900413513e-02" rms="4.5960995554924011e-01" purity="3.4784474968910217e-01" nType="-99"/>
        </Node>
        <Node pos="r" depth="1" NCoef="0" IVar="10" Cut="3.1650686264038086e-01" cType="1" res="8.3120860159397125e-02" rms="3.9346095919609070e-01" purity="7.7955657243728638e-01" nType="0">
          <Node pos="l" depth="2" NCoef="0" IVar="-1" Cut="0.0000000000000000e+00" cType="1" res="2.7314456179738045e-02" rms="3.7176534533500671e-01" purity="8.1809717416763306e-01" nType="-99"/>
          <Node pos="r" depth="2" NCoef="0" IVar="-1" Cut="0.0000000000000000e+00" cType="1" res="-4.4940523803234100e-03" rms="4.5248734951019287e-01" purity="6.3272124528884888e-01" nType="-99"/>
        </Node>
      </Node>
    </BinaryTree>
    <BinaryTree type="DecisionTree" boostWeight="1.0000000000000000e+00" itree="16">
      <Node pos="s" depth="0" NCoef="0" IVar="0" Cut="9.7753472900390625e+02" cType="1" res="-4.8311706632375717e-03" rms="4.5547443628311157e-01" purity="4.9292892217636108e-01" nType="0">
        <Node pos="l" depth="1" NCoef="0" IVar="2" Cut="2.3592085838317871e+00" cType="1" res="-5.0309330224990845e-02" rms="4.6445691585540771e-01" purity="3.4237444400787354e-01" nType="0">
          <Node pos="l" depth="2" NCoef="0" IVar="-1" Cut="0.0000000000000000e+00" cType="1" res="-1.5625879168510437e-02" rms="4.5593532919883728e-01" purity="3.1882938742637634e-01" nType="-99"/>
          <Node pos="r" depth="2" NCoef="0" IVar="-1" Cut="0.0000000000000000e+00" cType="1" res="1.0493820533156395e-02" rms="4.8707053065299988e-01" purity="4.4375088810920715e-01" nType="-99"/>
        </Node>
        <Node pos="r" depth="1" NCoef="0" IVar="9" Cut="3.6768817901611328e-01" cType="1" res="4.8792961984872818e-02" rms="4.3863347172737122e-01" purity="6.7045044898986816e-01" nType="0">
          <Node pos="l" depth="2" NCoef="0" IVar="-1" Cut="0.0000000000000000e+00" cType="1" res="1.9218590110540390e-02" rms="4.2086490988731384e-01" purity="7.3362940549850464e-01" nType="-99"/>
          <Node pos="r" depth="2" NCoef="0" IVar="-1" Cut="0.0000000000000000e+00" cType="1" res="-1.0051645338535309e-02" rms="4.7245126962661743e-01" purity="4.9072638154029846e-01" nType="-99"/>
        </Node>
      </Node>
    </BinaryTree>
    <BinaryTree type="DecisionTree" boostWeight="1.0000000000000000e+00" itree="17">
      <Node pos="s" depth="0" NCoef="0" IVar="7" Cut="4.3643692135810852e-01" cType="1" res="-1.5842429129406810e-03" rms="4.5160698890686035e-01" purity="4.9931126832962036e-01" nType="0">
        <Node pos="l" depth="1" NCoef="0" IVar="6" Cut="2.2974662780761719e+00" cType="1" res="3.0832823365926743e-02" rms="4.5145174860954285e-01" purity="5.7483476400375366e-01" nType="0">
          <Node pos="l" depth="2" NCoef="0" IVar="-1" Cut="0.0000000000000000e+00" cType="1" res="2.2996310144662857e-03" rms="4.5370894670486450e-01" purity="5.5266529321670532e-01" nType="-99"/>
          <Node pos="r" depth="2" NCoef="0" IVar="-1" Cut="0.0000000000000000e+00" cType="1" res="3.7357438355684280e-02" rms="4.1044488549232483e-01" purity="7.2348314523696899e-01" nType="-99"/>
        </Node>
        <Node pos="r" depth="1" NCoef="0" IVar="6" Cut="1.8545442819595337e+00" cType="1" res="-8.0684587359428406e-02" rms="4.4211968779563904e-01" purity="3.1502771377563477e-01" nType="0">
          <Node pos="l" depth="2" NCoef="0" IVar="-1" Cut="0.0000000000000000e+00" cType="1" res="-2.7688905596733093e-02" rms="4.1887733340263367e-01" purity="2.6159417629241943e-01" nType="-99"/>
          <Node pos="r" depth="2" NCoef="0" IVar="-1" Cut="0.0000000000000000e+00" cType="1" res="4.7252452932298183e-03" rms="4.7381320595741272e-01" purity="4.3323424458503723e-01" nType="-99"/>
        </Node>
      </Node>
    </BinaryTree>
    <BinaryTree type="DecisionTree" boostWeight="1.0000000000000000e+00" itree="18">
      <Node pos="s" depth="0" NCoef="0" IVar="4" Cut="7.8607627868652344e+01" cType="1" res="-1.5513279940932989e-03" rms="4.5345574617385864e-01" purity="4.9789232015609741e-01" nType="0">
        <Node pos="l" depth="1" NCoef="0" IVar="10" Cut="1.4542923599947244e-04" cType="1" res="-6.2593132257461548e-02" rms="4.4882106781005859e-01" purity="3.9159980416297913e-01" nType="0">
          <Node pos="l" depth="2" NCoef="0" IVar="-1" Cut="0.0000000000000000e+00" cType="1" res="-3.2139476388692856e-02" rms="4.2449611425399780e-01" purity="3.0170890688896179e-01" nType="-99"/>
          <Node pos="r" depth="2" NCoef="0" IVar="-1" Cut="0.0000000000000000e+00" cType="1" res="-6.2215323559939861e-03" rms="4.5388221740722656e-01" purity="4.2816904187202454e-01" nType="-99"/>
        </Node>
        <Node pos="r" depth="1" NCoef="0" IVar="6" Cut="1.8561781644821167e+00" cType="1" res="4.1632760316133499e-02" rms="4.5175173878669739e-01" purity="5.7308900356292725e-01" nType="0">
          <Node pos="l" depth="2" NCoef="0" IVar="-1" Cut="0.0000000000000000e+00" cType="1" res="2.6739453896880150e-03" rms="4.5255917310714722e-01" purity="5.4286193847656250e-01" nType="-99"/>
          <Node pos="r" depth="2" NCoef="0" IVar="-1" Cut="0.0000000000000000e+00" cType="1" res="2.8363749384880066e-02" rms="4.3793025612831116e-01" purity="6.6195863485336304e-01" nType="-99"/>
        </Node>
      </Node>
    </BinaryTree>
    <BinaryTree type="DecisionTree" boostWeight="1.0000000000000000e+00" itree="19">
      <Node pos="s" depth="0" NCoef="0" IVar="8" Cut="3.3352759480476379e-01" cType="1" res="1.5929032815620303e-03" rms="4.5236909389495850e-01" purity="5.0111287832260132e-01" nType="0">
        <Node pos="l" depth="1" NCoef="0" IVar="12" Cut="1.1004947125911713e-01" cType="1" res="3.6886498332023621e-02" rms="4.5061475038528442e-01" purity="5.7995170354843140e-01" nType="0">
          <Node pos="l" depth="2" NCoef="0" IVar="-1" Cut="0.0000000000000000e+00" cType="1" res="1.5400999225676060e-02" rms="4.4292303919792175e-01" purity="6.1737340688705444e-01" nType="-99"/>
          <Node pos="r" depth="2" NCoef="0" IVar="-1" Cut="0.0000000000000000e+00" cType="1" res="-6.0109877958893776e-03" rms="4.5911774039268494e-01" purity="5.0450044870376587e-01" nType="-99"/>
        </Node>
        <Node pos="r" depth="1" NCoef="0" IVar="6" Cut="1.8131603002548218e+00" cType="1" res="-6.4908750355243683e-02" rms="4.4816642999649048e-01" purity="3.5256150364875793e-01" nType="0">
          <Node pos="l" depth="2" NCoef="0" IVar="-1" Cut="0.0000000000000000e+00" cType="1" res="-2.5353386998176575e-02" rms="4.2751494050025940e-01" purity="2.8643533587455750e-01" nType="-99"/>
          <Node pos="r" depth="2" NCoef="0" IVar="-1" Cut="0.0000000000000000e+00" cType="1" res="1.2084351852536201e-02" rms="4.7165772318840027e-01" purity="5.0814843177795410e-01" nType="-99"/>
        </Node>
      </Node>
    </BinaryTree>
    <BinaryTree type="DecisionTree" boostWeight="1.0000000000000000e+00" itree="20">
      <Node pos="s" depth="0" NCoef="0" IVar="6" Cut="1.2605181932449341e+00" cType="1" res="-6.9837027695029974e-04" rms="4.5236140489578247e-01" purity="5.0007086992263794e-01" nType="0">
        <Node pos="l" depth="1" NCoef="0" IVar="8" Cut="2.3874889314174652e-01" cType="1" res="-4.4576071202754974e-02" rms="4.4930630922317505e-01" purity="4.5283412933349609e-01" nType="0">
          <Node pos="l" depth="2" NCoef="0" IVar="-1" Cut="0.0000000000000000e+00" cType="1" res="2.5102973449975252e-03" rms="4.5394343137741089e-01" purity="5.7120418548583984e-01" nType="-99"/>
          <Node pos="r" depth="2" NCoef="0" IVar="-1" Cut="0.0000000000000000e+00" cType="1" res="-2.3246571421623230e-02" rms="4.3606206774711609e-01" purity="3.2313427329063416e-01" nType="-99"/>
        </Node>
        <Node pos="r" depth="1" NCoef="0" IVar="10" Cut="4.6717064105905592e-04" cType="1" res="5.2301120012998581e-02" rms="4.5035958290100098e-01" purity="5.5712765455245972e-01" nType="0">
          <Node pos="l" depth="2" NCoef="0" IVar="-1" Cut="0.0000000000000000e+00" cType="1" res="-1.4589554630219936e-02" rms="4.4748064875602722e-01" purity="3.9625480771064758e-01" nType="-99"/>
          <Node pos="r" depth="2" NCoef="0" IVar="-1" Cut="0.0000000000000000e+00" cType="1" res="2.2721637040376663e-02" rms="4.4214892387390137e-01" purity="6.2450760602951050e-01" nType="-99"/>
        </Node>
      </Node>
    </BinaryTree>
    <BinaryTree type="DecisionTree" boostWeight="1.0000000000000000e+00" itree="21">
      <Node pos="s" depth="0" NCoef="0" IVar="4" Cut="8.4423080444335938e+01" cType="1" res="-4.6193617163226008e-04" rms="4.5272260904312134e-01" purity="4.9929916858673096e-01" nType="0">
        <Node pos="l" depth="1" NCoef="0" IVar="11" Cut="3.6427059173583984e+00" cType="1" res="-5.0074864178895950e-02" rms="4.4875362515449524e-01" purity="4.0320229530334473e-01" nType="0">
          <Node pos="l" depth="2" NCoef="0" IVar="-1" Cut="0.0000000000000000e+00" cType="1" res="-1.9561484456062317e-02" rms="4.4141519069671631e-01" purity="3.4166762232780457e-01" nType="-99"/>
          <Node pos="r" depth="2" NCoef="0" IVar="-1" Cut="0.0000000000000000e+00" cType="1" res="1.3376017101109028e-02" rms="4.5132109522819519e-01" purity="5.7659691572189331e-01" nType="-99"/>
        </Node>
        <Node pos="r" depth="1" NCoef="0" IVar="2" Cut="-2.1633777618408203e+00" cType="1" res="4.4584002345800400e-02" rms="4.5159977674484253e-01" purity="5.8655005693435669e-01" nType="0">
          <Node pos="l" depth="2" NCoef="0" IVar="-1" Cut="0.0000000000000000e+00" cType="1" res="2.6606896892189980e-02" rms="4.3330830335617065e-01" purity="6.7159074544906616e-01" nType="-99"/>
          <Node pos="r" depth="2" NCoef="0" IVar="-1" Cut="0.0000000000000000e+00" cType="1" res="4.0265866555273533e-03" rms="4.5515465736389160e-01" purity="5.5571234226226807e-01" nType="-99"/>
        </Node>
      </Node>
    </BinaryTree>
    <BinaryTree type="DecisionTree" boostWeight="1.0000000000000000e+00" itree="22">
      <Node pos="s" depth="0" NCoef="0" IVar="11" Cut="3.5512118339538574e+00" cType="1" res="5.3691393695771694e-03" rms="4.5127457380294800e-01" purity="5.0559693574905396e-01" nType="0">
        <Node pos="l" depth="1" NCoef="0" IVar="7" Cut="3.2199162244796753e-01" cType="1" res="-2.1094953641295433e-02" rms="4.5239791274070740e-01" purity="4.5784583687782288e-01" nType="0">
          <Node pos="l" depth="2" NCoef="0" IVar="-1" Cut="0.0000000000000000e+00" cType="1" res="4.8380023799836636e-03" rms="4.5902389287948608e-01" purity="5.6689918041229248e-01" nType="-99"/>
          <Node pos="r" depth="2" NCoef="0" IVar="-1" Cut="0.0000000000000000e+00" cType="1" res="-1.5143476426601410e-02" rms="4.4003173708915710e-01" purity="3.3657726645469666e-01" nType="-99"/>
        </Node>
        <Node pos="r" depth="1" NCoef="0" IVar="3" Cut="1.0159163665771484e+02" cType="1" res="7.4480555951595306e-02" rms="4.4089943170547485e-01" purity="6.3029974699020386e-01" nType="0">
          <Node pos="l" depth="2" NCoef="0" IVar="-1" Cut="0.0000000000000000e+00" cType="1" res="-6.8868058733642101e-03" rms="4.7305941581726074e-01" purity="4.6691733598709106e-01" nType="-99"/>
          <Node pos="r" depth="2" NCoef="0" IVar="-1" Cut="0.0000000000000000e+00" cType="1" res="2.3404147475957870e-02" rms="4.2837151885032654e-01" purity="6.7142415046691895e-01" nType="-99"/>
        </Node>
      </Node>
    </BinaryTree>
    <BinaryTree type="DecisionTree" boostWeight="1.0000000000000000e+00" itree="23">
      <Node pos="s" depth="0" NCoef="0" IVar="0" Cut="6.6171063232421875e+02" cType="1" res="1.5557126607745886e-03" rms="4.4808065891265869e-01" purity="5.0378501415252686e-01" nType="0">
        <Node pos="l" depth="1" NCoef="0" IVar="11" Cut="3.4176354408264160e+00" cType="1" res="-7.9761654138565063e-02" rms="4.3627044558525085e-01" purity="2.7500453591346741e-01" nType="0">
          <Node pos="l" depth="2" NCoef="0" IVar="-1" Cut="0.0000000000000000e+00" cType="1" res="-2.2550467401742935e-02" rms="4.2269155383110046e-01" purity="2.4867844581604004e-01" nType="-99"/>
          <Node pos="r" depth="2" NCoef="0" IVar="-1" Cut="0.0000000000000000e+00" cType="1" res="-3.5162412095814943e-03" rms="4.6881595253944397e-01" purity="3.5366371273994446e-01" nType="-99"/>
        </Node>
        <Node pos="r" depth="1" NCoef="0" IVar="11" Cut="3.3416535854339600e+00" cType="1" res="2.5772720575332642e-02" rms="4.4869920611381531e-01" purity="5.7191783189773560e-01" nType="0">
          <Node pos="l" depth="2" NCoef="0" IVar="-1" Cut="0.0000000000000000e+00" cType="1" res="-8.8504201266914606e-04" rms="4.5599034428596497e-01" purity="5.0934934616088867e-01" nType="-99"/>
          <Node pos="r" depth="2" NCoef="0" IVar="-1" Cut="0.0000000000000000e+00" cType="1" res="1.7666114494204521e-02" rms="4.3151825666427612e-01" purity="6.7732113599777222e-01" nType="-99"/>
        </Node>
      </Node>
    </BinaryTree>
    <BinaryTree type="DecisionTree" boostWeight="1.0000000000000000e+00" itree="24">
      <Node pos="s" depth="0" NCoef="0" IVar="9" Cut="3.5219153761863708e-01" cType="1" res="7.9817976802587509e-03" rms="4.4651848077774048e-01" purity="5.0961804389953613e-01" nType="0">
        <Node pos="l" depth="1" NCoef="0" IVar="0" Cut="9.9971453857421875e+02" cType="1" res="3.8478728383779526e-02" rms="4.4467201828956604e-01" purity="5.8006995916366577e-01" nType="0">
          <Node pos="l" depth="2" NCoef="0" IVar="-1" Cut="0.0000000000000000e+00" cType="1" res="-5.6868733372539282e-04" rms="4.7666883468627930e-01" purity="4.0441149473190308e-01" nType="-99"/>
          <Node pos="r" depth="2" NCoef="0" IVar="-1" Cut="0.0000000000000000e+00" cType="1" res="1.9591312855482101e-02" rms="4.0520739555358887e-01" purity="7.5914120674133301e-01" nType="-99"/>
        </Node>
        <Node pos="r" depth="1" NCoef="0" IVar="7" Cut="5.1728755235671997e-01" cType="1" res="-5.3822077810764313e-02" rms="4.4385695457458496e-01" purity="3.6684307456016541e-01" nType="0">
          <Node pos="l" depth="2" NCoef="0" IVar="-1" Cut="0.0000000000000000e+00" cType="1" res="-6.6540949046611786e-04" rms="4.6486535668373108e-01" purity="4.6897041797637939e-01" nType="-99"/>
          <Node pos="r" depth="2" NCoef="0" IVar="-1" Cut="0.0000000000000000e+00" cType="1" res="-2.6966968551278114e-02" rms="4.0619301795959473e-01" purity="2.3590786755084991e-01" nType="-99"/>
        </Node>
      </Node>
    </BinaryTree>
    <BinaryTree type="DecisionTree" boostWeight="1.0000000000000000e+00" itree="25">
      <Node pos="s" depth="0" NCoef="0" IVar="2" Cut="2.4063417911529541e+00" cType="1" res="-3.9709904231131077e-03" rms="4.4521319866180420e-01" purity="4.9746483564376831e-01" nType="0">
        <Node pos="l" depth="1" NCoef="0" IVar="2" Cut="-2.0970489978790283e+00" cType="1" res="-2.4407560005784035e-02" rms="4.4309812784194946e-01" purity="4.7041538357734680e-01" nType="0">
          <Node pos="l" depth="2" NCoef="0" IVar="-1" Cut="0.0000000000000000e+00" cType="1" res="1.2123243883252144e-02" rms="4.4008338451385498e-01" purity="5.7665508985519409e-01" nType="-99"/>
          <Node pos="r" depth="2" NCoef="0" IVar="-1" Cut="0.0000000000000000e+00" cType="1" res="-1.3612485490739346e-02" rms="4.3987226486206055e-01" purity="4.2103672027587891e-01" nType="-99"/>
        </Node>
        <Node pos="r" depth="1" NCoef="0" IVar="10" Cut="2.4744402617216110e-03" cType="1" res="8.0445811152458191e-02" rms="4.4398680329322815e-01" purity="6.0919743776321411e-01" nType="0">
          <Node pos="l" depth="2" NCoef="0" IVar="-1" Cut="0.0000000000000000e+00" cType="1" res="3.5209543420933187e-04" rms="4.6552762389183044e-01" purity="5.1653158664703369e-01" nType="-99"/>
          <Node pos="r" depth="2" NCoef="0" IVar="-1" Cut="0.0000000000000000e+00" cType="1" res="2.4794686585664749e-02" rms="4.3237400054931641e-01" purity="6.4279705286026001e-01" nType="-99"/>
        </Node>
      </Node>
    </BinaryTree>
    <BinaryTree type="DecisionTree" boostWeight="1.0000000000000000e+00" itree="26">
      <Node pos="s" depth="0" NCoef="0" IVar="2" Cut="2.5174248218536377e+00" cType="1" res="-6.5797236748039722e-03" rms="4.4626030325889587e-01" purity="4.9398538470268250e-01" nType="0">
        <Node pos="l" depth="1" NCoef="0" IVar="2" Cut="-1.9442551136016846e+00" cType="1" res="-2.4271056056022644e-02" rms="4.4513556361198425e-01" purity="4.6810054779052734e-01" nType="0">
          <Node pos="l" depth="2" NCoef="0" IVar="-1" Cut="0.0000000000000000e+00" cType="1" res="9.4290319830179214e-03" rms="4.4628474116325378e-01" purity="5.6444674730300903e-01" nType="-99"/>
          <Node pos="r" depth="2" NCoef="0" IVar="-1" Cut="0.0000000000000000e+00" cType="1" res="-1.3268160633742809e-02" rms="4.4065001606941223e-01" purity="4.1774412989616394e-01" nType="-99"/>
        </Node>
        <Node pos="r" depth="1" NCoef="0" IVar="12" Cut="1.1612595617771149e-01" cType="1" res="8.0554232001304626e-02" rms="4.4153416156768799e-01" purity="6.2147432565689087e-01" nType="0">
          <Node pos="l" depth="2" NCoef="0" IVar="-1" Cut="0.0000000000000000e+00" cType="1" res="2.6301739737391472e-02" rms="4.2458853125572205e-01" purity="6.6201877593994141e-01" nType="-99"/>
          <Node pos="r" depth="2" NCoef="0" IVar="-1" Cut="0.0000000000000000e+00" cType="1" res="5.7835085317492485e-04" rms="4.6845191717147827e-01" purity="5.2959454059600830e-01" nType="-99"/>
        </Node>
      </Node>
    </BinaryTree>
    <BinaryTree type="DecisionTree" boostWeight="1.0000000000000000e+00" itree="27">
      <Node pos="s" depth="0" NCoef="0" IVar="0" Cut="1.8365979003906250e+03" cType="1" res="-4.5074177905917168e-03" rms="4.4542691111564636e-01" purity="4.9545204639434814e-01" nType="0">
        <Node pos="l" depth="1" NCoef="0" IVar="2" Cut="-2.1732895374298096e+00" cType="1" res="-2.0630739629268646e-02" rms="4.5859995484352112e-01" purity="4.4100019335746765e-01" nType="0">
          <Node pos="l" depth="2" NCoef="0" IVar="-1" Cut="0.0000000000000000e+00" cType="1" res="1.0498965159058571e-02" rms="4.5954751968383789e-01" purity="5.3638452291488647e-01" nType="-99"/>
          <Node pos="r" depth="2" NCoef="0" IVar="-1" Cut="0.0000000000000000e+00" cType="1" res="-9.0078078210353851e-03" rms="4.5635592937469482e-01" purity="4.1277125477790833e-01" nType="-99"/>
        </Node>
        <Node pos="r" depth="1" NCoef="0" IVar="6" Cut="9.8362082242965698e-01" cType="1" res="1.0337611287832260e-01" rms="3.2456657290458679e-01" purity="8.5979759693145752e-01" nType="0">
          <Node pos="l" depth="2" NCoef="0" IVar="-1" Cut="0.0000000000000000e+00" cType="1" res="1.5735825523734093e-02" rms="3.5809478163719177e-01" purity="8.1007242202758789e-01" nType="-99"/>
          <Node pos="r" depth="2" NCoef="0" IVar="-1" Cut="0.0000000000000000e+00" cType="1" res="3.8120873272418976e-02" rms="2.9558518528938293e-01" purity="8.9328074455261230e-01" nType="-99"/>
        </Node>
      </Node>
    </BinaryTree>
    <BinaryTree type="DecisionTree" boostWeight="1.0000000000000000e+00" itree="28">
      <Node pos="s" depth="0" NCoef="0" IVar="6" Cut="2.5797293186187744e+00" cType="1" res="-5.3934426978230476e-04" rms="4.4352492690086365e-01" purity="4.9736040830612183e-01" nType="0">
        <Node pos="l" depth="1" NCoef="0" IVar="9" Cut="1.9341303408145905e-01" cType="1" res="-1.4260236173868179e-02" rms="4.4318306446075439e-01" purity="4.7941511869430542e-01" nType="0">
          <Node pos="l" depth="2" NCoef="0" IVar="-1" Cut="0.0000000000000000e+00" cType="1" res="9.7065847367048264e-03" rms="4.3848648667335510e-01" purity="6.0125571489334106e-01" nType="-99"/>
          <Node pos="r" depth="2" NCoef="0" IVar="-1" Cut="0.0000000000000000e+00" cType="1" res="-1.1630905792117119e-02" rms="4.4233277440071106e-01" purity="3.9909848570823669e-01" nType="-99"/>
        </Node>
        <Node pos="r" depth="1" NCoef="0" IVar="10" Cut="2.0853516459465027e-01" cType="1" res="1.1456726491451263e-01" rms="4.2945152521133423e-01" purity="6.4790636301040649e-01" nType="0">
          <Node pos="l" depth="2" NCoef="0" IVar="-1" Cut="0.0000000000000000e+00" cType="1" res="1.5765294432640076e-02" rms="4.3187484145164490e-01" purity="5.7396441698074341e-01" nType="-99"/>
          <Node pos="r" depth="2" NCoef="0" IVar="-1" Cut="0.0000000000000000e+00" cType="1" res="3.5743109881877899e-02" rms="4.2292782664299011e-01" purity="7.1524298191070557e-01" nType="-99"/>
        </Node>
      </Node>
    </BinaryTree>
    <BinaryTree type="DecisionTree" boostWeight="1.0000000000000000e+00" itree="29">
      <Node pos="s" depth="0" NCoef="0" IVar="11" Cut="3.5289921760559082e+00" cType="1" res="-1.2911211524624377e-04" rms="4.4548738002777100e-01" purity="4.9981814622879028e-01" nType="0">
        <Node pos="l" depth="1" NCoef="0" IVar="8" Cut="1.4936883747577667e-01" cType="1" res="-2.2484911605715752e-02" rms="4.4792380928993225e-01" purity="4.4983229041099548e-01" nType="0">
          <Node pos="l" depth="2" NCoef="0" IVar="-1" Cut="0.0000000000000000e+00" cType="1" res="1.0354449972510338e-02" rms="4.5298603177070618e-01" purity="5.8011305332183838e-01" nType="-99"/>
          <Node pos="r" depth="2" NCoef="0" IVar="-1" Cut="0.0000000000000000e+00" cType="1" res="-1.1598974466323853e-02" rms="4.4259119033813477e-01" purity="3.9490643143653870e-01" nType="-99"/>
        </Node>
        <Node pos="r" depth="1" NCoef="0" IVar="12" Cut="9.0784333646297455e-02" cType="1" res="5.7194586843252182e-02" rms="4.3394708633422852e-01" purity="6.2798947095870972e-01" nType="0">
          <Node pos="l" depth="2" NCoef="0" IVar="-1" Cut="0.0000000000000000e+00" cType="1" res="2.1830864250659943e-02" rms="4.2078581452369690e-01" purity="6.8142080307006836e-01" nType="-99"/>
          <Node pos="r" depth="2" NCoef="0" IVar="-1" Cut="0.0000000000000000e+00" cType="1" res="3.8114914204925299e-03" rms="4.4571793079376221e-01" purity="5.6430953741073608e-01" nType="-99"/>
        </Node>
      </Node>
    </BinaryTree>
    <BinaryTree type="DecisionTree" boostWeight="1.0000000000000000e+00" itree="30">
      <Node pos="s" depth="0" NCoef="0" IVar="0" Cut="6.9613134765625000e+02" cType="1" res="7.9840617254376411e-03" rms="4.4331929087638855e-01" purity="5.0985866785049438e-01" nType="0">
        <Node pos="l" depth="1" NCoef="0" IVar="2" Cut="-2.2474575042724609e+00" cType="1" res="-5.1596444100141525e-02" rms="4.4277161359786987e-01" purity="2.9039379954338074e-01" nType="0">
          <Node pos="l" depth="2" NCoef="0" IVar="-1" Cut="0.0000000000000000e+00" cType="1" res="2.9661362059414387e-03" rms="4.7547051310539246e-01" purity="3.7687137722969055e-01" nType="-99"/>
          <Node pos="r" depth="2" NCoef="0" IVar="-1" Cut="0.0000000000000000e+00" cType="1" res="-1.5208349563181400e-02" rms="4.3350389599800110e-01" purity="2.7046138048171997e-01" nType="-99"/>
        </Node>
        <Node pos="r" depth="1" NCoef="0" IVar="6" Cut="9.8392891883850098e-01" cType="1" res="3.0018771067261696e-02" rms="4.4148966670036316e-01" purity="5.9102356433868408e-01" nType="0">
          <Node pos="l" depth="2" NCoef="0" IVar="-1" Cut="0.0000000000000000e+00" cType="1" res="-3.6971501540392637e-03" rms="4.4668489694595337e-01" purity="5.3294873237609863e-01" nType="-99"/>
          <Node pos="r" depth="2" NCoef="0" IVar="-1" Cut="0.0000000000000000e+00" cType="1" res="1.4849624596536160e-02" rms="4.3435487151145935e-01" purity="6.3459438085556030e-01" nType="-99"/>
        </Node>
      </Node>
    </BinaryTree>
    <BinaryTree type="DecisionTree" boostWeight="1.0000000000000000e+00" itree="31">
      <Node pos="s" depth="0" NCoef="0" IVar="10" Cut="3.8309416174888611e-01" cType="1" res="-7.1528689004480839e-03" rms="4.4375503063201904e-01" purity="4.9375912547111511e-01" nType="0">
        <Node pos="l" depth="1" NCoef="0" IVar="10" Cut="2.7576850261539221e-03" cType="1" res="1.2987394817173481e-02" rms="4.4541102647781372e-01" purity="5.3508985042572021e-01" nType="0">
          <Node pos="l" depth="2" NCoef="0" IVar="-1" Cut="0.0000000000000000e+00" cType="1" res="-1.1843393556773663e-02" rms="4.4309222698211670e-01" purity="4.2917677760124207e-01" nType="-99"/>
          <Node pos="r" depth="2" NCoef="0" IVar="-1" Cut="0.0000000000000000e+00" cType="1" res="1.0225737467408180e-02" rms="4.4315773248672485e-01" purity="5.8560305833816528e-01" nType="-99"/>
        </Node>
        <Node pos="r" depth="1" NCoef="0" IVar="6" Cut="2.0102157592773438e+00" cType="1" res="-7.6767675578594208e-02" rms="4.3079081177711487e-01" purity="3.5089966654777527e-01" nType="0">
          <Node pos="l" depth="2" NCoef="0" IVar="-1" Cut="0.0000000000000000e+00" cType="1" res="-2.8117839246988297e-02" rms="4.1453486680984497e-01" purity="2.7151587605476379e-01" nType="-99"/>
          <Node pos="r" depth="2" NCoef="0" IVar="-1" Cut="0.0000000000000000e+00" cType="1" res="1.6309097409248352e-02" rms="4.4742223620414734e-01" purity="6.0558766126632690e-01" nType="-99"/>
        </Node>
      </Node>
    </BinaryTree>
    <BinaryTree type="DecisionTree" boostWeight="1.0000000000000000e+00" itree="32">
      <Node pos="s" depth="0" NCoef="0" IVar="4" Cut="8.3507347106933594e+01" cType="1" res="-7.7250795438885689e-03" rms="4.4475716352462769e-01" purity="4.9301862716674805e-01" nType="0">
        <Node pos="l" depth="1" NCoef="0" IVar="8" Cut="1.7759221792221069e-01" cType="1" res="-4.5772988349199295e-02" rms="4.3932935595512390e-01" purity="3.9652544260025024e-01" nType="0">
          <Node pos="l" depth="2" NCoef="0" IVar="-1" Cut="0.0000000000000000e+00" cType="1" res="3.4689155872911215e-03" rms="4.5650097727775574e-01" purity="5.3674173355102539e-01" nType="-99"/>
          <Node pos="r" depth="2" NCoef="0" IVar="-1" Cut="0.0000000000000000e+00" cType="1" res="-1.8197435885667801e-02" rms="4.2624297738075256e-01" purity="3.2128646969795227e-01" nType="-99"/>
        </Node>
        <Node pos="r" depth="1" NCoef="0" IVar="1" Cut="3.4568927288055420e+00" cType="1" res="2.5067703798413277e-02" rms="4.4679051637649536e-01" purity="5.7618433237075806e-01" nType="0">
          <Node pos="l" depth="2" NCoef="0" IVar="-1" Cut="0.0000000000000000e+00" cType="1" res="-3.4924631472676992e-03" rms="4.7693464159965515e-01" purity="4.3704375624656677e-01" nType="-99"/>
          <Node pos="r" depth="2" NCoef="0" IVar="-1" Cut="0.0000000000000000e+00" cType="1" res="1.4481103979051113e-02" rms="4.1671788692474365e-01" purity="6.9293189048767090e-01" nType="-99"/>
        </Node>
      </Node>
    </BinaryTree>
    <BinaryTree type="DecisionTree" boostWeight="1.0000000000000000e+00" itree="33">
      <Node pos="s" depth="0" NCoef="0" IVar="2" Cut="2.4251298904418945e+00" cType="1" res="-8.0709060421213508e-04" rms="4.4452607631683350e-01" purity="4.9854576587677002e-01" nType="0">
        <Node pos="l" depth="1" NCoef="0" IVar="2" Cut="-1.9936791658401489e+00" cType="1" res="-1.6218619421124458e-02" rms="4.4294631481170654e-01" purity="4.7217389941215515e-01" nType="0">
          <Node pos="l" depth="2" NCoef="0" IVar="-1" Cut="0.0000000000000000e+00" cType="1" res="1.0366102680563927e-02" rms="4.4292330741882324e-01" purity="5.7679522037506104e-01" nType="-99"/>
          <Node pos="r" depth="2" NCoef="0" IVar="-1" Cut="0.0000000000000000e+00" cType="1" res="-1.0866690427064896e-02" rms="4.3975391983985901e-01" purity="4.1928169131278992e-01" nType="-99"/>
        </Node>
        <Node pos="r" depth="1" NCoef="0" IVar="12" Cut="1.0872740298509598e-01" cType="1" res="6.3851192593574524e-02" rms="4.4531810283660889e-01" purity="6.0918760299682617e-01" nType="0">
          <Node pos="l" depth="2" NCoef="0" IVar="-1" Cut="0.0000000000000000e+00" cType="1" res="2.2060327231884003e-02" rms="4.2678362131118774e-01" purity="6.5590602159500122e-01" nType="-99"/>
          <Node pos="r" depth="2" NCoef="0" IVar="-1" Cut="0.0000000000000000e+00" cType="1" res="1.2348432792350650e-03" rms="4.7334784269332886e-01" purity="5.1972526311874390e-01" nType="-99"/>
        </Node>
      </Node>
    </BinaryTree>
    <BinaryTree type="DecisionTree" boostWeight="1.0000000000000000e+00" itree="34">
      <Node pos="s" depth="0" NCoef="0" IVar="2" Cut="1.9953449964523315e+00" cType="1" res="3.7639876827597618e-03" rms="4.4178962707519531e-01" purity="5.0238037109375000e-01" nType="0">
        <Node pos="l" depth="1" NCoef="0" IVar="2" Cut="-1.9929816722869873e+00" cType="1" res="-1.7505420371890068e-02" rms="4.4001916050910950e-01" purity="4.7069099545478821e-01" nType="0">
          <Node pos="l" depth="2" NCoef="0" IVar="-1" Cut="0.0000000000000000e+00" cType="1" res="7.9935854300856590e-03" rms="4.3707397580146790e-01" purity="5.6826502084732056e-01" nType="-99"/>
          <Node pos="r" depth="2" NCoef="0" IVar="-1" Cut="0.0000000000000000e+00" cType="1" res="-1.1713860556483269e-02" rms="4.3868452310562134e-01" purity="4.0858340263366699e-01" nType="-99"/>
        </Node>
        <Node pos="r" depth="1" NCoef="0" IVar="5" Cut="-7.6628810167312622e-01" cType="1" res="5.7187255471944809e-02" rms="4.4171157479286194e-01" purity="5.8197587728500366e-01" nType="0">
          <Node pos="l" depth="2" NCoef="0" IVar="-1" Cut="0.0000000000000000e+00" cType="1" res="2.5641478598117828e-02" rms="4.3486335873603821e-01" purity="6.5745127201080322e-01" nType="-99"/>
          <Node pos="r" depth="2" NCoef="0" IVar="-1" Cut="0.0000000000000000e+00" cType="1" res="5.0170724280178547e-03" rms="4.4268986582756042e-01" purity="5.3158783912658691e-01" nType="-99"/>
        </Node>
      </Node>
    </BinaryTree>
    <BinaryTree type="DecisionTree" boostWeight="1.0000000000000000e+00" itree="35">
      <Node pos="s" depth="0" NCoef="0" IVar="0" Cut="1.7882761230468750e+03" cType="1" res="-7.1636093780398369e-03" rms="4.4103854894638062e-01" purity="4.9006134271621704e-01" nType="0">
        <Node pos="l" depth="1" NCoef="0" IVar="2" Cut="1.7056063413619995e+00" cType="1" res="-2.1243786439299583e-02" rms="4.5514574646949768e-01" purity="4.3096193671226501e-01" nType="0">
          <Node pos="l" depth="2" NCoef="0" IVar="-1" Cut="0.0000000000000000e+00" cType="1" res="-9.7591867670416832e-03" rms="4.4992944598197937e-01" purity="3.9940166473388672e-01" nType="-99"/>
          <Node pos="r" depth="2" NCoef="0" IVar="-1" Cut="0.0000000000000000e+00" cType="1" res="6.0159740969538689e-03" rms="4.6264356374740601e-01" purity="4.9990394711494446e-01" nType="-99"/>
        </Node>
        <Node pos="r" depth="1" NCoef="0" IVar="10" Cut="2.0255179703235626e-01" cType="1" res="7.9502202570438385e-02" rms="3.2858216762542725e-01" purity="8.5382795333862305e-01" nType="0">
          <Node pos="l" depth="2" NCoef="0" IVar="-1" Cut="0.0000000000000000e+00" cType="1" res="3.4355301409959793e-02" rms="2.8911083936691284e-01" purity="8.9918088912963867e-01" nType="-99"/>
          <Node pos="r" depth="2" NCoef="0" IVar="-1" Cut="0.0000000000000000e+00" cType="1" res="7.3180906474590302e-03" rms="3.7993130087852478e-01" purity="7.7752780914306641e-01" nType="-99"/>
        </Node>
      </Node>
    </BinaryTree>
    <BinaryTree type="DecisionTree" boostWeight="1.0000000000000000e+00" itree="36">
      <Node pos="s" depth="0" NCoef="0" IVar="0" Cut="7.2174670410156250e+02" cType="1" res="1.4163542538881302e-02" rms="4.3835279345512390e-01" purity="5.1541346311569214e-01" nType="0">
        <Node pos="l" depth="1" NCoef="0" IVar="4" Cut="6.9500801086425781e+01" cType="1" res="-3.8118917495012283e-02" rms="4.3826660513877869e-01" purity="2.9323562979698181e-01" nType="0">
          <Node pos="l" depth="2" NCoef="0" IVar="-1" Cut="0.0000000000000000e+00" cType="1" res="-2.0452180877327919e-02" rms="4.0331384539604187e-01" purity="2.2291831672191620e-01" nType="-99"/>
          <Node pos="r" depth="2" NCoef="0" IVar="-1" Cut="0.0000000000000000e+00" cType="1" res="-6.7332223989069462e-04" rms="4.5947724580764771e-01" purity="3.4566298127174377e-01" nType="-99"/>
        </Node>
        <Node pos="r" depth="1" NCoef="0" IVar="8" Cut="4.0799322724342346e-01" cType="1" res="3.7303015589714050e-02" rms="4.3639591336250305e-01" purity="6.1374622583389282e-01" nType="0">
          <Node pos="l" depth="2" NCoef="0" IVar="-1" Cut="0.0000000000000000e+00" cType="1" res="1.3181244954466820e-02" rms="4.3118205666542053e-01" purity="6.7578768730163574e-01" nType="-99"/>
          <Node pos="r" depth="2" NCoef="0" IVar="-1" Cut="0.0000000000000000e+00" cType="1" res="-5.4838974028825760e-03" rms="4.4850575923919678e-01" purity="3.9863431453704834e-01" nType="-99"/>
        </Node>
      </Node>
    </BinaryTree>
    <BinaryTree type="DecisionTree" boostWeight="1.0000000000000000e+00" itree="37">
      <Node pos="s" depth="0" NCoef="0" IVar="7" Cut="4.7070866823196411e-01" cType="1" res="8.0905808135867119e-03" rms="4.3909487128257751e-01" purity="5.1015865802764893e-01" nType="0">
        <Node pos="l" depth="1" NCoef="0" IVar="12" Cut="1.8289840221405029e-01" cType="1" res="2.8888180851936340e-02" rms="4.4310253858566284e-01" purity="5.8153849840164185e-01" nType="0">
          <Node pos="l" depth="2" NCoef="0" IVar="-1" Cut="0.0000000000000000e+00" cType="1" res="9.4056306406855583e-03" rms="4.4119328260421753e-01" purity="5.9705823659896851e-01" nType="-99"/>
          <Node pos="r" depth="2" NCoef="0" IVar="-1" Cut="0.0000000000000000e+00" cType="1" res="-1.3816182501614094e-02" rms="4.4827669858932495e-01" purity="4.5711669325828552e-01" nType="-99"/>
        </Node>
        <Node pos="r" depth="1" NCoef="0" IVar="11" Cut="3.2217886447906494e+00" cType="1" res="-5.0141945481300354e-02" rms="4.2225918173789978e-01" purity="3.1029784679412842e-01" nType="0">
          <Node pos="l" depth="2" NCoef="0" IVar="-1" Cut="0.0000000000000000e+00" cType="1" res="-1.9502857699990273e-02" rms="4.0177860856056213e-01" purity="2.6207354664802551e-01" nType="-99"/>
          <Node pos="r" depth="2" NCoef="0" IVar="-1" Cut="0.0000000000000000e+00" cType="1" res="6.4163827337324619e-03" rms="4.6017250418663025e-01" purity="4.3064737319946289e-01" nType="-99"/>
        </Node>
      </Node>
    </BinaryTree>
    <BinaryTree type="DecisionTree" boostWeight="1.0000000000000000e+00" itree="38">
      <Node pos="s" depth="0" NCoef="0" IVar="10" Cut="2.9006239492446184e-04" cType="1" res="-1.2789142783731222e-03" rms="4.3828395009040833e-01" purity="4.9962887167930603e-01" nType="0">
        <Node pos="l" depth="1" NCoef="0" IVar="4" Cut="6.6828735351562500e+01" cType="1" res="-5.6977685540914536e-02" rms="4.3732455372810364e-01" purity="4.1540464758872986e-01" nType="0">
          <Node pos="l" depth="2" NCoef="0" IVar="-1" Cut="0.0000000000000000e+00" cType="1" res="-2.9260387644171715e-02" rms="4.0954905748367310e-01" purity="2.7843102812767029e-01" nType="-99"/>
          <Node pos="r" depth="2" NCoef="0" IVar="-1" Cut="0.0000000000000000e+00" cType="1" res="-6.5932450816035271e-03" rms="4.4540867209434509e-01" purity="4.7274890542030334e-01" nType="-99"/>
        </Node>
        <Node pos="r" depth="1" NCoef="0" IVar="6" Cut="1.7661910057067871e+00" cType="1" res="1.7132241278886795e-02" rms="4.3704238533973694e-01" purity="5.2746903896331787e-01" nType="0">
          <Node pos="l" depth="2" NCoef="0" IVar="-1" Cut="0.0000000000000000e+00" cType="1" res="-3.0196066945791245e-03" rms="4.3642780184745789e-01" purity="4.7530305385589600e-01" nType="-99"/>
          <Node pos="r" depth="2" NCoef="0" IVar="-1" Cut="0.0000000000000000e+00" cType="1" res="2.2893117740750313e-02" rms="4.2866611480712891e-01" purity="6.6596585512161255e-01" nType="-99"/>
        </Node>
      </Node>
    </BinaryTree>
    <BinaryTree type="DecisionTree" boostWeight="1.0000000000000000e+00" itree="39">
      <Node pos="s" depth="0" NCoef="0" IVar="9" Cut="1.9954863190650940e-01" cType="1" res="3.8078809157013893e-03" rms="4.3636849522590637e-01" purity="5.0269675254821777e-01" nType="0">
        <Node pos="l" depth="1" NCoef="0" IVar="0" Cut="7.9542962646484375e+02" cType="1" res="4.5085642486810684e-02" rms="4.3248614668846130e-01" purity="6.1811029911041260e-01" nType="0">
          <Node pos="l" depth="2" NCoef="0" IVar="-1" Cut="0.0000000000000000e+00" cType="1" res="-2.3436520714312792e-03" rms="4.7592854499816895e-01" purity="3.7293165922164917e-01" nType="-99"/>
          <Node pos="r" depth="2" NCoef="0" IVar="-1" Cut="0.0000000000000000e+00" cType="1" res="1.8604818731546402e-02" rms="4.0520378947257996e-01" purity="7.4485146999359131e-01" nType="-99"/>
        </Node>
        <Node pos="r" depth="1" NCoef="0" IVar="7" Cut="1.0652724653482437e-01" cType="1" res="-2.3390933871269226e-02" rms="4.3678101897239685e-01" purity="4.2664822936058044e-01" nType="0">
          <Node pos="l" depth="2" NCoef="0" IVar="-1" Cut="0.0000000000000000e+00" cType="1" res="3.0563287436962128e-02" rms="4.1699022054672241e-01" purity="6.9081878662109375e-01" nType="-99"/>
          <Node pos="r" depth="2" NCoef="0" IVar="-1" Cut="0.0000000000000000e+00" cType="1" res="-9.5589831471443176e-03" rms="4.3549585342407227e-01" purity="3.9677634835243225e-01" nType="-99"/>
        </Node>
      </Node>
    </BinaryTree>
    <BinaryTree type="DecisionTree" boostWeight="1.0000000000000000e+00" itree="40">
      <Node pos="s" depth="0" NCoef="0" IVar="3" Cut="1.1272561645507812e+02" cType="1" res="-2.5730081833899021e-03" rms="4.4141510128974915e-01" purity="4.9919310212135315e-01" nType="0">
        <Node pos="l" depth="1" NCoef="0" IVar="10" Cut="2.4864231818355620e-04" cType="1" res="-6.1969347298145294e-02" rms="4.3832981586456299e-01" purity="3.8126176595687866e-01" nType="0">
          <Node pos="l" depth="2" NCoef="0" IVar="-1" Cut="0.0000000000000000e+00" cType="1" res="-3.3764049410820007e-02" rms="4.1149580478668213e-01" purity="2.6222893595695496e-01" nType="-99"/>
          <Node pos="r" depth="2" NCoef="0" IVar="-1" Cut="0.0000000000000000e+00" cType="1" res="-3.7027376238256693e-03" rms="4.4596228003501892e-01" purity="4.4751152396202087e-01" nType="-99"/>
        </Node>
        <Node pos="r" depth="1" NCoef="0" IVar="11" Cut="3.6248168945312500e+00" cType="1" res="1.3116477057337761e-02" rms="4.4089251756668091e-01" purity="5.3034454584121704e-01" nType="0">
          <Node pos="l" depth="2" NCoef="0" IVar="-1" Cut="0.0000000000000000e+00" cType="1" res="-1.4137938851490617e-03" rms="4.4636237621307373e-01" purity="4.8169523477554321e-01" nType="-99"/>
          <Node pos="r" depth="2" NCoef="0" IVar="-1" Cut="0.0000000000000000e+00" cType="1" res="2.0052716135978699e-02" rms="4.1456738114356995e-01" purity="6.9897848367691040e-01" nType="-99"/>
        </Node>
      </Node>
    </BinaryTree>
    <BinaryTree type="DecisionTree" boostWeight="1.0000000000000000e+00" itree="41">
      <Node pos="s" depth="0" NCoef="0" IVar="6" Cut="9.8048967123031616e-01" cType="1" res="-7.6337886275723577e-04" rms="4.3865647912025452e-01" purity="5.0277215242385864e-01" nType="0">
        <Node pos="l" depth="1" NCoef="0" IVar="10" Cut="3.8144856691360474e-01" cType="1" res="-3.5373419523239136e-02" rms="4.4031417369842529e-01" purity="4.4905465841293335e-01" nType="0">
          <Node pos="l" depth="2" NCoef="0" IVar="-1" Cut="0.0000000000000000e+00" cType="1" res="-3.4029877278953791e-03" rms="4.4850271940231323e-01" purity="5.0806051492691040e-01" nType="-99"/>
          <Node pos="r" depth="2" NCoef="0" IVar="-1" Cut="0.0000000000000000e+00" cType="1" res="-2.6102233678102493e-02" rms="4.0147393941879272e-01" purity="2.4094873666763306e-01" nType="-99"/>
        </Node>
        <Node pos="r" depth="1" NCoef="0" IVar="10" Cut="3.1144707463681698e-04" cType="1" res="2.6046156883239746e-02" rms="4.3548157811164856e-01" purity="5.4438257217407227e-01" nType="0">
          <Node pos="l" depth="2" NCoef="0" IVar="-1" Cut="0.0000000000000000e+00" cType="1" res="-8.4227593615651131e-03" rms="4.3371742963790894e-01" purity="4.1459843516349792e-01" nType="-99"/>
          <Node pos="r" depth="2" NCoef="0" IVar="-1" Cut="0.0000000000000000e+00" cType="1" res="1.2377420440316200e-02" rms="4.3358218669891357e-01" purity="5.9880417585372925e-01" nType="-99"/>
        </Node>
      </Node>
    </BinaryTree>
    <BinaryTree type="DecisionTree" boostWeight="1.0000000000000000e+00" itree="42">
      <Node pos="s" depth="0" NCoef="0" IVar="10" Cut="1.6455934382975101e-04" cType="1" res="-2.4391273036599159e-03" rms="4.3891862034797668e-01" purity="5.0154411792755127e-01" nType="0">
        <Node pos="l" depth="1" NCoef="0" IVar="6" Cut="1.9181028604507446e+00" cType="1" res="-5.2865967154502869e-02" rms="4.3884351849555969e-01" purity="4.1028538346290588e-01" nType="0">
          <Node pos="l" depth="2" NCoef="0" IVar="-1" Cut="0.0000000000000000e+00" cType="1" res="-6.2225298024713993e-03" rms="4.4471287727355957e-01" purity="4.5081695914268494e-01" nType="-99"/>
          <Node pos="r" depth="2" NCoef="0" IVar="-1" Cut="0.0000000000000000e+00" cType="1" res="-2.7974605560302734e-02" rms="4.1560915112495422e-01" purity="3.0579110980033875e-01" nType="-99"/>
        </Node>
        <Node pos="r" depth="1" NCoef="0" IVar="10" Cut="2.9456463456153870e-01" cType="1" res="1.4310364611446857e-02" rms="4.3766000866889954e-01" purity="5.3185611963272095e-01" nType="0">
          <Node pos="l" depth="2" NCoef="0" IVar="-1" Cut="0.0000000000000000e+00" cType="1" res="1.2710584327578545e-02" rms="4.3249750137329102e-01" purity="6.2294310331344604e-01" nType="-99"/>
          <Node pos="r" depth="2" NCoef="0" IVar="-1" Cut="0.0000000000000000e+00" cType="1" res="-8.6737833917140961e-03" rms="4.3923091888427734e-01" purity="4.1030427813529968e-01" nType="-99"/>
        </Node>
      </Node>
    </BinaryTree>
    <BinaryTree type="DecisionTree" boostWeight="1.0000000000000000e+00" itree="43">
      <Node pos="s" depth="0" NCoef="0" IVar="4" Cut="8.6467498779296875e+01" cType="1" res="-8.1212032819166780e-04" rms="4.3613275885581970e-01" purity="5.0067347288131714e-01" nType="0">
        <Node pos="l" depth="1" NCoef="0" IVar="8" Cut="4.1642954945564270e-01" cType="1" res="-3.3252105116844177e-02" rms="4.3242448568344116e-01" purity="4.0351864695549011e-01" nType="0">
          <Node pos="l" depth="2" NCoef="0" IVar="-1" Cut="0.0000000000000000e+00" cType="1" res="-3.4764709416776896e-03" rms="4.4559752941131592e-01" purity="4.6311262249946594e-01" nType="-99"/>
          <Node pos="r" depth="2" NCoef="0" IVar="-1" Cut="0.0000000000000000e+00" cType="1" res="-2.4395162239670753e-02" rms="3.7715494632720947e-01" purity="1.9932244718074799e-01" nType="-99"/>
        </Node>
        <Node pos="r" depth="1" NCoef="0" IVar="9" Cut="5.4447758197784424e-01" cType="1" res="2.9174165800213814e-02" rms="4.3739807605743408e-01" purity="5.9047973155975342e-01" nType="0">
          <Node pos="l" depth="2" NCoef="0" IVar="-1" Cut="0.0000000000000000e+00" cType="1" res="1.0453016497194767e-02" rms="4.3582743406295776e-01" purity="6.2943243980407715e-01" nType="-99"/>
          <Node pos="r" depth="2" NCoef="0" IVar="-1" Cut="0.0000000000000000e+00" cType="1" res="-1.3152061030268669e-02" rms="4.3683269619941711e-01" purity="3.5318583250045776e-01" nType="-99"/>
        </Node>
      </Node>
    </BinaryTree>
    <BinaryTree type="DecisionTree" boostWeight="1.0000000000000000e+00" itree="44">
      <Node pos="s" depth="0" NCoef="0" IVar="6" Cut="1.4354449510574341e+00" cType="1" res="-8.7187197059392929e-03" rms="4.3950518965721130e-01" purity="4.9434927105903625e-01" nType="0">
        <Node pos="l" depth="1" NCoef="0" IVar="10" Cut="2.7718034386634827e-01" cType="1" res="-3.2581999897956848e-02" rms="4.3771547079086304e-01" purity="4.5479485392570496e-01" nType="0">
          <Node pos="l" depth="2" NCoef="0" IVar="-1" Cut="0.0000000000000000e+00" cType="1" res="-1.7172080697491765e-03" rms="4.4481691718101501e-01" purity="5.3379142284393311e-01" nType="-99"/>
          <Node pos="r" depth="2" NCoef="0" IVar="-1" Cut="0.0000000000000000e+00" cType="1" res="-1.8755430355668068e-02" rms="4.2071941494941711e-01" purity="3.1212005019187927e-01" nType="-99"/>
        </Node>
        <Node pos="r" depth="1" NCoef="0" IVar="10" Cut="1.5177231398411095e-04" cType="1" res="2.8948891907930374e-02" rms="4.3968763947486877e-01" purity="5.5678486824035645e-01" nType="0">
          <Node pos="l" depth="2" NCoef="0" IVar="-1" Cut="0.0000000000000000e+00" cType="1" res="-9.3323318287730217e-03" rms="4.4485276937484741e-01" purity="3.9058744907379150e-01" nType="-99"/>
          <Node pos="r" depth="2" NCoef="0" IVar="-1" Cut="0.0000000000000000e+00" cType="1" res="1.4011994004249573e-02" rms="4.3413051962852478e-01" purity="6.2782216072082520e-01" nType="-99"/>
        </Node>
      </Node>
    </BinaryTree>
    <BinaryTree type="DecisionTree" boostWeight="1.0000000000000000e+00" itree="45">
      <Node pos="s" depth="0" NCoef="0" IVar="10" Cut="3.4741923213005066e-01" cType="1" res="2.1545470226556063e-03" rms="4.3748390674591064e-01" purity="5.0594663619995117e-01" nType="0">
        <Node pos="l" depth="1" NCoef="0" IVar="3" Cut="8.7185234069824219e+01" cType="1" res="2.3336255922913551e-02" rms="4.3764439225196838e-01" purity="5.5640101432800293e-01" nType="0">
          <Node pos="l" depth="2" NCoef="0" IVar="-1" Cut="0.0000000000000000e+00" cType="1" res="-1.7126388847827911e-02" rms="4.4900423288345337e-01" purity="3.8159370422363281e-01" nType="-99"/>
          <Node pos="r" depth="2" NCoef="0" IVar="-1" Cut="0.0000000000000000e+00" cType="1" res="8.1176226958632469e-03" rms="4.3511888384819031e-01" purity="5.7553726434707642e-01" nType="-99"/>
        </Node>
        <Node pos="r" depth="1" NCoef="0" IVar="6" Cut="1.8709472417831421e+00" cType="1" res="-5.8216232806444168e-02" rms="4.3135660886764526e-01" purity="3.6214488744735718e-01" nType="0">
          <Node pos="l" depth="2" NCoef="0" IVar="-1" Cut="0.0000000000000000e+00" cType="1" res="-2.0874973386526108e-02" rms="4.1654118895530701e-01" purity="2.8734025359153748e-01" nType="-99"/>
          <Node pos="r" depth="2" NCoef="0" IVar="-1" Cut="0.0000000000000000e+00" cType="1" res="3.5430821590125561e-03" rms="4.6039891242980957e-01" purity="5.6095373630523682e-01" nType="-99"/>
        </Node>
      </Node>
    </BinaryTree>
    <BinaryTree type="DecisionTree" boostWeight="1.0000000000000000e+00" itree="46">
      <Node pos="s" depth="0" NCoef="0" IVar="2" Cut="-2.3914244174957275e+00" cType="1" res="-1.1173075763508677e-03" rms="4.3882924318313599e-01" purity="5.0158798694610596e-01" nType="0">
        <Node pos="l" depth="1" NCoef="0" IVar="9" Cut="2.4210566282272339e-01" cType="1" res="5.0854939967393875e-02" rms="4.3121722340583801e-01" purity="5.9928762912750244e-01" nType="0">
          <Node pos="l" depth="2" NCoef="0" IVar="-1" Cut="0.0000000000000000e+00" cType="1" res="2.2931009531021118e-02" rms="4.1421294212341309e-01" purity="7.1158736944198608e-01" nType="-99"/>
          <Node pos="r" depth="2" NCoef="0" IVar="-1" Cut="0.0000000000000000e+00" cType="1" res="2.3956431541591883e-03" rms="4.4354778528213501e-01" purity="4.8908445239067078e-01" nType="-99"/>
        </Node>
        <Node pos="r" depth="1" NCoef="0" IVar="2" Cut="1.7245868444442749e+00" cType="1" res="-1.4202341437339783e-02" rms="4.3975815176963806e-01" purity="4.7699019312858582e-01" nType="0">
          <Node pos="l" depth="2" NCoef="0" IVar="-1" Cut="0.0000000000000000e+00" cType="1" res="-1.0495043359696865e-02" rms="4.3956130743026733e-01" purity="4.2267140746116638e-01" nType="-99"/>
          <Node pos="r" depth="2" NCoef="0" IVar="-1" Cut="0.0000000000000000e+00" cType="1" res="6.4706746488809586e-03" rms="4.3667826056480408e-01" purity="5.5256986618041992e-01" nType="-99"/>
        </Node>
      </Node>
    </BinaryTree>
    <BinaryTree type="DecisionTree" boostWeight="1.0000000000000000e+00" itree="47">
      <Node pos="s" depth="0" NCoef="0" IVar="6" Cut="3.0935494899749756e+00" cType="1" res="6.0934396460652351e-03" rms="4.3637508153915405e-01" purity="5.0782692432403564e-01" nType="0">
        <Node pos="l" depth="1" NCoef="0" IVar="10" Cut="3.4853670001029968e-01" cType="1" res="2.5906765949912369e-04" rms="4.3656715750694275e-01" purity="4.9739742279052734e-01" nType="0">
          <Node pos="l" depth="2" NCoef="0" IVar="-1" Cut="0.0000000000000000e+00" cType="1" res="3.7501116748899221e-03" rms="4.3905600905418396e-01" purity="5.4766213893890381e-01" nType="-99"/>
          <Node pos="r" depth="2" NCoef="0" IVar="-1" Cut="0.0000000000000000e+00" cType="1" res="-1.0813591070473194e-02" rms="4.2606237530708313e-01" purity="3.5072273015975952e-01" nType="-99"/>
        </Node>
        <Node pos="r" depth="1" NCoef="0" IVar="-1" Cut="0.0000000000000000e+00" cType="1" res="2.8069904074072838e-02" rms="4.1783133149147034e-01" purity="7.0402371883392334e-01" nType="-99"/>
      </Node>
    </BinaryTree>
    <BinaryTree type="DecisionTree" boostWeight="1.0000000000000000e+00" itree="48">
      <Node pos="s" depth="0" NCoef="0" IVar="2" Cut="2.4475374221801758e+00" cType="1" res="-1.2199007906019688e-03" rms="4.3813785910606384e-01" purity="5.0096058845520020e-01" nType="0">
        <Node pos="l" depth="1" NCoef="0" IVar="2" Cut="-2.0842311382293701e+00" cType="1" res="-1.4499768614768982e-02" rms="4.3673664331436157e-01" purity="4.7276887297630310e-01" nType="0">
          <Node pos="l" depth="2" NCoef="0" IVar="-1" Cut="0.0000000000000000e+00" cType="1" res="8.7096188217401505e-03" rms="4.3625885248184204e-01" purity="5.8330368995666504e-01" nType="-99"/>
          <Node pos="r" depth="2" NCoef="0" IVar="-1" Cut="0.0000000000000000e+00" cType="1" res="-9.2535139992833138e-03" rms="4.3491217494010925e-01" purity="4.2064392566680908e-01" nType="-99"/>
        </Node>
        <Node pos="r" depth="1" NCoef="0" IVar="10" Cut="5.8084230870008469e-02" cType="1" res="5.6892763823270798e-02" rms="4.3952298164367676e-01" purity="6.2432754039764404e-01" nType="0">
          <Node pos="l" depth="2" NCoef="0" IVar="-1" Cut="0.0000000000000000e+00" cType="1" res="3.3358826767653227e-03" rms="4.5439308881759644e-01" purity="5.6399828195571899e-01" nType="-99"/>
          <Node pos="r" depth="2" NCoef="0" IVar="-1" Cut="0.0000000000000000e+00" cType="1" res="1.9595053046941757e-02" rms="4.2904981970787048e-01" purity="6.5828639268875122e-01" nType="-99"/>
        </Node>
      </Node>
    </BinaryTree>
    <BinaryTree type="DecisionTree" boostWeight="1.0000000000000000e+00" itree="49">
      <Node pos="s" depth="0" NCoef="0" IVar="12" Cut="8.9343570172786713e-02" cType="1" res="-4.5684906654059887e-03" rms="4.3636366724967957e-01" purity="4.9674382805824280e-01" nType="0">
        <Node pos="l" depth="1" NCoef="0" IVar="8" Cut="4.7675853967666626e-01" cType="1" res="2.2589078173041344e-02" rms="4.3121331930160522e-01" purity="5.3898668289184570e-01" nType="0">
          <Node pos="l" depth="2" NCoef="0" IVar="-1" Cut="0.0000000000000000e+00" cType="1" res="9.5214573666453362e-03" rms="4.3401187658309937e-01" purity="5.9337282180786133e-01" nType="-99"/>
          <Node pos="r" depth="2" NCoef="0" IVar="-1" Cut="0.0000000000000000e+00" cType="1" res="-1.3000058941543102e-02" rms="4.0983682870864868e-01" purity="2.9197213053703308e-01" nType="-99"/>
        </Node>
        <Node pos="r" depth="1" NCoef="0" IVar="6" Cut="2.5864737033843994e+00" cType="1" res="-3.8977041840553284e-02" rms="4.4040459394454956e-01" purity="4.4322225451469421e-01" nType="0">
          <Node pos="l" depth="2" NCoef="0" IVar="-1" Cut="0.0000000000000000e+00" cType="1" res="-1.1977134272456169e-02" rms="4.3884658813476562e-01" purity="4.2486038804054260e-01" nType="-99"/>
          <Node pos="r" depth="2" NCoef="0" IVar="-1" Cut="0.0000000000000000e+00" cType="1" res="1.1628381907939911e-02" rms="4.4241791963577271e-01" purity="5.8453267812728882e-01" nType="-99"/>
        </Node>
      </Node>
    </BinaryTree>
    <BinaryTree type="DecisionTree" boostWeight="1.0000000000000000e+00" itree="50">
      <Node pos="s" depth="0" NCoef="0" IVar="12" Cut="1.8980921804904938e-01" cType="1" res="2.9441425576806068e-03" rms="4.3667563796043396e-01" purity="5.0642096996307373e-01" nType="0">
        <Node pos="l" depth="1" NCoef="0" IVar="2" Cut="-2.3599543571472168e+00" cType="1" res="1.1741780675947666e-02" rms="4.3640112876892090e-01" purity="5.1952648162841797e-01" nType="0">
          <Node pos="l" depth="2" NCoef="0" IVar="-1" Cut="0.0000000000000000e+00" cType="1" res="1.6867071390151978e-02" rms="4.2277228832244873e-01" purity="6.3810396194458008e-01" nType="-99"/>
          <Node pos="r" depth="2" NCoef="0" IVar="-1" Cut="0.0000000000000000e+00" cType="1" res="-7.2988314786925912e-04" rms="4.3862736225128174e-01" purity="4.8901939392089844e-01" nType="-99"/>
        </Node>
        <Node pos="r" depth="1" NCoef="0" IVar="-1" Cut="0.0000000000000000e+00" cType="1" res="-1.8665928393602371e-02" rms="4.3077185750007629e-01" purity="3.8519692420959473e-01" nType="-99"/>
      </Node>
    </BinaryTree>
    <BinaryTree type="DecisionTree" boostWeight="1.0000000000000000e+00" itree="51">
      <Node pos="s" depth="0" NCoef="0" IVar="11" Cut="3.2772769927978516e+00" cType="1" res="7.4418485164642334e-03" rms="4.3708696961402893e-01" purity="5.0936007499694824e-01" nType="0">
        <Node pos="l" depth="1" NCoef="0" IVar="6" Cut="2.5957019329071045e+00" cType="1" res="-1.0273654013872147e-02" rms="4.3873107433319092e-01" purity="4.4760763645172119e-01" nType="0">
          <Node pos="l" depth="2" NCoef="0" IVar="-1" Cut="0.0000000000000000e+00" cType="1" res="-4.6487832441926003e-03" rms="4.3942815065383911e-01" purity="4.3034103512763977e-01" nType="-99"/>
          <Node pos="r" depth="2" NCoef="0" IVar="-1" Cut="0.0000000000000000e+00" cType="1" res="2.2275911644101143e-02" rms="4.1749313473701477e-01" purity="6.3722997903823853e-01" nType="-99"/>
        </Node>
        <Node pos="r" depth="1" NCoef="0" IVar="12" Cut="1.7691354453563690e-01" cType="1" res="3.8397036492824554e-02" rms="4.3246075510978699e-01" purity="6.1726313829421997e-01" nType="0">
          <Node pos="l" depth="2" NCoef="0" IVar="-1" Cut="0.0000000000000000e+00" cType="1" res="1.3004863634705544e-02" rms="4.3016240000724792e-01" purity="6.4252448081970215e-01" nType="-99"/>
          <Node pos="r" depth="2" NCoef="0" IVar="-1" Cut="0.0000000000000000e+00" cType="1" res="-1.1229258030653000e-02" rms="4.3688973784446716e-01" purity="4.6110439300537109e-01" nType="-99"/>
        </Node>
      </Node>
    </BinaryTree>
    <BinaryTree type="DecisionTree" boostWeight="1.0000000000000000e+00" itree="52">
      <Node pos="s" depth="0" NCoef="0" IVar="3" Cut="8.0642623901367188e+01" cType="1" res="-7.1989633142948151e-03" rms="4.3345296382904053e-01" purity="4.9508622288703918e-01" nType="0">
        <Node pos="l" depth="1" NCoef="0" IVar="-1" Cut="0.0000000000000000e+00" cType="1" res="-2.5713743641972542e-02" rms="4.2331686615943909e-01" purity="3.0194771289825439e-01" nType="-99"/>
        <Node pos="r" depth="1" NCoef="0" IVar="0" Cut="1.9645532226562500e+03" cType="1" res="6.0582865262404084e-04" rms="4.3328011035919189e-01" purity="5.1030331850051880e-01" nType="0">
          <Node pos="l" depth="2" NCoef="0" IVar="-1" Cut="0.0000000000000000e+00" cType="1" res="-2.0753121934831142e-03" rms="4.4753721356391907e-01" purity="4.6098515391349792e-01" nType="-99"/>
          <Node pos="r" depth="2" NCoef="0" IVar="-1" Cut="0.0000000000000000e+00" cType="1" res="2.4994498118758202e-02" rms="2.9585707187652588e-01" purity="8.8102799654006958e-01" nType="-99"/>
        </Node>
      </Node>
    </BinaryTree>
    <BinaryTree type="DecisionTree" boostWeight="1.0000000000000000e+00" itree="53">
      <Node pos="s" depth="0" NCoef="0" IVar="2" Cut="-2.1671059131622314e+00" cType="1" res="-1.0239306837320328e-02" rms="4.3522325158119202e-01" purity="4.8781952261924744e-01" nType="0">
        <Node pos="l" depth="1" NCoef="0" IVar="8" Cut="3.5300272703170776e-01" cType="1" res="3.5137005150318146e-02" rms="4.2781880497932434e-01" purity="5.8921962976455688e-01" nType="0">
          <Node pos="l" depth="2" NCoef="0" IVar="-1" Cut="0.0000000000000000e+00" cType="1" res="1.5112964436411858e-02" rms="4.2339804768562317e-01" purity="6.7296832799911499e-01" nType="-99"/>
          <Node pos="r" depth="2" NCoef="0" IVar="-1" Cut="0.0000000000000000e+00" cType="1" res="-4.4401865452528000e-03" rms="4.3202790617942810e-01" purity="4.1210955381393433e-01" nType="-99"/>
        </Node>
        <Node pos="r" depth="1" NCoef="0" IVar="2" Cut="1.0792094469070435e+00" cType="1" res="-2.4266328662633896e-02" rms="4.3653345108032227e-01" purity="4.5647406578063965e-01" nType="0">
          <Node pos="l" depth="2" NCoef="0" IVar="-1" Cut="0.0000000000000000e+00" cType="1" res="-1.3953521847724915e-02" rms="4.3060261011123657e-01" purity="3.8464903831481934e-01" nType="-99"/>
          <Node pos="r" depth="2" NCoef="0" IVar="-1" Cut="0.0000000000000000e+00" cType="1" res="1.1229043593630195e-03" rms="4.3959441781044006e-01" purity="5.1901298761367798e-01" nType="-99"/>
        </Node>
      </Node>
    </BinaryTree>
    <BinaryTree type="DecisionTree" boostWeight="1.0000000000000000e+00" itree="54">
      <Node pos="s" depth="0" NCoef="0" IVar="10" Cut="2.5757539272308350e-01" cType="1" res="-4.3262503459118307e-04" rms="4.3506383895874023e-01" purity="5.0014913082122803e-01" nType="0">
        <Node pos="l" depth="1" NCoef="0" IVar="10" Cut="1.3385057682171464e-03" cType="1" res="1.9810220226645470e-02" rms="4.3639600276947021e-01" purity="5.5523872375488281e-01" nType="0">
          <Node pos="l" depth="2" NCoef="0" IVar="-1" Cut="0.0000000000000000e+00" cType="1" res="-4.2369887232780457e-03" rms="4.4221776723861694e-01" purity="4.4324314594268799e-01" nType="-99"/>
          <Node pos="r" depth="2" NCoef="0" IVar="-1" Cut="0.0000000000000000e+00" cType="1" res="1.0915666818618774e-02" rms="4.3078494071960449e-01" purity="6.2846988439559937e-01" nType="-99"/>
        </Node>
        <Node pos="r" depth="1" NCoef="0" IVar="6" Cut="1.8509800434112549e+00" cType="1" res="-3.4356735646724701e-02" rms="4.3069416284561157e-01" purity="4.0782684087753296e-01" nType="0">
          <Node pos="l" depth="2" NCoef="0" IVar="-1" Cut="0.0000000000000000e+00" cType="1" res="-1.5680085867643356e-02" rms="4.2546278238296509e-01" purity="3.3211869001388550e-01" nType="-99"/>
          <Node pos="r" depth="2" NCoef="0" IVar="-1" Cut="0.0000000000000000e+00" cType="1" res="1.3155290856957436e-02" rms="4.3402943015098572e-01" purity="6.3699775934219360e-01" nType="-99"/>
        </Node>
      </Node>
    </BinaryTree>
    <BinaryTree type="DecisionTree" boostWeight="1.0000000000000000e+00" itree="55">
      <Node pos="s" depth="0" NCoef="0" IVar="9" Cut="1.3502635061740875e-01" cType="1" res="-6.8008294329047203e-03" rms="4.3628752231597900e-01" purity="4.9266916513442993e-01" nType="0">
        <Node pos="l" depth="1" NCoef="0" IVar="12" Cut="6.5547890961170197e-02" cType="1" res="3.1862713396549225e-02" rms="4.3011069297790527e-01" purity="6.1831742525100708e-01" nType="0">
          <Node pos="l" depth="2" NCoef="0" IVar="-1" Cut="0.0000000000000000e+00" cType="1" res="2.0885299891233444e-02" rms="4.1277766227722168e-01" purity="7.0812904834747314e-01" nType="-99"/>
          <Node pos="r" depth="2" NCoef="0" IVar="-1" Cut="0.0000000000000000e+00" cType="1" res="-3.4499479806981981e-04" rms="4.3816372752189636e-01" purity="5.5832052230834961e-01" nType="-99"/>
        </Node>
        <Node pos="r" depth="1" NCoef="0" IVar="0" Cut="2.0241295166015625e+03" cType="1" res="-2.1228421479463577e-02" rms="4.3769603967666626e-01" purity="4.4578251242637634e-01" nType="0">
          <Node pos="l" depth="2" NCoef="0" IVar="-1" Cut="0.0000000000000000e+00" cType="1" res="-6.5887682139873505e-03" rms="4.4573563337326050e-01" purity="4.0808510780334473e-01" nType="-99"/>
          <Node pos="r" depth="2" NCoef="0" IVar="-1" Cut="0.0000000000000000e+00" cType="1" res="1.5670325607061386e-02" rms="3.3491939306259155e-01" purity="8.3950579166412354e-01" nType="-99"/>
        </Node>
      </Node>
    </BinaryTree>
    <BinaryTree type="DecisionTree" boostWeight="1.0000000000000000e+00" itree="56">
      <Node pos="s" depth="0" NCoef="0" IVar="11" Cut="3.9767875671386719e+00" cType="1" res="-5.8835032396018505e-03" rms="4.3433016538619995e-01" purity="4.9452090263366699e-01" nType="0">
        <Node pos="l" depth="1" NCoef="0" IVar="4" Cut="9.8807609558105469e+01" cType="1" res="-1.8462615087628365e-02" rms="4.3629157543182373e-01" purity="4.6342164278030396e-01" nType="0">
          <Node pos="l" depth="2" NCoef="0" IVar="-1" Cut="0.0000000000000000e+00" cType="1" res="-1.0794031433761120e-02" rms="4.3246391415596008e-01" purity="3.7917622923851013e-01" nType="-99"/>
          <Node pos="r" depth="2" NCoef="0" IVar="-1" Cut="0.0000000000000000e+00" cType="1" res="4.4110529124736786e-03" rms="4.3889486789703369e-01" purity="5.7973277568817139e-01" nType="-99"/>
        </Node>
        <Node pos="r" depth="1" NCoef="0" IVar="2" Cut="1.7340981960296631e+00" cType="1" res="5.6872725486755371e-02" rms="4.1880252957344055e-01" purity="6.4967262744903564e-01" nType="0">
          <Node pos="l" depth="2" NCoef="0" IVar="-1" Cut="0.0000000000000000e+00" cType="1" res="8.6961509659886360e-03" rms="4.2568644881248474e-01" purity="6.0665446519851685e-01" nType="-99"/>
          <Node pos="r" depth="2" NCoef="0" IVar="-1" Cut="0.0000000000000000e+00" cType="1" res="2.7830749750137329e-02" rms="3.9920115470886230e-01" purity="7.4152511358261108e-01" nType="-99"/>
        </Node>
      </Node>
    </BinaryTree>
    <BinaryTree type="DecisionTree" boostWeight="1.0000000000000000e+00" itree="57">
      <Node pos="s" depth="0" NCoef="0" IVar="6" Cut="1.1950943470001221e+00" cType="1" res="1.0302354348823428e-03" rms="4.3411901593208313e-01" purity="5.0261908769607544e-01" nType="0">
        <Node pos="l" depth="1" NCoef="0" IVar="2" Cut="-2.2054626941680908e+00" cType="1" res="-2.1843658760190010e-02" rms="4.3114036321640015e-01" purity="4.5251438021659851e-01" nType="0">
          <Node pos="l" depth="2" NCoef="0" IVar="-1" Cut="0.0000000000000000e+00" cType="1" res="8.5360268130898476e-03" rms="4.2982327938079834e-01" purity="5.7305145263671875e-01" nType="-99"/>
          <Node pos="r" depth="2" NCoef="0" IVar="-1" Cut="0.0000000000000000e+00" cType="1" res="-9.0895788744091988e-03" rms="4.3023842573165894e-01" purity="4.2044982314109802e-01" nType="-99"/>
        </Node>
        <Node pos="r" depth="1" NCoef="0" IVar="3" Cut="9.1564239501953125e+01" cType="1" res="2.5945710018277168e-02" rms="4.3597701191902161e-01" purity="5.5719590187072754e-01" nType="0">
          <Node pos="l" depth="2" NCoef="0" IVar="-1" Cut="0.0000000000000000e+00" cType="1" res="-1.4354303479194641e-02" rms="4.3753072619438171e-01" purity="3.5679116845130920e-01" nType="-99"/>
          <Node pos="r" depth="2" NCoef="0" IVar="-1" Cut="0.0000000000000000e+00" cType="1" res="9.4296215102076530e-03" rms="4.3433526158332825e-01" purity="5.8705168962478638e-01" nType="-99"/>
        </Node>
      </Node>
    </BinaryTree>
    <BinaryTree type="DecisionTree" boostWeight="1.0000000000000000e+00" itree="58">
      <Node pos="s" depth="0" NCoef="0" IVar="8" Cut="4.3087646365165710e-02" cType="1" res="-2.7535264380276203e-03" rms="4.3596288561820984e-01" purity="4.9929928779602051e-01" nType="0">
        <Node pos="l" depth="1" NCoef="0" IVar="-1" Cut="0.0000000000000000e+00" cType="1" res="2.2773927077651024e-02" rms="4.1845771670341492e-01" purity="7.0067542791366577e-01" nType="-99"/>
        <Node pos="r" depth="1" NCoef="0" IVar="8" Cut="4.9762025475502014e-01" cType="1" res="-1.1453861370682716e-02" rms="4.3652388453483582e-01" purity="4.8067227005958557e-01" nType="0">
          <Node pos="l" depth="2" NCoef="0" IVar="-1" Cut="0.0000000000000000e+00" cType="1" res="-3.8790798862464726e-04" rms="4.4172567129135132e-01" purity="5.2418798208236694e-01" nType="-99"/>
          <Node pos="r" depth="2" NCoef="0" IVar="-1" Cut="0.0000000000000000e+00" cType="1" res="-1.4799941331148148e-02" rms="4.0733423829078674e-01" purity="2.7183076739311218e-01" nType="-99"/>
        </Node>
      </Node>
    </BinaryTree>
    <BinaryTree type="DecisionTree" boostWeight="1.0000000000000000e+00" itree="59">
      <Node pos="s" depth="0" NCoef="0" IVar="10" Cut="5.6256783008575439e-01" cType="1" res="5.9096128679811954e-03" rms="4.3197593092918396e-01" purity="5.0449359416961670e-01" nType="0">
        <Node pos="l" depth="1" NCoef="0" IVar="3" Cut="8.4979545593261719e+01" cType="1" res="1.3069906271994114e-02" rms="4.3323773145675659e-01" purity="5.2766132354736328e-01" nType="0">
          <Node pos="l" depth="2" NCoef="0" IVar="-1" Cut="0.0000000000000000e+00" cType="1" res="-1.5660444274544716e-02" rms="4.2090293765068054e-01" purity="3.2704105973243713e-01" nType="-99"/>
          <Node pos="r" depth="2" NCoef="0" IVar="-1" Cut="0.0000000000000000e+00" cType="1" res="5.0039640627801418e-03" rms="4.3370863795280457e-01" purity="5.4720658063888550e-01" nType="-99"/>
        </Node>
        <Node pos="r" depth="1" NCoef="0" IVar="-1" Cut="0.0000000000000000e+00" cType="1" res="-1.6010103747248650e-02" rms="4.1323047876358032e-01" purity="2.8049677610397339e-01" nType="-99"/>
      </Node>
    </BinaryTree>
    <BinaryTree type="DecisionTree" boostWeight="1.0000000000000000e+00" itree="60">
      <Node pos="s" depth="0" NCoef="0" IVar="12" Cut="2.0849499106407166e-01" cType="1" res="-2.7082843007519841e-04" rms="4.3249222636222839e-01" purity="4.9802660942077637e-01" nType="0">
        <Node pos="l" depth="1" NCoef="0" IVar="11" Cut="2.1074674129486084e+00" cType="1" res="7.4426932260394096e-03" rms="4.3238547444343567e-01" purity="5.1095718145370483e-01" nType="0">
          <Node pos="l" depth="2" NCoef="0" IVar="-1" Cut="0.0000000000000000e+00" cType="1" res="1.4981398358941078e-02" rms="4.3299418687820435e-01" purity="5.1801043748855591e-01" nType="-99"/>
          <Node pos="r" depth="2" NCoef="0" IVar="-1" Cut="0.0000000000000000e+00" cType="1" res="-4.5762196532450616e-04" rms="4.3159881234169006e-01" purity="5.0974655151367188e-01" nType="-99"/>
        </Node>
        <Node pos="r" depth="1" NCoef="0" IVar="-1" Cut="0.0000000000000000e+00" cType="1" res="-2.1812628954648972e-02" rms="4.2346608638763428e-01" purity="3.4706890583038330e-01" nType="-99"/>
      </Node>
    </BinaryTree>
    <BinaryTree type="DecisionTree" boostWeight="1.0000000000000000e+00" itree="61">
      <Node pos="s" depth="0" NCoef="0" IVar="9" Cut="4.7733932733535767e-01" cType="1" res="7.5507150031626225e-03" rms="4.3346181511878967e-01" purity="5.0965917110443115e-01" nType="0">
        <Node pos="l" depth="1" NCoef="0" IVar="2" Cut="1.9069427251815796e+00" cType="1" res="1.7451763153076172e-02" rms="4.3641573190689087e-01" purity="5.5134814977645874e-01" nType="0">
          <Node pos="l" depth="2" NCoef="0" IVar="-1" Cut="0.0000000000000000e+00" cType="1" res="1.2720343656837940e-03" rms="4.3706879019737244e-01" purity="5.2136594057083130e-01" nType="-99"/>
          <Node pos="r" depth="2" NCoef="0" IVar="-1" Cut="0.0000000000000000e+00" cType="1" res="1.1365549638867378e-02" rms="4.3355149030685425e-01" purity="6.2107384204864502e-01" nType="-99"/>
        </Node>
        <Node pos="r" depth="1" NCoef="0" IVar="6" Cut="1.9106849431991577e+00" cType="1" res="-3.7537772208452225e-02" rms="4.1678327322006226e-01" purity="3.1981128454208374e-01" nType="0">
          <Node pos="l" depth="2" NCoef="0" IVar="-1" Cut="0.0000000000000000e+00" cType="1" res="-1.6877112910151482e-02" rms="3.9921727776527405e-01" purity="2.4992899596691132e-01" nType="-99"/>
          <Node pos="r" depth="2" NCoef="0" IVar="-1" Cut="0.0000000000000000e+00" cType="1" res="6.9391299039125443e-03" rms="4.5079454779624939e-01" purity="4.9501845240592957e-01" nType="-99"/>
        </Node>
      </Node>
    </BinaryTree>
    <BinaryTree type="DecisionTree" boostWeight="1.0000000000000000e+00" itree="62">
      <Node pos="s" depth="0" NCoef="0" IVar="11" Cut="2.0678508281707764e+00" cType="1" res="-1.5243244124576449e-03" rms="4.3354195356369019e-01" purity="5.0062835216522217e-01" nType="0">
        <Node pos="l" depth="1" NCoef="0" IVar="10" Cut="1.7331242561340332e-01" cType="1" res="4.5467853546142578e-02" rms="4.4178366661071777e-01" purity="5.1053857803344727e-01" nType="0">
          <Node pos="l" depth="2" NCoef="0" IVar="-1" Cut="0.0000000000000000e+00" cType="1" res="2.1644892171025276e-02" rms="4.4389674067497253e-01" purity="5.7527393102645874e-01" nType="-99"/>
          <Node pos="r" depth="2" NCoef="0" IVar="-1" Cut="0.0000000000000000e+00" cType="1" res="2.7313125319778919e-03" rms="4.3706780672073364e-01" purity="4.6330934762954712e-01" nType="-99"/>
        </Node>
        <Node pos="r" depth="1" NCoef="0" IVar="0" Cut="2.4281169433593750e+03" cType="1" res="-9.3877753242850304e-03" rms="4.3164807558059692e-01" purity="4.9897000193595886e-01" nType="0">
          <Node pos="l" depth="2" NCoef="0" IVar="-1" Cut="0.0000000000000000e+00" cType="1" res="-3.7127707619220018e-03" rms="4.4057759642601013e-01" purity="4.7083330154418945e-01" nType="-99"/>
          <Node pos="r" depth="2" NCoef="0" IVar="-1" Cut="0.0000000000000000e+00" cType="1" res="3.0091572552919388e-02" rms="2.5312119722366333e-01" purity="9.1079604625701904e-01" nType="-99"/>
        </Node>
      </Node>
    </BinaryTree>
    <BinaryTree type="DecisionTree" boostWeight="1.0000000000000000e+00" itree="63">
      <Node pos="s" depth="0" NCoef="0" IVar="7" Cut="2.0902083814144135e-01" cType="1" res="-6.9767907261848450e-03" rms="4.3307170271873474e-01" purity="4.9032017588615417e-01" nType="0">
        <Node pos="l" depth="1" NCoef="0" IVar="11" Cut="2.8598570823669434e+00" cType="1" res="2.5487313047051430e-02" rms="4.3357473611831665e-01" purity="6.3865429162979126e-01" nType="0">
          <Node pos="l" depth="2" NCoef="0" IVar="-1" Cut="0.0000000000000000e+00" cType="1" res="1.7934583127498627e-02" rms="4.3694442510604858e-01" purity="6.4922517538070679e-01" nType="-99"/>
          <Node pos="r" depth="2" NCoef="0" IVar="-1" Cut="0.0000000000000000e+00" cType="1" res="1.3247251044958830e-03" rms="4.3053412437438965e-01" purity="6.3430988788604736e-01" nType="-99"/>
        </Node>
        <Node pos="r" depth="1" NCoef="0" IVar="11" Cut="3.2671329975128174e+00" cType="1" res="-2.4412048980593681e-02" rms="4.3179503083229065e-01" purity="4.1065540909767151e-01" nType="0">
