<?xml version="1.0"?>
<MethodSetup Method="BDT::BDTG_20var">
  <GeneralInfo>
    <Info name="TMVA Release" value="4.2.1 [262657]"/>
    <Info name="ROOT Release" value="6.12/07 [396295]"/>
    <Info name="Creator" value="ceballos"/>
    <Info name="Date" value="Tue Jan 28 11:23:12 2020"/>
    <Info name="Host" value="Linux vocms0315.cern.ch 2.6.32-696.30.1.el6.x86_64 #1 SMP Tue May 22 06:09:36 CEST 2018 x86_64 x86_64 x86_64 GNU/Linux"/>
    <Info name="Dir" value="/home/ceballos/cms/cmssw/051/CMSSW_10_3_2/src"/>
    <Info name="Training events" value="58823"/>
    <Info name="TrainingTime" value="5.05119481e+01"/>
    <Info name="AnalysisType" value="Classification"/>
  </GeneralInfo>
  <Options>
    <Option name="V" modified="Yes">False</Option>
    <Option name="VerbosityLevel" modified="No">Default</Option>
    <Option name="VarTransform" modified="No">None</Option>
    <Option name="H" modified="Yes">False</Option>
    <Option name="CreateMVAPdfs" modified="No">False</Option>
    <Option name="IgnoreNegWeightsInTraining" modified="No">False</Option>
    <Option name="NTrees" modified="Yes">1000</Option>
    <Option name="MaxDepth" modified="Yes">2</Option>
    <Option name="MinNodeSize" modified="Yes">5%</Option>
    <Option name="nCuts" modified="Yes">10000</Option>
    <Option name="BoostType" modified="Yes">Grad</Option>
    <Option name="AdaBoostR2Loss" modified="No">quadratic</Option>
    <Option name="UseBaggedBoost" modified="Yes">True</Option>
    <Option name="Shrinkage" modified="Yes">1.000000e-01</Option>
    <Option name="AdaBoostBeta" modified="No">5.000000e-01</Option>
    <Option name="UseRandomisedTrees" modified="No">False</Option>
    <Option name="UseNvars" modified="No">5</Option>
    <Option name="UsePoissonNvars" modified="No">True</Option>
    <Option name="BaggedSampleFraction" modified="No">5.000000e-01</Option>
    <Option name="UseYesNoLeaf" modified="No">True</Option>
    <Option name="NegWeightTreatment" modified="Yes">ignorenegweightsintraining</Option>
    <Option name="Css" modified="No">1.000000e+00</Option>
    <Option name="Cts_sb" modified="No">1.000000e+00</Option>
    <Option name="Ctb_ss" modified="No">1.000000e+00</Option>
    <Option name="Cbb" modified="No">1.000000e+00</Option>
    <Option name="NodePurityLimit" modified="No">5.000000e-01</Option>
    <Option name="SeparationType" modified="No">giniindex</Option>
    <Option name="RegressionLossFunctionBDTG" modified="No">huber</Option>
    <Option name="HuberQuantile" modified="No">7.000000e-01</Option>
    <Option name="DoBoostMonitor" modified="No">False</Option>
    <Option name="UseFisherCuts" modified="No">False</Option>
    <Option name="MinLinCorrForFisher" modified="No">8.000000e-01</Option>
    <Option name="UseExclusiveVars" modified="No">False</Option>
    <Option name="DoPreselection" modified="No">False</Option>
    <Option name="SigToBkgFraction" modified="No">1.000000e+00</Option>
    <Option name="PruneMethod" modified="No">nopruning</Option>
    <Option name="PruneStrength" modified="No">0.000000e+00</Option>
    <Option name="PruningValFraction" modified="No">5.000000e-01</Option>
    <Option name="SkipNormalization" modified="No">False</Option>
    <Option name="nEventsMin" modified="No">0</Option>
    <Option name="UseBaggedGrad" modified="No">False</Option>
    <Option name="GradBaggingFraction" modified="Yes">5.000000e-01</Option>
    <Option name="UseNTrainEvents" modified="No">0</Option>
    <Option name="NNodesMax" modified="No">0</Option>
  </Options>
  <Variables NVar="20">
    <Variable VarIndex="0" Expression="mvamjj" Label="mvamjj" Title="mvamjj" Unit="" Internal="mvamjj" Type="F" Min="5.00011505e+02" Max="8.50562500e+03"/>
    <Variable VarIndex="1" Expression="mvadetajj" Label="mvadetajj" Title="mvadetajj" Unit="" Internal="mvadetajj" Type="F" Min="2.50018930e+00" Max="9.08534050e+00"/>
    <Variable VarIndex="2" Expression="mvadphijj" Label="mvadphijj" Title="mvadphijj" Unit="" Internal="mvadphijj" Type="F" Min="-3.14157367e+00" Max="3.14137316e+00"/>
    <Variable VarIndex="3" Expression="mvajetpt1" Label="mvajetpt1" Title="mvajetpt1" Unit="" Internal="mvajetpt1" Type="F" Min="5.05005722e+01" Max="1.67924976e+03"/>
    <Variable VarIndex="4" Expression="mvajetpt2" Label="mvajetpt2" Title="mvajetpt2" Unit="" Internal="mvajetpt2" Type="F" Min="5.00006981e+01" Max="1.45264734e+03"/>
    <Variable VarIndex="5" Expression="mvajeteta1" Label="mvajeteta1" Title="mvajeteta1" Unit="" Internal="mvajeteta1" Type="F" Min="-4.69844055e+00" Max="4.63340044e+00"/>
    <Variable VarIndex="6" Expression="mvaWlZdeta" Label="mvaWlZdeta" Title="mvaWlZdeta" Unit="" Internal="mvaWlZdeta" Type="F" Min="5.44579016e-05" Max="7.43716240e+00"/>
    <Variable VarIndex="7" Expression="mvazstar" Label="mvazstar" Title="mvazstar" Unit="" Internal="mvazstar" Type="F" Min="6.48300784e-07" Max="1.99122322e+00"/>
    <Variable VarIndex="8" Expression="mvazep1" Label="mvazep1" Title="mvazep1" Unit="" Internal="mvazep1" Type="F" Min="3.78908248e-06" Max="1.43219137e+00"/>
    <Variable VarIndex="9" Expression="mvazep2" Label="mvazep2" Title="mvazep2" Unit="" Internal="mvazep2" Type="F" Min="5.54831922e-06" Max="1.51293290e+00"/>
    <Variable VarIndex="10" Expression="mvazep3" Label="mvazep3" Title="mvazep3" Unit="" Internal="mvazep3" Type="F" Min="0.00000000e+00" Max="1.64575803e+00"/>
    <Variable VarIndex="11" Expression="mvaj1Zdr" Label="mvaj1Zdr" Title="mvaj1Zdr" Unit="" Internal="mvaj1Zdr" Type="F" Min="1.76054910e-02" Max="8.64919758e+00"/>
    <Variable VarIndex="12" Expression="mvapttot/mvasumpttot" Label="mvapttot/mvasumpttot" Title="mvapttotN" Unit="" Internal="mvapttot_D_mvasumpttot" Type="F" Min="3.37780395e-04" Max="7.29336917e-01"/>
    <Variable VarIndex="13" Expression="mvamaxzep" Label="mvamaxzep" Title="mvamaxzep" Unit="" Internal="mvamaxzep" Type="F" Min="9.06316657e-03" Max="1.64575803e+00"/>
    <Variable VarIndex="14" Expression="mvajeteta2" Label="mvajeteta2" Title="mvajeteta2" Unit="" Internal="mvajeteta2" Type="F" Min="-4.68824291e+00" Max="4.69395256e+00"/>
    <Variable VarIndex="15" Expression="mvaWpt" Label="mvaWpt" Title="mvaWpt" Unit="" Internal="mvaWpt" Type="F" Min="5.95369995e-01" Max="1.98813049e+03"/>
    <Variable VarIndex="16" Expression="mvaZpt" Label="mvaZpt" Title="mvaZpt" Unit="" Internal="mvaZpt" Type="F" Min="4.18631673e-01" Max="1.41033899e+03"/>
    <Variable VarIndex="17" Expression="mvaVVmt" Label="mvaVVmt" Title="mvaVVmt" Unit="" Internal="mvaVVmt" Type="F" Min="3.86258285e-03" Max="1.87781580e+03"/>
    <Variable VarIndex="18" Expression="mvaj2Zdr" Label="mvaj2Zdr" Title="mvaj2Zdr" Unit="" Internal="mvaj2Zdr" Type="F" Min="2.84289159e-02" Max="1.14538603e+01"/>
    <Variable VarIndex="19" Expression="mvasumpttot" Label="mvasumpttot" Title="mvasumpttot" Unit="" Internal="mvasumpttot" Type="F" Min="2.05800598e+02" Max="4.12864648e+03"/>
  </Variables>
  <Spectators NSpec="0"/>
  <Classes NClass="2">
    <Class Name="Background" Index="0"/>
    <Class Name="Signal" Index="1"/>
  </Classes>
  <Transformations NTransformations="0"/>
  <MVAPdfs/>
  <Weights NTrees="1000" AnalysisType="1">
    <BinaryTree type="DecisionTree" boostWeight="1.0000000000000000e+00" itree="0">
      <Node pos="s" depth="0" NCoef="0" IVar="0" Cut="9.9986096191406250e+02" cType="1" res="-3.1634378246963024e-03" rms="4.9998998641967773e-01" purity="4.9683654308319092e-01" nType="0">
        <Node pos="l" depth="1" NCoef="0" IVar="18" Cut="2.8522651195526123e+00" cType="1" res="-1.6027596592903137e-01" rms="4.7361546754837036e-01" purity="3.3972400426864624e-01" nType="0">
          <Node pos="l" depth="2" NCoef="0" IVar="-1" Cut="0.0000000000000000e+00" cType="1" res="-1.0090962052345276e-02" rms="4.9744778871536255e-01" purity="4.4954520463943481e-01" nType="-99"/>
          <Node pos="r" depth="2" NCoef="0" IVar="-1" Cut="0.0000000000000000e+00" cType="1" res="-4.7166597098112106e-02" rms="4.4088864326477051e-01" purity="2.6416701078414917e-01" nType="-99"/>
        </Node>
        <Node pos="r" depth="1" NCoef="0" IVar="7" Cut="3.0550119280815125e-01" cType="1" res="1.8684729933738708e-01" rms="4.6377590298652649e-01" purity="6.8684732913970947e-01" nType="0">
          <Node pos="l" depth="2" NCoef="0" IVar="-1" Cut="0.0000000000000000e+00" cType="1" res="5.6122533977031708e-02" rms="4.1383153200149536e-01" purity="7.8061264753341675e-01" nType="-99"/>
          <Node pos="r" depth="2" NCoef="0" IVar="-1" Cut="0.0000000000000000e+00" cType="1" res="1.1159007437527180e-02" rms="4.9687716364860535e-01" purity="5.5579507350921631e-01" nType="-99"/>
        </Node>
      </Node>
    </BinaryTree>
    <BinaryTree type="DecisionTree" boostWeight="1.0000000000000000e+00" itree="1">
      <Node pos="s" depth="0" NCoef="0" IVar="0" Cut="1.1968197021484375e+03" cType="1" res="2.7253765147179365e-03" rms="4.9235066771507263e-01" purity="5.0279587507247925e-01" nType="0">
        <Node pos="l" depth="1" NCoef="0" IVar="0" Cut="7.8525421142578125e+02" cType="1" res="-1.1370425671339035e-01" rms="4.8101669549942017e-01" purity="3.7609860301017761e-01" nType="0">
          <Node pos="l" depth="2" NCoef="0" IVar="-1" Cut="0.0000000000000000e+00" cType="1" res="-3.9010897278785706e-02" rms="4.5221507549285889e-01" purity="2.8967097401618958e-01" nType="-99"/>
          <Node pos="r" depth="2" NCoef="0" IVar="-1" Cut="0.0000000000000000e+00" cType="1" res="-1.7276619328185916e-03" rms="4.9662995338439941e-01" purity="4.8808524012565613e-01" nType="-99"/>
        </Node>
        <Node pos="r" depth="1" NCoef="0" IVar="7" Cut="3.5804215073585510e-01" cType="1" res="2.1984246373176575e-01" rms="4.3653532862663269e-01" purity="7.3905998468399048e-01" nType="0">
          <Node pos="l" depth="2" NCoef="0" IVar="-1" Cut="0.0000000000000000e+00" cType="1" res="5.8055702596902847e-02" rms="3.8809165358543396e-01" purity="8.1455492973327637e-01" nType="-99"/>
          <Node pos="r" depth="2" NCoef="0" IVar="-1" Cut="0.0000000000000000e+00" cType="1" res="1.1532254517078400e-02" rms="4.9598544836044312e-01" purity="5.6323337554931641e-01" nType="-99"/>
        </Node>
      </Node>
    </BinaryTree>
    <BinaryTree type="DecisionTree" boostWeight="1.0000000000000000e+00" itree="2">
      <Node pos="s" depth="0" NCoef="0" IVar="0" Cut="1.4373221435546875e+03" cType="1" res="3.4049327950924635e-03" rms="4.8570093512535095e-01" purity="5.0329369306564331e-01" nType="0">
        <Node pos="l" depth="1" NCoef="0" IVar="0" Cut="7.7432531738281250e+02" cType="1" res="-7.9558603465557098e-02" rms="4.8385554552078247e-01" purity="4.0671649575233459e-01" nType="0">
          <Node pos="l" depth="2" NCoef="0" IVar="-1" Cut="0.0000000000000000e+00" cType="1" res="-3.5347558557987213e-02" rms="4.5194002985954285e-01" purity="2.8922283649444580e-01" nType="-99"/>
          <Node pos="r" depth="2" NCoef="0" IVar="-1" Cut="0.0000000000000000e+00" cType="1" res="1.3590226881206036e-03" rms="4.9511638283729553e-01" purity="5.1209807395935059e-01" nType="-99"/>
        </Node>
        <Node pos="r" depth="1" NCoef="0" IVar="7" Cut="3.8368454575538635e-01" cType="1" res="2.6308628916740417e-01" rms="3.9054745435714722e-01" purity="8.0558663606643677e-01" nType="0">
          <Node pos="l" depth="2" NCoef="0" IVar="-1" Cut="0.0000000000000000e+00" cType="1" res="6.3849329948425293e-02" rms="3.3744329214096069e-01" purity="8.6805063486099243e-01" nType="-99"/>
          <Node pos="r" depth="2" NCoef="0" IVar="-1" Cut="0.0000000000000000e+00" cType="1" res="1.9851904362440109e-02" rms="4.8762509226799011e-01" purity="6.1055213212966919e-01" nType="-99"/>
        </Node>
      </Node>
    </BinaryTree>
    <BinaryTree type="DecisionTree" boostWeight="1.0000000000000000e+00" itree="3">
      <Node pos="s" depth="0" NCoef="0" IVar="0" Cut="1.0603690185546875e+03" cType="1" res="3.6399262025952339e-03" rms="4.8126712441444397e-01" purity="5.0575959682464600e-01" nType="0">
        <Node pos="l" depth="1" NCoef="0" IVar="18" Cut="2.8771722316741943e+00" cType="1" res="-1.0477428883314133e-01" rms="4.7590366005897522e-01" purity="3.5994943976402283e-01" nType="0">
          <Node pos="l" depth="2" NCoef="0" IVar="-1" Cut="0.0000000000000000e+00" cType="1" res="-4.4839018955826759e-03" rms="4.9429413676261902e-01" purity="4.5072668790817261e-01" nType="-99"/>
          <Node pos="r" depth="2" NCoef="0" IVar="-1" Cut="0.0000000000000000e+00" cType="1" res="-3.4036822617053986e-02" rms="4.5092546939849854e-01" purity="2.8967714309692383e-01" nType="-99"/>
        </Node>
        <Node pos="r" depth="1" NCoef="0" IVar="13" Cut="3.8159605860710144e-01" cType="1" res="1.5037876367568970e-01" rms="4.4847047328948975e-01" purity="7.0311391353607178e-01" nType="0">
          <Node pos="l" depth="2" NCoef="0" IVar="-1" Cut="0.0000000000000000e+00" cType="1" res="4.7244656831026077e-02" rms="3.9848643541336060e-01" purity="7.9681229591369629e-01" nType="-99"/>
          <Node pos="r" depth="2" NCoef="0" IVar="-1" Cut="0.0000000000000000e+00" cType="1" res="5.7485122233629227e-03" rms="4.8991116881370544e-01" purity="5.6230700016021729e-01" nType="-99"/>
        </Node>
      </Node>
    </BinaryTree>
    <BinaryTree type="DecisionTree" boostWeight="1.0000000000000000e+00" itree="4">
      <Node pos="s" depth="0" NCoef="0" IVar="0" Cut="1.4253731689453125e+03" cType="1" res="-5.5644479580223560e-03" rms="4.7480234503746033e-01" purity="4.9456161260604858e-01" nType="0">
        <Node pos="l" depth="1" NCoef="0" IVar="0" Cut="7.8230969238281250e+02" cType="1" res="-7.8321307897567749e-02" rms="4.7753953933715820e-01" purity="3.9476376771926880e-01" nType="0">
          <Node pos="l" depth="2" NCoef="0" IVar="-1" Cut="0.0000000000000000e+00" cType="1" res="-3.2629847526550293e-02" rms="4.4516679644584656e-01" purity="2.7703052759170532e-01" nType="-99"/>
          <Node pos="r" depth="2" NCoef="0" IVar="-1" Cut="0.0000000000000000e+00" cType="1" res="-8.3806931797880679e-05" rms="4.9388694763183594e-01" purity="5.0648516416549683e-01" nType="-99"/>
        </Node>
        <Node pos="r" depth="1" NCoef="0" IVar="8" Cut="3.5330298542976379e-01" cType="1" res="2.1908479928970337e-01" rms="3.8804185390472412e-01" purity="8.0270451307296753e-01" nType="0">
          <Node pos="l" depth="2" NCoef="0" IVar="-1" Cut="0.0000000000000000e+00" cType="1" res="5.5961657315492630e-02" rms="3.3971560001373291e-01" purity="8.6420518159866333e-01" nType="-99"/>
          <Node pos="r" depth="2" NCoef="0" IVar="-1" Cut="0.0000000000000000e+00" cType="1" res="7.8394571319222450e-03" rms="4.8627912998199463e-01" purity="5.7998174428939819e-01" nType="-99"/>
        </Node>
      </Node>
    </BinaryTree>
    <BinaryTree type="DecisionTree" boostWeight="1.0000000000000000e+00" itree="5">
      <Node pos="s" depth="0" NCoef="0" IVar="0" Cut="9.1147137451171875e+02" cType="1" res="-3.6257093306630850e-03" rms="4.7038170695304871e-01" purity="4.9706947803497314e-01" nType="0">
        <Node pos="l" depth="1" NCoef="0" IVar="7" Cut="2.6141226291656494e-01" cType="1" res="-1.2293574959039688e-01" rms="4.5817005634307861e-01" purity="3.1111681461334229e-01" nType="0">
          <Node pos="l" depth="2" NCoef="0" IVar="-1" Cut="0.0000000000000000e+00" cType="1" res="-8.7524568662047386e-03" rms="4.8509007692337036e-01" purity="3.9567494392395020e-01" nType="-99"/>
          <Node pos="r" depth="2" NCoef="0" IVar="-1" Cut="0.0000000000000000e+00" cType="1" res="-3.5189621150493622e-02" rms="4.3353042006492615e-01" purity="2.5910708308219910e-01" nType="-99"/>
        </Node>
        <Node pos="r" depth="1" NCoef="0" IVar="7" Cut="2.8902748227119446e-01" cType="1" res="1.0506744682788849e-01" rms="4.5476001501083374e-01" purity="6.6647505760192871e-01" nType="0">
          <Node pos="l" depth="2" NCoef="0" IVar="-1" Cut="0.0000000000000000e+00" cType="1" res="4.0298566222190857e-02" rms="4.0317410230636597e-01" purity="7.8078866004943848e-01" nType="-99"/>
          <Node pos="r" depth="2" NCoef="0" IVar="-1" Cut="0.0000000000000000e+00" cType="1" res="1.4624180039390922e-04" rms="4.8933908343315125e-01" purity="5.3040474653244019e-01" nType="-99"/>
        </Node>
      </Node>
    </BinaryTree>
    <BinaryTree type="DecisionTree" boostWeight="1.0000000000000000e+00" itree="6">
      <Node pos="s" depth="0" NCoef="0" IVar="0" Cut="1.1387955322265625e+03" cType="1" res="5.4243872873485088e-03" rms="4.6763563156127930e-01" purity="5.0557589530944824e-01" nType="0">
        <Node pos="l" depth="1" NCoef="0" IVar="18" Cut="2.6083657741546631e+00" cType="1" res="-7.2224996984004974e-02" rms="4.7258201241493225e-01" purity="3.7007486820220947e-01" nType="0">
          <Node pos="l" depth="2" NCoef="0" IVar="-1" Cut="0.0000000000000000e+00" cType="1" res="6.1662476509809494e-03" rms="4.9252092838287354e-01" purity="4.9152836203575134e-01" nType="-99"/>
          <Node pos="r" depth="2" NCoef="0" IVar="-1" Cut="0.0000000000000000e+00" cType="1" res="-2.5473486632108688e-02" rms="4.5350980758666992e-01" purity="3.0893018841743469e-01" nType="-99"/>
        </Node>
        <Node pos="r" depth="1" NCoef="0" IVar="0" Cut="1.6721950683593750e+03" cType="1" res="1.3738010823726654e-01" rms="4.2792665958404541e-01" purity="7.3584353923797607e-01" nType="0">
          <Node pos="l" depth="2" NCoef="0" IVar="-1" Cut="0.0000000000000000e+00" cType="1" res="1.2906625866889954e-02" rms="4.7118821740150452e-01" purity="6.3978648185729980e-01" nType="-99"/>
          <Node pos="r" depth="2" NCoef="0" IVar="-1" Cut="0.0000000000000000e+00" cType="1" res="4.6508766710758209e-02" rms="3.5988420248031616e-01" purity="8.3779889345169067e-01" nType="-99"/>
        </Node>
      </Node>
    </BinaryTree>
    <BinaryTree type="DecisionTree" boostWeight="1.0000000000000000e+00" itree="7">
      <Node pos="s" depth="0" NCoef="0" IVar="0" Cut="1.4990139160156250e+03" cType="1" res="-2.4976015556603670e-03" rms="4.6646222472190857e-01" purity="4.9808958172798157e-01" nType="0">
        <Node pos="l" depth="1" NCoef="0" IVar="7" Cut="4.1977158188819885e-01" cType="1" res="-4.9120273441076279e-02" rms="4.7572711110115051e-01" purity="4.1239866614341736e-01" nType="0">
          <Node pos="l" depth="2" NCoef="0" IVar="-1" Cut="0.0000000000000000e+00" cType="1" res="1.5834433725103736e-03" rms="4.8459851741790771e-01" purity="4.8340967297554016e-01" nType="-99"/>
          <Node pos="r" depth="2" NCoef="0" IVar="-1" Cut="0.0000000000000000e+00" cType="1" res="-3.1433112919330597e-02" rms="4.4062435626983643e-01" purity="2.8291106224060059e-01" nType="-99"/>
        </Node>
        <Node pos="r" depth="1" NCoef="0" IVar="0" Cut="1.8663237304687500e+03" cType="1" res="1.6019137203693390e-01" rms="3.9124619960784912e-01" purity="7.9710638523101807e-01" nType="0">
          <Node pos="l" depth="2" NCoef="0" IVar="-1" Cut="0.0000000000000000e+00" cType="1" res="1.7241163179278374e-02" rms="4.4501867890357971e-01" purity="7.0526790618896484e-01" nType="-99"/>
          <Node pos="r" depth="2" NCoef="0" IVar="-1" Cut="0.0000000000000000e+00" cType="1" res="4.7596298158168793e-02" rms="3.3782196044921875e-01" purity="8.6109429597854614e-01" nType="-99"/>
        </Node>
      </Node>
    </BinaryTree>
    <BinaryTree type="DecisionTree" boostWeight="1.0000000000000000e+00" itree="8">
      <Node pos="s" depth="0" NCoef="0" IVar="7" Cut="3.8785606622695923e-01" cType="1" res="-3.4354676026850939e-03" rms="4.6315383911132812e-01" purity="4.9788948893547058e-01" nType="0">
        <Node pos="l" depth="1" NCoef="0" IVar="0" Cut="8.5735125732421875e+02" cType="1" res="5.6628182530403137e-02" rms="4.5662790536880493e-01" purity="5.8802509307861328e-01" nType="0">
          <Node pos="l" depth="2" NCoef="0" IVar="-1" Cut="0.0000000000000000e+00" cType="1" res="-1.1733047664165497e-02" rms="4.7700533270835876e-01" purity="3.6359995603561401e-01" nType="-99"/>
          <Node pos="r" depth="2" NCoef="0" IVar="-1" Cut="0.0000000000000000e+00" cType="1" res="2.7560744434595108e-02" rms="4.2796200513839722e-01" purity="7.2997313737869263e-01" nType="-99"/>
        </Node>
        <Node pos="r" depth="1" NCoef="0" IVar="18" Cut="3.1187474727630615e+00" cType="1" res="-1.1061447113752365e-01" rms="4.5529928803443909e-01" purity="3.3704930543899536e-01" nType="0">
          <Node pos="l" depth="2" NCoef="0" IVar="-1" Cut="0.0000000000000000e+00" cType="1" res="4.6411002404056489e-04" rms="4.8343268036842346e-01" purity="4.6210110187530518e-01" nType="-99"/>
          <Node pos="r" depth="2" NCoef="0" IVar="-1" Cut="0.0000000000000000e+00" cType="1" res="-3.6171838641166687e-02" rms="4.2582896351814270e-01" purity="2.6691225171089172e-01" nType="-99"/>
        </Node>
      </Node>
    </BinaryTree>
    <BinaryTree type="DecisionTree" boostWeight="1.0000000000000000e+00" itree="9">
      <Node pos="s" depth="0" NCoef="0" IVar="0" Cut="8.0899914550781250e+02" cType="1" res="4.6424702741205692e-03" rms="4.5831689238548279e-01" purity="5.0395739078521729e-01" nType="0">
        <Node pos="l" depth="1" NCoef="0" IVar="18" Cut="2.5942399501800537e+00" cType="1" res="-1.0645443946123123e-01" rms="4.4673520326614380e-01" purity="2.8672456741333008e-01" nType="0">
          <Node pos="l" depth="2" NCoef="0" IVar="-1" Cut="0.0000000000000000e+00" cType="1" res="-8.5918400436639786e-03" rms="4.8619505763053894e-01" purity="3.8608795404434204e-01" nType="-99"/>
          <Node pos="r" depth="2" NCoef="0" IVar="-1" Cut="0.0000000000000000e+00" cType="1" res="-2.9854400083422661e-02" rms="4.2120623588562012e-01" purity="2.3564031720161438e-01" nType="-99"/>
        </Node>
        <Node pos="r" depth="1" NCoef="0" IVar="9" Cut="3.5106256604194641e-01" cType="1" res="7.5764127075672150e-02" rms="4.5144769549369812e-01" purity="6.4302486181259155e-01" nType="0">
          <Node pos="l" depth="2" NCoef="0" IVar="-1" Cut="0.0000000000000000e+00" cType="1" res="2.6292793452739716e-02" rms="4.3205150961875916e-01" purity="7.1176362037658691e-01" nType="-99"/>
          <Node pos="r" depth="2" NCoef="0" IVar="-1" Cut="0.0000000000000000e+00" cType="1" res="-7.4922568164765835e-03" rms="4.7619920969009399e-01" purity="4.7920379042625427e-01" nType="-99"/>
        </Node>
      </Node>
    </BinaryTree>
    <BinaryTree type="DecisionTree" boostWeight="1.0000000000000000e+00" itree="10">
      <Node pos="s" depth="0" NCoef="0" IVar="0" Cut="1.1980432128906250e+03" cType="1" res="6.5272749634459615e-04" rms="4.5815423130989075e-01" purity="5.0191771984100342e-01" nType="0">
        <Node pos="l" depth="1" NCoef="0" IVar="4" Cut="5.8594043731689453e+01" cType="1" res="-5.3418423980474472e-02" rms="4.6959298849105835e-01" purity="3.7603837251663208e-01" nType="0">
          <Node pos="l" depth="2" NCoef="0" IVar="-1" Cut="0.0000000000000000e+00" cType="1" res="-3.5578668117523193e-02" rms="4.1895958781242371e-01" purity="2.4635119736194611e-01" nType="-99"/>
          <Node pos="r" depth="2" NCoef="0" IVar="-1" Cut="0.0000000000000000e+00" cType="1" res="-5.8016655966639519e-03" rms="4.7625163197517395e-01" purity="4.0461340546607971e-01" nType="-99"/>
        </Node>
        <Node pos="r" depth="1" NCoef="0" IVar="8" Cut="2.5921273231506348e-01" cType="1" res="1.0545118898153305e-01" rms="4.1555720567703247e-01" purity="7.4589186906814575e-01" nType="0">
          <Node pos="l" depth="2" NCoef="0" IVar="-1" Cut="0.0000000000000000e+00" cType="1" res="3.7014905363321304e-02" rms="3.6646467447280884e-01" purity="8.3141940832138062e-01" nType="-99"/>
          <Node pos="r" depth="2" NCoef="0" IVar="-1" Cut="0.0000000000000000e+00" cType="1" res="4.3006022460758686e-03" rms="4.6801546216011047e-01" purity="6.1583495140075684e-01" nType="-99"/>
        </Node>
      </Node>
    </BinaryTree>
    <BinaryTree type="DecisionTree" boostWeight="1.0000000000000000e+00" itree="11">
      <Node pos="s" depth="0" NCoef="0" IVar="0" Cut="1.1956824951171875e+03" cType="1" res="-9.8710577003657818e-04" rms="4.5641538500785828e-01" purity="5.0278323888778687e-01" nType="0">
        <Node pos="l" depth="1" NCoef="0" IVar="18" Cut="3.0999391078948975e+00" cType="1" res="-5.1993492990732193e-02" rms="4.6846240758895874e-01" purity="3.7323781847953796e-01" nType="0">
          <Node pos="l" depth="2" NCoef="0" IVar="-1" Cut="0.0000000000000000e+00" cType="1" res="2.2228648886084557e-03" rms="4.8633992671966553e-01" purity="4.5999157428741455e-01" nType="-99"/>
          <Node pos="r" depth="2" NCoef="0" IVar="-1" Cut="0.0000000000000000e+00" cType="1" res="-2.4526992812752724e-02" rms="4.4075974822044373e-01" purity="2.8579372167587280e-01" nType="-99"/>
        </Node>
        <Node pos="r" depth="1" NCoef="0" IVar="6" Cut="1.0041611194610596e+00" cType="1" res="9.4983033835887909e-02" rms="4.1622772812843323e-01" purity="7.4652713537216187e-01" nType="0">
          <Node pos="l" depth="2" NCoef="0" IVar="-1" Cut="0.0000000000000000e+00" cType="1" res="5.7218321599066257e-03" rms="4.4250065088272095e-01" purity="6.8146562576293945e-01" nType="-99"/>
          <Node pos="r" depth="2" NCoef="0" IVar="-1" Cut="0.0000000000000000e+00" cType="1" res="3.3957459032535553e-02" rms="3.8470041751861572e-01" purity="7.9891151189804077e-01" nType="-99"/>
        </Node>
      </Node>
    </BinaryTree>
    <BinaryTree type="DecisionTree" boostWeight="1.0000000000000000e+00" itree="12">
      <Node pos="s" depth="0" NCoef="0" IVar="7" Cut="4.3799471855163574e-01" cType="1" res="-7.2147217579185963e-03" rms="4.5625486969947815e-01" purity="4.9572706222534180e-01" nType="0">
        <Node pos="l" depth="1" NCoef="0" IVar="0" Cut="6.5794683837890625e+02" cType="1" res="3.6794755607843399e-02" rms="4.5472636818885803e-01" purity="5.7423883676528931e-01" nType="0">
          <Node pos="l" depth="2" NCoef="0" IVar="-1" Cut="0.0000000000000000e+00" cType="1" res="-1.7840534448623657e-02" rms="4.5687508583068848e-01" purity="3.0108132958412170e-01" nType="-99"/>
          <Node pos="r" depth="2" NCoef="0" IVar="-1" Cut="0.0000000000000000e+00" cType="1" res="1.4425297267735004e-02" rms="4.4938617944717407e-01" purity="6.3992053270339966e-01" nType="-99"/>
        </Node>
        <Node pos="r" depth="1" NCoef="0" IVar="4" Cut="8.6188438415527344e+01" cType="1" res="-1.0971925407648087e-01" rms="4.4316285848617554e-01" purity="3.1286171078681946e-01" nType="0">
          <Node pos="l" depth="2" NCoef="0" IVar="-1" Cut="0.0000000000000000e+00" cType="1" res="-4.2386226356029510e-02" rms="3.9365357160568237e-01" purity="2.0282538235187531e-01" nType="-99"/>
          <Node pos="r" depth="2" NCoef="0" IVar="-1" Cut="0.0000000000000000e+00" cType="1" res="-4.6084988862276077e-03" rms="4.7199341654777527e-01" purity="4.2366424202919006e-01" nType="-99"/>
        </Node>
      </Node>
    </BinaryTree>
    <BinaryTree type="DecisionTree" boostWeight="1.0000000000000000e+00" itree="13">
      <Node pos="s" depth="0" NCoef="0" IVar="0" Cut="1.6236956787109375e+03" cType="1" res="3.1760931015014648e-03" rms="4.5199167728424072e-01" purity="5.0566303730010986e-01" nType="0">
        <Node pos="l" depth="1" NCoef="0" IVar="18" Cut="3.4184200763702393e+00" cType="1" res="-2.8572414070367813e-02" rms="4.6635183691978455e-01" purity="4.2872893810272217e-01" nType="0">
          <Node pos="l" depth="2" NCoef="0" IVar="-1" Cut="0.0000000000000000e+00" cType="1" res="5.1232012920081615e-03" rms="4.7564715147018433e-01" purity="5.0082594156265259e-01" nType="-99"/>
          <Node pos="r" depth="2" NCoef="0" IVar="-1" Cut="0.0000000000000000e+00" cType="1" res="-2.2668804973363876e-02" rms="4.4165015220642090e-01" purity="3.2505092024803162e-01" nType="-99"/>
        </Node>
        <Node pos="r" depth="1" NCoef="0" IVar="9" Cut="2.7785691618919373e-01" cType="1" res="1.4024296402931213e-01" rms="3.5245317220687866e-01" purity="8.3780813217163086e-01" nType="0">
          <Node pos="l" depth="2" NCoef="0" IVar="-1" Cut="0.0000000000000000e+00" cType="1" res="4.4544771313667297e-02" rms="2.9939371347427368e-01" purity="8.9758116006851196e-01" nType="-99"/>
          <Node pos="r" depth="2" NCoef="0" IVar="-1" Cut="0.0000000000000000e+00" cType="1" res="1.4071308076381683e-02" rms="4.3189728260040283e-01" purity="7.1454054117202759e-01" nType="-99"/>
        </Node>
      </Node>
    </BinaryTree>
    <BinaryTree type="DecisionTree" boostWeight="1.0000000000000000e+00" itree="14">
      <Node pos="s" depth="0" NCoef="0" IVar="8" Cut="3.8269534707069397e-01" cType="1" res="-2.6075965724885464e-03" rms="4.5161727070808411e-01" purity="4.9970391392707825e-01" nType="0">
        <Node pos="l" depth="1" NCoef="0" IVar="0" Cut="8.8003936767578125e+02" cType="1" res="3.7901390343904495e-02" rms="4.4962188601493835e-01" purity="5.7032454013824463e-01" nType="0">
          <Node pos="l" depth="2" NCoef="0" IVar="-1" Cut="0.0000000000000000e+00" cType="1" res="-7.1443459019064903e-03" rms="4.7112387418746948e-01" purity="3.5425770282745361e-01" nType="-99"/>
          <Node pos="r" depth="2" NCoef="0" IVar="-1" Cut="0.0000000000000000e+00" cType="1" res="2.0028201863169670e-02" rms="4.2665079236030579e-01" purity="7.2294908761978149e-01" nType="-99"/>
        </Node>
        <Node pos="r" depth="1" NCoef="0" IVar="6" Cut="1.3816947937011719e+00" cType="1" res="-1.0471728444099426e-01" rms="4.4037294387817383e-01" purity="3.2169276475906372e-01" nType="0">
          <Node pos="l" depth="2" NCoef="0" IVar="-1" Cut="0.0000000000000000e+00" cType="1" res="-3.6993261426687241e-02" rms="4.0937715768814087e-01" purity="2.4395278096199036e-01" nType="-99"/>
          <Node pos="r" depth="2" NCoef="0" IVar="-1" Cut="0.0000000000000000e+00" cType="1" res="-4.9905455671250820e-03" rms="4.6207648515701294e-01" purity="4.1534346342086792e-01" nType="-99"/>
        </Node>
      </Node>
    </BinaryTree>
    <BinaryTree type="DecisionTree" boostWeight="1.0000000000000000e+00" itree="15">
      <Node pos="s" depth="0" NCoef="0" IVar="7" Cut="2.7771666646003723e-01" cType="1" res="-2.5083285290747881e-03" rms="4.4772499799728394e-01" purity="4.9731472134590149e-01" nType="0">
        <Node pos="l" depth="1" NCoef="0" IVar="0" Cut="7.8434295654296875e+02" cType="1" res="6.2722384929656982e-02" rms="4.3790319561958313e-01" purity="6.2854552268981934e-01" nType="0">
          <Node pos="l" depth="2" NCoef="0" IVar="-1" Cut="0.0000000000000000e+00" cType="1" res="-5.6489040143787861e-03" rms="4.7701165080070496e-01" purity="3.5957652330398560e-01" nType="-99"/>
          <Node pos="r" depth="2" NCoef="0" IVar="-1" Cut="0.0000000000000000e+00" cType="1" res="2.3940665647387505e-02" rms="4.1265097260475159e-01" purity="7.5046169757843018e-01" nType="-99"/>
        </Node>
        <Node pos="r" depth="1" NCoef="0" IVar="18" Cut="2.2795505523681641e+00" cType="1" res="-5.8602418750524521e-02" rms="4.4847762584686279e-01" purity="3.8446488976478577e-01" nType="0">
          <Node pos="l" depth="2" NCoef="0" IVar="-1" Cut="0.0000000000000000e+00" cType="1" res="1.3283243402838707e-02" rms="4.7262546420097351e-01" purity="5.5703538656234741e-01" nType="-99"/>
          <Node pos="r" depth="2" NCoef="0" IVar="-1" Cut="0.0000000000000000e+00" cType="1" res="-2.0326528698205948e-02" rms="4.3539062142372131e-01" purity="3.3615377545356750e-01" nType="-99"/>
        </Node>
      </Node>
    </BinaryTree>
    <BinaryTree type="DecisionTree" boostWeight="1.0000000000000000e+00" itree="16">
      <Node pos="s" depth="0" NCoef="0" IVar="8" Cut="4.0887805819511414e-01" cType="1" res="-7.7704978175461292e-03" rms="4.4924029707908630e-01" purity="4.9375039339065552e-01" nType="0">
        <Node pos="l" depth="1" NCoef="0" IVar="0" Cut="7.0768627929687500e+02" cType="1" res="2.0529825240373611e-02" rms="4.5071664452552795e-01" purity="5.5390185117721558e-01" nType="0">
          <Node pos="l" depth="2" NCoef="0" IVar="-1" Cut="0.0000000000000000e+00" cType="1" res="-1.5376647002995014e-02" rms="4.4739195704460144e-01" purity="2.8980994224548340e-01" nType="-99"/>
          <Node pos="r" depth="2" NCoef="0" IVar="-1" Cut="0.0000000000000000e+00" cType="1" res="1.1598935350775719e-02" rms="4.4765505194664001e-01" purity="6.4411211013793945e-01" nType="-99"/>
        </Node>
        <Node pos="r" depth="1" NCoef="0" IVar="6" Cut="1.5066059827804565e+00" cType="1" res="-9.3863181769847870e-02" rms="4.3350493907928467e-01" purity="3.1076321005821228e-01" nType="0">
          <Node pos="l" depth="2" NCoef="0" IVar="-1" Cut="0.0000000000000000e+00" cType="1" res="-3.4656561911106110e-02" rms="3.9423102140426636e-01" purity="2.2858250141143799e-01" nType="-99"/>
          <Node pos="r" depth="2" NCoef="0" IVar="-1" Cut="0.0000000000000000e+00" cType="1" res="-7.8581098932772875e-04" rms="4.6918657422065735e-01" purity="4.2728182673454285e-01" nType="-99"/>
        </Node>
      </Node>
    </BinaryTree>
    <BinaryTree type="DecisionTree" boostWeight="1.0000000000000000e+00" itree="17">
      <Node pos="s" depth="0" NCoef="0" IVar="0" Cut="1.8408193359375000e+03" cType="1" res="2.0921495743095875e-03" rms="4.4764366745948792e-01" purity="5.0254482030868530e-01" nType="0">
        <Node pos="l" depth="1" NCoef="0" IVar="7" Cut="3.3529320359230042e-01" cType="1" res="-1.9016329199075699e-02" rms="4.6059191226959229e-01" purity="4.4363942742347717e-01" nType="0">
          <Node pos="l" depth="2" NCoef="0" IVar="-1" Cut="0.0000000000000000e+00" cType="1" res="5.0614913925528526e-03" rms="4.6895301342010498e-01" purity="5.4142355918884277e-01" nType="-99"/>
          <Node pos="r" depth="2" NCoef="0" IVar="-1" Cut="0.0000000000000000e+00" cType="1" res="-1.4867998659610748e-02" rms="4.4575875997543335e-01" purity="3.3049294352531433e-01" nType="-99"/>
        </Node>
        <Node pos="r" depth="1" NCoef="0" IVar="4" Cut="9.5848930358886719e+01" cType="1" res="1.3095673918724060e-01" rms="3.3055251836776733e-01" purity="8.6215496063232422e-01" nType="0">
          <Node pos="l" depth="2" NCoef="0" IVar="-1" Cut="0.0000000000000000e+00" cType="1" res="1.9953085109591484e-02" rms="3.6568936705589294e-01" purity="8.1017357110977173e-01" nType="-99"/>
          <Node pos="r" depth="2" NCoef="0" IVar="-1" Cut="0.0000000000000000e+00" cType="1" res="4.2721960693597794e-02" rms="3.0258688330650330e-01" purity="8.9348733425140381e-01" nType="-99"/>
        </Node>
      </Node>
    </BinaryTree>
    <BinaryTree type="DecisionTree" boostWeight="1.0000000000000000e+00" itree="18">
      <Node pos="s" depth="0" NCoef="0" IVar="4" Cut="8.1232749938964844e+01" cType="1" res="-2.7867606841027737e-03" rms="4.4638913869857788e-01" purity="4.9707061052322388e-01" nType="0">
        <Node pos="l" depth="1" NCoef="0" IVar="7" Cut="3.1400832533836365e-01" cType="1" res="-6.5398283302783966e-02" rms="4.4240289926528931e-01" purity="3.9030849933624268e-01" nType="0">
          <Node pos="l" depth="2" NCoef="0" IVar="-1" Cut="0.0000000000000000e+00" cType="1" res="-2.8754221275448799e-03" rms="4.5892634987831116e-01" purity="5.1253801584243774e-01" nType="-99"/>
          <Node pos="r" depth="2" NCoef="0" IVar="-1" Cut="0.0000000000000000e+00" cType="1" res="-2.7151316404342651e-02" rms="4.1737300157546997e-01" purity="2.6228290796279907e-01" nType="-99"/>
        </Node>
        <Node pos="r" depth="1" NCoef="0" IVar="1" Cut="3.5142440795898438e+00" cType="1" res="4.6122137457132339e-02" rms="4.4336944818496704e-01" purity="5.8046764135360718e-01" nType="0">
          <Node pos="l" depth="2" NCoef="0" IVar="-1" Cut="0.0000000000000000e+00" cType="1" res="-2.3560493718832731e-03" rms="4.6710672974586487e-01" purity="4.3449118733406067e-01" nType="-99"/>
          <Node pos="r" depth="2" NCoef="0" IVar="-1" Cut="0.0000000000000000e+00" cType="1" res="2.2469539195299149e-02" rms="4.1453224420547485e-01" purity="7.1060347557067871e-01" nType="-99"/>
        </Node>
      </Node>
    </BinaryTree>
    <BinaryTree type="DecisionTree" boostWeight="1.0000000000000000e+00" itree="19">
      <Node pos="s" depth="0" NCoef="0" IVar="9" Cut="2.6716080307960510e-01" cType="1" res="1.8209231784567237e-03" rms="4.4603064656257629e-01" purity="5.0200939178466797e-01" nType="0">
        <Node pos="l" depth="1" NCoef="0" IVar="12" Cut="9.4086594879627228e-02" cType="1" res="4.6409286558628082e-02" rms="4.4211116433143616e-01" purity="5.9705191850662231e-01" nType="0">
          <Node pos="l" depth="2" NCoef="0" IVar="-1" Cut="0.0000000000000000e+00" cType="1" res="1.9768120720982552e-02" rms="4.3175512552261353e-01" purity="6.4950537681579590e-01" nType="-99"/>
          <Node pos="r" depth="2" NCoef="0" IVar="-1" Cut="0.0000000000000000e+00" cType="1" res="-2.1767164580523968e-03" rms="4.5048588514328003e-01" purity="5.2272075414657593e-01" nType="-99"/>
        </Node>
        <Node pos="r" depth="1" NCoef="0" IVar="6" Cut="2.6024174690246582e+00" cType="1" res="-4.6328514814376831e-02" rms="4.4523829221725464e-01" purity="3.9937618374824524e-01" nType="0">
          <Node pos="l" depth="2" NCoef="0" IVar="-1" Cut="0.0000000000000000e+00" cType="1" res="-1.5876688063144684e-02" rms="4.3986466526985168e-01" purity="3.6789122223854065e-01" nType="-99"/>
          <Node pos="r" depth="2" NCoef="0" IVar="-1" Cut="0.0000000000000000e+00" cType="1" res="3.2190389931201935e-02" rms="4.3965044617652893e-01" purity="6.3918203115463257e-01" nType="-99"/>
        </Node>
      </Node>
    </BinaryTree>
    <BinaryTree type="DecisionTree" boostWeight="1.0000000000000000e+00" itree="20">
      <Node pos="s" depth="0" NCoef="0" IVar="6" Cut="1.8071641921997070e+00" cType="1" res="-1.5488250646740198e-03" rms="4.4699344038963318e-01" purity="5.0311243534088135e-01" nType="0">
        <Node pos="l" depth="1" NCoef="0" IVar="10" Cut="4.1452500224113464e-01" cType="1" res="-3.0616443604230881e-02" rms="4.4494718313217163e-01" purity="4.7155892848968506e-01" nType="0">
          <Node pos="l" depth="2" NCoef="0" IVar="-1" Cut="0.0000000000000000e+00" cType="1" res="-7.7004707418382168e-04" rms="4.5061284303665161e-01" purity="5.2511787414550781e-01" nType="-99"/>
          <Node pos="r" depth="2" NCoef="0" IVar="-1" Cut="0.0000000000000000e+00" cType="1" res="-3.3464256674051285e-02" rms="3.9914673566818237e-01" purity="2.4151316285133362e-01" nType="-99"/>
        </Node>
        <Node pos="r" depth="1" NCoef="0" IVar="10" Cut="5.7570575736463070e-03" cType="1" res="7.3649525642395020e-02" rms="4.4349095225334167e-01" purity="5.8474171161651611e-01" nType="0">
          <Node pos="l" depth="2" NCoef="0" IVar="-1" Cut="0.0000000000000000e+00" cType="1" res="-2.1214505657553673e-02" rms="4.4333848357200623e-01" purity="3.5486727952957153e-01" nType="-99"/>
          <Node pos="r" depth="2" NCoef="0" IVar="-1" Cut="0.0000000000000000e+00" cType="1" res="3.3857051283121109e-02" rms="4.2236545681953430e-01" purity="6.8601888418197632e-01" nType="-99"/>
        </Node>
      </Node>
    </BinaryTree>
    <BinaryTree type="DecisionTree" boostWeight="1.0000000000000000e+00" itree="21">
      <Node pos="s" depth="0" NCoef="0" IVar="4" Cut="7.9175926208496094e+01" cType="1" res="2.2217500954866409e-03" rms="4.4327658414840698e-01" purity="5.0140666961669922e-01" nType="0">
        <Node pos="l" depth="1" NCoef="0" IVar="8" Cut="4.0948581695556641e-01" cType="1" res="-5.2927058190107346e-02" rms="4.3542182445526123e-01" purity="3.9177918434143066e-01" nType="0">
          <Node pos="l" depth="2" NCoef="0" IVar="-1" Cut="0.0000000000000000e+00" cType="1" res="-4.9400562420487404e-03" rms="4.5066973567008972e-01" purity="4.6071237325668335e-01" nType="-99"/>
          <Node pos="r" depth="2" NCoef="0" IVar="-1" Cut="0.0000000000000000e+00" cType="1" res="-3.4705586731433868e-02" rms="3.7010055780410767e-01" purity="1.8310318887233734e-01" nType="-99"/>
        </Node>
        <Node pos="r" depth="1" NCoef="0" IVar="2" Cut="-2.1132073402404785e+00" cType="1" res="4.1678711771965027e-02" rms="4.4463402032852173e-01" purity="5.7984107732772827e-01" nType="0">
          <Node pos="l" depth="2" NCoef="0" IVar="-1" Cut="0.0000000000000000e+00" cType="1" res="2.5885287672281265e-02" rms="4.2995291948318481e-01" purity="6.6934692859649658e-01" nType="-99"/>
          <Node pos="r" depth="2" NCoef="0" IVar="-1" Cut="0.0000000000000000e+00" cType="1" res="3.3254742156714201e-03" rms="4.4696363806724548e-01" purity="5.4655063152313232e-01" nType="-99"/>
        </Node>
      </Node>
    </BinaryTree>
    <BinaryTree type="DecisionTree" boostWeight="1.0000000000000000e+00" itree="22">
      <Node pos="s" depth="0" NCoef="0" IVar="2" Cut="2.4553489685058594e+00" cType="1" res="2.2660098038613796e-03" rms="4.4466999173164368e-01" purity="5.0492113828659058e-01" nType="0">
        <Node pos="l" depth="1" NCoef="0" IVar="2" Cut="-2.1672754287719727e+00" cType="1" res="-2.0282316952943802e-02" rms="4.4407325983047485e-01" purity="4.7662943601608276e-01" nType="0">
          <Node pos="l" depth="2" NCoef="0" IVar="-1" Cut="0.0000000000000000e+00" cType="1" res="1.4641745947301388e-02" rms="4.3985283374786377e-01" purity="5.9591901302337646e-01" nType="-99"/>
          <Node pos="r" depth="2" NCoef="0" IVar="-1" Cut="0.0000000000000000e+00" cType="1" res="-1.2805785983800888e-02" rms="4.4097828865051270e-01" purity="4.2590087652206421e-01" nType="-99"/>
        </Node>
        <Node pos="r" depth="1" NCoef="0" IVar="4" Cut="7.3861915588378906e+01" cType="1" res="1.0119829326868057e-01" rms="4.3363571166992188e-01" purity="6.2905293703079224e-01" nType="0">
          <Node pos="l" depth="2" NCoef="0" IVar="-1" Cut="0.0000000000000000e+00" cType="1" res="9.4143124297261238e-03" rms="4.3926313519477844e-01" purity="4.9652013182640076e-01" nType="-99"/>
          <Node pos="r" depth="2" NCoef="0" IVar="-1" Cut="0.0000000000000000e+00" cType="1" res="2.8770374134182930e-02" rms="4.2878776788711548e-01" purity="6.8450111150741577e-01" nType="-99"/>
        </Node>
      </Node>
    </BinaryTree>
    <BinaryTree type="DecisionTree" boostWeight="1.0000000000000000e+00" itree="23">
      <Node pos="s" depth="0" NCoef="0" IVar="2" Cut="2.3396682739257812e+00" cType="1" res="1.1307183885946870e-03" rms="4.4295021891593933e-01" purity="5.0520855188369751e-01" nType="0">
        <Node pos="l" depth="1" NCoef="0" IVar="2" Cut="-1.9928479194641113e+00" cType="1" res="-2.0152140408754349e-02" rms="4.4176813960075378e-01" purity="4.7611758112907410e-01" nType="0">
          <Node pos="l" depth="2" NCoef="0" IVar="-1" Cut="0.0000000000000000e+00" cType="1" res="1.0597874410450459e-02" rms="4.3789178133010864e-01" purity="5.7624536752700806e-01" nType="-99"/>
          <Node pos="r" depth="2" NCoef="0" IVar="-1" Cut="0.0000000000000000e+00" cType="1" res="-1.3020509853959084e-02" rms="4.3957656621932983e-01" purity="4.2056381702423096e-01" nType="-99"/>
        </Node>
        <Node pos="r" depth="1" NCoef="0" IVar="6" Cut="7.4668025970458984e-01" cType="1" res="8.1700310111045837e-02" rms="4.3812987208366394e-01" purity="6.1533725261688232e-01" nType="0">
          <Node pos="l" depth="2" NCoef="0" IVar="-1" Cut="0.0000000000000000e+00" cType="1" res="4.2241282062605023e-04" rms="4.4497689604759216e-01" purity="5.3128212690353394e-01" nType="-99"/>
          <Node pos="r" depth="2" NCoef="0" IVar="-1" Cut="0.0000000000000000e+00" cType="1" res="2.7224905788898468e-02" rms="4.2954006791114807e-01" purity="6.5577232837677002e-01" nType="-99"/>
        </Node>
      </Node>
    </BinaryTree>
    <BinaryTree type="DecisionTree" boostWeight="1.0000000000000000e+00" itree="24">
      <Node pos="s" depth="0" NCoef="0" IVar="18" Cut="2.0760095119476318e+00" cType="1" res="4.5316489413380623e-03" rms="4.4226628541946411e-01" purity="5.0929319858551025e-01" nType="0">
        <Node pos="l" depth="1" NCoef="0" IVar="12" Cut="1.0617743432521820e-01" cType="1" res="9.3918263912200928e-02" rms="4.4879770278930664e-01" purity="6.3894796371459961e-01" nType="0">
          <Node pos="l" depth="2" NCoef="0" IVar="-1" Cut="0.0000000000000000e+00" cType="1" res="2.9749171808362007e-02" rms="4.3390935659408569e-01" purity="6.9599020481109619e-01" nType="-99"/>
          <Node pos="r" depth="2" NCoef="0" IVar="-1" Cut="0.0000000000000000e+00" cType="1" res="3.2754740677773952e-03" rms="4.6661752462387085e-01" purity="5.2744746208190918e-01" nType="-99"/>
        </Node>
        <Node pos="r" depth="1" NCoef="0" IVar="7" Cut="2.1244736015796661e-01" cType="1" res="-1.6787713393568993e-02" rms="4.3800821900367737e-01" purity="4.7836959362030029e-01" nType="0">
          <Node pos="l" depth="2" NCoef="0" IVar="-1" Cut="0.0000000000000000e+00" cType="1" res="1.1530292220413685e-02" rms="4.3066510558128357e-01" purity="6.4214271306991577e-01" nType="-99"/>
          <Node pos="r" depth="2" NCoef="0" IVar="-1" Cut="0.0000000000000000e+00" cType="1" res="-1.2296511791646481e-02" rms="4.3780606985092163e-01" purity="3.8515621423721313e-01" nType="-99"/>
        </Node>
      </Node>
    </BinaryTree>
    <BinaryTree type="DecisionTree" boostWeight="1.0000000000000000e+00" itree="25">
      <Node pos="s" depth="0" NCoef="0" IVar="0" Cut="9.2875823974609375e+02" cType="1" res="-3.5323912743479013e-03" rms="4.3799060583114624e-01" purity="4.9693194031715393e-01" nType="0">
        <Node pos="l" depth="1" NCoef="0" IVar="10" Cut="1.0900647612288594e-03" cType="1" res="-4.5840878039598465e-02" rms="4.4553270936012268e-01" purity="3.1897613406181335e-01" nType="0">
          <Node pos="l" depth="2" NCoef="0" IVar="-1" Cut="0.0000000000000000e+00" cType="1" res="-2.5158636271953583e-02" rms="4.2189159989356995e-01" purity="2.5337123870849609e-01" nType="-99"/>
          <Node pos="r" depth="2" NCoef="0" IVar="-1" Cut="0.0000000000000000e+00" cType="1" res="-4.8730843700468540e-03" rms="4.5122271776199341e-01" purity="3.4237056970596313e-01" nType="-99"/>
        </Node>
        <Node pos="r" depth="1" NCoef="0" IVar="9" Cut="1.9108313322067261e-01" cType="1" res="3.7849247455596924e-02" rms="4.2644447088241577e-01" purity="6.7098927497863770e-01" nType="0">
          <Node pos="l" depth="2" NCoef="0" IVar="-1" Cut="0.0000000000000000e+00" cType="1" res="2.5730175897479057e-02" rms="3.8434532284736633e-01" purity="7.9890310764312744e-01" nType="-99"/>
          <Node pos="r" depth="2" NCoef="0" IVar="-1" Cut="0.0000000000000000e+00" cType="1" res="-2.0259905140846968e-03" rms="4.4861620664596558e-01" purity="5.7867413759231567e-01" nType="-99"/>
        </Node>
      </Node>
    </BinaryTree>
    <BinaryTree type="DecisionTree" boostWeight="1.0000000000000000e+00" itree="26">
      <Node pos="s" depth="0" NCoef="0" IVar="6" Cut="1.2800611257553101e+00" cType="1" res="-7.2074094787240028e-03" rms="4.4012105464935303e-01" purity="4.9410152435302734e-01" nType="0">
        <Node pos="l" depth="1" NCoef="0" IVar="8" Cut="2.0984692871570587e-01" cType="1" res="-4.3203193694353104e-02" rms="4.3748679757118225e-01" purity="4.4924262166023254e-01" nType="0">
          <Node pos="l" depth="2" NCoef="0" IVar="-1" Cut="0.0000000000000000e+00" cType="1" res="4.7606537118554115e-03" rms="4.4034251570701599e-01" purity="5.9373587369918823e-01" nType="-99"/>
          <Node pos="r" depth="2" NCoef="0" IVar="-1" Cut="0.0000000000000000e+00" cType="1" res="-2.1609513089060783e-02" rms="4.2839208245277405e-01" purity="3.3306780457496643e-01" nType="-99"/>
        </Node>
        <Node pos="r" depth="1" NCoef="0" IVar="10" Cut="3.1144707463681698e-04" cType="1" res="3.7969280034303665e-02" rms="4.3925040960311890e-01" purity="5.5040198564529419e-01" nType="0">
          <Node pos="l" depth="2" NCoef="0" IVar="-1" Cut="0.0000000000000000e+00" cType="1" res="-1.5261271968483925e-02" rms="4.3752312660217285e-01" purity="3.9075696468353271e-01" nType="-99"/>
          <Node pos="r" depth="2" NCoef="0" IVar="-1" Cut="0.0000000000000000e+00" cType="1" res="1.9029265269637108e-02" rms="4.3236753344535828e-01" purity="6.1779785156250000e-01" nType="-99"/>
        </Node>
      </Node>
    </BinaryTree>
    <BinaryTree type="DecisionTree" boostWeight="1.0000000000000000e+00" itree="27">
      <Node pos="s" depth="0" NCoef="0" IVar="0" Cut="7.8516906738281250e+02" cType="1" res="-4.8633380793035030e-03" rms="4.3508607149124146e-01" purity="4.9244600534439087e-01" nType="0">
        <Node pos="l" depth="1" NCoef="0" IVar="11" Cut="2.0457484722137451e+00" cType="1" res="-6.1317790299654007e-02" rms="4.3057122826576233e-01" purity="2.7112287282943726e-01" nType="0">
          <Node pos="l" depth="2" NCoef="0" IVar="-1" Cut="0.0000000000000000e+00" cType="1" res="5.4948078468441963e-03" rms="4.5262667536735535e-01" purity="3.2226580381393433e-01" nType="-99"/>
          <Node pos="r" depth="2" NCoef="0" IVar="-1" Cut="0.0000000000000000e+00" cType="1" res="-1.7642626538872719e-02" rms="4.2448374629020691e-01" purity="2.6156228780746460e-01" nType="-99"/>
        </Node>
        <Node pos="r" depth="1" NCoef="0" IVar="13" Cut="3.9201518893241882e-01" cType="1" res="2.7869114652276039e-02" rms="4.3433469533920288e-01" purity="6.2076979875564575e-01" nType="0">
          <Node pos="l" depth="2" NCoef="0" IVar="-1" Cut="0.0000000000000000e+00" cType="1" res="1.7417646944522858e-02" rms="4.0896755456924438e-01" purity="7.4006676673889160e-01" nType="-99"/>
          <Node pos="r" depth="2" NCoef="0" IVar="-1" Cut="0.0000000000000000e+00" cType="1" res="-5.4597738198935986e-03" rms="4.5788225531578064e-01" purity="4.7515520453453064e-01" nType="-99"/>
        </Node>
      </Node>
    </BinaryTree>
    <BinaryTree type="DecisionTree" boostWeight="1.0000000000000000e+00" itree="28">
      <Node pos="s" depth="0" NCoef="0" IVar="4" Cut="7.4126914978027344e+01" cType="1" res="-4.4620609842240810e-03" rms="4.3930733203887939e-01" purity="4.9919164180755615e-01" nType="0">
        <Node pos="l" depth="1" NCoef="0" IVar="11" Cut="3.8174324035644531e+00" cType="1" res="-5.6058976799249649e-02" rms="4.3097099661827087e-01" purity="3.7849676609039307e-01" nType="0">
          <Node pos="l" depth="2" NCoef="0" IVar="-1" Cut="0.0000000000000000e+00" cType="1" res="-1.8612772226333618e-02" rms="4.2253959178924561e-01" purity="3.2648685574531555e-01" nType="-99"/>
          <Node pos="r" depth="2" NCoef="0" IVar="-1" Cut="0.0000000000000000e+00" cType="1" res="6.7929681390523911e-03" rms="4.5031499862670898e-01" purity="5.6848126649856567e-01" nType="-99"/>
        </Node>
        <Node pos="r" depth="1" NCoef="0" IVar="1" Cut="3.6948251724243164e+00" cType="1" res="2.3522904142737389e-02" rms="4.4124680757522583e-01" purity="5.6465375423431396e-01" nType="0">
          <Node pos="l" depth="2" NCoef="0" IVar="-1" Cut="0.0000000000000000e+00" cType="1" res="-3.8731659296900034e-03" rms="4.6520528197288513e-01" purity="4.3238228559494019e-01" nType="-99"/>
          <Node pos="r" depth="2" NCoef="0" IVar="-1" Cut="0.0000000000000000e+00" cType="1" res="1.6225395724177361e-02" rms="4.1043063998222351e-01" purity="7.0271921157836914e-01" nType="-99"/>
        </Node>
      </Node>
    </BinaryTree>
    <BinaryTree type="DecisionTree" boostWeight="1.0000000000000000e+00" itree="29">
      <Node pos="s" depth="0" NCoef="0" IVar="19" Cut="3.4781842041015625e+02" cType="1" res="-2.6049166917800903e-03" rms="4.3880146741867065e-01" purity="4.9862113595008850e-01" nType="0">
        <Node pos="l" depth="1" NCoef="0" IVar="-1" Cut="0.0000000000000000e+00" cType="1" res="-3.0407242476940155e-02" rms="4.0763601660728455e-01" purity="2.8657478094100952e-01" nType="-99"/>
        <Node pos="r" depth="1" NCoef="0" IVar="2" Cut="2.4766206741333008e+00" cType="1" res="6.8303104490041733e-03" rms="4.3952745199203491e-01" purity="5.1420140266418457e-01" nType="0">
          <Node pos="l" depth="2" NCoef="0" IVar="-1" Cut="0.0000000000000000e+00" cType="1" res="-2.1805702708661556e-03" rms="4.3912428617477417e-01" purity="4.8650446534156799e-01" nType="-99"/>
          <Node pos="r" depth="2" NCoef="0" IVar="-1" Cut="0.0000000000000000e+00" cType="1" res="1.9395882263779640e-02" rms="4.3342885375022888e-01" purity="6.4459455013275146e-01" nType="-99"/>
        </Node>
      </Node>
    </BinaryTree>
    <BinaryTree type="DecisionTree" boostWeight="1.0000000000000000e+00" itree="30">
      <Node pos="s" depth="0" NCoef="0" IVar="10" Cut="2.9183784499764442e-04" cType="1" res="4.5279483310878277e-03" rms="4.3802917003631592e-01" purity="5.0836139917373657e-01" nType="0">
        <Node pos="l" depth="1" NCoef="0" IVar="4" Cut="8.0881820678710938e+01" cType="1" res="-6.3825309276580811e-02" rms="4.3775385618209839e-01" purity="4.1124659776687622e-01" nType="0">
          <Node pos="l" depth="2" NCoef="0" IVar="-1" Cut="0.0000000000000000e+00" cType="1" res="-2.8683412820100784e-02" rms="4.1647452116012573e-01" purity="2.9241400957107544e-01" nType="-99"/>
          <Node pos="r" depth="2" NCoef="0" IVar="-1" Cut="0.0000000000000000e+00" cType="1" res="-1.5360927209258080e-03" rms="4.5029500126838684e-01" purity="5.2724587917327881e-01" nType="-99"/>
        </Node>
        <Node pos="r" depth="1" NCoef="0" IVar="6" Cut="1.3566443920135498e+00" cType="1" res="2.7191188186407089e-02" rms="4.3575999140739441e-01" purity="5.4056084156036377e-01" nType="0">
          <Node pos="l" depth="2" NCoef="0" IVar="-1" Cut="0.0000000000000000e+00" cType="1" res="-2.9300886671990156e-03" rms="4.3486079573631287e-01" purity="4.7805789113044739e-01" nType="-99"/>
          <Node pos="r" depth="2" NCoef="0" IVar="-1" Cut="0.0000000000000000e+00" cType="1" res="2.0352173596620560e-02" rms="4.3026217818260193e-01" purity="6.3491010665893555e-01" nType="-99"/>
        </Node>
      </Node>
    </BinaryTree>
    <BinaryTree type="DecisionTree" boostWeight="1.0000000000000000e+00" itree="31">
      <Node pos="s" depth="0" NCoef="0" IVar="0" Cut="1.8248431396484375e+03" cType="1" res="-5.7543362490832806e-03" rms="4.3690305948257446e-01" purity="4.9106362462043762e-01" nType="0">
        <Node pos="l" depth="1" NCoef="0" IVar="18" Cut="4.5072197914123535e+00" cType="1" res="-2.2091016173362732e-02" rms="4.5012795925140381e-01" purity="4.3172767758369446e-01" nType="0">
          <Node pos="l" depth="2" NCoef="0" IVar="-1" Cut="0.0000000000000000e+00" cType="1" res="-1.2158749159425497e-03" rms="4.5680564641952515e-01" purity="4.6193018555641174e-01" nType="-99"/>
          <Node pos="r" depth="2" NCoef="0" IVar="-1" Cut="0.0000000000000000e+00" cType="1" res="-2.5729937478899956e-02" rms="4.0275821089744568e-01" purity="2.7496728301048279e-01" nType="-99"/>
        </Node>
        <Node pos="r" depth="1" NCoef="0" IVar="1" Cut="5.1565494537353516e+00" cType="1" res="9.7180753946304321e-02" rms="3.2356202602386475e-01" purity="8.6493068933486938e-01" nType="0">
          <Node pos="l" depth="2" NCoef="0" IVar="-1" Cut="0.0000000000000000e+00" cType="1" res="1.1670579202473164e-02" rms="3.8023689389228821e-01" purity="7.9697978496551514e-01" nType="-99"/>
          <Node pos="r" depth="2" NCoef="0" IVar="-1" Cut="0.0000000000000000e+00" cType="1" res="4.3512806296348572e-02" rms="2.5651028752326965e-01" purity="9.2269307374954224e-01" nType="-99"/>
        </Node>
      </Node>
    </BinaryTree>
    <BinaryTree type="DecisionTree" boostWeight="1.0000000000000000e+00" itree="32">
      <Node pos="s" depth="0" NCoef="0" IVar="6" Cut="1.3386157751083374e+00" cType="1" res="-5.7436488568782806e-03" rms="4.3541240692138672e-01" purity="4.9419867992401123e-01" nType="0">
        <Node pos="l" depth="1" NCoef="0" IVar="18" Cut="3.7293376922607422e+00" cType="1" res="-3.5430572926998138e-02" rms="4.3297222256660461e-01" purity="4.4671475887298584e-01" nType="0">
          <Node pos="l" depth="2" NCoef="0" IVar="-1" Cut="0.0000000000000000e+00" cType="1" res="-1.1927355080842972e-03" rms="4.4689074158668518e-01" purity="5.0169199705123901e-01" nType="-99"/>
          <Node pos="r" depth="2" NCoef="0" IVar="-1" Cut="0.0000000000000000e+00" cType="1" res="-2.5067619979381561e-02" rms="3.9390417933464050e-01" purity="3.2926982641220093e-01" nType="-99"/>
        </Node>
        <Node pos="r" depth="1" NCoef="0" IVar="10" Cut="2.9085847199894488e-04" cType="1" res="3.3125068992376328e-02" rms="4.3553844094276428e-01" purity="5.5636876821517944e-01" nType="0">
          <Node pos="l" depth="2" NCoef="0" IVar="-1" Cut="0.0000000000000000e+00" cType="1" res="-1.2108188122510910e-02" rms="4.3375235795974731e-01" purity="3.8638401031494141e-01" nType="-99"/>
          <Node pos="r" depth="2" NCoef="0" IVar="-1" Cut="0.0000000000000000e+00" cType="1" res="1.6668742522597313e-02" rms="4.3108510971069336e-01" purity="6.3053816556930542e-01" nType="-99"/>
        </Node>
      </Node>
    </BinaryTree>
    <BinaryTree type="DecisionTree" boostWeight="1.0000000000000000e+00" itree="33">
      <Node pos="s" depth="0" NCoef="0" IVar="2" Cut="-2.2052612304687500e+00" cType="1" res="2.5879838503897190e-03" rms="4.3273156881332397e-01" purity="5.0128608942031860e-01" nType="0">
        <Node pos="l" depth="1" NCoef="0" IVar="13" Cut="5.7196807861328125e-01" cType="1" res="6.5134637057781219e-02" rms="4.2866256833076477e-01" purity="6.0392975807189941e-01" nType="0">
          <Node pos="l" depth="2" NCoef="0" IVar="-1" Cut="0.0000000000000000e+00" cType="1" res="2.2668378427624702e-02" rms="4.1970494389533997e-01" purity="6.7124706506729126e-01" nType="-99"/>
          <Node pos="r" depth="2" NCoef="0" IVar="-1" Cut="0.0000000000000000e+00" cType="1" res="-7.9598128795623779e-03" rms="4.4322699308395386e-01" purity="3.7582457065582275e-01" nType="-99"/>
        </Node>
        <Node pos="r" depth="1" NCoef="0" IVar="2" Cut="1.7342438697814941e+00" cType="1" res="-1.6264902427792549e-02" rms="4.3217873573303223e-01" purity="4.7034716606140137e-01" nType="0">
          <Node pos="l" depth="2" NCoef="0" IVar="-1" Cut="0.0000000000000000e+00" cType="1" res="-1.3989531435072422e-02" rms="4.2360574007034302e-01" purity="3.9489626884460449e-01" nType="-99"/>
          <Node pos="r" depth="2" NCoef="0" IVar="-1" Cut="0.0000000000000000e+00" cType="1" res="9.8276939243078232e-03" rms="4.3696850538253784e-01" purity="5.7300114631652832e-01" nType="-99"/>
        </Node>
      </Node>
    </BinaryTree>
    <BinaryTree type="DecisionTree" boostWeight="1.0000000000000000e+00" itree="34">
      <Node pos="s" depth="0" NCoef="0" IVar="0" Cut="1.7699600830078125e+03" cType="1" res="-4.0239296504296362e-04" rms="4.3548303842544556e-01" purity="5.0242984294891357e-01" nType="0">
        <Node pos="l" depth="1" NCoef="0" IVar="12" Cut="1.9086635112762451e-01" cType="1" res="-1.4842365868389606e-02" rms="4.5090591907501221e-01" purity="4.3671005964279175e-01" nType="0">
          <Node pos="l" depth="2" NCoef="0" IVar="-1" Cut="0.0000000000000000e+00" cType="1" res="-9.6734246471896768e-04" rms="4.5245045423507690e-01" purity="4.5113915205001831e-01" nType="-99"/>
          <Node pos="r" depth="2" NCoef="0" IVar="-1" Cut="0.0000000000000000e+00" cType="1" res="-2.3179560899734497e-02" rms="4.2851704359054565e-01" purity="3.1934499740600586e-01" nType="-99"/>
        </Node>
        <Node pos="r" depth="1" NCoef="0" IVar="18" Cut="3.8178493976593018e+00" cType="1" res="7.6286315917968750e-02" rms="3.3174380660057068e-01" purity="8.5145878791809082e-01" nType="0">
          <Node pos="l" depth="2" NCoef="0" IVar="-1" Cut="0.0000000000000000e+00" cType="1" res="3.3863022923469543e-02" rms="2.8840652108192444e-01" purity="9.0400415658950806e-01" nType="-99"/>
          <Node pos="r" depth="2" NCoef="0" IVar="-1" Cut="0.0000000000000000e+00" cType="1" res="9.5146708190441132e-03" rms="3.8125470280647278e-01" purity="7.7651363611221313e-01" nType="-99"/>
        </Node>
      </Node>
    </BinaryTree>
    <BinaryTree type="DecisionTree" boostWeight="1.0000000000000000e+00" itree="35">
      <Node pos="s" depth="0" NCoef="0" IVar="0" Cut="1.9336751708984375e+03" cType="1" res="-9.9575398489832878e-03" rms="4.3585941195487976e-01" purity="4.9262043833732605e-01" nType="0">
        <Node pos="l" depth="1" NCoef="0" IVar="4" Cut="8.6221305847167969e+01" cType="1" res="-2.4091791361570358e-02" rms="4.4952964782714844e-01" purity="4.3847203254699707e-01" nType="0">
          <Node pos="l" depth="2" NCoef="0" IVar="-1" Cut="0.0000000000000000e+00" cType="1" res="-1.2463942170143127e-02" rms="4.3774920701980591e-01" purity="3.5806679725646973e-01" nType="-99"/>
          <Node pos="r" depth="2" NCoef="0" IVar="-1" Cut="0.0000000000000000e+00" cType="1" res="1.3024498475715518e-03" rms="4.5932587981224060e-01" purity="5.2054119110107422e-01" nType="-99"/>
        </Node>
        <Node pos="r" depth="1" NCoef="0" IVar="11" Cut="3.4989163875579834e+00" cType="1" res="9.1086924076080322e-02" rms="3.0299919843673706e-01" purity="8.7972223758697510e-01" nType="0">
          <Node pos="l" depth="2" NCoef="0" IVar="-1" Cut="0.0000000000000000e+00" cType="1" res="1.8362171947956085e-02" rms="3.5210859775543213e-01" purity="8.2398241758346558e-01" nType="-99"/>
          <Node pos="r" depth="2" NCoef="0" IVar="-1" Cut="0.0000000000000000e+00" cType="1" res="4.3286070227622986e-02" rms="2.2681199014186859e-01" purity="9.4605368375778198e-01" nType="-99"/>
        </Node>
      </Node>
    </BinaryTree>
    <BinaryTree type="DecisionTree" boostWeight="1.0000000000000000e+00" itree="36">
      <Node pos="s" depth="0" NCoef="0" IVar="12" Cut="1.8220487236976624e-01" cType="1" res="1.4180906116962433e-02" rms="4.3538215756416321e-01" purity="5.1562213897705078e-01" nType="0">
        <Node pos="l" depth="1" NCoef="0" IVar="8" Cut="1.5868192911148071e-01" cType="1" res="2.5757672265172005e-02" rms="4.3425947427749634e-01" purity="5.3285777568817139e-01" nType="0">
          <Node pos="l" depth="2" NCoef="0" IVar="-1" Cut="0.0000000000000000e+00" cType="1" res="1.7709052190184593e-02" rms="4.2317596077919006e-01" purity="6.5677529573440552e-01" nType="-99"/>
          <Node pos="r" depth="2" NCoef="0" IVar="-1" Cut="0.0000000000000000e+00" cType="1" res="6.3069269526749849e-04" rms="4.3779665231704712e-01" purity="4.7159823775291443e-01" nType="-99"/>
        </Node>
        <Node pos="r" depth="1" NCoef="0" IVar="18" Cut="3.1376922130584717e+00" cType="1" res="-7.3975659906864166e-02" rms="4.3382057547569275e-01" purity="3.8437390327453613e-01" nType="0">
          <Node pos="l" depth="2" NCoef="0" IVar="-1" Cut="0.0000000000000000e+00" cType="1" res="-1.0219790041446686e-02" rms="4.5372590422630310e-01" purity="4.4225305318832397e-01" nType="-99"/>
          <Node pos="r" depth="2" NCoef="0" IVar="-1" Cut="0.0000000000000000e+00" cType="1" res="-2.4852355942130089e-02" rms="4.1313314437866211e-01" purity="3.3178120851516724e-01" nType="-99"/>
        </Node>
      </Node>
    </BinaryTree>
    <BinaryTree type="DecisionTree" boostWeight="1.0000000000000000e+00" itree="37">
      <Node pos="s" depth="0" NCoef="0" IVar="9" Cut="2.7912020683288574e-01" cType="1" res="1.9005700014531612e-03" rms="4.3348559737205505e-01" purity="5.0535595417022705e-01" nType="0">
        <Node pos="l" depth="1" NCoef="0" IVar="0" Cut="8.0355120849609375e+02" cType="1" res="3.1880486756563187e-02" rms="4.2840081453323364e-01" purity="5.9569698572158813e-01" nType="0">
          <Node pos="l" depth="2" NCoef="0" IVar="-1" Cut="0.0000000000000000e+00" cType="1" res="-3.4624745603650808e-03" rms="4.5674923062324524e-01" purity="3.3430877327919006e-01" nType="-99"/>
          <Node pos="r" depth="2" NCoef="0" IVar="-1" Cut="0.0000000000000000e+00" cType="1" res="1.4318247325718403e-02" rms="4.1072854399681091e-01" purity="7.3180794715881348e-01" nType="-99"/>
        </Node>
        <Node pos="r" depth="1" NCoef="0" IVar="6" Cut="2.0733127593994141e+00" cType="1" res="-3.4342210739850998e-02" rms="4.3681538105010986e-01" purity="3.9614242315292358e-01" nType="0">
          <Node pos="l" depth="2" NCoef="0" IVar="-1" Cut="0.0000000000000000e+00" cType="1" res="-1.4711369760334492e-02" rms="4.3179190158843994e-01" purity="3.5044348239898682e-01" nType="-99"/>
          <Node pos="r" depth="2" NCoef="0" IVar="-1" Cut="0.0000000000000000e+00" cType="1" res="1.4355528168380260e-02" rms="4.4020861387252808e-01" purity="5.5182737112045288e-01" nType="-99"/>
        </Node>
      </Node>
    </BinaryTree>
    <BinaryTree type="DecisionTree" boostWeight="1.0000000000000000e+00" itree="38">
      <Node pos="s" depth="0" NCoef="0" IVar="11" Cut="2.0678508281707764e+00" cType="1" res="-7.9372065374627709e-04" rms="4.3542245030403137e-01" purity="5.0267255306243896e-01" nType="0">
        <Node pos="l" depth="1" NCoef="0" IVar="9" Cut="2.5923383235931396e-01" cType="1" res="6.9441884756088257e-02" rms="4.4051122665405273e-01" purity="5.1346462965011597e-01" nType="0">
          <Node pos="l" depth="2" NCoef="0" IVar="-1" Cut="0.0000000000000000e+00" cType="1" res="2.9548192396759987e-02" rms="4.3581247329711914e-01" purity="6.1392217874526978e-01" nType="-99"/>
          <Node pos="r" depth="2" NCoef="0" IVar="-1" Cut="0.0000000000000000e+00" cType="1" res="5.4513164795935154e-03" rms="4.3882378935813904e-01" purity="4.3169265985488892e-01" nType="-99"/>
        </Node>
        <Node pos="r" depth="1" NCoef="0" IVar="11" Cut="3.3911159038543701e+00" cType="1" res="-1.2068878859281540e-02" rms="4.3354132771492004e-01" purity="5.0094008445739746e-01" nType="0">
          <Node pos="l" depth="2" NCoef="0" IVar="-1" Cut="0.0000000000000000e+00" cType="1" res="-9.4228321686387062e-03" rms="4.3575027585029602e-01" purity="4.3109840154647827e-01" nType="-99"/>
          <Node pos="r" depth="2" NCoef="0" IVar="-1" Cut="0.0000000000000000e+00" cType="1" res="7.6014306396245956e-03" rms="4.2647916078567505e-01" purity="6.1085909605026245e-01" nType="-99"/>
        </Node>
      </Node>
    </BinaryTree>
    <BinaryTree type="DecisionTree" boostWeight="1.0000000000000000e+00" itree="39">
      <Node pos="s" depth="0" NCoef="0" IVar="12" Cut="1.7824737727642059e-01" cType="1" res="7.5093860505148768e-04" rms="4.3091291189193726e-01" purity="5.0156790018081665e-01" nType="0">
        <Node pos="l" depth="1" NCoef="0" IVar="8" Cut="4.2282965779304504e-01" cType="1" res="1.3876331038773060e-02" rms="4.2889016866683960e-01" purity="5.2061355113983154e-01" nType="0">
          <Node pos="l" depth="2" NCoef="0" IVar="-1" Cut="0.0000000000000000e+00" cType="1" res="8.0224778503179550e-03" rms="4.3162050843238831e-01" purity="5.8672440052032471e-01" nType="-99"/>
          <Node pos="r" depth="2" NCoef="0" IVar="-1" Cut="0.0000000000000000e+00" cType="1" res="-1.1259622871875763e-02" rms="4.1437309980392456e-01" purity="3.1246018409729004e-01" nType="-99"/>
        </Node>
        <Node pos="r" depth="1" NCoef="0" IVar="19" Cut="4.6233468627929688e+02" cType="1" res="-9.1492034494876862e-02" rms="4.3380737304687500e-01" purity="3.6771833896636963e-01" nType="0">
          <Node pos="l" depth="2" NCoef="0" IVar="-1" Cut="0.0000000000000000e+00" cType="1" res="-2.9738144949078560e-02" rms="4.1787376999855042e-01" purity="2.9167851805686951e-01" nType="-99"/>
          <Node pos="r" depth="2" NCoef="0" IVar="-1" Cut="0.0000000000000000e+00" cType="1" res="-1.4359540306031704e-02" rms="4.4663938879966736e-01" purity="4.4209912419319153e-01" nType="-99"/>
        </Node>
      </Node>
    </BinaryTree>
    <BinaryTree type="DecisionTree" boostWeight="1.0000000000000000e+00" itree="40">
      <Node pos="s" depth="0" NCoef="0" IVar="3" Cut="8.0036285400390625e+01" cType="1" res="-4.1334412526339293e-04" rms="4.3349859118461609e-01" purity="4.9955400824546814e-01" nType="0">
        <Node pos="l" depth="1" NCoef="0" IVar="-1" Cut="0.0000000000000000e+00" cType="1" res="-2.6319809257984161e-02" rms="3.9692151546478271e-01" purity="2.8654369711875916e-01" nType="-99"/>
        <Node pos="r" depth="1" NCoef="0" IVar="13" Cut="5.7630491256713867e-01" cType="1" res="7.7284639701247215e-03" rms="4.3503719568252563e-01" purity="5.1557224988937378e-01" nType="0">
          <Node pos="l" depth="2" NCoef="0" IVar="-1" Cut="0.0000000000000000e+00" cType="1" res="5.8610453270375729e-03" rms="4.3873885273933411e-01" purity="5.7514154911041260e-01" nType="-99"/>
          <Node pos="r" depth="2" NCoef="0" IVar="-1" Cut="0.0000000000000000e+00" cType="1" res="-1.1842401698231697e-02" rms="4.1697865724563599e-01" purity="3.0967089533805847e-01" nType="-99"/>
        </Node>
      </Node>
    </BinaryTree>
    <BinaryTree type="DecisionTree" boostWeight="1.0000000000000000e+00" itree="41">
      <Node pos="s" depth="0" NCoef="0" IVar="6" Cut="1.4020860195159912e+00" cType="1" res="-9.2810927890241146e-04" rms="4.3285155296325684e-01" purity="5.0520968437194824e-01" nType="0">
        <Node pos="l" depth="1" NCoef="0" IVar="10" Cut="3.2078701257705688e-01" cType="1" res="-2.4728534743189812e-02" rms="4.3383422493934631e-01" purity="4.6552532911300659e-01" nType="0">
          <Node pos="l" depth="2" NCoef="0" IVar="-1" Cut="0.0000000000000000e+00" cType="1" res="6.5231433836743236e-04" rms="4.4134759902954102e-01" purity="5.3974264860153198e-01" nType="-99"/>
          <Node pos="r" depth="2" NCoef="0" IVar="-1" Cut="0.0000000000000000e+00" cType="1" res="-2.2611241787672043e-02" rms="4.0684422850608826e-01" purity="2.8218454122543335e-01" nType="-99"/>
        </Node>
        <Node pos="r" depth="1" NCoef="0" IVar="10" Cut="5.4618236608803272e-03" cType="1" res="3.3888962119817734e-02" rms="4.2903813719749451e-01" purity="5.6326305866241455e-01" nType="0">
          <Node pos="l" depth="2" NCoef="0" IVar="-1" Cut="0.0000000000000000e+00" cType="1" res="-1.1187366209924221e-02" rms="4.3087285757064819e-01" purity="3.9436888694763184e-01" nType="-99"/>
          <Node pos="r" depth="2" NCoef="0" IVar="-1" Cut="0.0000000000000000e+00" cType="1" res="1.7051648348569870e-02" rms="4.2325344681739807e-01" purity="6.3880807161331177e-01" nType="-99"/>
        </Node>
      </Node>
    </BinaryTree>
    <BinaryTree type="DecisionTree" boostWeight="1.0000000000000000e+00" itree="42">
      <Node pos="s" depth="0" NCoef="0" IVar="6" Cut="3.0756072998046875e+00" cType="1" res="-3.3485263120383024e-03" rms="4.3221414089202881e-01" purity="4.9687072634696960e-01" nType="0">
        <Node pos="l" depth="1" NCoef="0" IVar="10" Cut="3.4722054004669189e-01" cType="1" res="-9.8613174632191658e-03" rms="4.3206381797790527e-01" purity="4.8703318834304810e-01" nType="0">
          <Node pos="l" depth="2" NCoef="0" IVar="-1" Cut="0.0000000000000000e+00" cType="1" res="2.3248307406902313e-03" rms="4.3504339456558228e-01" purity="5.3909164667129517e-01" nType="-99"/>
          <Node pos="r" depth="2" NCoef="0" IVar="-1" Cut="0.0000000000000000e+00" cType="1" res="-1.6183890402317047e-02" rms="4.1807019710540771e-01" purity="3.3476248383522034e-01" nType="-99"/>
        </Node>
        <Node pos="r" depth="1" NCoef="0" IVar="-1" Cut="0.0000000000000000e+00" cType="1" res="2.9071681201457977e-02" rms="4.1600719094276428e-01" purity="6.8440961837768555e-01" nType="-99"/>
      </Node>
    </BinaryTree>
    <BinaryTree type="DecisionTree" boostWeight="1.0000000000000000e+00" itree="43">
      <Node pos="s" depth="0" NCoef="0" IVar="0" Cut="1.8322294921875000e+03" cType="1" res="-9.1405370039865375e-04" rms="4.2733892798423767e-01" purity="4.9814662337303162e-01" nType="0">
        <Node pos="l" depth="1" NCoef="0" IVar="18" Cut="2.5426943302154541e+00" cType="1" res="-1.3022332452237606e-02" rms="4.4271469116210938e-01" purity="4.3699854612350464e-01" nType="0">
          <Node pos="l" depth="2" NCoef="0" IVar="-1" Cut="0.0000000000000000e+00" cType="1" res="7.7608865685760975e-03" rms="4.6091637015342712e-01" purity="5.5969667434692383e-01" nType="-99"/>
          <Node pos="r" depth="2" NCoef="0" IVar="-1" Cut="0.0000000000000000e+00" cType="1" res="-8.0597810447216034e-03" rms="4.3298959732055664e-01" purity="3.8409760594367981e-01" nType="-99"/>
        </Node>
        <Node pos="r" depth="1" NCoef="0" IVar="11" Cut="3.7058675289154053e+00" cType="1" res="7.5333677232265472e-02" rms="3.0272084474563599e-01" purity="8.8320541381835938e-01" nType="0">
          <Node pos="l" depth="2" NCoef="0" IVar="-1" Cut="0.0000000000000000e+00" cType="1" res="1.7876142635941505e-02" rms="3.4075808525085449e-01" purity="8.4367775917053223e-01" nType="-99"/>
          <Node pos="r" depth="2" NCoef="0" IVar="-1" Cut="0.0000000000000000e+00" cType="1" res="4.0324781090021133e-02" rms="2.2649520635604858e-01" purity="9.4589185714721680e-01" nType="-99"/>
        </Node>
      </Node>
    </BinaryTree>
    <BinaryTree type="DecisionTree" boostWeight="1.0000000000000000e+00" itree="44">
      <Node pos="s" depth="0" NCoef="0" IVar="9" Cut="1.8441890180110931e-01" cType="1" res="-3.3717921469360590e-03" rms="4.3158915638923645e-01" purity="4.9736458063125610e-01" nType="0">
        <Node pos="l" depth="1" NCoef="0" IVar="1" Cut="3.2357325553894043e+00" cType="1" res="4.0175255388021469e-02" rms="4.2238453030586243e-01" purity="6.1893552541732788e-01" nType="0">
          <Node pos="l" depth="2" NCoef="0" IVar="-1" Cut="0.0000000000000000e+00" cType="1" res="-8.3484454080462456e-03" rms="4.6539229154586792e-01" purity="4.3493708968162537e-01" nType="-99"/>
          <Node pos="r" depth="2" NCoef="0" IVar="-1" Cut="0.0000000000000000e+00" cType="1" res="1.5076849609613419e-02" rms="4.0939262509346008e-01" purity="6.6247749328613281e-01" nType="-99"/>
        </Node>
        <Node pos="r" depth="1" NCoef="0" IVar="19" Cut="3.7846728515625000e+02" cType="1" res="-2.8426192700862885e-02" rms="4.3482512235641479e-01" purity="4.2741981148719788e-01" nType="0">
          <Node pos="l" depth="2" NCoef="0" IVar="-1" Cut="0.0000000000000000e+00" cType="1" res="-3.0709123238921165e-02" rms="4.2412418127059937e-01" purity="2.6828998327255249e-01" nType="-99"/>
          <Node pos="r" depth="2" NCoef="0" IVar="-1" Cut="0.0000000000000000e+00" cType="1" res="-4.0923729538917542e-03" rms="4.3473127484321594e-01" purity="4.4668722152709961e-01" nType="-99"/>
        </Node>
      </Node>
    </BinaryTree>
    <BinaryTree type="DecisionTree" boostWeight="1.0000000000000000e+00" itree="45">
      <Node pos="s" depth="0" NCoef="0" IVar="6" Cut="2.5551788806915283e+00" cType="1" res="5.6029823608696461e-03" rms="4.3041172623634338e-01" purity="5.0523972511291504e-01" nType="0">
        <Node pos="l" depth="1" NCoef="0" IVar="10" Cut="3.0587080121040344e-01" cType="1" res="-4.6726311556994915e-03" rms="4.3115428090095520e-01" purity="4.8760128021240234e-01" nType="0">
          <Node pos="l" depth="2" NCoef="0" IVar="-1" Cut="0.0000000000000000e+00" cType="1" res="3.8064601831138134e-03" rms="4.3277132511138916e-01" purity="5.4628777503967285e-01" nType="-99"/>
          <Node pos="r" depth="2" NCoef="0" IVar="-1" Cut="0.0000000000000000e+00" cType="1" res="-1.2818309478461742e-02" rms="4.2357936501502991e-01" purity="3.4979623556137085e-01" nType="-99"/>
        </Node>
        <Node pos="r" depth="1" NCoef="0" IVar="10" Cut="2.1407182514667511e-01" cType="1" res="9.2196837067604065e-02" rms="4.1409480571746826e-01" purity="6.5388119220733643e-01" nType="0">
          <Node pos="l" depth="2" NCoef="0" IVar="-1" Cut="0.0000000000000000e+00" cType="1" res="1.0031461715698242e-02" rms="4.1426765918731689e-01" purity="5.6317704916000366e-01" nType="-99"/>
          <Node pos="r" depth="2" NCoef="0" IVar="-1" Cut="0.0000000000000000e+00" cType="1" res="3.4222573041915894e-02" rms="4.0813753008842468e-01" purity="7.3739063739776611e-01" nType="-99"/>
        </Node>
      </Node>
    </BinaryTree>
    <BinaryTree type="DecisionTree" boostWeight="1.0000000000000000e+00" itree="46">
      <Node pos="s" depth="0" NCoef="0" IVar="2" Cut="-1.8905595541000366e+00" cType="1" res="-2.1042258013039827e-03" rms="4.3145951628684998e-01" purity="4.9811795353889465e-01" nType="0">
        <Node pos="l" depth="1" NCoef="0" IVar="12" Cut="7.2310149669647217e-02" cType="1" res="4.3987412005662918e-02" rms="4.2765420675277710e-01" purity="5.8378386497497559e-01" nType="0">
          <Node pos="l" depth="2" NCoef="0" IVar="-1" Cut="0.0000000000000000e+00" cType="1" res="1.9093934446573257e-02" rms="4.1213482618331909e-01" purity="6.4099651575088501e-01" nType="-99"/>
          <Node pos="r" depth="2" NCoef="0" IVar="-1" Cut="0.0000000000000000e+00" cType="1" res="4.1487612761557102e-03" rms="4.3836501240730286e-01" purity="5.3603261709213257e-01" nType="-99"/>
        </Node>
        <Node pos="r" depth="1" NCoef="0" IVar="2" Cut="1.7472772598266602e+00" cType="1" res="-2.0950464531779289e-02" rms="4.3159031867980957e-01" purity="4.6309033036231995e-01" nType="0">
          <Node pos="l" depth="2" NCoef="0" IVar="-1" Cut="0.0000000000000000e+00" cType="1" res="-1.3391557149589062e-02" rms="4.2210987210273743e-01" purity="3.8887384533882141e-01" nType="-99"/>
          <Node pos="r" depth="2" NCoef="0" IVar="-1" Cut="0.0000000000000000e+00" cType="1" res="4.0039033629000187e-03" rms="4.3908298015594482e-01" purity="5.4704016447067261e-01" nType="-99"/>
        </Node>
      </Node>
    </BinaryTree>
    <BinaryTree type="DecisionTree" boostWeight="1.0000000000000000e+00" itree="47">
      <Node pos="s" depth="0" NCoef="0" IVar="6" Cut="3.0521261692047119e+00" cType="1" res="3.7110447883605957e-03" rms="4.3018472194671631e-01" purity="5.0528991222381592e-01" nType="0">
        <Node pos="l" depth="1" NCoef="0" IVar="4" Cut="9.9340370178222656e+01" cType="1" res="-2.4514328688383102e-03" rms="4.3066745996475220e-01" purity="4.9424040317535400e-01" nType="0">
          <Node pos="l" depth="2" NCoef="0" IVar="-1" Cut="0.0000000000000000e+00" cType="1" res="-5.3583257831633091e-03" rms="4.2760556936264038e-01" purity="4.1634738445281982e-01" nType="-99"/>
          <Node pos="r" depth="2" NCoef="0" IVar="-1" Cut="0.0000000000000000e+00" cType="1" res="6.2815952114760876e-03" rms="4.3352094292640686e-01" purity="6.0647219419479370e-01" nType="-99"/>
        </Node>
        <Node pos="r" depth="1" NCoef="0" IVar="-1" Cut="0.0000000000000000e+00" cType="1" res="2.9712598770856857e-02" rms="4.0450152754783630e-01" purity="7.1000063419342041e-01" nType="-99"/>
      </Node>
    </BinaryTree>
    <BinaryTree type="DecisionTree" boostWeight="1.0000000000000000e+00" itree="48">
      <Node pos="s" depth="0" NCoef="0" IVar="2" Cut="-2.5183677673339844e+00" cType="1" res="6.6194555256515741e-04" rms="4.3152865767478943e-01" purity="5.0525778532028198e-01" nType="0">
        <Node pos="l" depth="1" NCoef="0" IVar="19" Cut="6.7003875732421875e+02" cType="1" res="5.7813856750726700e-02" rms="4.3299275636672974e-01" purity="6.1786425113677979e-01" nType="0">
          <Node pos="l" depth="2" NCoef="0" IVar="-1" Cut="0.0000000000000000e+00" cType="1" res="2.0260702818632126e-02" rms="4.2750060558319092e-01" purity="6.0412251949310303e-01" nType="-99"/>
          <Node pos="r" depth="2" NCoef="0" IVar="-1" Cut="0.0000000000000000e+00" cType="1" res="2.0939102396368980e-03" rms="4.3890747427940369e-01" purity="6.4381885528564453e-01" nType="-99"/>
        </Node>
        <Node pos="r" depth="1" NCoef="0" IVar="2" Cut="1.9943016767501831e+00" cType="1" res="-1.1077435687184334e-02" rms="4.3028855323791504e-01" purity="4.8212769627571106e-01" nType="0">
          <Node pos="l" depth="2" NCoef="0" IVar="-1" Cut="0.0000000000000000e+00" cType="1" res="-8.2796858623623848e-03" rms="4.2763385176658630e-01" purity="4.3022447824478149e-01" nType="-99"/>
          <Node pos="r" depth="2" NCoef="0" IVar="-1" Cut="0.0000000000000000e+00" cType="1" res="7.9737184569239616e-03" rms="4.3204426765441895e-01" purity="5.8239322900772095e-01" nType="-99"/>
        </Node>
      </Node>
    </BinaryTree>
    <BinaryTree type="DecisionTree" boostWeight="1.0000000000000000e+00" itree="49">
      <Node pos="s" depth="0" NCoef="0" IVar="18" Cut="1.8804168701171875e+00" cType="1" res="-2.8498123865574598e-03" rms="4.3020871281623840e-01" purity="4.9981677532196045e-01" nType="0">
        <Node pos="l" depth="1" NCoef="0" IVar="15" Cut="8.3106140136718750e+01" cType="1" res="5.8217983692884445e-02" rms="4.4071903824806213e-01" purity="6.3712191581726074e-01" nType="0">
          <Node pos="l" depth="2" NCoef="0" IVar="-1" Cut="0.0000000000000000e+00" cType="1" res="1.6918376786634326e-03" rms="4.5050308108329773e-01" purity="5.7299339771270752e-01" nType="-99"/>
          <Node pos="r" depth="2" NCoef="0" IVar="-1" Cut="0.0000000000000000e+00" cType="1" res="2.1897971630096436e-02" rms="4.3052071332931519e-01" purity="6.8070363998413086e-01" nType="-99"/>
        </Node>
        <Node pos="r" depth="1" NCoef="0" IVar="11" Cut="2.0250904560089111e+00" cType="1" res="-1.3590777292847633e-02" rms="4.2743211984634399e-01" purity="4.7566673159599304e-01" nType="0">
          <Node pos="l" depth="2" NCoef="0" IVar="-1" Cut="0.0000000000000000e+00" cType="1" res="1.1364673264324665e-02" rms="4.3622717261314392e-01" purity="4.9981123208999634e-01" nType="-99"/>
          <Node pos="r" depth="2" NCoef="0" IVar="-1" Cut="0.0000000000000000e+00" cType="1" res="-6.3051222823560238e-03" rms="4.2471715807914734e-01" purity="4.7099623084068298e-01" nType="-99"/>
        </Node>
      </Node>
    </BinaryTree>
    <BinaryTree type="DecisionTree" boostWeight="1.0000000000000000e+00" itree="50">
      <Node pos="s" depth="0" NCoef="0" IVar="19" Cut="3.4413601684570312e+02" cType="1" res="4.1370126418769360e-03" rms="4.2838454246520996e-01" purity="5.0614953041076660e-01" nType="0">
        <Node pos="l" depth="1" NCoef="0" IVar="-1" Cut="0.0000000000000000e+00" cType="1" res="-2.5271881371736526e-02" rms="4.1953158378601074e-01" purity="2.9073113203048706e-01" nType="-99"/>
        <Node pos="r" depth="1" NCoef="0" IVar="5" Cut="-1.9916659593582153e+00" cType="1" res="1.1861842125654221e-02" rms="4.2797961831092834e-01" purity="5.2167356014251709e-01" nType="0">
          <Node pos="l" depth="2" NCoef="0" IVar="-1" Cut="0.0000000000000000e+00" cType="1" res="2.0257674157619476e-02" rms="4.1589710116386414e-01" purity="6.7960637807846069e-01" nType="-99"/>
          <Node pos="r" depth="2" NCoef="0" IVar="-1" Cut="0.0000000000000000e+00" cType="1" res="-8.4702618187293410e-04" rms="4.2920753359794617e-01" purity="4.8575997352600098e-01" nType="-99"/>
        </Node>
      </Node>
    </BinaryTree>
    <BinaryTree type="DecisionTree" boostWeight="1.0000000000000000e+00" itree="51">
      <Node pos="s" depth="0" NCoef="0" IVar="18" Cut="4.6091518402099609e+00" cType="1" res="6.3622207380831242e-03" rms="4.2983260750770569e-01" purity="5.1139730215072632e-01" nType="0">
        <Node pos="l" depth="1" NCoef="0" IVar="19" Cut="3.5950003051757812e+02" cType="1" res="1.9012207165360451e-02" rms="4.3654283881187439e-01" purity="5.3536218404769897e-01" nType="0">
          <Node pos="l" depth="2" NCoef="0" IVar="-1" Cut="0.0000000000000000e+00" cType="1" res="-1.7831055447459221e-02" rms="4.3038949370384216e-01" purity="3.2633975148200989e-01" nType="-99"/>
          <Node pos="r" depth="2" NCoef="0" IVar="-1" Cut="0.0000000000000000e+00" cType="1" res="6.4726271666586399e-03" rms="4.3618395924568176e-01" purity="5.5241554975509644e-01" nType="-99"/>
        </Node>
        <Node pos="r" depth="1" NCoef="0" IVar="9" Cut="3.0790361762046814e-01" cType="1" res="-6.1287891119718552e-02" rms="3.8501110672950745e-01" purity="3.8323697447776794e-01" nType="0">
          <Node pos="l" depth="2" NCoef="0" IVar="-1" Cut="0.0000000000000000e+00" cType="1" res="3.7626691628247499e-03" rms="4.0449151396751404e-01" purity="6.0166960954666138e-01" nType="-99"/>
          <Node pos="r" depth="2" NCoef="0" IVar="-1" Cut="0.0000000000000000e+00" cType="1" res="-2.7466772124171257e-02" rms="3.6632403731346130e-01" purity="2.5742745399475098e-01" nType="-99"/>
        </Node>
      </Node>
    </BinaryTree>
    <BinaryTree type="DecisionTree" boostWeight="1.0000000000000000e+00" itree="52">
      <Node pos="s" depth="0" NCoef="0" IVar="0" Cut="1.9699060058593750e+03" cType="1" res="-8.0478815361857414e-03" rms="4.2870011925697327e-01" purity="4.9729606509208679e-01" nType="0">
        <Node pos="l" depth="1" NCoef="0" IVar="2" Cut="1.8653841018676758e+00" cType="1" res="-1.6995869576931000e-02" rms="4.4176840782165527e-01" purity="4.4765010476112366e-01" nType="0">
          <Node pos="l" depth="2" NCoef="0" IVar="-1" Cut="0.0000000000000000e+00" cType="1" res="-8.0951424315571785e-03" rms="4.3862244486808777e-01" purity="4.1372752189636230e-01" nType="-99"/>
          <Node pos="r" depth="2" NCoef="0" IVar="-1" Cut="0.0000000000000000e+00" cType="1" res="5.7670315727591515e-03" rms="4.4670760631561279e-01" purity="5.3114879131317139e-01" nType="-99"/>
        </Node>
        <Node pos="r" depth="1" NCoef="0" IVar="2" Cut="8.5245889425277710e-01" cType="1" res="6.0415074229240417e-02" rms="3.0240276455879211e-01" purity="8.7714791297912598e-01" nType="0">
          <Node pos="l" depth="2" NCoef="0" IVar="-1" Cut="0.0000000000000000e+00" cType="1" res="3.2676175236701965e-02" rms="2.6321804523468018e-01" purity="9.0869015455245972e-01" nType="-99"/>
          <Node pos="r" depth="2" NCoef="0" IVar="-1" Cut="0.0000000000000000e+00" cType="1" res="9.5753064379096031e-03" rms="3.3704733848571777e-01" purity="8.4254854917526245e-01" nType="-99"/>
        </Node>
      </Node>
    </BinaryTree>
    <BinaryTree type="DecisionTree" boostWeight="1.0000000000000000e+00" itree="53">
      <Node pos="s" depth="0" NCoef="0" IVar="2" Cut="-1.6650831699371338e+00" cType="1" res="-6.5156575292348862e-03" rms="4.2571875452995300e-01" purity="4.9026650190353394e-01" nType="0">
        <Node pos="l" depth="1" NCoef="0" IVar="13" Cut="6.4015740156173706e-01" cType="1" res="2.8879195451736450e-02" rms="4.2263901233673096e-01" purity="5.5453300476074219e-01" nType="0">
          <Node pos="l" depth="2" NCoef="0" IVar="-1" Cut="0.0000000000000000e+00" cType="1" res="1.2040656991302967e-02" rms="4.1982161998748779e-01" purity="6.0426169633865356e-01" nType="-99"/>
          <Node pos="r" depth="2" NCoef="0" IVar="-1" Cut="0.0000000000000000e+00" cType="1" res="-1.6714628785848618e-02" rms="4.2319330573081970e-01" purity="3.0358511209487915e-01" nType="-99"/>
        </Node>
        <Node pos="r" depth="1" NCoef="0" IVar="6" Cut="8.2997035980224609e-01" cType="1" res="-2.3946139961481094e-02" rms="4.2614826560020447e-01" purity="4.5861801505088806e-01" nType="0">
          <Node pos="l" depth="2" NCoef="0" IVar="-1" Cut="0.0000000000000000e+00" cType="1" res="-1.5795581042766571e-02" rms="4.2245084047317505e-01" purity="3.9239829778671265e-01" nType="-99"/>
          <Node pos="r" depth="2" NCoef="0" IVar="-1" Cut="0.0000000000000000e+00" cType="1" res="-1.5567414811812341e-04" rms="4.2665785551071167e-01" purity="4.9837219715118408e-01" nType="-99"/>
        </Node>
      </Node>
    </BinaryTree>
    <BinaryTree type="DecisionTree" boostWeight="1.0000000000000000e+00" itree="54">
      <Node pos="s" depth="0" NCoef="0" IVar="0" Cut="2.0137344970703125e+03" cType="1" res="5.3543485701084137e-03" rms="4.2892485857009888e-01" purity="5.0659704208374023e-01" nType="0">
        <Node pos="l" depth="1" NCoef="0" IVar="11" Cut="2.5647480487823486e+00" cType="1" res="-2.4402195122092962e-03" rms="4.4268009066581726e-01" purity="4.6027332544326782e-01" nType="0">
          <Node pos="l" depth="2" NCoef="0" IVar="-1" Cut="0.0000000000000000e+00" cType="1" res="7.9864570870995522e-03" rms="4.3873390555381775e-01" purity="4.4830584526062012e-01" nType="-99"/>
          <Node pos="r" depth="2" NCoef="0" IVar="-1" Cut="0.0000000000000000e+00" cType="1" res="-3.8335670251399279e-03" rms="4.4343483448028564e-01" purity="4.6489259600639343e-01" nType="-99"/>
        </Node>
        <Node pos="r" depth="1" NCoef="0" IVar="5" Cut="-1.0028535127639771e+00" cType="1" res="7.0877045392990112e-02" rms="2.7998152375221252e-01" purity="8.9600360393524170e-01" nType="0">
          <Node pos="l" depth="2" NCoef="0" IVar="-1" Cut="0.0000000000000000e+00" cType="1" res="3.6377992480993271e-02" rms="2.3958450555801392e-01" purity="9.2581903934478760e-01" nType="-99"/>
          <Node pos="r" depth="2" NCoef="0" IVar="-1" Cut="0.0000000000000000e+00" cType="1" res="1.6637282446026802e-02" rms="3.1259363889694214e-01" purity="8.6664897203445435e-01" nType="-99"/>
        </Node>
      </Node>
    </BinaryTree>
    <BinaryTree type="DecisionTree" boostWeight="1.0000000000000000e+00" itree="55">
      <Node pos="s" depth="0" NCoef="0" IVar="10" Cut="1.4015119522809982e-03" cType="1" res="-1.1445246636867523e-02" rms="4.2846322059631348e-01" purity="4.8880618810653687e-01" nType="0">
        <Node pos="l" depth="1" NCoef="0" IVar="0" Cut="6.7488995361328125e+02" cType="1" res="-5.6839685887098312e-02" rms="4.2432644963264465e-01" purity="4.0416747331619263e-01" nType="0">
          <Node pos="l" depth="2" NCoef="0" IVar="-1" Cut="0.0000000000000000e+00" cType="1" res="-2.9674546793103218e-02" rms="3.6784133315086365e-01" purity="1.6533148288726807e-01" nType="-99"/>
          <Node pos="r" depth="2" NCoef="0" IVar="-1" Cut="0.0000000000000000e+00" cType="1" res="-8.6270151659846306e-03" rms="4.4089305400848389e-01" purity="4.8970070481300354e-01" nType="-99"/>
        </Node>
        <Node pos="r" depth="1" NCoef="0" IVar="10" Cut="2.7725273370742798e-01" cType="1" res="4.8877340741455555e-03" rms="4.2876783013343811e-01" purity="5.1925927400588989e-01" nType="0">
          <Node pos="l" depth="2" NCoef="0" IVar="-1" Cut="0.0000000000000000e+00" cType="1" res="7.8051802702248096e-03" rms="4.2620563507080078e-01" purity="6.0828202962875366e-01" nType="-99"/>
          <Node pos="r" depth="2" NCoef="0" IVar="-1" Cut="0.0000000000000000e+00" cType="1" res="-6.3603310845792294e-03" rms="4.2973420023918152e-01" purity="4.1554713249206543e-01" nType="-99"/>
        </Node>
      </Node>
    </BinaryTree>
    <BinaryTree type="DecisionTree" boostWeight="1.0000000000000000e+00" itree="56">
      <Node pos="s" depth="0" NCoef="0" IVar="1" Cut="2.8808877468109131e+00" cType="1" res="-4.9942107871174812e-03" rms="4.2902329564094543e-01" purity="4.9741166830062866e-01" nType="0">
        <Node pos="l" depth="1" NCoef="0" IVar="8" Cut="2.7669045329093933e-01" cType="1" res="-7.9561881721019745e-02" rms="4.3967133760452271e-01" purity="3.3928909897804260e-01" nType="0">
          <Node pos="l" depth="2" NCoef="0" IVar="-1" Cut="0.0000000000000000e+00" cType="1" res="-2.6091022416949272e-02" rms="4.4520884752273560e-01" purity="3.5086086392402649e-01" nType="-99"/>
          <Node pos="r" depth="2" NCoef="0" IVar="-1" Cut="0.0000000000000000e+00" cType="1" res="-9.8802456632256508e-03" rms="4.3062844872474670e-01" purity="3.2758784294128418e-01" nType="-99"/>
        </Node>
        <Node pos="r" depth="1" NCoef="0" IVar="4" Cut="6.5725830078125000e+01" cType="1" res="4.9152001738548279e-03" rms="4.2660829424858093e-01" purity="5.1842480897903442e-01" nType="0">
          <Node pos="l" depth="2" NCoef="0" IVar="-1" Cut="0.0000000000000000e+00" cType="1" res="-9.1291125863790512e-03" rms="4.1587695479393005e-01" purity="3.7261608242988586e-01" nType="-99"/>
          <Node pos="r" depth="2" NCoef="0" IVar="-1" Cut="0.0000000000000000e+00" cType="1" res="5.2950689569115639e-03" rms="4.2969429492950439e-01" purity="5.7586181163787842e-01" nType="-99"/>
        </Node>
      </Node>
    </BinaryTree>
    <BinaryTree type="DecisionTree" boostWeight="1.0000000000000000e+00" itree="57">
      <Node pos="s" depth="0" NCoef="0" IVar="12" Cut="8.7065041065216064e-02" cType="1" res="2.1976691205054522e-03" rms="4.2928785085678101e-01" purity="5.0203394889831543e-01" nType="0">
        <Node pos="l" depth="1" NCoef="0" IVar="11" Cut="3.9707419872283936e+00" cType="1" res="2.7410065755248070e-02" rms="4.2518335580825806e-01" purity="5.4793685674667358e-01" nType="0">
          <Node pos="l" depth="2" NCoef="0" IVar="-1" Cut="0.0000000000000000e+00" cType="1" res="3.9308844134211540e-03" rms="4.3032199144363403e-01" purity="5.1345479488372803e-01" nType="-99"/>
          <Node pos="r" depth="2" NCoef="0" IVar="-1" Cut="0.0000000000000000e+00" cType="1" res="2.4574482813477516e-02" rms="3.8969936966896057e-01" purity="7.3693728446960449e-01" nType="-99"/>
        </Node>
        <Node pos="r" depth="1" NCoef="0" IVar="11" Cut="2.2859034538269043e+00" cType="1" res="-2.8243595734238625e-02" rms="4.3223652243614197e-01" purity="4.4661116600036621e-01" nType="0">
          <Node pos="l" depth="2" NCoef="0" IVar="-1" Cut="0.0000000000000000e+00" cType="1" res="6.4383717253804207e-03" rms="4.3719491362571716e-01" purity="4.6026462316513062e-01" nType="-99"/>
          <Node pos="r" depth="2" NCoef="0" IVar="-1" Cut="0.0000000000000000e+00" cType="1" res="-1.0247946716845036e-02" rms="4.3002083897590637e-01" purity="4.4335252046585083e-01" nType="-99"/>
        </Node>
      </Node>
    </BinaryTree>
    <BinaryTree type="DecisionTree" boostWeight="1.0000000000000000e+00" itree="58">
      <Node pos="s" depth="0" NCoef="0" IVar="2" Cut="-2.1834952831268311e+00" cType="1" res="-3.0609839595854282e-03" rms="4.2485287785530090e-01" purity="4.9823740124702454e-01" nType="0">
        <Node pos="l" depth="1" NCoef="0" IVar="0" Cut="6.8735296630859375e+02" cType="1" res="4.2263213545084000e-02" rms="4.1982716321945190e-01" purity="6.0064393281936646e-01" nType="0">
          <Node pos="l" depth="2" NCoef="0" IVar="-1" Cut="0.0000000000000000e+00" cType="1" res="-3.6614299751818180e-03" rms="4.4437265396118164e-01" purity="3.2062491774559021e-01" nType="-99"/>
          <Node pos="r" depth="2" NCoef="0" IVar="-1" Cut="0.0000000000000000e+00" cType="1" res="1.5136880800127983e-02" rms="4.1102248430252075e-01" purity="6.8091315031051636e-01" nType="-99"/>
        </Node>
        <Node pos="r" depth="1" NCoef="0" IVar="2" Cut="1.8022363185882568e+00" cType="1" res="-1.6856808215379715e-02" rms="4.2541331052780151e-01" purity="4.6706679463386536e-01" nType="0">
          <Node pos="l" depth="2" NCoef="0" IVar="-1" Cut="0.0000000000000000e+00" cType="1" res="-1.0243825614452362e-02" rms="4.2290237545967102e-01" purity="4.0112018585205078e-01" nType="-99"/>
          <Node pos="r" depth="2" NCoef="0" IVar="-1" Cut="0.0000000000000000e+00" cType="1" res="4.1837207973003387e-03" rms="4.2664727568626404e-01" purity="5.5978119373321533e-01" nType="-99"/>
        </Node>
      </Node>
    </BinaryTree>
    <BinaryTree type="DecisionTree" boostWeight="1.0000000000000000e+00" itree="59">
      <Node pos="s" depth="0" NCoef="0" IVar="8" Cut="2.7338105440139771e-01" cType="1" res="7.6309562427923083e-04" rms="4.2851328849792480e-01" purity="5.0278711318969727e-01" nType="0">
        <Node pos="l" depth="1" NCoef="0" IVar="12" Cut="1.1534001678228378e-01" cType="1" res="2.5219976902008057e-02" rms="4.3093639612197876e-01" purity="6.0406464338302612e-01" nType="0">
          <Node pos="l" depth="2" NCoef="0" IVar="-1" Cut="0.0000000000000000e+00" cType="1" res="1.0884075425565243e-02" rms="4.2413362860679626e-01" purity="6.3974928855895996e-01" nType="-99"/>
          <Node pos="r" depth="2" NCoef="0" IVar="-1" Cut="0.0000000000000000e+00" cType="1" res="-3.9821830578148365e-03" rms="4.4400516152381897e-01" purity="5.1897650957107544e-01" nType="-99"/>
        </Node>
        <Node pos="r" depth="1" NCoef="0" IVar="6" Cut="1.8548539876937866e+00" cType="1" res="-2.8474269434809685e-02" rms="4.2375007271766663e-01" purity="3.8171330094337463e-01" nType="0">
          <Node pos="l" depth="2" NCoef="0" IVar="-1" Cut="0.0000000000000000e+00" cType="1" res="-1.2330674566328526e-02" rms="4.1253212094306946e-01" purity="3.2514640688896179e-01" nType="-99"/>
          <Node pos="r" depth="2" NCoef="0" IVar="-1" Cut="0.0000000000000000e+00" cType="1" res="4.9512046389281750e-03" rms="4.4600650668144226e-01" purity="5.1892590522766113e-01" nType="-99"/>
        </Node>
      </Node>
    </BinaryTree>
    <BinaryTree type="DecisionTree" boostWeight="1.0000000000000000e+00" itree="60">
      <Node pos="s" depth="0" NCoef="0" IVar="19" Cut="3.7362380981445312e+02" cType="1" res="5.0315127009525895e-04" rms="4.2549014091491699e-01" purity="4.9884647130966187e-01" nType="0">
        <Node pos="l" depth="1" NCoef="0" IVar="-1" Cut="0.0000000000000000e+00" cType="1" res="-1.8212741240859032e-02" rms="4.0856513381004333e-01" purity="3.1488534808158875e-01" nType="-99"/>
        <Node pos="r" depth="1" NCoef="0" IVar="10" Cut="4.0985816717147827e-01" cType="1" res="9.2691965401172638e-03" rms="4.2668896913528442e-01" purity="5.2134811878204346e-01" nType="0">
          <Node pos="l" depth="2" NCoef="0" IVar="-1" Cut="0.0000000000000000e+00" cType="1" res="5.7547958567738533e-03" rms="4.2815065383911133e-01" purity="5.6868427991867065e-01" nType="-99"/>
          <Node pos="r" depth="2" NCoef="0" IVar="-1" Cut="0.0000000000000000e+00" cType="1" res="-1.0351531207561493e-02" rms="4.1732835769653320e-01" purity="3.4582170844078064e-01" nType="-99"/>
        </Node>
      </Node>
    </BinaryTree>
    <BinaryTree type="DecisionTree" boostWeight="1.0000000000000000e+00" itree="61">
      <Node pos="s" depth="0" NCoef="0" IVar="18" Cut="3.9293618202209473e+00" cType="1" res="2.6013976894319057e-03" rms="4.3013519048690796e-01" purity="5.0871914625167847e-01" nType="0">
        <Node pos="l" depth="1" NCoef="0" IVar="5" Cut="2.7686455249786377e+00" cType="1" res="1.9779952242970467e-02" rms="4.4198444485664368e-01" purity="5.5358850955963135e-01" nType="0">
          <Node pos="l" depth="2" NCoef="0" IVar="-1" Cut="0.0000000000000000e+00" cType="1" res="2.9026695992797613e-03" rms="4.4366794824600220e-01" purity="5.4117310047149658e-01" nType="-99"/>
          <Node pos="r" depth="2" NCoef="0" IVar="-1" Cut="0.0000000000000000e+00" cType="1" res="3.0613735318183899e-02" rms="4.0799012780189514e-01" purity="7.0700293779373169e-01" nType="-99"/>
        </Node>
        <Node pos="r" depth="1" NCoef="0" IVar="6" Cut="2.4361295700073242e+00" cType="1" res="-3.7372346967458725e-02" rms="3.9835283160209656e-01" purity="4.0431007742881775e-01" nType="0">
          <Node pos="l" depth="2" NCoef="0" IVar="-1" Cut="0.0000000000000000e+00" cType="1" res="-1.6239270567893982e-02" rms="3.9734449982643127e-01" purity="3.6314782500267029e-01" nType="-99"/>
          <Node pos="r" depth="2" NCoef="0" IVar="-1" Cut="0.0000000000000000e+00" cType="1" res="1.6636006534099579e-02" rms="3.8680365681648254e-01" purity="5.8626735210418701e-01" nType="-99"/>
        </Node>
      </Node>
    </BinaryTree>
    <BinaryTree type="DecisionTree" boostWeight="1.0000000000000000e+00" itree="62">
      <Node pos="s" depth="0" NCoef="0" IVar="10" Cut="3.2911868765950203e-04" cType="1" res="-5.8237806661054492e-04" rms="4.2750549316406250e-01" purity="5.0057178735733032e-01" nType="0">
        <Node pos="l" depth="1" NCoef="0" IVar="4" Cut="8.4672370910644531e+01" cType="1" res="-4.3169051408767700e-02" rms="4.2853111028671265e-01" purity="4.1581755876541138e-01" nType="0">
          <Node pos="l" depth="2" NCoef="0" IVar="-1" Cut="0.0000000000000000e+00" cType="1" res="-1.8401233479380608e-02" rms="4.0869253873825073e-01" purity="3.0422642827033997e-01" nType="-99"/>
          <Node pos="r" depth="2" NCoef="0" IVar="-1" Cut="0.0000000000000000e+00" cType="1" res="-3.1177590135484934e-03" rms="4.4648021459579468e-01" purity="5.3338134288787842e-01" nType="-99"/>
        </Node>
        <Node pos="r" depth="1" NCoef="0" IVar="6" Cut="1.6447476148605347e+00" cType="1" res="1.3639317825436592e-02" rms="4.2621570825576782e-01" purity="5.2887523174285889e-01" nType="0">
          <Node pos="l" depth="2" NCoef="0" IVar="-1" Cut="0.0000000000000000e+00" cType="1" res="-1.7050582682713866e-03" rms="4.2872497439384460e-01" purity="4.7558763623237610e-01" nType="-99"/>
          <Node pos="r" depth="2" NCoef="0" IVar="-1" Cut="0.0000000000000000e+00" cType="1" res="1.5265369787812233e-02" rms="4.1667315363883972e-01" purity="6.5102076530456543e-01" nType="-99"/>
        </Node>
      </Node>
